{"Weights": [[-0.2359865307693586, 0.10961225205758014, 0.2371001182945956, -0.10829065079271659, -0.3136527862907386, -0.3300649797820814, -0.3420294039420852, 0.3376430567664036, 0.05127147790730846, -0.24238567341459993, -0.12040612493408691, 0.21423297549176307, -0.2504523785348414, 0.06361054199918034, -0.21100214910409315, 0.008709310160977191, 0.13188909839746987, -0.23036544970203152, -0.29973362413133775, 0.053612634113041985, 0.0704094285879198, -0.19176514347974827, 0.3549634526046991, -0.13114387246451803, 0.03898099942036216, 0.27987274044175836, 0.3139495859114467, 0.34717862050604886, -0.2740604477480898, -0.15357031618344943, -0.03241909162957328, -0.20001439713040758, -0.20954335770517657, 0.1650813549473718, 0.21801409322074458, 0.26715794294698864, 0.04148570761357418, -0.2273745934226853, -0.31988026085885435, 0.15434572145102954, 0.2956449168948492, 0.008608578024272506, -0.3651138569113224, 0.01981352944771541, -0.2756248401878439, -0.0757167522906449, -0.23107162245077986, 0.041893684755887624, -0.14830387857592459], [0.06518493686767203, -0.14629233996444826, 0.01079807572934336, -0.20658637459400764, 0.1835971142401508, 0.2710458674674279, 0.2811605722731793, -0.1504084476894753, -0.06508557971811577, -0.3082066958908453, 0.29123564439382654, -0.32324473552354344, 0.20835459600344566, -0.307811538673736, 0.18596155006206708, -0.1882537536178706, 0.11564782832152498, -0.014213089098268364, 0.1359174689002431, 0.07718224810234418, -0.22670860222509234, 0.2493524004295777, 0.3481015295204301, 0.0749500054949228, 0.2462475199012049, -0.12113758912107388, -0.0894227948788694, 0.05275286078766388, 0.2606255082888144, -0.2927077198434233, 0.33744012979000704, 0.10939645146914607, 0.33287975396396213, -0.36256277175820156, -0.3306648014732959, 0.010307600066540265, 0.11289593627664887, -0.12867206828037545, -0.35673507264129, -0.318755711432244, 0.25799783693973793, 0.02112626244080195, 0.06966973974580908, -0.14538024628635893, 0.34369700689470717, -0.09329208863731596, 0.3481938330570172, -0.25710192143101335, 0.33397673361843316], [0.11216168359721368, 0.08290238185499323, 0.015194709276532168, 0.16677293066535392, 0.24790820629763258, 0.2804474715903154, 0.14269377071022246, 0.31618592925169137, 0.0781755005525565, 0.2998069478705877, 0.15469955475243422, 0.08006918995898965, 0.20692483598817568, -0.26881742164152345, -0.19166595925284008, 0.05390120582200746, 0.17908483426912009, -0.3580317512715622, -0.03394682622035248, 0.2243928175949801, 0.1427757951176285, 0.06376027882045625, 0.060253756853332945, 0.05042588065479901, 0.2950157873872195, -0.13993657116154376, 0.12319332910329751, -0.0969636717359666, -0.13350418138843242, -0.05432340646620597, 0.3319370173360547, 0.29208385022619177, -0.27992825704284496, 0.31381424962064397, 0.14494747084287632, 0.19710397953773545, 0.015631733819212658, -0.22090849680728378, 0.3297974148204995, 0.13724062453459157, 0.04679690505086663, 0.22421246519690494, -0.30137448234518377, -0.21139419349743124, 0.021929563957501685, 0.28216166195285486, 0.2478517876078245, -0.1610242897253818, -0.0468371520821148], [-0.0734410960022383, -0.17676425239889648, 0.27512113813710826, 0.16008204316913283, -0.1168202113146497, 0.15514297085334375, -0.3518880548005671, -0.28281088609430255, -0.26158499915391564, 0.25709366048749804, 0.16316824129232188, -0.27798856314215126, -0.1591873355393388, -0.07308098720064984, 0.05528052029028579, 0.08375383953593236, -0.20956736168619056, -0.2906847064755132, -0.2011087952800118, 0.06908008585698489, -0.04883102079070018, 0.3480576980142681, -0.04546818747153247, 0.1853426330817719, 0.11627253209870268, 0.3178157909912402, 0.1584266881506478, 0.025619044454609764, -0.16939316004172175, -0.02049048217735977, -0.3563671898657277, 0.30022531317668205, -0.18842022792355703, -0.22287688006116543, -0.23148611575362876, -0.12380015088191834, 0.08550076668042489, 0.2590879605393808, -0.051639377119264605, 0.2586473983100807, -0.3146334406326844, -0.17528734165595314, 0.10016794921241576, -0.26752178381462066, -0.3446987154288963, 0.23028346618101445, -0.2824829492625852, 0.24561938877073625, -0.3507382075706798], [-0.12836993904592894, 0.17902893004957265, -0.0018741188062612075, -0.21872930843534186, 0.20200424656813482, 0.27357424624857213, 0.24380264047172426, -0.033630284065341576, -0.31768855932846746, 0.20945838343684442, 0.31853305223511785, -0.25473000402863005, 0.09863738679868576, 0.255921786969097, -0.046580725433409936, -0.04743271847524514, 0.15572883270288235, 0.1604329508239804, 0.17812965844434575, 0.01651843393812219, 0.07312369117569646, 0.17004568978486184, 0.15783813899526777, -0.13613665035785608, -0.2627882609819871, 0.2079082946225312, -0.07379580461595064, -0.2897535119891116, 0.2363060996872071, 0.08379714480358565, 0.3332080843087006, -0.3652230855510827, 0.2735317355783327, 0.21194807076703198, -0.04745155220482744, -0.2457119101472036, 0.3547281332338834, -0.3116656093095249, 0.043662948869653696, 0.016439470213985237, 0.11727518805844557, -0.16533143833145753, -0.29053413930010913, 0.016287522960978882, 0.20838286530771538, 0.27285941969238675, 0.34332566115093854, -0.15629264067305687, 0.31147363007332546], [0.29532032655865237, -0.29141988954149073, 0.06909609170252218, 0.36483364672558166, -0.2467251443141967, 0.2785732649136716, 0.2309796733079836, 0.2733434876788304, -0.23404948487032845, 0.2701177164860862, -0.029557670677551964, -0.2938170476627584, 0.26640546458607733, -0.29586457748281675, -0.08936787241101234, 0.10794793556870863, 0.27445446844339766, 0.34584164933900896, -0.22484927632608143, -0.0684627588560452, 0.044308842219074204, 0.11438314944154258, 0.1336284188598382, 0.21553778832570858, 0.29652829227759264, 0.24072815204416328, 0.13986307571418816, 0.14661533269487606, -0.06539043837139304, 0.30705907066185517, 0.09745822773202825, 0.15835964286238777, 0.06328231242218732, -0.21545804867939314, -0.33111067711227077, 0.1448189494536052, 0.02861076939238131, -0.19224846737784984, 0.1013775926918157, 0.044042750377443554, 0.259815887007632, 0.04730752581826899, 0.143212531586574, -0.054067196235473396, -0.1427616521014735, -0.3491467571678606, 0.2929987172268205, -0.24861559211652473, 0.2258065833861082], [0.26008839331639866, 0.06928492271141665, 0.22925788532515975, 0.12728415255655104, -0.0868109254212678, -0.3110855033833972, 0.21478830893499518, 0.3262703435076073, -0.18097993929947404, 0.1899913658347661, 0.2483807065801598, -0.1328239495117504, 0.058585730243412015, -0.029641792192947377, 0.2900468886460811, 0.214542204189082, -0.3547599008884498, -0.03490748897136963, 0.23212344401733162, 0.22837168571226565, 0.23627908276774479, -0.17634290777222164, 0.3104826395019489, -0.24520046868111958, 0.34054075483666085, -0.30084350808678145, -0.15344036136598965, -0.34459864017358033, 0.16240477371863088, -0.21015924835749708, 0.3346217470827542, 0.02390255252983582, -0.15832807338967583, -0.007742831039329327, -0.02430114527070147, 0.09650553931317489, -0.1581603529924433, 0.19435244585952782, 0.3087234189982193, 0.29579252086436664, -0.19998313133486081, -0.2420865077602294, -0.29360167826887595, -0.10929200955121639, 0.06838707553154741, -0.07472059399992169, -0.2972135444459395, 0.011076844875674719, -0.17629712929029998], [0.19158429779350383, 0.33718864364983436, 0.055059138393958006, 0.3387813658612271, 0.19350524100933528, -0.023851597225350966, -0.20772148677668528, 0.31621149725296027, 0.31522849732009095, -0.29442378968106486, -0.11039392153637957, 0.2808842981648795, 0.2692964889396298, -0.028371138411560155, 0.28488434303592947, 0.23998233571177802, 0.21874768908764955, 0.2980304393812235, -0.2013006206682884, -0.06460297405241897, 0.24053563110304588, -0.04952445833850809, -0.3218023916595924, 0.263535279965764, 0.03156647455063757, 0.1966716004655102, -0.11182471039462098, 0.07166050036744925, 0.009680512976788945, -0.3622281519741403, -0.34396360132605575, -0.01755444722889163, -0.24073714912792382, 0.2994697997581542, 0.08717084041233904, 0.051387992389041987, 0.23875604610212783, 0.31454031426297435, -0.18168742027824966, 0.2593436772946547, -0.20242141593674343, 0.17317002871504134, 0.21520678806369273, -0.17351154677319983, -0.29310785920077576, 0.20096149871479188, -0.24188723427591666, -0.2918595066465766, 0.12893790677237715], [-0.034402127925950314, -0.26023821041521417, -0.26860521737091425, 0.04648184711484307, -0.002284335810884925, 0.30142693958005723, 0.28267163465789485, -0.08674940901482733, -0.31516843913212184, -0.23859718334748298, -0.2872430142018104, 0.2840946146587398, 0.13522150589319323, -0.314664042586349, 0.17712589587503755, 0.11839178485349179, 0.04774736545363127, -0.06707976211807444, -0.35319419484447473, 0.3479906869240193, -0.22534768321812243, 0.14655056487998183, -0.35696167463293477, 0.19975518190944871, 0.2175020823172168, -0.1271605376939493, -0.06015277853889565, -0.35012816738934716, -0.3490238893383779, 0.1495716905763722, 0.09853452818152693, -0.2381762374909787, -0.2765279240197665, -0.17351816584063992, -0.20805917981706348, -0.0069613070322223575, -0.011743346816513775, 0.2822999955300484, 0.028877193049022545, 0.12909469507823132, 0.3186042326352791, -0.35133389832750855, -0.07340688219169891, 0.15087298922502235, 0.25581396552092917, 0.15585554423323417, -0.3130376970211492, -0.2715778750927613, 0.1788402490620425], [-0.1257057981227935, 0.3431852553077615, -0.13171610533728648, -0.1721780858672713, -0.10861042581245399, 0.15412613285683133, -0.032634503093497254, -0.006021446100861691, -0.3110363811032073, -0.047242577443894124, 0.15906622837351783, -0.2930421274095267, -0.17426499351085337, 0.18989621054542755, 0.06474080349669559, -0.2788377774367751, -0.29859237798400273, 0.08582836694844007, 0.24496942979296743, 0.13955194315169492, 0.26247288305515465, 0.0271673863021598, 0.005906498182439372, -0.07783303829772482, -0.25803827679771163, 0.2818395113098677, 0.23195999572145903, 0.07750915251067747, 0.26133384637358714, -0.1577527298369145, 0.01260970112597434, -0.3268775917464885, 0.1762045487281998, 0.21545913757284063, -0.34131172698748835, 0.20594906274767785, 0.29312181706691287, -0.2731844710477009, -0.3557064761256923, 0.26618436361067077, 0.33733147732450136, 0.1561909026732369, -0.28751362995481, 0.18310011378104418, -0.04719556432491653, 0.27868004718386025, -0.029545291367495966, -0.020199561992744468, 0.03773335771418978]], "Bias": 0.04411938223028258}