[[-8.31, 5.96, 3.96, 5.42, 9.12, 8.0, 0.35, -9.78, -3.2800000000000002, 7.59, 0.9, 3.23, 3.21, -0.36, -9.75, 0.76, 4.34, -9.59, -6.19, 7.33, -1.45, 5.21, -8.22, 2.06, -0.33999999999999997, 4.53, -7.36, 5.15, 4.02, 3.46, 0.47, 5.18, -6.04, -2.34, 0.6699999999999999, -3.46, 2.38, 7.35, 2.7043429664080274, -3.73507360827023, -1.5415679345036917, 8.86645436631923, 8.730656159997503, 4.325073499850871, 6.530261652076547, -9.058966344289216, -8.851415238902035, 1.7898908855578906, 8.54481707382, 2.012128422555876, 0.014104304785987391, -8.9, 0.6, 3.0, -5.83, -2.78, 6.47, -5.82, 2.78, 4.07, -8.17, -1.3399999999999999, 1.9, 2.548980644735031, 8.909758516881327, 1.4534199218449926, 0.2871313478593521, -9.436715208811426, 7.847660972984926, 6.254127748020179, -4.567741374279782, -3.941466120622716, 5.301893275674156, -7.197561478515581, 3.6208314373847146, -9.746457290208124, 8.052097419608955, -9.601752336617752, -4.627557605290098, 2.9910199833786386, -3.784808951251624, 3.56, -6.26, -7.86, 7.12, -10.0, -2.2, 1.11, 6.26, 6.23, -2.581804041288709, 3.2637281346702456, -10.086693551170283, 3.610157676179387, 5.402534608644191, 2.7084441939293704, 0.012536762893627266, -1.8639682629402625, -6.88968889344618, 8.489436500730408, -2.7032659952231284, 6.0147543061353135, -4.267243341144275, -5.572666955226739, -10.388629546124333, -8.924198629557177, -9.134780531122106, 5.850552843516125, 7.4849846289142326, -0.92, 1.52, -0.34, 4.64, 4.36, -7.37, 7.97, 3.3523327817470268, 0.7674779114796537, 4.826168123325489, -10.455434543776644, -5.865250365173857, 2.8704813060344896, -8.338980361695471, 7.920960446822043, -6.1258619208171545, 5.006460257130426, 8.004592619950014, 7.241699505269326, 6.319049015861805, -7.100918931519889, 2.4648899711506544, -7.887672674940465, 3.6591602320061902, -8.950326287423195, 3.944333671896227, 5.119962089989733, 3.400625736509345, 3.6682153105528865, 5.29, -10.96, 9.66, 4.29, 4.87, -2.368832812251048, 6.087849827991356, -7.262441333343608, 2.6470476030700874, 5.107130782183916, 2.3102887250471693, 7.655130252959316, 4.070191559944623, 5.313027586769058, 9.003385504556478, 1.248400151046354, -0.9830928683307611, 9.872746545480252, 0.8604142502895775, -3.852622879324911, 6.5772085451690145, 6.696966912071011, -1.9193917725451364, -10.134586440732656, -11.003696940234938, -11.63516115240827, -2.805140100530833, -4.491584703207511, -0.703886982081549, -0.22, 5.06, 7.71, -4.36, -6.071457279489075, -2.926089349015654, 5.190617547259838, -8.209728186975903, 0.7862390548955613, -5.740536725047971, 3.7299929580663083, -8.59140548872892, 1.7872254131156606, -12.083647793423804, 6.438138268627595, -1.3365405495849707, -0.9672311498509147, 7.90129868182101, -0.22774428991538712, 7.0668476930139175, 3.645588190220444, -4.270922096739392, 2.6462045708772672, -9.504367934461186, -2.501473627319841, 1.7508508726107521, -4.905947136650567, 1.6134282353702654, -7.639819442027453, -2.5809476978201475, 9.12386666997211, -1.7099991923681135, -3.3765952489148243, 4.326734558623286, -7.97884596483153, -0.8422158558423127, 5.077491200302888, 7.809505427650745, -0.848714436217386, 1.0356137651726036, -7.172542652457239, -3.4294609312857443, -8.895537689227707, 0.8780788663747712, 9.813156959176892, 0.6616035283028106, 3.7685319542620284, -4.586530958482496, 3.7818656831110466, 4.274450485494897, -7.529490134641213, 4.119807626267572, 4.897036017955529, 4.602616878785295, 7.91186855985595, -10.463762233960905, -4.546326094265489, -10.703851282630811, 6.024918726581337, -9.077741982291498, -4.490669816761405, 0.7287231874080851, -3.2632516210928433, 10.068496164725525, -7.532196683309231, -6.815251619062626, 7.711901788297688, 4.015907043093375, -9.12652132235432, -0.725686288391969, 4.546764893579061, -1.4917853301148685, 6.342757447219011, 13.605089134290761, 2.126492795534482, 3.197343094169274, -6.838498684046255, 7.047599712168897, -10.83097772970261, 3.6486262270109417, -7.789579605527586, -9.625876729492763, 1.0242986142746087, -3.9484273795575193, -0.08999999999999997, 1.6593749227143708, -5.439352861272059, 7.990305332870753, -2.0837373770226013, -7.00079645827165, 4.824944151527545, 0.5096968671375239, 6.956684170270163, 4.587728192147338, 5.476693559178526, -1.250772062672028, -11.478157524361574, -10.367564190480353, -0.27443397223429056, 0.03232076498440545, 17.959412585816796, 13.995933672761538, 15.099381232878406, 5.602804217530913, 9.458437342806386, 8.492662079009879, 6.858653954382894, -10.990097756748774, 5.610925585326608, 1.566686832621785, -0.131514038844736, -0.5380127904854918, -10.72, 5.02, -5.145769907415851, 0.25828542781681135, -5.194035057437385, 0.843255479779265, 7.587876728174835, -6.106842472535395, 0.8634892616302581, 0.7888062286956253, 0.8127610878548219, -8.533830231389198, -15.405194979197102, -6.1285172235236365, -7.711629757237918, -0.3375672865838225, 6.307454950155831, 11.018601560605616, -3.5832490342443477, 5.7460044498165335, 7.605624994493296, 7.286087516151105, 6.0905826294789, 0.3958378652900887, 1.662751661055867, -1.1240662507671317, 5.71092369794515, -0.06798099012570447, 4.77, 6.29, -5.412317915756069, 8.625905997553343, 2.740652238281464, 6.8105585571986325, -4.108927545500208, 5.358713102724285, 4.951554716394622, -4.388178503432641, -19.96457789139747, -8.262054396423833, -22.125443444654852, -22.078582082769003, -9.180065567991045, 5.308535798912872, 12.923713236936667, 12.806541545125253, 1.117940826544759, 0.3107825191299518, 4.98101837590638, -3.0063846916387647, -4.870167520969203, 3.634223692621965, 4.872442099010388, -3.725982986764177, -3.9636514540418344, 9.11237104276363, -5.48, -6.71, -0.02243706095848364, -4.2154744953131855, -1.2057686584465899, 3.9710317308439804, -10.433790283722223, -11.793513719387091, -9.99032237756903, 1.6576189757268642, -9.006643362110625, -20.60027790434658, -10.003377723097698, -14.476947820387835, -9.565788600564813, -1.2738860567976191, 2.6858647983283688, -11.513920749926863, -11.32304838215019, -2.7137282120090376, -12.473858295193681, 10.336098134830621, 1.7690933409060328, 10.233097896722652, -4.710135670158949, -5.836298575685846, -3.246945608950866, 5.415807329023539, 0.13, 5.97, 2.7496533957747933, -5.632278584454851, -1.4568414064657005, -7.410420915546566, -8.731523375106832, 1.462152960558977, -14.493051284157762, -3.970828242903529, -10.209167882235109, -13.388800940875408, -22.416874144561184, -7.739454868444147, -11.854271000516341, -14.703987321935376, -3.298471087389462, -8.001955125722034, -4.621430305619658, -14.802273615871252, -10.195321645877838, 5.480812163917043, 0.4952094237880538, 7.372308600801683, -5.022476890247679, -9.636595555374253, -2.930746744538482, -8.197016493754504, -7.84, -0.82, -5.93, 0.319448433042807, -0.054033220193899646, -0.8180885117307621, 4.622050642208248, -9.02219616538371, -0.4495674594867654, -3.1342620904657736, -1.0738219514372693, -15.95357692166619, -7.884802972110108, -17.92642101731683, -3.700466143026785, -5.658779196342045, -15.758697177485502, -18.66002388384914, -15.950825936644174, -15.346553888556159, -0.5821864075672355, 2.462174627527543, 5.9670193356944985, 5.493081672204343, -6.004972834396678, -0.6466714971047192, 2.3932075451329102, -2.787825060775701, -4.01, 4.51, -6.95, -2.57, 2.7165995216769705, 3.5742838425605283, -7.057654261781144, -0.04045155746689555, -6.565091560093708, -6.350556508701066, -16.866820649381413, -9.690292153309734, -19.755324866657332, -12.5374529726206, -10.655652192951502, 1.3521618582620605, -19.043107071676047, -19.377255952704875, -1.3457121319361596, -8.592140539789243, 6.315568082645969, -7.388813075878603, -6.609811435510006, -2.0618857630863587, -7.1739855674273185, 3.4109333393362236, -1.8377196501624353, -6.3124250475554184, 5.49, 8.34, -7.96, 0.1302089431356618, -6.0789109485473105, 9.099262486758606, -7.530423530744479, 12.451421179692636, 7.971826547626848, 0.2329169630533712, -5.30485640247786, -2.507686445722742, -1.024626512913001, -4.142636416760539, -5.736699254913224, -0.39354804417109923, 4.397691622514643, 1.380030906650435, -15.68687389629549, -4.2385680708592535, -11.60562800463151, -5.765597096749409, 12.028914339488878, 3.6268520768874875, -8.550565227536653, -0.3202682260833302, -7.2353640658213125, -0.8601617629432514, -7.33, -4.11, 1.54, 0.410902626432665, -2.590855516564806, -2.1237017506322844, 5.492338006184763, 6.0467617064116155, -0.11460300576824978, -5.7679969827204385, -4.88093774869758, -7.646766388656981, -8.052763833303608, -10.406064674080259, -6.814098012333379, 2.390969260870424, -6.766129365124065, -11.013472945861373, -2.5803845771658747, -10.635499222722384, 3.0714315164524812, 7.1740190114453775, -7.02920025883953, -6.78239113111343, 2.042732857661271, 2.6862030996168857, -9.793985883208162, -0.6167885775453863, 0.07289013037274131, 0.18000000000000005, 2.77, 7.006180329501376, 3.9164300071469986, 1.5433506109444222, -3.566439317694681, 7.956213518102239, 10.144197531852026, -1.4141917589013482, -12.976123548424107, 1.860390601473054, -12.142854986648642, 10.556459061341856, 2.3643891588568304, 5.300198256288301, -5.5022315429880635, -10.05154414575645, -2.1818246335227385, -3.561429844224693, -3.272366547396759, 8.44581569263274, 5.606498311473981, -2.4594592750382813, 0.7960850423865414, 10.505643593311476, -2.3871975611779463, 8.21899182602852, -5.444201661355895, -2.19, -4.5, 9.040115870233473, -10.061472660942854, -6.729983868447622, 12.207269770038033, 13.955141670409663, 14.028939005562412, -2.3065215421869882, -7.9269300707064705, 1.9461599192942238, 8.206382632104777, -4.686406517457603, 8.652749750619089, 10.818668226651214, -6.2723594591754, 0.8186045938335273, -8.129767372468933, 3.316760891294944, 8.811659611550459, 3.6328613136573167, -1.300171501841739, -2.054191906260115, -6.746729441367472, -8.552834369485355, 8.521595304972607, 3.8798924575270015, -4.545809121936693, -0.92, -7.45, -6.327011828011433, -8.66557127620114, -4.917579844033915, -2.966023162306165, 4.3551846532256215, 11.31783788395595, -0.5098693883125904, -5.238099896481274, -4.7652487821851235, -7.024505453431936, 10.708304851983787, -4.9683235687142515, 7.759852776785841, -10.860006032737727, 2.938312427152436, -13.841772546694507, 0.6094373057556904, -3.4935031629041635, -4.531240688009466, 8.18206148444128, -3.9792721057223512, -5.493480781588695, -5.75455176987894, 7.5588179954187495, -0.9385773719427197, -5.84, -6.85, 1.29, -6.7158560721462415, 4.176026473783259, 0.5479913096133544, 0.2581566775864274, 11.67197333569564, 0.37695898448043097, -5.695690393317256, 3.056393193867776, 12.717080481719087, 8.192432441178815, -7.264372456425594, 3.781126038246968, 8.532037347215825, -1.1783828320622198, -8.140774689795675, -1.1237794837604125, 3.3561879297731143, -0.5031739889221423, 7.280060897484343, 9.268299699125633, 9.74690260395523, 9.13541321654854, 2.30616507753198, 8.98470863236081, 1.334343941748927, 5.89, -4.33, 1.65, -10.529301671303005, -0.7984102504894697, 8.016200911600643, -7.075916852642031, 1.9208539774244244, 3.025752070344619, 9.517405417609874, 2.290200378303588, 6.8450931204357, 10.739793382142409, -2.0107582934025716, -3.3242341988379334, -10.304176869299129, -1.4963433301410298, 2.067179994434693, -9.655308097407605, -5.420380995190836, -10.500066524833883, 4.557520581914733, 5.802783732192318, 10.914579794281387, -2.502247205196955, 7.860689191280858, -7.028861900180849, -8.318887445949327, -9.19, -4.54, -6.46, 4.160967102869899, -6.401983112644281, 6.880093261659862, -7.465014889122911, 2.011192827908118, -10.63542202965851, -7.76357953346883, -2.4715152782017538, -8.228587794906563, -7.4801771435687465, 3.5460339373830907, 1.1761607717732079, -2.2019243167477747, -14.62902104446502, 3.795918400685195, -2.0245144118099256, 0.9681772914517299, 8.09280179434846, 6.7143599794656605, -7.956244594731867, -5.554398313356429, 3.723323229264194, -3.092193016607103, -3.44, 5.57, -0.03, -5.75, -8.3, -4.93, -1.4899519762468412, -0.5662481986041543, 3.3693064049154673, -9.59786600005894, -7.0904706034759615, 8.358893373970698, -5.37139285590368, 3.129795249064262, -5.941855510915909, -3.1975413599736324, -3.397749542066707, -13.979119703454451, -1.7681801954564782, 4.234886529470012, -4.634547181409239, 4.511030224411671, 6.541650336058641, 2.8509159337250445, -2.734751597388269, -8.226393211138626, 3.5520464573790305, 7.884985947901993, 8.39, -8.29, -4.71, 1.69, -7.82, 8.95, 3.6256166174516253, -8.093793329143232, -3.6818527234720286, 7.260114818163305, 8.75633136044976, 8.773398893023534, 1.467195128259312, -4.000381179164627, -3.365221421561141, 3.6686434949761346, -5.060832885967026, -10.335450743719738, -7.501624961874178, -8.647948203600048, -7.558906411446354, 2.20319303352622, -3.4314164785873547, -8.030300085864178, -7.808402740064407, 2.2287048906412568, 2.888346870744761, -9.697623040998302, -2.83, -3.32, -4.6, -9.18, -7.79, 2.32, -0.6732796343395789, -10.524736138108649, 3.8419878624188697, 8.057293961545781, 9.085693463440835, -10.64580668068304, -7.891336603414172, 1.2079722788789982, 1.6393258353490219, -1.286629781803187, -2.0782043097151837, -8.000860073020412, -3.1642347083128324, -5.604142371731455, 2.712197670521059, 9.728005868599597, 5.435425884272511, 2.7025722154936864, -2.3665788545968733, 3.1586270867702844, -2.24, -4.1899999999999995, 9.63, -7.61, -1.56, 3.57, -7.53, -7.41, -5.54, -2.35, -4.922157597559943, -4.323202995148885, -7.382563738534039, -6.5247887834258815, 7.489312815117118, 0.2434820930173591, 9.458321844216751, 8.04577164211537, 6.335873878715298, -1.445913924792493, 3.981360215392333, 5.029058942051841, 10.10754145757535, -2.0762583222903945, 5.877107019443684, -3.1175425747415075, -3.0377155738071053, -9.031068931722258, 3.92, -2.69, -2.44, -9.84, 2.25], [-2.5, 9.82, 5.77, 7.68, 1.8, -0.78, 2.82, -5.33, -7.26, -4.96, 9.23, -0.010000000000000009, -2.98, 4.17, 6.97, 8.37, -8.1, 4.52, -9.85, -7.35, 4.45, -6.28, -7.94, 4.01, 0.56, -8.62, -8.58, -2.2199999999999998, 4.67, -4.13, 1.75, 0.06999999999999995, -2.79, 1.45, -10.63, -6.79, -9.79, -3.08, -4.3648792392179185, 3.389748716848904, 3.1556094039020537, 0.8057272706518055, 4.796465059531588, -9.551265811803637, -4.598145276504929, 2.416056276404191, -4.17076032355928, 7.02343241348845, 5.9516803784012495, -9.593822119751074, -8.386926201155436, -1.98, -8.38, 1.62, -7.0600000000000005, -7.9399999999999995, 8.66, 5.43, -5.8100000000000005, 0.6699999999999999, -8.73, -6.55, -7.49, 6.9779364045870365, 1.0690228910854225, 3.306572758431515, -5.634394278808513, 8.595652133688233, 7.136487259596067, -2.4104213837030177, -4.267145777635034, 4.912454618250298, 4.529689932396437, 6.614464479738965, 7.239056924187021, -3.2232582868432433, -5.501842607164662, 1.766438756912452, -3.895234097793284, -6.996516290521019, -7.584623343218803, -2.06, 6.17, -1.63, -2.35, -1.2, 5.9, -3.19, -4.64, -8.06, 2.1939030489276123, -9.227520748652568, 4.275999698369186, -5.462996883432074, -2.0578003695593785, -9.357201278039527, -6.912093701479569, 5.11801751511399, 7.432620685878903, -7.92248318609422, -12.141246614431445, 6.284602228931218, -8.419008810375413, 2.298816848357623, -9.290810015182215, 4.483876268575377, 8.866846062209696, 2.0728639108692826, 4.323955952082562, -9.26, 5.8, 8.85, 6.38, -7.4, -4.88, 8.57, -9.573420952086014, 0.8191314427842344, -7.8403370829301435, 5.710694288170259, 6.750862470324361, 1.88831765602916, 2.6442916962588843, 0.47823767802035255, 4.668182779849585, -8.827864302916268, 0.39887700801767406, 1.2662958582658774, 6.0773440761057795, -4.464280270284438, 11.460469539907047, 1.1721970284659073, 10.501627494063666, 10.034248595347977, 4.057792911305394, 10.24740371476972, -6.143932315025958, 2.791793012744181, 5.07, 6.68, 1.12, -3.86, 7.83, -3.1813729269434394, -8.321550478530597, -7.077125919707144, 5.860683220356509, -7.656573142410912, 1.5715275625200529, 0.30868123870704106, 4.292168841627176, 3.196819066547517, -1.1392361917524172, 14.71173232986341, -2.037866128820253, 9.287445060201815, 7.007871402368818, 12.334652489490876, 11.05178370990172, 5.563225591092528, 16.172366878628676, 9.855862890250107, 10.969239977823673, 6.310390533048864, -4.685141241605578, 5.944618516805278, -2.865038905198107, -2.02, -7.18, 2.52, 5.44, -9.749443315864255, 8.504891607430539, -9.015688938087603, -9.036857476778852, 1.5826272285790364, 3.6023372515909773, 9.87494861339517, 2.4684597738143728, -0.36774918737844486, 12.846535675483727, 14.053297100487535, 15.087865431529409, 6.473938711926174, 9.18333763998766, 13.591777972547126, 6.879167517964863, 16.35771570814389, 19.003060505501697, -0.1017114066008632, 1.0298730794238096, 10.115885681428411, -2.451076210196376, -4.091097878944771, -7.112783965619381, 5.319515639712859, 2.435286067758343, 4.093920068053267, 3.337339837322983, 3.2765852348828797, 0.9209099141061965, 2.2353518817190783, -7.838604537683, 4.229659109236042, -8.25337824577575, -1.4145124482953992, -7.725452681489597, 2.9304050343917227, -4.948052925909597, -7.228197744511347, -0.8043356119479531, 2.9486918763040064, -5.226492988927298, -4.470506387745898, 6.151530108203212, 8.22574820028781, 17.662879657274924, 9.688085427747733, 12.91913579262248, 5.956215712567965, 10.675589975350347, -9.051476766507964, 6.324986981580316, 5.072239498702807, -5.29915661825865, -11.005274700529736, -2.270320140992963, 3.889928296362893, 3.322734615665446, -5.561016270533336, 5.155311314031211, -8.952508272569125, -9.796922621225194, 1.0099972253886431, -6.3550180308809585, -7.889953310854058, -0.4749982818442601, -7.471137264369143, -3.093046750077871, -13.189863157411521, -14.770402340204186, -8.913387361605455, -8.194880902388466, -1.7289800113914526, 9.671851490030482, -1.1610330955582917, 1.2791383124939437, 9.46066484792915, -6.7032317951132505, -0.7710791181784444, 0.42488468882398656, 8.52, 7.96689081064912, -9.350861277836874, -4.303556384224805, 5.58457748112416, -7.651039313275482, 0.12092658596233136, -9.428025356214107, -7.395125127179327, -3.831631469250075, -8.329332897233334, -12.970154754712667, -0.553530315021364, -1.0920608502360918, -2.7210920075438256, -15.514345307538715, -5.259030569655674, -6.077490956037144, -12.732729607665991, -5.894751949755126, -7.820548619509787, 2.980601681533204, -1.0659726090921873, 9.002447422727972, -2.8568272210002084, 8.781043813554252, -0.422887944841625, -2.9655129577831016, 0.21, -2.62, -5.248820365126188, 8.868826870986675, 1.4613250427023654, 4.054001103735062, -8.474746363938563, -1.6446766790821725, -13.005044894798836, -11.22672252357141, 7.848349206851955, 4.131831593689002, -1.5147349801256287, 9.504617753599787, -1.754719800582611, 0.8054847106633756, -11.214443694409269, 3.406910314748651, -9.415637901729928, -6.865967681538293, 6.403177280440903, 8.606408108858256, 4.513022398310248, -5.744032758974802, -6.997395445469769, -9.210849669237886, -1.368380073196489, 4.127602402612165, 8.04, -0.65, -10.806214300699558, -3.459667389903145, -1.310052502999969, -8.863610268522903, -3.1436814603609533, -7.997389223389428, -10.09567081475221, -8.820055084577945, 1.678404165153409, -2.503657775774109, 6.510119018813771, 6.540649526384352, -5.118428219165258, -1.5074863553774016, -3.326375271050221, 6.333804558292986, 0.14141440018877446, -3.0649577849977465, 5.867935674635948, 6.8376237474611745, -6.271274511132045, -1.14967946371541, -8.488581688535373, 3.29815711624251, 4.007564536123338, -4.983386038368911, 8.97, -4.41, -6.317047746062619, -1.4218624098483041, -3.8935801596226742, 8.019304929544703, 8.02204731317731, -2.921120692320938, -1.0790179623653302, -1.909065183715848, 8.745988474536217, 13.801783323620478, 15.336144769180768, 1.9185975307157763, 13.121181952067719, 3.5429959239211612, 0.8276765970433707, -10.798188858491264, -10.20029707777219, -6.797621598939674, -13.54278094158867, -11.172388035839846, -7.917599504694775, -0.008061267725148383, -8.263007298126066, -4.338826733283276, -7.011944168183158, 6.577024033927089, 3.29, 8.67, -3.962424568328906, 6.278851352125854, 6.213995766291607, 8.042742303773306, -9.734929925310437, -4.630675797475368, 8.600039726841686, -7.601035911704035, 6.265669561171672, 10.977890085128214, 11.832038544128094, 19.554429972361554, 10.308354674617638, 13.779749919119984, -2.4081795902520096, 3.930875790073188, -0.9619957553210465, -3.403026709311951, -12.850250507755176, 1.1115855300824493, 4.030846899022703, -8.524035870517357, 9.353776511473509, 1.6532624642562819, 5.220513688394371, -6.411095487407273, -7.7, 1.72, 2.08, 5.218113337875368, 9.90234912181871, -8.183683414487133, 1.2304059035861379, 1.5038719121202593, 1.8573109370030785, 1.0320872921514996, 3.2096808859329498, 12.017563275123129, 7.464969479609267, 15.005777937396216, 10.259852716128863, -3.710987166610054, 8.196427486485991, -6.92459896548799, -5.021283531879696, -1.9948631634900602, -2.0277166182763318, 9.414262996019671, -2.5525837479511058, 10.48398740393979, 3.7634715035574775, -1.2489206640591124, -11.020329794030548, -1.8614165001846437, -6.56, -2.86, 9.6, -8.1, 10.147698678140147, -8.07001599351782, 2.63231148838408, -6.706487052646367, -0.05455597099780274, 11.172953927907276, -4.325961418383156, 3.2094396705382837, -0.0792553431403078, -0.28150016143443224, 1.6595988551281002, 11.165194920461808, -1.3342042585422027, -10.377641456932984, 1.8486818056192542, -6.32275823039188, 9.050698086960995, 2.3046926105378844, 7.39700330568797, 1.9877055991318848, 7.845712672696309, 8.241641394072468, 5.335155341717257, 0.9297885127397069, 4.03, 5.1, -10.24, -6.502780871005004, 8.382676835572019, 8.779088730446349, 6.836178121285871, -0.47435158863959753, 10.674017527221219, 1.3904003901444888, 1.1700053902284524, 5.682755513275411, 13.902025523364864, 3.628145159927777, -1.4756046570492596, -2.5433990298207916, -5.34106648440288, -13.026099493888045, -6.13696648823612, 4.555150693530865, 8.184208096434412, 10.638600177351128, -4.495749599539526, 4.803442208429117, -8.989768592714254, -8.535304724342714, 4.997592573009139, 4.393066313623725, -6.72, -7.65, 9.79, -1.6336945010656514, 2.5346515551044266, -6.041980018398274, -1.0827839981491854, 4.366542807828607, 12.056163263393717, 7.705054165729217, 5.437626795350249, -3.1982881271551302, 4.740959897417067, -0.00649634138063504, -2.0786793344992316, -7.19783144264635, 2.7682530138435246, -0.004619493472416081, 4.382754725928041, -7.250128226488612, 0.3983114837124242, 1.5689174245541722, 7.207508694638187, -2.9825476761503618, 7.404224110883, 2.74394475256099, 2.8275162890671117, -9.309983349291347, -1.1327592901103285, -0.71, 7.68, -8.78452888453546, 4.808509793152917, -8.245372021718515, 11.828335023435294, 6.217768615930042, -0.2996565825428191, 13.228524866100155, 14.484356214447317, -0.7379111165470378, -4.9885051178724495, -8.722298597976556, 3.2824926838273374, -6.715735718508074, -13.565158487346842, -10.263939351026448, 7.050604603273895, -5.69941050933998, 9.723997056265425, 5.876056656769084, -9.319958607628092, -7.015896690399065, 3.723826609544263, 7.627581667640962, 2.7719016728464556, 6.011346360862326, -4.712344744861676, 6.14, -7.26, 5.4641397578436735, -9.415719781103364, -0.538327152221233, 9.77896769745588, -0.9219827578247135, 2.276098348360093, -2.2653051260066484, 4.529306241962367, 2.4897542093346194, 0.6906165012136081, -10.892615417154927, 3.0901394301405216, -5.836273308564052, -0.8041480229185809, 11.144391035110488, -7.1548357739793, -5.001801421937287, 7.077322109860903, 4.620795324296175, -3.6267456734986805, -2.857701093463258, -4.746045144001174, 8.22532715377383, 4.559566160572479, -8.230409481206275, -2.041765936626467, 0.94, 0.88, -1.4264943588854742, 6.138886044303282, 6.902033758922029, 7.198702481367948, -0.9169706870409812, -1.224018156952148, 18.69247195054604, 5.111289452205604, -4.544110651954787, 2.496881529574363, 4.809767233835646, 2.055779887389261, -10.936723870682084, -0.851342227371874, -4.516834932317273, -5.924385128754619, 0.3200979952355612, 3.348119302550424, 2.6385797232012793, 0.6306933164414705, -7.891145074187734, 6.5721501633443795, 7.22625818263712, 7.91128035851913, 2.6237620004273983, -2.9, 1.51, 7.21, -1.8835534821044926, -7.054831377099045, 4.400339093995683, -1.7396637557490058, 9.67113400608871, -2.676585095473952, 12.331230499924686, 0.49985010937377006, -0.5118374254115104, 10.191895701140018, -10.791540311351964, 4.053415623069627, 7.083728896455002, 4.338045858309923, 14.413566537850292, 15.787173462144207, 14.879033920240149, -0.6456314131466818, 1.8412980650265025, -0.674790612750533, 1.6585185853627564, -1.1432699779720883, -8.98727343431148, -2.1171091403515274, -2.0830252178883035, 7.78, -5.4, -2.69, 3.375491961642977, 8.276433578893414, -7.046195074049587, 9.333541211327345, -1.659101606843733, 4.527333037368876, 3.228219192846099, 9.24734281825334, 16.745278344904754, 1.846493315108476, 11.728093498257213, -0.5348255583977051, 15.112405315324688, 4.791645335792521, -3.5298411489994184, 4.59691686215411, 2.0651429726880957, 11.341679751943028, 8.09559230517891, 9.242019361769048, 8.799338027408131, 1.7498960489903617, 2.8279597502782328, -5.446102400446394, -1.277198548879922, -10.67, -6.14, 8.09, -0.8287738669058177, -8.348582310618388, -10.00306140040854, 0.9048326648415712, -6.1698086129851335, -1.1517636077424551, 0.6488455507411439, 6.369263908534524, -5.5505708958680255, 7.648734049860269, 13.429266285941814, -3.879612549273391, 10.434122835599384, 12.98387930654747, 13.498219178385629, 7.936369443415589, -4.786343065916767, 7.596671300248867, 4.15233306616638, -1.8255673930990708, -5.635499495075528, -2.5286980593687156, -7.479170041856482, -5.72, -0.44, -0.4, -6.64, 9.43, 9.91, 2.2329911172700627, -4.40795918074079, 0.042577328531667714, -4.935552784218522, 6.937121857428423, 5.759139603229969, 5.211773704457057, 2.2545556341281014, -10.49322829696584, 6.1041310927277745, -2.156617760343891, -9.320979644698072, -7.128802658042925, -5.34102436583893, 0.2814969872234558, -7.734203951871914, 0.16427283735881182, -9.421480928180626, 7.041694717489194, -0.3079354965309632, 3.5953328498336545, 2.6426936599125166, 0.89, -1.57, -9.72, 1.75, -4.91, -1.48, 7.553095844783468, 8.238889568516782, 2.3726670516982744, 6.25049823231526, -5.242014795040288, -0.8837816990600128, 1.2537659038108089, -11.277044475519949, -11.157438183827535, -8.60152507543638, 3.2329651006600435, 3.47330523133123, -10.342593651655795, -6.306541081078186, -2.837082024174006, -1.086945491183991, -1.715486089769814, -3.6133128198696656, -9.347269451816864, -9.708756740360055, 7.8395853851541855, 3.638459159270615, -0.13, 9.1, -5.0600000000000005, -7.26, -7.04, 9.57, 8.278958537735955, 6.500863789852954, -9.301562918437705, -0.6449317441529072, -4.674613626085632, 5.9406921914809265, -0.9119587804020921, -10.9074015759591, -7.8054270581883545, -5.432395236564387, 3.975758043095977, -1.4606804010928247, -3.787767623455498, -4.064154080252117, -3.8208991218571695, -6.357718065179645, 6.9323304680376765, 5.560754052558772, 0.8916746693428363, 8.416173643120656, 5.39, -1.65, 3.55, 1.4300000000000002, 2.4, 0.4, 9.96, 3.05, -0.44999999999999996, -10.28, -7.758587144369112, 1.566685240805856, -1.1418215177009847, -3.468042096917732, -7.386803921403735, 6.222509948495652, 6.6928993697949375, 9.481915279429384, 4.791266617314458, -6.39500813878095, -4.937209687051136, 4.75607310227804, -5.52167118907151, 8.513697445952937, 5.891370907749737, -1.4834134017553928, -4.069546254270492, 3.377880301684076, 3.73, 7.03, 6.32, -1.68, 8.54], [4.79, -4.71, 5.05, 7.25, -3.23, 1.25, -3.19, 1.21, 9.17, 1.0, 0.33, 4.58, 5.0, 5.3, 2.84, 1.74, 5.0600000000000005, 9.97, 6.82, 0.52, -1.29, -8.44, -10.93, -5.92, 2.4699999999999998, 1.13, 8.69, -8.52, -2.78, -7.53, -8.14, 6.15, -8.12, 6.77, -4.53, -0.19999999999999996, -0.020000000000000018, -7.58, -8.763062420078667, 9.111012995512265, 5.306957519746901, 1.8615010778026067, -4.152428278544486, -1.904982124021117, 3.416959493355176, 0.11638418968991958, 6.501779026759181, 9.724375808609624, 8.2006541332523, 3.658354484017117, -2.598841557001309, 1.71, -3.79, 7.79, -1.88, -5.98, 6.27, -7.08, -5.78, 4.99, 9.21, 8.93, 7.23, 5.197115868863953, 1.4827293960127854, -8.067255824372888, -3.708536122184598, -0.23040334466324466, 0.05045015483758393, -7.792265377969412, 2.5767097168650173, -10.171802752537907, -2.560872772024303, -7.712133805824241, -6.638093661763171, 0.3417427414644632, -8.997225795106305, 8.242143748102384, 9.294235966138325, 8.494143275188756, 0.6176859288752176, 4.61, 5.55, -7.15, 6.78, 9.75, 8.33, 6.77, 6.4399999999999995, -4.49, 9.163780629761103, -3.4711837769700407, -1.0330344116736234, -4.09554948867804, -9.548767777814422, -11.282718326885744, 2.1975281628400443, -11.93289595072152, 2.5257912962190434, 3.215395834082436, 5.645660247812681, -11.972525326080158, -7.422976499061567, -4.339308705380168, -9.44885600653337, 3.2760898642065137, 0.6816037454172658, -2.435432451524338, -2.1983235493057403, -3.52, -0.84, -9.57, -6.75, -3.66, 4.23, -6.66, 9.134700627910128, 2.592034177436814, -1.9794727827375342, 0.8956072288776324, -1.7378998072610523, 1.4657377118116186, 6.492122195973659, -10.132269287391166, -7.098560772146583, -13.501591194149707, -0.7797357894277847, -9.220255143369437, -1.0463243556339499, 4.922176015595385, -6.674847617924952, -7.776482695994377, -8.607769399938189, 1.322596638453946, -3.0382481992406087, -11.035990966154067, 1.1039235989468739, -4.539263103316689, -2.81, -0.92, -1.18, -10.6, 1.78, -2.6055790751128516, 4.333783630301411, -7.34300244818127, 9.090091163362088, 5.257781636753608, 3.5395082531191306, 3.9366826730920605, -5.098563677964309, -7.063043199869892, -6.702862710333461, -7.5058829354776275, -14.334163018709383, -4.262299589217086, -0.2614683178292501, -0.27769751050921326, -3.8530192315282443, 5.351780468246221, -1.6575193790404532, -3.668599590295526, 1.0047302315516893, 5.8057815104553185, -6.762987896668462, -1.7209340568005127, 2.0559672131367672, -3.4, -7.89, -2.45, -0.86, 2.2683510363907433, -4.367280850659494, -10.531586682766195, 6.07322747128397, 1.830075155680003, 7.246647343125733, -1.1224681296371533, -13.130064345702921, -2.3900887869923646, -7.118075806023874, -15.339777136551017, -20.244796614773982, -11.553710755159383, -17.495415699504473, -0.5409556101091377, -1.1570313169496589, -5.664970224782189, -1.1992061345389575, -11.53769472862812, -3.1545159925998605, -9.534074415416182, -7.051845011706894, -4.632733234995745, -5.029145439761741, 1.7579155979854941, -7.204184988375782, 8.264901158900024, -8.54038361943564, -2.093391739164274, 4.647134445978915, 2.744078436117177, -10.203772473350288, -3.854824123979062, -9.463970164612098, 6.973555043147661, -7.519782446232234, -5.413054599908958, 0.6879900356212139, -14.984837514405408, -3.2062119551683836, -9.470463543637539, -1.616068253198477, -3.0943766620336497, 12.534647188508055, 4.858052165229591, -2.7400485541362243, 1.3669260994094945, 0.5984388658422443, -11.541960760077256, -0.19470420024182905, 8.787274236241721, -10.981021236108242, 0.4584735413814123, -4.496368782548388, -3.1688216398020623, 4.543962191884349, -6.662479425269516, 4.8096350100504, -1.6004483549673234, -1.5735667564805935, 1.5841246950781862, -5.215077725500691, -7.56420934418487, 8.704049296336942, -1.239388601790162, -8.59128092566447, 3.515258994656156, 7.398859394218156, 10.358763442166884, 2.620673446152047, 1.9548161176681154, 20.408929197736462, -0.4578803227044077, 11.36920333739357, 0.1977689510738025, 2.338076565778514, -7.455469744494609, 7.948261925538336, 3.6196578348912833, 1.2469176351049873, 7.21, -5.886164566801047, 8.361133480345964, -5.63017527632163, 5.203959484862254, 5.476929918701549, -8.417014286522054, 4.696294495416813, 12.09128667329465, 2.0894803031251175, 9.84307427413554, -2.947732621663631, -5.187179241851139, 6.48885277844035, -3.661454598558379, 3.6095837578417913, 12.992779205575978, 19.364651933505105, 12.782913443164116, 12.275001599307487, 18.297830937339302, 7.799211676450498, 7.615196455862652, -5.277146407055438, -3.1117528141718602, 8.866958686360716, 5.8119079145338866, -9.531081307098088, 3.54, 5.32, 4.708479172547854, 2.13579232981237, -8.628914971020938, -9.69224146370956, 2.860770498848406, 9.659689002468584, 5.01722631401438, -2.710909710339427, 2.4117724437041566, 2.530606764220012, 1.288519891770946, 8.92035252086661, 2.0511457131937183, 11.098723282150996, 7.36145579744076, 16.842934168715413, 14.775770323986077, 7.832607048151699, 14.724191384278281, -3.813312069346905, 11.539441479785465, 8.554888856056527, 1.7179174020973442, 7.588816452632982, -8.97312827760635, -0.833556219715798, -4.56, -6.37, -5.295821995576382, -5.403514040352942, 6.1193389202236785, 1.4818352853306105, 5.798380406085081, 7.350438428872478, 12.229987250304728, 12.69126646862087, 12.817137421343773, -4.5389518143324565, -12.378222071065462, -10.147924763183738, -1.184324472107094, -2.0903008041343236, -2.698126334335922, 15.364854229153813, -0.13223906058856652, 11.25697325638923, 3.9971041239206815, 8.755242042451336, 6.836496916160987, -1.1405790571555228, -2.6410666387575676, 6.268882740296575, 5.822350694119751, -9.273418413071619, 4.55, -7.26, 0.8749067803519351, -9.604291535373664, 4.20072641589585, -3.7327097788054293, -5.792978221757945, 12.32350104402828, 8.535924219248292, 5.951350830154432, 2.228746328291903, 3.524829562138203, -9.910686762718557, -12.702070715345824, -0.19633408747281877, -0.7617752261084836, 7.288747451431621, 7.328120174788853, -1.5702498548396155, -1.4816637914567297, -3.8136348162416054, 4.125072802921986, -1.7235704844917454, 3.5079965095873833, 5.853508581359368, 7.723778082025543, 5.609389289977975, -5.488669979084746, -3.0, 4.08, 3.5021200754278308, -9.957337206261098, -6.093231777020523, 2.63705483109785, 9.141596487269224, 9.814972584178495, 0.815440521100129, 12.645163378899491, -7.513104155191714, -14.517726365357289, -17.771012947689922, -7.52140013460099, -14.738586587575954, -7.5545521959874495, -15.46150977526648, -10.82751241364246, -18.313544558014296, -5.907910177056672, 0.34814003856576303, -0.12358963693489261, 8.57963226662729, -4.339494566575674, -2.215190665614858, 5.671190140927297, -9.370563274571337, -3.8021583790849416, 4.77, -2.02, -0.5, -7.527675932412073, 0.5251325904098434, -3.1048354404522676, -0.7361328260590916, 12.89556392111917, 12.650762078836113, 2.8602825114850816, -0.5603721156586412, -15.643591200061358, -12.13708925082756, -18.54422659708671, -8.04292195126034, -20.316946185984758, -1.3410134486100769, -4.766053186897105, -1.1811628200431306, -13.5836884406572, -3.2487113597650645, 2.031881604106795, -6.343608882410558, -1.5332366110410034, 2.828033328609781, 2.744636427326502, -7.165953676654172, -0.048905602283741544, 2.71, 3.23, -1.27, -8.05, -2.878464246447841, 1.6098129799394534, -4.233350084012281, 12.03732067245056, -0.8189776120302388, 8.410502863359643, 2.03293760277055, -12.988976626383888, -14.313601314740303, -17.90038085426849, -5.221433597766318, -4.86824663375507, -17.504607883812913, -18.8138140407767, -3.3685440058233636, -9.55525077719697, -8.487788206923701, -1.1088235000983286, -9.018614793533887, 5.05763136200745, -4.7795897473052635, -8.895882058631758, -1.2540914824423974, 2.51504878206424, -9.08, -9.06, 7.97, 2.8440779237652154, 5.38439709503409, 7.9048967357257185, -4.319354346491773, 7.591900911719059, 1.250137254910852, 8.038853297166636, -9.598320347800922, 0.12178543655748111, -19.0138187133102, -11.10030783343829, -13.41937471255791, -13.080824249380091, 2.7073734193994325, -6.232002666725353, -13.938352664907837, -1.8659591055723923, 0.03495876660430757, -5.347676074560287, -8.501123990478199, -5.683293070161625, 8.820928218090732, -6.480199499475603, -0.9123150575625513, -0.5978848910190191, -6.39, 3.9, -8.19, -7.812378309624413, 3.095299328430547, -6.016836064757896, 6.102383524366337, 8.930521083926116, -7.9114241372930065, -4.850567112631637, -11.960074706959926, -15.600312155733906, -10.08772847974711, 4.210801650626262, -10.666611331911902, 2.8385145206188933, -6.948102952363934, -12.753820352796396, -5.8710765829217575, -16.935367896050057, -10.248987464555237, -3.9993039746864203, -4.85190543646928, 8.444879837025827, 0.7021374338854437, -4.862823881033251, 9.317052944191797, 7.0366840162849495, 5.292992872454951, -3.44, -5.12, -5.766705494783142, -5.848995338344861, 3.9083156254066624, 4.5797284883753635, 1.3971763602185279, -9.026654396568064, -6.5843356936693995, -2.0410870008081905, -13.13597146713144, -15.385340527672996, -5.398526184882453, -5.517214621105169, 4.570453460279285, -4.240441301136413, 0.2110839877157154, -9.515261786534461, -17.4966701461201, -13.624014167644047, 3.6197166723186287, 1.4642922447805713, -10.100131135468084, 3.8160195529793515, -1.6311053789549628, -3.2753532799701284, 0.9977397260347728, 1.3550974269856038, 5.89, -5.4, 4.7690172182504975, -10.396305068937485, -5.750263871817382, -3.9469416943940083, -1.7240258222583278, -7.081374365120317, -13.618880434392409, -17.276868824088254, -12.534402214198181, -9.783535540982195, -2.18131556926935, 9.200814460073055, -3.050714729674021, 4.834142381370123, -13.819114861430613, -10.136736119498314, -11.582224817965091, -5.068198190225528, -6.667405167474629, 6.027951804943372, -2.769172820638003, -2.601130912053998, 5.73997330368851, -8.381563861755316, -4.719297640628293, -5.303270361491368, -4.88, 3.86, -0.6185878427588674, 3.528749904232199, -2.045698095888614, -3.433022931905774, -7.1913460433656455, -7.617844200678977, -9.73179699405174, -18.030970132461473, -12.31932281884567, -0.9149175550654861, -8.125010530236473, 10.032798370203233, 11.057572644169916, -15.42147896669131, -4.1503269369345555, -7.631127915421288, -15.255017435940717, -0.11313142287384181, -7.2867381314986766, 0.4863353085169565, -11.828535483796822, -6.391577675762697, -9.869957458018247, 4.465609626578147, 7.09504076954198, 8.68, 7.9, -6.14, -1.3083419877276534, -5.507219257687264, 0.4485661729398698, -5.790780757291083, 1.997340058313609, -7.845520606874806, -5.1370570570865155, -5.406065432425196, -4.299615663270152, -0.34146588360083907, 5.42809478294714, -7.961157273397541, -8.709088553736606, -0.8478743791491484, -15.68336634597822, -10.315847276200639, 2.3134263173343887, -13.199784716541402, -1.3979458837746717, -10.99548413215851, -10.953125402504511, -3.5333106668491054, -3.5154474621715694, 3.6816017914389834, -2.5112522213836397, 8.25, -3.58, 6.69, 7.6412510101201185, -8.413300450575681, -6.5025804828905445, -5.690982982846637, -4.973443214247728, -8.39799933068652, 3.6982379944626436, -10.562266505187903, 6.06737078192503, -2.8904811102707635, -8.267355573748244, -2.8317533867005245, -4.014330009715082, 5.441771534682301, -8.119713995219016, 0.38072966594254454, 6.144469975886962, 3.697063546107377, -5.60819586145897, -2.224709677357485, 0.39158715559117496, -6.883158367864525, 4.308924750654431, -2.1975069502087554, 3.0153728272411864, -6.91, -0.6599999999999999, -2.87, 1.4319263085017988, 6.360253103426967, 1.7170649630071908, -7.700340229343611, -1.4807327128026393, -7.718885496854253, -4.877954682386465, 5.194594235629138, 12.63303815554982, 2.3516942196915034, 6.35521701802642, 7.653893709639468, -4.794411936594487, -6.77013226734395, -7.320366118796253, 0.25859840588053845, -6.066537323115657, -5.894028738286279, 7.077666495863242, -9.534595707505671, -9.156358717260941, -4.260842017780501, 1.1412359276136526, 3.55, -10.47, -5.2, 8.24, 3.84, 7.42, 4.760159928267195, -1.697244610931899, 5.6414551617947994, 4.087551409678176, -6.095706202934365, 7.9782165834461045, 7.529426981182933, 7.897773082998384, 10.750351655521179, -2.352569662948838, -8.712815420365418, -3.840829440211885, 10.068652347640674, 6.576332195519782, 6.075250277886022, -5.020471280385353, 7.705547776018767, -8.001315222851712, 0.001782831958181996, -1.6894662038548853, 6.676346840954071, -7.616586137004035, -5.47, 2.48, 4.09, 5.03, 1.4, -7.22, 5.45720577808128, -4.3373583663855015, -3.4656673956447164, -5.102266971755142, -9.332508583358049, 1.7409252759228855, -2.788191748754157, -6.651244794548899, 9.828373279623811, -2.045105703265915, 12.783705698998594, 10.026966962802371, 1.7858951224599475, -9.473850208231038, 6.05636116196297, -1.348961570912052, -0.8669692311628463, 4.495464470341457, 4.272131061102526, 4.028042236868246, 5.454223361943797, -8.369780399207459, -5.89, 4.53, 0.52, 5.22, 5.93, 1.94, -10.669326437888142, -5.1056214429673235, -3.557357468898387, -7.976382676496729, -0.8427961169048664, -4.923874049637262, -7.124585846933636, -3.462269644288011, -1.6446657691199524, -5.868163346323472, 1.5037277511401883, -5.723809723831181, -2.8292430580205457, -5.2699888593532025, -4.342473484567358, -4.846779117248788, -2.115134404040155, 4.477211955671597, -9.303667065679676, 1.2526011404623116, -8.17, -6.85, -2.13, -1.1, -5.43, -7.9399999999999995, 6.18, -7.9399999999999995, 7.47, 3.61, 7.431716017826849, 7.982922786995801, 7.9705145334232155, -1.2933338361110305, 8.316785804112989, 0.7967229633610295, -6.789622959621933, 4.134935477344161, -4.395886821678916, 1.8688081482145344, 4.667537746411944, -0.05351143832745088, -3.032462735805219, -1.426041017254645, -7.263855184058189, -5.228219309654426, 1.315469576807102, -9.689749542115191, 7.74, -5.76, 3.4, 4.26, -6.23], [1.8199999999999998, -9.33, -1.47, 3.96, 8.88, -1.56, 3.37, -7.69, -6.02, -2.04, -4.21, -9.95, -6.86, -5.87, 0.87, -3.34, 6.88, -0.4, 1.62, 6.08, -2.7199999999999998, -10.01, 4.47, -7.24, 9.76, -4.54, 9.0, -3.6, -7.96, 6.15, -10.81, 6.12, 8.79, -3.98, 7.49, 1.8599999999999999, -5.63, -4.79, 4.821185128346192, 3.4073477957463885, -9.608764511020386, -0.21639294002228548, -6.475888828660362, -7.4816982118737965, 7.627715059679806, -1.8547546891408797, 3.3093187752629434, 2.6006917995776173, -0.11600517643327501, 3.875390446372521, 6.033726899602988, 3.11, 7.5, -3.56, 6.13, 3.16, -9.81, 3.2, -2.89, -2.25, 2.0, -0.45999999999999996, 0.8, 5.3017599371115836, 5.394947322644312, 1.067917516066209, 7.906542299143656, 4.333252042971885, 7.8816409140831745, -1.4992364631287847, -6.6946087522071025, 2.9478315615497372, 9.217893962009374, -5.765502099427195, 9.005335027344033, -8.051278281881583, -7.936102205895734, 6.214277431881268, -5.338795910757115, -4.6371818728706184, -7.618621199389477, 5.61, -10.47, -2.0300000000000002, 9.74, -8.26, -8.47, 7.04, 0.6599999999999999, 0.82, -4.754534476938416, -9.939691704317127, -3.046425715607968, -3.930822682058931, -3.2548952496184445, 8.930365731440128, -0.057636176758285904, 8.168476946936456, -1.3633775328878508, -2.8466629618734824, 10.6157839915165, 0.40429356313267917, -4.555662383559687, -0.3536514280150982, 3.5082311519562315, 0.07421556535970597, 7.35471109723828, 7.746075374473818, -5.2716884168690505, 0.71, -2.99, -2.69, -4.98, 5.09, -7.69, -7.14, -7.702945065235081, 3.4592110653988155, 1.878532443560855, 0.4310266726897684, -3.413359838537823, 8.211503375892363, -1.7494356308289518, -7.313928290392231, 5.31595947196031, 11.859533556518812, 5.070595142015751, 2.1838898348447953, 9.381854218744444, -0.5228049254475525, -4.175607589496978, 8.475923476886855, 3.0837267836047424, 9.700776146536912, 2.434395029456023, -5.419890904104381, -9.883904674406361, -9.188580023321425, -0.26, -4.0, -6.87, -10.23, 6.99, 1.9779613276290864, -9.681288944883294, -5.017558776027172, -0.3227077946037185, 8.974528845308939, 1.0753760546965783, -5.553567747222211, 8.097617183513545, 4.3874796441103925, 13.36797430031004, 16.795999055937013, 14.447187602189683, 11.383882330307488, 2.688078347627316, 2.2759360446586507, 3.878348689605606, 5.889661357434142, 7.935643410879788, -5.202440857203012, 2.9199906459680864, -6.729755609387303, -9.816441275121084, -8.768150001700375, 5.379141611302365, -5.7, 1.98, 8.64, 0.84, -1.877318239258462, -4.527324599956658, 8.16686517511066, 10.03609251072201, 0.14191661725401353, 6.815097088429502, -3.5447682040734403, 12.978104045467607, 3.011278064497084, 8.270439139195306, 9.463534500152246, 10.283842146559191, 7.602977686084416, 7.786771045552845, -0.012000732336758024, -7.904020399443028, -8.549451640720932, -8.56801234683564, -6.769700582061592, 0.29072488713650313, -11.114753643406749, -5.301418601354963, 5.996741560858082, 8.840594927146226, 1.8663050045931746, -4.779294241758522, -7.234941935340716, -2.563971132674588, -4.5352976877251265, -0.9379233279301795, 1.9245062980292966, 0.8736048892821111, -2.740852784404912, -2.7949265594762047, 0.44256206121602637, -3.981306770146933, 4.830663381873825, -2.481711736694636, 5.3729045828484985, -0.6217657493915681, 13.02112125092437, 6.508716207762828, 10.728134365290718, -4.630109024757799, -2.211288732049883, 7.131983563901082, -3.6179640631481136, 6.347190083521265, -8.417600328841049, 3.8749956164473307, -3.4506365623632633, 4.177316369508251, -10.406808098076114, 8.392868081364306, -4.106215934535053, 6.643779396663988, 3.9666763716313422, 1.6086396778557988, 9.966668982507269, 4.774982595793097, 6.877434043805124, 7.961409604462839, 5.586032479989048, -6.082605612929773, -4.853644149129203, 13.362045158631188, 7.684985893425423, -2.968917241523266, 2.6492711479786326, 1.1812907401307056, -0.697679493962066, -1.819532343690298, -6.027678430620844, 6.351975056792517, 5.877408378722544, -1.1054669593187907, 2.3656350992550674, -10.641091346834905, 2.1054470131869767, 5.881845207950071, -1.35, 7.020465500116719, 5.7977600481001765, 7.081217069779319, 7.631706685177728, 8.280660480066269, 8.060133681814268, 0.6154656999799383, -6.0995156309342855, -0.009978039276024198, -5.951178368824133, -4.536836273732398, 6.734552601039866, 1.1777020430968779, -5.221590605386735, -1.3177553594823825, 0.8719750594377331, 5.311201637992431, -1.7796549935638373, 4.699973038399715, 0.21082930179428475, -6.91395570146105, 4.000288408115843, 2.7293554633814185, 3.3846872558479144, -7.358391970153394, 8.326969445462904, 6.7198126056312075, -2.3, -4.1899999999999995, -8.14542255326145, 5.346852889894226, -9.65459116676284, 5.151845495261474, -3.000492087325787, 7.601351390044445, -2.888064370200284, -10.77292120583649, 7.564870192435622, -3.4840670143969854, -9.407515163416482, -4.610096665259478, -2.2345059586781697, -5.316107868215712, -3.836598786601257, -4.70293634624106, 7.9622954380046345, 10.642666923527495, 9.943188367332112, -4.1589709872940945, 8.02676105820191, 0.3867972440183006, 1.094644177048231, -9.199290230779381, -8.217149450607005, -7.664756866484351, -6.97, -5.14, -0.8975583238043038, -5.004490733775433, 0.8891484482241357, 2.7617426177870623, -4.381060990433107, 5.070144859956329, 2.667873079189928, 0.5335646977648331, -4.72701515126498, -0.1857517198793227, 2.68986555252412, -1.0360090601405798, -6.536223775101199, 5.341444978168091, -1.0099800679726698, -4.4200102978258915, -3.262354112947369, -3.3514942016729816, 5.731615339453764, -3.2733700870022613, 8.065363688009317, -2.0200406322899993, -3.7054928651621735, -5.455178811204482, -1.6249592226289207, -0.5176809446642053, -6.87, -6.43, 7.602567182916036, 8.310572443447136, -9.811110914139762, 2.662539692837348, 7.498970827066718, 5.336230666383741, -1.5875117753030357, -12.503751460605017, -0.04637517318416502, -3.459543284842656, 6.765354429942897, -0.7868367996294112, 2.2145377784335714, -8.512474348390013, -2.200478085381202, 9.639133051009157, 0.6605305574712048, 8.564467851187201, 14.771992875652995, 13.07443923675, 5.710684160663988, 3.715292098273647, 3.642474989841262, 5.477853963392654, 1.0650638062323818, 3.2198211823644813, -10.93, 7.54, -3.8996348895408306, -1.6287706262314592, 9.50548614404453, -5.581226753069718, -7.713156946053043, 7.406755198006588, 5.373474560610597, 7.792386087108769, 3.3268394910514445, 1.5082246636552283, 13.233339536220631, -6.489525586837044, 4.0418063978853995, -0.3793522576284656, 4.769261839509687, 1.251877028778323, 1.271233615466491, 13.735930179008019, -0.44438940510915176, -0.03128370374928552, 4.916528487660994, 0.4748151461147211, -4.574723460284455, -9.002203281696662, -1.0687439535033503, 1.5611353968051425, 7.92, -1.73, 3.63, -3.4896376542271916, 8.708091920924568, -6.410040216763836, 5.113348891292955, 3.535118263344765, -7.745903543686657, 6.462769806928927, -1.0450050762413388, 15.504339018573111, 11.800663569885069, 0.7533779811529177, -5.9351935473607345, -4.074714339729209, 8.065215965017762, 5.769934564242775, 7.503679483253662, 16.207493601065202, 2.9818588478551913, 4.0255647424051, -4.3709944505500244, 5.08677857003972, -7.171101261808633, 6.8950208961935955, 5.551673572958861, 0.7530885423612432, -9.11, 6.1, 7.79, 0.86, 1.9071478104500474, 8.30106654061937, -10.252917102239904, -6.776261365604373, 9.396080072483485, -4.469377270082155, 0.11370770590383611, 12.504164323276038, 5.800748307600347, 9.4308242587873, 4.877127426324689, 7.733354897832031, 10.843328715647331, -0.5542824595257666, 14.55487538751622, 1.6034677626766394, 10.397203174262039, -0.8765252304753298, 11.496183943033811, -7.810557583482974, -9.757593717917036, -2.7670642674143555, -9.588547190721746, -9.181002213864675, -4.86, 2.0, 7.04, -4.701849317651172, -5.081008490061248, -6.357939721567654, 8.08362269668197, 10.616066346444121, 4.643590142960185, -0.12602208553559788, 12.934565674741863, 1.1074330472833336, 7.472913125511371, -7.005370887057412, 6.737368464539159, -10.066397867932816, 11.521807684861537, 12.113225856115646, 13.456115712955473, 2.9810277702817407, 11.904993310310141, 3.4342335049709476, 3.44827285250012, 3.4343861901656734, 9.249184770154661, -3.388145712051929, -5.1155835430521375, 2.2805177867368274, -9.67, -3.96, -8.6, 2.3933543912689705, 3.022386235370263, -7.616238836131423, 2.547285712661865, 3.4811644874243792, 3.214738986692359, 6.927830883401887, -3.8730490927204055, 11.128483925275678, -2.6793847019367947, 2.522742328532956, 3.861316913787415, -4.198636604231964, -1.571058049963869, 9.519528132229953, 11.674756833022263, 16.942491970446763, 16.065940838521385, 8.724172017177812, 9.230985363502496, 2.258051390721637, -7.495537759084419, 3.6473092737415267, -3.751386655505862, 0.14735494745546285, 3.617853159969517, 4.75, -1.82, 3.063627745799733, -5.564235355468899, -0.18503780308998344, 2.460574384503869, 6.650519041012781, 8.341373893526713, 0.923185480807855, -0.56242917428338, 7.922403317215783, 1.980520702766756, -1.9168807895236653, 6.641592705810385, 6.5427017783135275, -2.7054110433778567, 2.7699846233178174, 0.7154745514645133, 15.02102282787978, 10.801626025292519, 12.917867863886622, 11.752540867861594, 10.863816618308693, 3.9618596966267896, 7.596242977437773, -0.8802931897148737, 3.1908311862372045, 2.945630587330075, 8.66, -1.62, 9.803569093268395, -7.241633965092491, 10.635240831211721, 3.0529368633144496, 9.448020101551867, 9.98922588199865, 11.02077411682498, -4.612525878626841, 11.277761178216426, 0.9529918397965235, 1.8131189257731344, 5.335848672407874, -5.184048047577631, -1.3223431772032377, 14.446848034783914, 13.663653318023554, 10.726079856929033, 1.5739310298286275, 12.185456817612899, 3.1754663303690283, 7.493605715543816, 7.149963660983068, -4.2171106109890735, 4.728055508999095, 5.3501263281586775, 4.613895043976292, -9.33, -5.23, -0.5520121085334202, 2.56057327556554, -5.929310117194611, 0.8876396153835998, 7.993661519931816, 7.969482066631515, 13.53596275316398, 8.248121734686663, -6.630281742761169, -1.5491947734761378, 10.804780934961705, -7.3277504700083265, -4.312414158166722, 8.254137988014223, 10.882125997942616, 11.741906992643074, 8.546140533212842, -5.422031401888493, 7.5030671796429615, 7.944528892554716, 4.010424292525608, 1.6639590376208244, 9.68455655772628, -9.183141928078415, -1.2917161807541118, 4.08, -9.26, -2.7199999999999998, 3.2959191119238462, -5.194136390318007, 2.2322056478023455, -3.3281466404757434, 0.3098293839633997, 1.0356861808716928, -6.823464451306962, -1.9897887794318019, -6.950105385853219, 5.6216700609623205, -4.597651186876169, 6.250179058946166, 1.9904717290125535, 11.020647244173084, 13.917000467010046, -1.4234968787002544, -3.5806269321241446, -0.9793648197472589, 2.5917539349425813, -5.2589074828650375, -1.8211317164066176, 1.464037898517168, -9.232352422554376, -5.56247241694, 3.4370022819941295, -2.77, -5.72, -10.24, 7.537786649980559, 4.605012999368917, 8.261947968457635, 9.336710573503836, -7.093947313728228, 10.089385291716475, 3.1229890953111425, 2.637862934517546, 5.980687055744421, 10.096480028394046, 8.396117404211992, 6.188012631898712, -7.577356023423406, 3.313496315222728, 4.39841837307274, -3.6213097198811437, 3.961354871514707, 6.537555137964171, 3.8236822042738656, -6.355812820414363, 4.3350937723888165, -9.151164813232816, -0.7360412649681886, -3.0502413814427407, -1.8518079279848532, 6.84, -4.15, -3.84, 2.8382788100544083, -0.9631777282819611, 2.729412438709185, 10.769801558390844, -7.139755294630304, 7.868408093893512, -6.6755923936692705, -0.25568713542967897, -7.844194314965862, 9.173335550217947, 6.37035528550561, -8.49365283809235, 6.221946621120748, -8.23482252960991, 1.5598995945536176, -10.212858214164276, 6.134936273881672, 1.30434507163652, 1.1297610170183159, 10.958023249193001, 2.150681582465319, -2.6705299579907735, 1.4525948227106966, 0.14, 1.96, -8.34, 0.46, -6.18, -0.42000000000000004, 8.856315113364232, -1.9258038616436173, 9.432860836884435, 9.364745069011695, 2.9981859457328626, -0.054606655200668555, 4.515691510911209, 2.32411833706708, 6.327575597011909, -4.121895069615717, 4.447797908959688, -2.36531265837687, -10.569645754051551, -11.109718761440877, 6.088068427714973, -3.332411888680534, -7.192352975354601, 0.9531401499669981, -0.9619333235708197, 0.24889603878395777, -9.29036763730523, -1.9608700429936532, -8.7, -6.95, 7.1, -6.41, -0.79, 5.99, 2.0990879283894786, -8.055360964786189, 0.8887179844658555, -0.754309832698177, -6.706351233109987, -8.155473947430963, 8.747208458561182, -8.96048045063167, -8.977837452193377, 6.861750693268068, 8.508756662694559, -6.8528921041826365, -5.2381926310890705, 1.9380723317562227, -2.813661437523181, -1.461017880644639, 1.224682988464531, -1.0777167970459063, -5.048675796097977, -7.023255767099276, -0.259630270601976, -5.7531365464315565, 7.05, -8.98, -9.97, -9.09, -8.36, 8.48, 6.730670425385073, -3.8981753218046173, 5.9142924915615485, -0.3105290089202653, 7.617931205641206, -6.227782018076282, -8.302611121184905, 3.5921849335439333, 5.2139299178614715, -9.505687466460547, 0.9178838237583901, -7.290598385154846, -5.643683587651867, -1.0152145744952104, 2.8661209763882405, -0.909614584802722, 8.187518986288469, 5.01990800757776, -2.562091403160969, 1.1549422837897865, -5.56, 4.38, 3.76, 2.23, -5.35, -7.13, -0.99, -1.8900000000000001, 3.42, -1.76, 4.956730110055715, 4.518482992720399, -7.035825313964808, 3.963707107303049, -9.788609185905473, 2.0362659453982985, -10.217668132003912, 2.103273769322855, 7.394061132538315, 8.771391318661106, -0.7460242358786705, 3.7964029247520705, 6.519210806802607, -7.0276550676243925, 7.892901007029696, -4.401372295263837, -6.285949542539166, -1.5729726696027617, -3.48, -1.35, -5.53, -5.05, -1.03], [0.26, 5.12, -5.45, 8.62, -0.41000000000000003, 5.41, 5.78, -6.37, -7.83, -6.74, -8.63, 0.36, 5.76, 3.7199999999999998, -4.6899999999999995, -6.48, 8.19, 8.28, -4.85, 3.41, 0.68, 0.13, -2.4, -6.68, -4.57, -5.89, -8.29, 4.22, 3.25, 6.4399999999999995, -0.49, 8.93, -3.02, -5.75, 7.64, 3.2800000000000002, -1.48, 1.31, -6.983351881374009, 3.2792183354811466, 8.744225807329977, 6.604744477833679, -0.645590324124661, 1.1650523039901923, 6.004933178579709, -4.469713822418668, -2.601924741612832, 7.922756190132474, 0.1505324996069718, 6.780693248383939, 7.4003011052373475, 6.8, -0.86, -8.13, -2.75, -7.22, 0.20999999999999996, -7.11, -4.86, 2.39, -0.5800000000000001, 8.56, -2.84, -9.439414975680476, 1.5416169114876745, 0.22405974771651474, -4.692585610819807, -4.015212903068223, -1.3958665994294879, -3.1948592426646902, 0.25749840634424587, -1.8520735191267523, -3.4788973519035524, 5.052752486696973, 8.727016668822282, 8.849124980944463, -8.747132168359332, 7.294245350021618, 7.332931190956611, -1.0460052352561795, -0.2854374172440367, -8.08, -4.04, -1.31, 3.2800000000000002, 4.02, -3.99, 0.7, 1.29, 4.69, 5.729824671946925, 1.044743822802917, 9.76069353552143, 8.600620793527408, -3.056703773797858, 6.975659254135024, 6.699707912107589, -2.1608586489509, 3.5935805169200417, 5.618642840028469, -3.2172616428531673, 8.31508197366807, 2.74103628378206, 1.109661658365844, 11.135028337453987, 0.2633624912014728, -6.663092123437461, 1.8966501534441922, -5.823188001290313, -8.49, -0.6699999999999999, 3.11, 4.5600000000000005, -6.16, -4.9399999999999995, 4.27, -9.270595939408937, -9.323107501607243, -9.865661776792335, 9.25768924821592, 2.582493070602371, 7.587986059847965, -5.212795551742033, 4.331244495361507, -1.793461590639954, 12.394306131945953, 2.2258561036175384, 10.947650071380169, 3.5360183678845787, 6.720878671244683, 3.6143093426365005, -7.569368818570956, -10.280096895817714, 3.7697436684281795, -7.024872798766689, 7.742828773781343, 0.13727129966828344, 5.168469923574306, -2.56, 2.6, 2.75, 5.7, -9.33, -3.3681965790044113, 3.8393303714522427, 5.223618785069388, -5.7929044742161775, 0.547041304034262, -2.70898091017738, -5.652330224804015, 6.3074585442187185, -0.7719198369287827, -0.3985983739696752, -1.8650356920167992, 1.2902522142464774, 0.9872545108302418, 8.806048582537018, 0.4030651564092873, 7.834425408115715, 3.314715689438741, 6.406363236761907, 5.5533833916971815, 1.805818828397501, -3.106509751051137, 5.195847206018451, -4.182521840179442, 6.8582074359949745, -7.75, 0.36, 3.22, 7.18, 8.569463391347316, -3.084797355540801, -0.7281817696077946, 0.47280155037695526, -6.7062109950758915, 6.50326677506562, 5.196478668627819, 4.6411869971363435, -2.600769298730081, -7.2595628758095945, 9.070526430380903, -2.0486683505204613, 13.89078358072486, 2.61702987249717, 8.345785852438564, -9.438854913048115, -4.518771047706679, -1.5637529512951276, -9.355730295896453, -2.5395602330145506, 5.190546024886408, -3.684427063257491, -10.311654152860692, 5.418938290732792, -4.5100742532748965, 9.89299193508492, 8.868767159179555, 2.7854495926930376, 5.368312143607465, -8.459281662964889, -5.386429944059474, -2.8312608261585637, 5.480903556204444, 4.807812888728841, 5.001270097606869, -5.321665654062468, -2.2118584805456925, -9.148724186051593, -6.271175331109128, 11.514170922390674, -0.3392245073409435, -6.082181667406491, 2.9964110579322805, 2.001331408301571, -12.313875339219477, -7.802026289592293, 2.4168475738320794, -8.066255562056998, -0.014115094290936353, -2.69176527853148, 3.876763337711193, 2.7567628033788383, -3.6899139967312893, 4.952158714919564, 7.51604186471063, 4.185881604842522, -1.2269995633308404, -8.703151749047839, -0.03854064542787235, 3.875358433830747, 0.2611875882125797, -7.09475026253742, -6.995065797397007, -0.3506404019881985, -10.154770329649404, 6.709338349648522, -1.1211054051608031, -4.278998104822124, 6.8097439125927695, -4.795197527932283, -9.748483147259547, -5.130056058534625, 4.838312670637058, 3.237575649293877, 4.722543936801547, -5.497726279248627, -12.717508007160012, 4.773826723160117, -9.787273883201193, -1.3201155702266114, 6.33, -6.088026596007819, 7.922091599506537, 6.15633855386815, -8.159142998794563, 7.486210614014473, 7.702401285291203, 8.44588357974517, -1.8325752479744808, -13.774835320090967, -8.236801563193758, 3.1125230261709724, 1.9093237543423809, -1.653719449153433, -7.221395696404602, 2.884333367912043, 13.922650250913465, 12.198172294632272, 0.8412885647305813, 4.304833354744029, -9.578009543481636, -8.003004433200854, 0.8948477525736256, 2.3741381319161254, 2.2865192414754905, -10.482209236930755, 4.262075252492782, -6.662046060633629, -9.0, 3.59, 8.945216894896218, 7.341906632807477, 2.7904088484714653, 5.938193375711656, 0.534895023324278, 1.5636362361332776, -2.639187495807152, -3.1237799663461514, 0.5889683965005368, -1.8841447334787946, -9.67689462628744, -14.426875822202273, -10.218683426694263, 11.421297859053263, 11.175691821576788, 11.499443058558509, 9.392269523478296, 9.597723830291274, -9.608387420753978, -7.419066505371801, -6.713324323351021, -0.3129510655897897, -0.09010976944254877, -6.397952592444409, -2.213461495417031, -9.481121122129863, 7.65, -10.81, 2.6203128457717777, -6.737724324003859, 4.088538573869319, -3.2906608113495786, 2.8070772292195465, -1.834431901359913, 0.5446636991602111, 6.176944026379443, -9.069518835877162, 1.7873908081222127, -7.219012244468379, -13.58276297554347, 2.87550330596392, 5.747018359054192, 15.452780841524177, 7.163358299204706, 7.21116302988447, 7.487371541631051, -3.8851221922211274, -0.47465762281346585, 6.651709354920565, 4.520949341245007, 7.64231417160293, 1.2255073018658456, -4.486434970212148, -0.48427534257877997, -6.01, 9.37, -3.4691570546792057, -9.313295687384132, -8.152565516148412, 4.517741035862206, 5.738542247139678, -3.369118564483436, -2.18914040487687, -7.867994779885569, -10.761244606160945, -9.307291056699214, -11.117098675197047, -14.620495592155587, -8.770762933397602, 14.448800036512647, 7.72027629663662, 9.482013581267466, 6.255445575939226, 3.783830929856422, -5.026967442066615, 3.5787797793376552, -12.277042444005042, 4.650534413973464, 3.5912473598130075, -3.689852520562086, -8.116069394427583, -8.893408452839305, 6.59, -3.37, -0.8984578922210426, 1.5551339382643066, 0.7538895334941732, 4.230710503108713, 2.349045485463665, 7.771679180225277, -6.600518619370158, -6.329424806863589, -1.63431444023106, -16.47597847384097, -8.539029276803804, -16.43748196510039, 4.726262589004849, 8.17965464169283, 20.11757400861506, -4.11838868542415, 6.599628123982128, 9.986920249548241, -6.621575897800494, -6.360935257937089, -6.048882346429211, 6.903574843593447, -2.7627848417307703, -0.9963079524009584, -1.3605661038913612, 4.089605959209329, 8.65, 1.6400000000000001, -4.76, -0.11839468714935529, -3.8119029774385256, 1.7327986538053561, 3.0131154786723173, -2.3364680913007883, 1.768911471413395, 0.877743553505129, 2.145662516112403, 0.6779764664451852, -9.275881865388401, -4.62840283147225, 16.388120100960776, 10.570318601009568, 19.669992457090434, 5.149679943325077, 2.3761110124016747, -10.979340604559816, 5.883975054087149, 3.873050487960014, -6.884297546135386, 0.94493921176249, 5.821041493793521, 3.0516671838643346, -7.119712071999174, 8.799874867153388, 7.22, -1.1099999999999999, -3.74, -0.04, 9.556250003890604, -4.6008457266229295, 11.172002927992619, 5.503008460498964, -5.977751987458404, -4.334564056951242, 4.824562774627784, 0.10091313417545605, 0.999674613768298, 8.639897288580823, 26.568629334623175, 23.629367800559482, 11.857762774977735, 2.6396034022677264, -7.686707959952775, -2.8294575044204415, 4.029269806219186, -12.142099657899601, 1.988934392667346, 3.115019112958533, -8.656256537904554, 6.6326448390678285, 0.4110407334857231, 1.766520577743312, 3.48, -5.49, 0.71, 0.27367938835609007, -1.9255013576564088, -0.46174162982992306, 9.475701925716487, 1.4412402867417389, -3.204263137452914, 3.722679732912529, 8.236750901008564, 6.314426272863928, 18.433432533651793, 7.550142410519299, 22.13134654277284, 18.333537912673684, 6.590691775516196, 12.446740951628959, -1.2894188792650283, 0.31958220549297345, -9.219536388360323, -3.8049402838207502, -1.2858298966035022, -5.128901818831554, 7.438948995271821, 0.7996962459926399, -7.608726438733685, 1.030634338769396, 1.72, -4.4, -5.58, 4.440481289952376, 8.194109481613431, -8.114045127094151, -0.7796511010052112, -2.840935538857113, -3.517471749922381, 0.02133358145839781, 14.643230357149458, 6.0376914691479495, 2.1682950693520273, 14.04552402603013, 24.570767502757914, 18.81421619863218, 14.388056155849872, -6.158113607186131, 8.041991076080471, -2.565666106466822, -7.569542010384602, -3.8216194353657693, 11.358489323777274, 10.69728468512077, 3.612455247357453, 8.582541507882055, -6.396525719036987, 6.17990238251093, -1.1234225874344455, -4.2, -3.08, -3.1656412885492666, 8.708131569508025, 9.283029320432806, -6.5082297760876155, -1.3431955674339926, 10.607806964922277, 4.125344849967015, 2.8186515237176195, 15.137838631793363, 6.124204299760225, 16.64759876440321, 26.90144759160197, 25.31361230544617, 0.49082060207782163, -2.4415784084762207, 9.1997054608507, -6.484793825116498, -7.643015950834469, 3.7797711717388216, 3.1412992919448626, 8.112647290694692, 1.1993906351597008, -4.947252775742765, -0.15742697500130876, -9.083197096670903, -1.8588155317572077, -7.18, -6.35, 2.341207395229808, 1.2158614003356993, 1.3884939325408896, -2.8014683913099456, -7.203698101514494, -5.873516995671923, 7.4381679942621854, 5.11565994984613, 16.015591862808137, 9.127653316626619, 21.399950360665038, 6.801145755840366, 7.487747028663483, 4.264801668569422, -6.560055573882516, 2.450561342812839, 5.3429478321984405, -2.131562618703716, 9.013698294668373, -3.951350402500428, 10.382979010139572, 5.647261650967594, 9.840838655071504, 4.069442005980762, 8.800454887799937, -5.826681042077932, -7.7, -2.7800000000000002, 2.517814326286597, -2.9415958777306956, -2.5450536067706433, -0.002366762407419662, 7.01127466126302, -2.178994123008554, -4.460464822136794, 10.250607646673448, 13.434058091607259, 3.6201172568310347, 11.391788219898517, 7.2473461157932375, 0.11022774529294338, -5.548235422400124, 5.675169050980137, 8.091554828748968, 8.839137351356804, -5.367642569424391, 5.366320187577347, -4.213676262656332, -7.63584090369905, 4.533702640429711, 4.999382523769643, 3.2408108486909293, 9.767550525104307, -5.09, -3.83, -3.93, 5.31525258150941, 4.038462159300616, 1.276060952811385, -7.2568026931147, 5.302158668052329, -7.718764643775735, -14.299183966684867, -9.179981528168264, 4.519225136232638, 10.751537438414903, 1.0272156085128186, 10.454420220960822, -2.9650407201558258, 5.127626010266357, -2.6978565312415466, 7.891528718176182, 7.49505525181725, -5.7114942447031325, -5.068512768001091, -7.100796573028123, -6.07909749412902, 9.126636920676475, 2.6794670244466112, 1.4638105784267283, -1.540092654043183, 5.86, -10.78, 4.79, -9.710070492652239, -8.057515215637382, -2.5389761627326175, -5.903585326435232, -1.0900794217271097, 2.115056385708511, -7.019674858336012, -5.002438809577873, -0.47718383170244266, -11.085725191664212, -6.511994839197045, -4.667230940010836, 4.678643496945355, 4.998784236681626, -2.6897854836585875, 0.0011479377607873653, 3.408685322165571, -2.021217447158241, 8.985346330203487, -7.268340095596098, 6.449836965919151, 2.0763489610324415, 5.111710904566748, -1.0818463803696765, -7.212332547057198, 1.97, 4.1, -4.12, -3.7615072237425022, -8.196390680073225, -9.017905418543991, -5.1950701104483645, -6.655705165023, -10.227938013697667, -10.105527655290096, -10.985878692020648, -2.17425505775658, -2.2941784966667504, -10.8516976034835, -0.055555817571568855, -12.177544900386764, -10.012962177677423, -2.340336762760928, 4.554751927554679, -8.19835449277732, 11.163294071784145, 1.7590816776476674, -9.171034217177406, 7.669229266419648, -0.07918902716206001, 8.00438031876408, -6.37, 0.32999999999999996, 1.46, -9.93, -1.42, -4.94, 0.8969605379084964, -11.475861290457868, -8.30903940549071, 5.57404605586292, 4.482912783413718, 1.0917243286750706, -7.709079697170163, 0.7504498036196148, -10.637242963789586, -11.878011481078788, -8.319021200195502, 1.0687116896270934, 1.4789763316512565, 4.56264526806882, -10.591646006196441, 4.943805747763983, 2.557153075286693, 8.322380845280533, -7.926599116989036, -4.419642987628202, 3.9161619007625563, 4.265304208143727, -4.75, -6.12, 5.92, -7.92, 5.43, 1.46, -1.87531479819262, 8.682739591449526, -9.438901950070898, 4.074489445506309, 3.0003420555923324, 3.649746954307783, -11.53084516022634, -5.910368902515628, 2.1649052994163087, 6.168304053783311, 5.236680763456571, 4.6741608590874515, -3.021701018483177, 5.7901075494661685, -3.738868871163538, -1.802301449376081, -8.910066205238563, 6.854090867932167, 3.263102160746162, 4.6251364216036785, 5.680368240454242, 6.066450159513219, -0.62, -4.33, -7.66, -3.82, -7.85, 7.52, 6.7849579845507915, 2.3282891994029256, -8.600531402252798, -2.382016213010096, -8.763190123237068, -7.889717559914948, 2.0911501532502514, 8.909253163056723, 10.652392595972604, -0.531749477254047, -6.480486576056105, 0.5273266206315783, -2.7846647380567386, -7.429847398348434, 5.780461556229525, 1.5881217319792775, 7.366401612320082, -7.472291653734346, 1.8975492573359596, -9.297910496742217, 2.44, -3.79, 1.42, -2.38, 4.09, 6.01, 6.97, -2.06, -2.29, 5.59, 1.5071050304536797, -5.693881829203189, -0.7258405095094006, 4.171034628026841, -9.271485306654645, 1.5078880242237727, 4.532111269398915, 2.112245193479728, 5.783413609643884, 1.2457018245709268, -2.8681911686400188, 7.981631210007465, 5.944788674611691, 0.2788309064111282, 3.39271365759611, -7.795222529821367, 3.758973885860908, -7.517837809132357, 6.53, -9.6, 9.01, 8.84, 4.73], [-1.83, 0.44, -6.65, -5.61, -10.97, -5.32, 0.21, 1.57, 0.91, -5.99, 1.9, 2.54, 1.65, -9.19, -5.4, 6.01, 0.31999999999999995, 7.14, -3.29, -6.28, -2.66, -7.43, 5.78, 2.82, -2.91, -0.49, 0.78, 1.79, 8.79, 1.6099999999999999, 2.4699999999999998, 3.26, -6.89, 0.85, 4.39, -7.02, -8.55, 3.31, 3.885823987151465, -6.96589127966092, 6.95329706412099, -3.438574634733498, 6.551079046188661, 7.545975781834341, 8.922112866890387, -4.576785202391089, 3.4433532085434218, 5.789887257625433, 4.812616359209093, -6.498806578521781, 3.2194070681901232, -4.7, 5.48, 6.23, 7.67, -3.95, -5.3, -2.95, -2.91, 0.43999999999999995, -7.39, -4.11, 3.62, 0.12772107360677445, 9.744747033048807, -7.5272590892485, -0.0030948556609766437, -0.6041230621811385, -8.16359840620524, 6.028494824387513, 8.13024961128781, -2.2873691985977866, 6.899554844233983, 3.515070255868019, -6.2012951900015105, -1.0562370552399234, 6.369465449289986, 2.4020422375843036, 1.1960602677940277, 8.314755422873013, -5.611552435548107, 8.1, -5.5, -6.27, 4.96, -8.05, 4.66, -1.94, -8.36, -10.01, 1.9181662960684716, -2.4642635686950616, -2.680170637236923, 5.267720520824434, -6.781167192055893, 7.850519805392399, -5.683593886223441, 6.949016541115806, -9.93492289436077, 0.46863001092286155, -7.217324685950679, -0.3582712583232895, -8.495505368497083, 3.043709343273506, -5.2485227725841295, 1.7306893011959268, 6.602438251530233, 2.7281866230451612, -10.075010348697797, -6.0600000000000005, -3.59, -6.38, 9.4, -2.7199999999999998, -3.71, -7.9, -5.874900583837819, 8.866619037479788, 1.8967092849918588, 3.4309993129621845, 5.29669003992545, -9.112179150273892, -1.613550570738915, 3.9619354908726683, -3.2641952475721805, 7.48401643670168, -0.13429874647365203, -9.22957443596229, -8.763585894676202, -3.6874073554008047, 8.754741721141361, 7.7280471884066015, -2.2569842617916893, -7.72069470891119, 4.1458816100991545, -3.0999341692179754, 4.636184956684463, 9.683189207834094, -10.18, 3.33, 6.36, -3.35, -0.85, 5.5432882146299685, -6.866096803625965, -4.166382360911154, -2.4936288388974797, 8.527256286849877, 2.8888915933879584, -1.4755639100125517, 5.882955449808776, 1.8254088776146327, -5.410494522327162, -2.1357005138487626, 1.0549230352945502, -7.356345178069377, 5.240241263111594, -0.6438805630271425, 2.0126883934751825, 4.587822016704187, -0.3228015070814532, -4.999141667156922, -6.3242173765990355, -5.08838692279778, 1.5231433478894536, 4.0130387537146035, -1.7482444595502633, 5.1, -4.49, 3.06, 4.1899999999999995, -1.4342765623230342, -5.984739105160465, 6.84252468069682, -0.37050829727645285, -6.3210159130678765, -9.437058709853467, 3.668233013450672, 5.316976107427239, -9.261480586396557, -4.129055101215906, -2.834915717108138, -7.515133899631212, 9.174149995422027, 11.253338330487045, 0.533778823105395, 1.4646425111829988, 2.614612054711226, -2.6102030815075237, -6.110172309722759, -0.7415474601998173, -2.0192199344510735, -3.2636872137135295, -8.053550728806858, -3.2227505710039805, 2.513311902739251, 2.7524017197050963, 5.425277530025463, -7.077786604314647, 2.7165175067635556, -8.307444593686348, 7.977996192070857, 2.1012079302482376, 6.677667262484001, -4.416158953249822, -4.2234036811251014, 1.6259038265886816, -0.6411518335243285, 2.972397753353239, 6.206115284059418, 9.039954416404154, -4.8125928669820235, 9.165513349211784, 3.138296873871751, 1.386710322872466, 14.393272188116828, -6.761371561794927, 1.5121376819631476, -0.757466161578397, -9.92439446025701, -0.23512134172225715, -1.2628218434842677, 6.655247733775171, 6.386792900205723, 3.539760180078158, -8.317122694347143, 4.491204675607103, 8.939608710934504, 1.4398023596700418, 4.237993408022738, -6.8061411863451475, -0.4687933239799311, -2.804414043240065, -12.772517236887232, -13.470275475619564, 1.066869556875473, -8.910370049011208, 4.9123079884652, 1.0703501978214587, 5.03252157297231, 3.4462778654930313, -0.21979081887429758, 4.634985814977661, 9.868571902838044, 7.000165978695929, 8.848962265600603, 0.5297533526235763, -10.419820917790284, -6.987211561048065, -3.9291522055342307, 9.731455688897052, 3.25, -5.238415887003022, -7.385321514058919, 7.474137078778334, 5.794610846272106, 4.7501223950436495, -7.407869276526428, 2.0920223304459014, 1.14769288678485, -0.6809546396314977, 3.305341523609724, 5.797643636509659, -11.261720072818374, -7.1720980871482745, -7.022022590762817, 11.093962200256643, 7.886443363470767, -3.320895657579546, 3.722912624644474, -0.9777116094589525, 4.431035808051814, -4.167031032161338, -6.656550921769217, 6.5033016837705375, -0.2319155433606992, -4.669117893659516, 7.713386411233347, -0.6110179621412628, -4.18, -2.58, -4.457770947353624, 3.2961921506096887, -8.821811216467593, -4.359633605821298, -0.499794499573981, 1.5356090728157756, 4.681721111924237, 0.46618959331387555, -3.2180259701023233, 7.2363896126799965, -4.060244074337531, -7.66705385574547, 10.389534374520627, 2.7805304596363, -2.587936564715175, -8.988894170768909, -8.54920793325977, -6.370953664439311, -3.9688081774156947, 9.941829860808296, -4.90913343857994, 0.4596151600631696, 2.858467002857159, 3.0103388838913374, 3.2030940284221976, 7.145765194947477, -1.84, -2.0, 6.668299327337984, -4.79870633078022, -7.283731454160781, -4.976774482327059, 1.3167976551217226, -3.6095050843228713, 7.921376046340236, -1.7405984928556244, -4.475332496712614, 8.735234733132275, 2.117964167312668, 1.8094580874124495, -1.6572898338741928, -2.409564941830393, -1.9760297799376703, 5.0572335469166125, 5.71304465381016, 2.2915303958788065, -1.416247136443357, -1.1347095510257885, 11.479933155375232, 11.699198909633816, -2.769115464369097, -0.9624131816069539, -8.80898624050255, -8.832566987737453, -7.73, -0.02, 7.298725928275917, -0.49523149072419714, -3.3539816892718055, -2.3198748824293007, -4.1180598654901805, 10.908642964828907, 7.240523074537415, 0.8679934468492572, -0.6579149750920374, 6.582395100868257, 3.569661295029315, -10.397320996328265, 1.8293874629108018, -4.577148206426558, -5.79426056951854, 2.7205809009182973, -8.482091281775004, 4.290733452831593, -10.015216549169542, 3.672114573742341, 10.49371337245357, 2.458608766640315, 5.831697830164658, -6.691796429421101, 5.333413665076158, 0.5817323093153033, 0.23, 5.09, -9.268758979089647, -4.368488708239316, -9.029891859597013, -5.878711625883495, 9.746509091041746, 12.165635064810068, 9.135958433388405, 11.459964939011298, 12.673810165832567, -2.655641533414641, -5.594090254714481, -10.677202099164646, 4.428442208326312, -3.261324741808409, 6.984604801150082, -13.187863071594045, -17.576634884967696, -9.523293962385559, 0.6409001652872506, -8.073889378949442, 8.46695475048902, 5.895169152757718, 7.784897598720497, -6.555452866639106, -10.793212230774293, -3.2528633168421615, 7.74, -5.14, -4.08, -4.118590870936077, -7.440872199147841, 1.5483063131754669, 0.31157986148441164, 4.480284748864677, 6.911171118347097, 19.245826932525084, 14.861130853710028, -5.86890799182925, -4.016734265683537, 6.117226430815645, 2.1075794201819638, 5.216252840042763, 0.22315633784039274, -13.726806427676088, -16.396963867282196, -6.548848372266132, -5.148932621316251, -7.379069110930978, 13.073450739292861, 10.11830173893477, 9.715674759773401, -5.331714685398902, 8.534955645915002, 3.8565711019897644, -6.5, 8.51, 9.14, 7.65, 4.281900549876706, -1.2877563763654143, -5.118315405835377, 8.6678532053646, 11.966275153815648, 16.437274768042176, 6.648519023892958, 11.220918088849471, 8.564479782026492, -3.875983868505326, 2.2186561283908977, -8.440636964495296, -4.84836687257302, -9.956133707744703, 0.5052462818296994, -9.45475487377037, -8.759172296436212, 10.080310732777312, 2.7217163278996095, -7.987425715942457, 0.5209102076831328, -5.3282659034988935, 1.237110676392843, -2.6397768352118662, 7.13, -8.87, -4.84, 8.495909649860955, -10.079385258274383, 3.7593547798621247, 12.987898327226603, 9.479964104439773, 5.450755439932059, 16.931068834171345, 5.806414846951223, -2.658903002149023, 7.135584004382234, 0.7330221362697948, -4.95995096166226, -8.360499091192462, -7.355346316097113, -5.657234341663802, 3.4192420702560313, -10.928696188745501, -2.787036892141635, 3.5914246976061537, 9.580135426883347, -7.751560966420796, -1.331697604388482, -3.5392410682885207, 6.959300461891613, -0.9951427547795866, -7.0600000000000005, 6.89, 8.6, 5.780611456509683, -7.5722637976900184, -3.2881407032080876, 11.820516684137681, 8.098972465442603, 14.288104140321908, 10.600719203205742, 5.653134902838554, -8.89201407469988, 7.228529619788913, 6.284488615867092, 7.5860198040277345, -4.954397130849647, -4.51759880308337, 1.929534110856847, 1.8409517628644383, -0.7833472445496817, -0.6399697382084248, 8.749712433938553, 3.917407971500552, -1.3405077699612031, 8.646535530914958, 4.987833041046725, 5.840391952430055, -10.2280963827431, 8.758840545172866, -1.4, -5.89, -4.4501051254348445, -2.044291471448461, -2.7641039787866175, 9.955380564409198, -0.9401907925045687, -2.049398730304905, -1.1989733489374466, -6.873727060350073, 3.067288564374382, -4.929299267808362, -3.67753612583422, 3.0189025967237173, 0.904274532287848, 4.073834352527754, -3.319258157986498, 8.010950371472765, 5.6651993740146525, 7.025411663610157, 0.1335341790649918, 8.732243504458099, -4.793498837776798, 2.2939583961217553, -7.0854463710248785, -0.8763367432723137, -8.71174285565466, 1.9677004296285108, -5.3, 5.6, -8.12200690998612, 3.584496800089241, -4.244664975578934, 4.799282968352356, 3.360805778802225, 5.579492561518036, -4.676563271474979, -4.0104950550283505, -2.4110405776725, 4.67722195019886, -7.5705118795633055, 4.966423382398192, 7.841282065701738, -7.818120406903546, 5.600801804912222, -4.982211036645228, 5.998373797293863, -6.481141896438965, 3.445356291145256, -5.358518916065338, -9.482977879197007, -0.4285799665870581, 0.6303490957464845, -2.282433422256463, -0.28975194309139235, 4.532074650870426, -2.93, -1.79, 4.323255940146009, -10.09459732252564, -0.22263757767214853, 3.396485496993767, -0.9010018149705971, 5.655741003045826, 6.947844581853782, 0.9138536968642675, 4.9043489493667956, 1.972102487157223, -5.690145366108928, -2.4736511852497425, -4.16959255154673, 0.059274566521270236, 5.69017142473746, 1.2104358927060759, -2.3161394685077914, -4.777640217786073, 7.328445729602459, 9.099871477831613, 2.8859171431773585, 7.570648723756576, 2.649588161145211, -9.035403062563425, -9.838402309105785, 4.66, 8.98, -9.37, 4.977146507774274, 3.426141742079936, -8.22767499183319, 7.834267295694215, -4.055057411984535, -3.3185511934408765, -6.929653249794173, -5.1420201191976265, 2.3794900342712233, 7.828553232067867, -8.555769587994433, -9.007830893500188, -4.229284666272269, -0.27752616080698866, -10.010028075080488, -9.111728695829834, -2.1897199277193526, 8.437339533607496, 1.4184194197396551, -5.262967022367535, -6.936840000717076, -7.352230717674701, 2.678290702991081, -0.8027937132498318, -2.62565460336051, 2.95, 4.2, -9.93, -3.428252669501477, 2.148696696414505, 8.485878103521562, -2.1903724769971493, -3.1615606941320924, -9.383757650382478, 10.021088379888297, 0.24981371765194677, -6.084424359876557, -1.3511362561345344, 6.055090397315758, 2.1043320258878735, 2.375920521141129, 10.718298738391203, 8.245086471767163, 10.822762915970333, -2.6922411510088677, 2.1250170516050995, -6.669737042558876, -6.049286031836243, -0.6687159536645347, -8.975379989519627, -5.006352308038081, -4.480240612944172, -8.009073262990015, 5.96, -3.45, 7.32, 2.7437150424951904, 2.807536726023378, -7.966058117530582, -0.42197955334539355, 6.444186797753328, 2.830062833728364, -9.135269882414649, 0.1180122262176635, 5.375238267562265, -5.736297248094398, 1.3999991998533665, -0.3209510320318409, -0.8326223986005619, -0.844424294820419, 7.4153598564259795, 3.8737703574271567, 5.992044095230859, -0.8948088001328705, -4.917414577548555, -0.6284264720928828, -0.5583389876647888, -3.934389237333294, -0.8118970328130477, 7.54, -0.45, 0.11, 1.93, 1.79, -7.62, -5.374740109888568, -1.0363060905577368, -7.511946547949188, -0.6136602203084438, -7.135530332074511, 3.873750680962559, 3.0305797646001715, -2.43256983660564, -1.8985444456193505, -8.995881821378923, -1.6080952896802163, 3.057072369144092, 4.560535760611103, -0.7644869475509397, -0.29894530875373004, -3.710490547743627, -8.80006010510383, 1.4201342152520864, -10.533485738633516, 8.306943999378575, -1.6630347193399677, -4.696100171729524, -4.47, 6.04, 7.36, 2.64, -6.34, 6.82, -9.832169000523223, 5.950750636422988, -3.902264732852264, -11.146179437542141, 7.7652911462034515, 1.348904513310539, 4.0920545607323895, -13.294163510102297, -1.92699379012935, -4.322553453710968, 6.3679848440436695, -9.271997909585334, 1.667881769284735, -8.222940155804112, 4.5958532954266005, 4.862818314995618, -3.95552629982165, 0.7019052555741, -3.898116140225234, 5.668168452981418, 7.371983652849305, 9.118912724945135, -4.54, -6.77, -8.34, 9.19, 9.32, 7.67, -4.150348971633387, -10.665256139964288, -7.526855563330717, 3.850649641108682, 6.3793348550427815, -4.697070188433232, -1.8030458379141445, -5.508356234419222, 7.79895197461177, 6.045755582889288, -4.265812632160908, -0.07821967196496438, 1.4695228272835796, -7.513749093818127, -7.985307153848774, -8.176123029819673, -3.7848918212352483, -5.658348903312739, -7.663945862097359, -0.036485831396430385, -6.66, -0.65, 7.84, 6.88, -0.34, 7.32, 5.5, -8.81, -2.35, 8.22, -1.1184333433160627, -2.2144709930724074, 0.8700351205326561, -8.690370611100871, -7.74990834860883, -3.8950341204394734, 6.4423958197399855, -2.0061245751906913, -7.497766193130941, -3.4169110423888704, -3.1372427354375176, 0.3049638696474206, -9.068072202821158, -2.402158015927274, -2.7814958462876684, -2.6440129628424245, -2.191271378096167, -1.4009206914894259, -7.66, -5.53, -6.15, 8.49, -6.77], [-0.96, -5.5, -3.8, 8.47, 9.54, 1.6400000000000001, -9.86, 2.01, 4.35, 9.6, 8.42, -8.93, -5.35, -3.2199999999999998, -9.27, -7.15, 0.05, 8.58, 5.66, -10.66, 6.36, 5.3100000000000005, 9.37, -1.93, 6.87, -6.59, -8.68, 3.93, 9.7, 7.51, -10.7, -1.21, 8.32, -1.2, -5.97, -4.63, -2.74, 0.28, -5.880974065530646, -1.314039206290006, 8.837809135556085, -1.8332418761553815, 8.692311757734277, 3.0691788524311248, 1.1136511067177972, -4.027358583182851, 7.078227362992568, -2.9527998453441024, -5.901244623480018, -0.7851382024517476, 3.4489912578572324, 4.34, -5.73, 1.56, -7.26, 1.6400000000000001, -8.49, 6.7, 4.48, -2.41, 6.61, -3.88, -10.72, 6.560868292043656, 3.5472417991525997, 2.2117289024676037, -7.746937054655467, 8.536902542809527, -0.2453385881009045, -4.628525178691314, 4.238007467142023, -5.963532970882419, 5.625460812515678, -4.123004252267015, -2.299379309576509, 2.662943766663552, -9.571972052185156, 1.8773301492150793, -9.189226734552388, 5.634585284509945, 7.707211620587102, -4.29, -8.87, 2.98, -9.4, 2.3, 5.5, -1.02, -2.88, -8.26, -4.6557796434847365, -6.5018817420024435, 4.351227215836301, -1.3692995400208956, 3.8693129557564117, 7.596087156601875, 6.005190238610308, -9.983689879086342, 5.144362375426721, -5.924283967729407, 0.43811332388043706, -6.545481782440933, -3.3567515454564805, -2.9157204202322275, 3.615261527808321, 4.83317670358054, 0.1102262203044063, 5.735204319112503, 7.288453870814413, 6.04, 8.33, -0.51, 0.22999999999999998, -4.3, -9.48, -6.82, -8.692686267943497, -0.5508744064571156, -4.831641803150968, -0.7572498388646903, -2.0385732167450676, -0.8393225031120457, 2.4601646131838804, -2.5209372181833394, -1.5029498804985093, -4.596318194152941, -19.160698762338225, -6.370478739228331, -11.636887713596293, -9.14471374563182, 1.2525800399052245, 1.6888007484217271, 0.23549180625834057, 9.134086186476338, -2.705452853932291, 8.076011100317329, -3.9085995106688394, 3.3950139296952444, -8.76, -3.44, 2.07, -9.8, -8.47, 1.3864628412108662, -0.22441435797544404, -8.503898005437993, 4.393796249480129, 3.5725735721920513, -7.89686555910048, -16.221172120634378, 0.8857918515057797, -10.362702071788908, -2.8714754385719297, -11.070388301493544, -20.731291536791105, -12.154192244245115, -5.389099778877028, -13.263174383665339, 0.22636078863118284, 2.469692746437235, -5.669540017680065, 5.231177961475754, -7.170262155099305, 7.111340041294848, -0.013439050999542842, -2.428830076556001, -2.047210295476923, -1.38, -9.52, 1.67, 2.88, -4.1840538550268604, 3.4685097214520524, -6.18596688334654, 2.170888134161797, 1.410595255927339, -12.12102536742584, -15.001592211923075, -10.137436277857336, -6.6348997296279775, -8.598047223521638, -10.747795491640147, -11.419548146182047, -4.635018005648568, -0.08486603281107763, -9.23908693614677, -0.8818102033528489, -11.113912033773587, 3.7988022709150857, -7.952033902596791, 4.862004642271696, -1.3805770106328532, -4.411741001131288, 3.33371855885038, 7.944227416102319, -4.522136555158848, 3.3684163580412334, 2.3895187763583623, -0.6813768237928384, 6.539804115666366, 5.340093061610283, 6.268501558380317, 0.11520555706573597, -7.575790075275974, -6.703442521541289, -12.940880643630809, 6.674698650578907, 1.2561425271060473, 1.0464710176708198, 12.178148959256571, 8.44603425139385, -5.000614767443484, 3.849936248207555, 11.23190997812314, -1.274077574751329, -3.199269057733549, -0.660059617621987, 2.6312541331145893, 7.207996056722523, 8.571423297222658, -7.332266653956187, -3.9487491578013705, 9.083250583932745, 4.561399347156471, -8.986435651364351, 8.841508983540228, -10.301996554352092, 9.81461895553589, -1.0915236809472089, 0.11692682629548001, 1.3267114778831823, -3.0891255947796123, -3.0118582916106273, -6.2964129227323715, 8.235468535970327, 3.240242697437143, 19.278585864016417, 18.02929932087593, 6.254716997158267, 12.816680572965396, 6.475925535802812, 6.986666876864833, 3.000770982160516, 0.07867319502312102, -6.801011909543958, -6.341785771552698, 0.3094569159890761, -5.88380295190006, -6.451171756870529, 4.977839887907917, -5.061352975068853, -0.71, 5.2489554701974095, -0.2391184825521555, -8.901247534518621, 7.337411113684748, -6.06594682453543, -6.2301843875173075, 0.006996393709685023, -4.3631980729058455, 2.5473260112248557, 18.121228924917887, 18.237137483309752, 9.158912585092873, 15.167141359983578, 7.0666380265446795, -6.791958316328635, -7.9123249903633175, -14.788995221228227, -9.469903831132926, -5.260639888703169, 7.934074922864365, 1.6772965644665996, 2.737571308228354, 3.769220516114267, -3.4337669466150427, -1.2869397352113898, -5.67912381561716, 1.4979092356863017, -2.35, 5.16, -0.9935754693378391, 5.49764962172285, -2.5293683892488192, -1.7765610920712236, 3.5713624576150416, -0.19857057952156126, -3.083841890314125, 4.324133380720696, 12.402551547864903, 20.919485744698953, 29.71813166398418, 9.0721878536636, 14.335336733029468, -1.3124975212822916, -6.118141593874698, -3.707104901370549, -11.4142010748575, 5.291302298688854, 2.5773339261518693, 7.876061497195524, 12.79575162921645, -5.464415184702592, 2.823535515450744, -8.582972112892401, 0.2528541913325337, -5.728243474983281, 7.87, -8.54, -7.935455959189546, -0.6600979251871847, -4.61710682796918, -4.99881758444028, -0.38240437165805086, 1.3344201388387618, 6.765781587172772, 20.14825675218501, 21.86143827874432, 23.801568755986736, 15.675831982010747, 22.13581196302901, -8.503198011228669, -16.179190441102868, -19.228348386019963, -15.492808170032392, -5.129531362375698, 14.2053884567845, 8.233653295501123, 12.099656207238748, 1.1926450515303995, 11.353662722982166, 1.6949821868640096, -8.633866560433235, -5.379944474802945, 6.75732013519207, -4.59, 9.49, -3.505736405689943, 6.889096353750714, 2.7505011912494632, -5.522440003356005, 8.942882263066323, 10.02260785076869, 16.260868152022965, 8.289427628980189, 24.690059478178, 28.91620868891183, 25.017674642771286, 4.077116226049596, -9.20236735714223, -25.14747915319821, -23.210486549846717, -8.599973805674342, 1.7002704138939673, 16.40930145481287, 13.143220696264482, 18.337381159905924, 1.3350223363673595, 8.751678969860082, 10.348884268311071, 4.069858747594367, -6.771082645650499, 1.2898911676876872, 9.52, 7.32, -5.8008158443647915, 0.7841346128279413, 4.368819925147977, -8.197883911191711, 11.498724519434791, -3.5949418186909856, 9.24354144681022, 11.51079356688308, 24.625858345377345, 16.555802872092876, 17.846535318491817, 9.5685350709411, -8.130231524005115, -17.86852160574082, -6.624586965344811, 0.31178961993556326, 11.214681280559828, 8.414090706075976, 6.972275034145485, 13.334587907051649, 12.794707141121542, 4.687847052219092, -4.397341693119042, 7.290850316707558, -7.434558606962431, -7.511168651134371, -2.51, -10.56, -6.12, 0.309166736127922, -3.1224088049427303, 5.653048065162371, -1.0374695043068396, -2.488760115878078, 6.118046354493972, 15.446251372735523, 21.231567194257117, 18.30810628396796, 1.6763989551750371, -13.104246181051028, -5.220935613391372, -14.727478263083151, -11.22401926532754, 0.0030857592007851875, -3.1095736125404554, 2.0289634127485447, 11.288626896363796, 19.474273777810755, 1.9135786604757379, -1.5977574120358762, 6.496836219444842, 6.938407892948801, -5.541471994197284, 0.7934328406357605, -7.05, -10.32, 0.5, 7.45, 0.2738433486063707, 8.200813271757138, -9.427880388890431, -1.8751578751572064, 4.701382855218988, 3.8443123148859124, 15.307442919987269, 0.20802536850846454, 0.11771760241390125, -15.711044796830667, -17.83868433705656, -2.4989027218229696, -12.72844709224187, -1.0174061232770002, 10.607329630958032, 3.7273746071729805, 15.583961987106893, 19.195715666969818, -0.8712957566400406, 0.8313420931896989, 9.662096265913311, -3.0713455243150274, -9.688528506276702, 4.842984874034938, 1.31, -3.58, -10.48, 1.3309376801085757, -7.236929691650493, -7.552317078453184, -7.974843204621748, -5.024405321724506, 12.157480504759542, 0.32865549219369966, 1.870729384372959, 0.586606687114046, 2.1597524293925034, -12.265356618076888, -9.989508674469572, -14.477091058171663, -9.364950795216764, 2.12093835344513, 12.762966319731678, 10.808725587079413, -2.3749871235000133, 7.4502083821161635, -4.761804407366466, -8.602134522747939, 0.2400100942628703, 0.44274873550333754, 5.1606854088701075, -7.122189801338068, 1.37, -10.98, -2.81, 6.037854254081956, -8.294326340206442, 7.179768648486658, 3.4791342095160323, -5.242123277981148, -8.812759678527943, 7.606793083135466, 4.730357008639256, 1.8129328648984229, -4.64003332211481, -10.433992171157504, -4.701347013460553, -12.242639301768193, 5.4863096318884415, 14.484237623433382, -5.0159655724923375, -0.3383671788304477, 9.87361795669671, -5.195920381141763, -3.2639301950011324, 5.959615468536939, -0.5033228669938213, -13.648562569036404, 0.12721394162549138, 5.942541576427069, -4.63126494188273, 4.63, -1.3599999999999999, -2.432588783232401, -9.85459529496074, 3.7288688837838952, 2.0290067680383657, -11.327854165134513, 6.4635299188858655, -1.3097877943972445, 10.59985972601925, -5.921721959918345, -3.2406719075631445, -18.539010173102103, -9.023933848942361, -5.928445644935845, 2.184898983754479, 6.96846943698845, 10.098784588345405, 3.7778236080022243, 8.614215157495995, 3.816779936001281, -11.781852068852722, -10.074162121899224, -7.727904018578089, -4.65780069391495, -9.588567559138573, 1.5785515861875965, 6.433159374145616, 3.71, -7.17, 8.40258601241681, 1.8929339723714453, -2.704232318670525, 0.2787282088699821, -1.6160826161589987, -2.9441610704281618, -4.57076682523614, -9.854637927665166, -14.241158064135124, -1.0934059077612894, -15.340098775319994, -1.8595880439391297, -4.7159464304809555, -3.4288772058694033, -1.3678536655210711, 3.1198277128591343, -6.346784606385667, -0.7855812458117127, -6.612984857259202, -8.896218461466326, 1.4979307658627725, -9.654462189315506, 5.234642380108251, -7.512027488378829, -4.770380297824445, -9.199207882087162, -0.27, -0.36, 9.625243917940796, -3.0255229897010785, 2.1241897375360397, 3.0638564555687866, -7.578219851120439, -0.1289325259100444, -4.457288391492497, -4.072877429594825, 0.1230280123793347, 2.2466221346662, -0.10057726802827649, -4.932777403894347, -8.521011822601118, -6.3563808571452505, 1.6733377594652403, 7.888328062015986, 2.7425996001559136, -7.841765613470832, 0.9441010991893908, -4.199069259002511, 2.975018006404708, -2.787676648420433, -5.5723832623752685, -5.345437897371412, -6.1087263311342195, 9.46, 6.72, 3.33, 1.2800804528577399, 6.934761950713762, -4.209367917545969, -13.886528728688994, -14.387903485296599, -10.515628465154515, -3.333909558740219, -13.023470256250263, 2.291207111342341, -9.970412458824871, -8.20157432350721, 2.8632414098583654, -4.3961113311900935, 8.878214955493734, -2.495148393825627, -9.392634414270033, -4.344585583115218, -5.235438446325042, -1.4617360214510156, 3.24105455542042, -9.724123222679864, 2.0050392021404675, -11.476896507003008, -8.25787533494869, 1.7186369093311236, -6.98, -9.45, -1.83, -6.4454097733528, -10.833081109755842, -1.42685688290826, -9.447091347440075, 4.532564383332578, -2.312227529879376, 0.47513130581395213, 4.855409165233526, -14.884450634118963, -7.670169235416947, 3.926328221709097, -1.9329259126229832, -7.507644847692061, 9.858053529652631, 0.025859907442039032, 5.40706330826492, -0.10281667327458255, -9.441271858423166, 3.622000881403861, -10.083639539143952, 3.4529358359188325, 0.1400041895991584, -5.075967620297047, 6.558919025592451, -0.1686718746141325, 5.06, 5.86, -9.81, 4.443768618588403, 2.864471278760962, 3.3130889868672866, -6.0182049038564465, 5.791783654061852, -5.843846927586666, 10.297327635013042, 5.258453585384342, -4.365861932984484, 1.9865669487197704, 11.697850766700283, -2.6244594944358464, -3.2028604870449806, 1.2511311160991898, -1.5213445816019409, -1.5361353699972875, 6.312723234327314, 1.4596025115647313, 0.6738521753037393, 2.759154054393576, 1.9197851737031633, -4.7265556251003025, 9.326540387869832, 0.65, 5.11, 7.3100000000000005, -6.39, -2.2, 4.0, -6.954524693525068, -8.7695309945166, -6.279871762506903, -2.8634876043969157, 5.633690485563063, -5.327074307938529, 4.9788660250906105, 11.465417220356832, -1.2467017300993959, 5.441414034255861, -1.9549904730383252, 8.164929189261384, 6.917226642183475, 10.414027115222453, 8.353640131120256, -6.632353349053362, 8.25490689113229, -4.490472666737838, -9.593422681754065, 7.937409336198716, 0.10981873005450753, 2.682096603891055, 3.31, -1.5, -3.69, -9.85, -1.63, -5.47, 0.3305689757191987, -10.805444351088882, 2.6091303426305372, 5.564119545999831, 1.1321672410151022, 8.500589701291855, -4.667475305143617, 4.113629543104316, 3.9152165889239248, -4.087694892598026, 2.8634452905633863, 12.341397295077623, 11.434542457713084, 12.200843128766666, -8.140557640968726, 1.703042321462961, -2.656041742520632, 3.3193930030491816, -7.31055132312365, 0.7507696948145675, 9.840934495605097, -0.9045610698730598, -8.75, 6.6899999999999995, 1.48, 0.75, -2.19, -3.4, 0.8324951622940903, -3.749334192435797, 2.5335599925174197, -7.2524138083198855, -0.09700076269188031, -3.2428952710457892, -2.5094552225080746, 1.5519952786416746, 0.5671919175046896, -7.73382983798876, 10.23639867139851, 4.704481714732172, -10.01556539375272, 7.289035304018606, 7.83244358338276, 4.114881815082225, 7.91156388895573, 3.3385221960822564, 1.130701255159152, 8.299288824708222, 3.92, -9.57, 1.8199999999999998, -9.07, 2.78, 6.52, 4.74, 3.63, 6.89, 7.52, 9.518648121662364, 3.8592113422995373, 3.167962657624246, -6.5150214055496605, 0.44360946441960847, -4.177675230078997, 3.826999155069491, 7.246738660542805, 3.5970657875592513, 1.8426466067569627, 3.919012780842755, -5.947778834850047, -3.365386790397133, -5.5380157120263425, -7.766330300624071, 2.750191145252257, 4.287187370094886, -0.38057217768873763, -6.45, 9.3, -8.26, -6.26, 1.28], [3.86, -9.8, -10.88, -4.5, -10.62, 8.03, -6.69, 2.05, -4.96, -7.47, -4.5, -0.74, -2.62, 3.09, 5.91, -9.07, 0.54, -3.6, -0.49, 7.81, -4.6899999999999995, -5.25, 5.17, -8.91, 1.59, -8.89, 3.65, -2.74, 8.25, -3.42, -1.52, 8.72, -8.9, -2.62, -0.17, -8.08, -5.15, 0.7, 3.264008224482027, 9.05485099178857, -9.813983969832185, 1.0101760601463181, -3.42260020603883, -6.551100719805153, 7.285266189381301, -10.835953154985935, -2.379292487556754, 0.5984599913142901, 7.605967363129605, -4.206364334844081, 6.367719384101198, -3.89, -7.4, -6.29, -6.62, -7.58, 2.31, 6.08, -8.13, -0.7, 2.63, 5.05, -10.13, -0.27061063071507024, 2.857874618657891, 2.143340659759529, 9.07720855024538, -6.028230570923565, -1.0156180727107225, -4.453500098520884, 0.24960181706293344, -9.008447033276926, -3.9876084730315107, -1.5449453087290488, -7.119467698170069, -3.4967726972876934, -2.1344147533748, 7.6639092815921765, -7.088652345670233, 3.823404400104217, -7.478327255367126, -9.61, 3.7800000000000002, 2.34, -5.17, 8.15, 0.74, -3.77, 4.32, 6.55, -6.920228110394241, -7.898602223526754, -7.411762559223746, -4.153945186685028, 8.375797780636095, 2.4278914629562283, 4.298649391490658, -1.2822186677183522, 2.0391418610982113, 1.419088760852437, -0.34600044263649776, 3.506305160825738, 6.602322065875759, -4.02196288610548, 2.6994252333380677, -9.17409731307338, 2.489356818375948, 5.890203505736761, 2.1086228332531967, -8.9, 6.95, 8.16, 5.21, -3.71, 6.35, -3.66, 4.198007949906357, -0.7481607031856379, -2.647904214469016, 1.4482036720347877, 3.25568684363718, 1.3415039053516962, 2.2199531744342353, -4.433274879607603, -3.2365320506305166, -14.314845839632591, -16.96718251751482, -5.577902895686789, -9.226504303315474, -4.162242753208732, -0.43450557602952405, -4.145420952214705, 2.691111853588833, 9.143198515167736, -5.833361887320363, 0.6982476544119125, -7.746749528403889, 0.9729476507158702, -0.62, -2.38, -2.55, -6.64, -4.54, 1.639748903612999, -1.2784637255079672, -6.5137471238318225, 0.4385864830714459, -1.706164946705227, -3.7273124226133274, -1.049627956359745, -4.055929063353691, -3.0157964713524876, 2.501188510746095, -10.678951508788792, -15.375563012398075, -10.227823307225128, -19.47429619996433, -12.682874907960258, 3.0548146810223065, 4.636117363706264, 8.593151413529181, -10.369480263566919, -6.686730487876094, 0.7470352088442528, 5.7836778463448235, -9.665684965243086, 0.37408906055798713, 1.43, 0.7, 0.61, -1.38, 1.4172495223677328, 1.0168601783206184, -6.479183105483767, -4.722368635785976, -8.625527657058736, -2.7047132605571083, -9.157012764921957, 0.4845244275989623, -2.22622268605575, -15.113704196865024, -14.418788444663775, -19.269003397918716, -14.112493603216716, -7.577650797337547, -3.218940354866243, -5.609221816831853, 3.980507919349317, -2.776526995069221, -8.586493112513832, 7.089125305431517, 10.96350285631486, 3.4480339256467993, -10.015933988807763, 0.3374647254243612, -5.206117640073373, -10.812929058239085, 5.63190387533602, -2.773127279341424, -9.782035677564426, 3.3701806077837557, -7.066202949733788, -2.7627530064199934, 2.0002474424421615, -5.8585122202134885, -12.146926893526048, -3.9369311929963686, -11.835719579785115, -7.618887658327941, -16.887189249399253, -11.783807648695323, -6.520892058160834, -1.8739548091140237, -10.760115424981864, -6.395755163022901, -6.563976066500544, -2.259604653845892, -5.984723764306639, -8.844561259928017, -0.9104379138521456, -4.906901354304132, 7.476725286572713, 1.0257666509958003, 2.3659531842712243, 1.5380968058794624, -9.28570473779254, 0.26613834817724086, 0.23124638468090877,