[[-4.74, -6.61, -3.52, 7.07, -1.78, -9.78, -10.57, 3.85, 3.49, -9.27, -2.4699999999999998, -1.47, 5.83, 9.93, -9.61, 1.32, 7.34, -5.26, -3.73, -5.4, 2.95, -1.9, -3.39, -7.17, 1.26, 7.41, -8.09, 2.33, 6.77, 9.52, -7.9399999999999995, 0.05, 0.39, 1.7, 3.45, 4.85, -0.09, 0.92, -4.010664635206873, -5.862059462534029, -7.386080264981364, 2.901238086311436, -10.870344815194365, -9.74556173500252, -0.3160832255580783, 7.430193467336911, -7.629774625578644, 0.8135869756220484, -8.186519009919648, 2.5028739124159776, -6.453963970208758, 6.61, 5.74, 8.62, -7.75, 5.73, -5.9399999999999995, -2.75, 4.62, 4.05, -1.04, 2.4799545650312718, -2.7302106530368317, 5.393663269909772, -6.201831767460435, -3.187070507777454, 8.026222574554296, 2.4858408853800147, -9.996761393546636, -3.1247894345562943, -2.2516589167330516, 2.4303291315259967, -10.073215707724819, -7.392100646516276, -4.9996587080482, 2.1496157746939413, -7.700148804694994, -9.551637273903614, 0.03445416621372384, 8.522565747256628, -6.020723142135562, 7.17, -5.57, 9.38, 6.25, 4.98, -9.46, -3.34, 9.89, -6.575923637220289, 4.182206434093131, 1.897124811956363, -8.739627304930712, -8.757541806612428, 0.35704810887115157, -0.3552276997992635, -6.163279758597702, -2.8610168548516226, 1.418123384527264, -6.672677868888598, -11.362200729960795, -2.7666617216744416, -4.528059337214612, -1.9030448602642924, -13.04199220189118, -3.802751196277564, -1.1970062083711415, -6.287998596285217, -2.6364088670368546, 4.23, 9.42, 7.59, 7.86, -8.61, -3.4699999999999998, 4.458568792634911, -2.196466271167869, 5.871119986824926, -0.24202181937130499, 3.212838055555464, 1.26290960417681, -2.4632817125075586, 8.93362351131106, 1.5077205001739806, 10.661740657432283, -1.727652553319439, 2.129390314621917, 1.3568761356063297, -4.238740484273444, -6.825640674542162, 0.13591282072837926, 2.4468360135164424, -4.210786517220483, -6.876604371840132, 0.8893685189893467, -4.521190670366556, 1.670231669694071, 6.2544998658619475, 2.43, -1.73, -5.47, -5.3, -5.60059603695783, -7.256898687901847, -2.2761569988816803, -6.773917393834468, -0.5827275112455197, -8.746318241268142, -1.8216049844746085, -0.8973396289616549, -9.07773945849435, -2.072650767888094, 4.459590317731193, 4.972033119713129, 8.646533388309145, -2.1657690009789428, -6.594110431277209, -1.9446582595881212, 14.72313393950353, 14.030524739329973, 13.51859631295198, -1.4915794390185009, -4.024994432324469, -0.2598049960715193, 3.0531998605471897, 1.6080641283860633, -2.599713371734846, -9.54761926694896, -2.62, -4.4, -8.460896823446072, 2.1517122279673653, -3.107424465570014, -11.808871426289215, 8.422200430436007, 6.269396624861946, 6.621965925376418, 2.668252266026866, -8.810638845999645, -11.567447618424165, 4.846763296770466, -9.776120523733704, -6.755189390869826, 2.5171394116112924, -1.187244293927402, -4.22347579963837, 15.924489797206807, 3.561471595375352, 13.063664306019964, -2.6987236476346497, -5.510063114460456, -0.9290447556826724, -7.777928753200844, -7.182539651293612, 7.946998556097553, -1.0031026180975278, 8.32682056953837, 2.0990671698363803, 8.579918874886689, 7.049202981962981, -0.09541074992073882, -8.299408469922493, -1.6365555837469283, 1.7857728188906095, 0.7261735951065087, 6.7697356308342425, -8.123156319059547, -10.237375795180194, 3.3138545044641847, -4.280823122679453, -4.005881503244296, 1.7276617999891748, 0.26617496191864637, 11.67844948370574, 15.178331751827136, 17.106224595526513, 6.284810576532996, 1.862932842904933, -0.27845688436185173, -4.351120173458434, -3.0822089873008975, 11.14408933056702, 6.4977778616577435, -5.021319199072717, 1.5196325272729554, -2.212994069282868, -8.73128120832776, 3.5414128485420138, 2.527821603962932, -0.9743165592774761, -6.680776575957238, -2.948331043673468, 1.6819533415043328, 8.585369323360203, 3.4785393420441437, 6.8694464637418555, 8.89926178692465, -6.763854565859099, 16.507731521745097, 14.466998120827592, 21.72360273570489, 7.2194111761526605, 18.37822383989487, -1.3887843571578047, -4.965988288947662, -7.444637436317985, -4.891764109014147, -2.877961937422537, 4.329231069232898, -3.6740271121003483, 0.31915222968986795, -6.1376852544322285, 5.9042859075678615, 3.535553949244243, -0.7912562589091332, -6.670756710715068, -3.5017375539884013, 6.93588638994083, -7.741387826391198, -0.3674745730631854, -2.6863579612849655, 7.3678395960103416, 0.3523469604871017, 8.03520110698941, 7.468763185542126, -2.978061012108671, 12.059331572420787, 15.862727953263466, 21.16763978765273, 16.40658110576946, 6.913893874510915, 2.2207140972322916, 0.34148169395279493, 4.640213255512251, 1.8584784151521156, -5.618127963444924, 7.462717320067531, 0.5076563072053782, 6.319324305927769, 7.344665466103901, 1.26, 7.606609377821186, 10.183717771195237, 9.61677630154354, -6.021140550900811, -5.138060145793059, -7.692856054803514, 1.2084913332371006, 0.5667457590586744, -4.57219918053635, -10.308492835959608, 3.245701275374394, 1.4989551383450048, -0.18823428804902853, 23.53125044058101, 11.275658141333366, 24.18288461653927, 15.437428486226096, 0.8018800480541207, 9.607497722257536, 6.249228818806679, -5.696321891138096, 4.353027427232943, -7.574566642898536, -0.07239556689036675, 4.773482509055372, -3.1044101684346175, -5.22, -5.88, -8.860778194088963, 9.479147974756334, 7.432430837644958, -6.873962754667042, 4.94380017153165, -2.116144573369822, -0.24140345391102208, 5.231385567559322, -9.271254150011, -7.231864686311339, -7.355477681294668, -1.8059259673917998, -1.8505857257916838, 15.207315418120709, 9.347727029517221, 10.734812248576333, 5.1162439730507385, -8.486138794370715, -7.063137860100888, 2.4701427165196916, 2.0512107115222897, -4.222179005382985, -0.9797741218806317, -10.275666085374414, 1.1788851999989665, -1.3015792995872635, 4.2298105095076295, -8.15, 3.298256989040989, 1.4052302283912896, 1.0954919486957502, 2.956830487636508, -11.169444304891716, 5.458330297497996, -7.8730705051713015, -12.232221592321185, -6.608481795677398, -12.21257504296672, -15.644846546127827, -16.41764169997944, 7.2045122927976415, 10.397937100154156, 9.15168504278413, 1.2564681643224445, -24.570436099624104, -10.005134848570144, -22.309068407727988, -13.990590759058174, 5.748622756021757, 6.3593077914209735, -4.187170889600745, 5.4994799604506, 5.13086130234754, -8.497563838210132, 0.4493503183118719, -3.37, -7.607217912706099, 8.922515993203858, -5.838729258950199, -4.777574278051202, -8.582227550540686, 2.071573712259433, -14.51583324912778, -2.3318633584553434, -10.513972457147752, -20.941815193201172, -16.704213038002692, -8.274271507242597, 4.730053169179324, -6.616206749156041, 2.5698644966991067, -17.441470046517523, -33.7432949200884, -25.928416534872397, -18.16701496655109, -8.055331123367024, -0.38054669891018444, -0.27874175132054413, 5.679227664617102, -2.1195242938904753, 5.182715733617452, 1.6958208691101018, -6.49, -10.32, -7.679904384618112, -5.502998336413038, 0.5588829703747774, -0.07123037955468625, -3.7775383109212073, -12.457863342332272, -8.871577145860254, -17.651628976675095, -22.77590601539125, -18.079190929295635, -11.728039132950197, -6.5972537872254975, -6.831865037501879, -11.928714824821864, -14.180063280145712, -34.19935180373383, -30.63868155538466, -25.495997837732077, -15.877287366420578, -15.369777470163873, -12.756555397297586, -12.418543246864365, -1.7972477106216682, -5.4500194709395275, -10.300230267802789, -7.619203194914491, 3.7800000000000002, -7.64, -5.229995258741394, -7.979854601402749, 7.766356325721835, -8.060139042146854, -10.76929919661552, -7.822767909982689, -4.794728308579335, -10.687839721689807, -23.678112995373343, -26.82468929729874, -27.171705473307576, -11.108197924971433, -14.486952291982973, -15.758643179549978, -14.849043779565866, -26.89415273590456, -19.02610037617377, -9.977798140477937, -3.683445711286581, -3.166971151443983, -6.930302139903048, 1.041747715114159, -1.8971843077797517, -3.8746067311286616, 6.610143172754452, 4.0994866042233165, 6.980005617634477, -2.51, 3.62, -5.986923395708092, -6.177521513937379, 6.263459081958226, 8.742133575846495, -7.41095453483876, 1.4857315937511881, -11.629223174214172, -18.048826358068254, -26.642931481933008, -9.0810011262406, -4.861587271875465, -11.622231067903455, -5.59392263666748, -6.47525131403772, -26.436460608349357, -20.933434062377035, -3.5255190216212657, 0.8676742395702277, -10.457190514873753, 3.627423864627506, 3.931332500790603, -6.51549416764729, 2.4474239613406152, -0.4811924484872512, 0.261619032870722, 4.08001029899654, -2.95, -6.07, 7.033447243356465, -10.456960300240773, 6.260150193265827, 1.6220611699636536, 5.754932588107008, -1.9329829864874692, -19.676976765916823, -10.55198403384447, -16.592517287223984, -19.038292241590288, -11.164326815023266, -2.137845980457577, -11.15015667833938, -8.865039206038887, -19.659951711632363, -16.900409032877228, -10.663271933825708, -1.9350989790612596, -13.552211266853847, 5.059070897203556, -7.860108154080871, 7.441555004710423, -0.9270831608567928, 3.5501409286265737, -5.681208241242058, -1.2427582116781422, -7.74, 3.51, 8.919366053439122, 5.292121180695978, 5.432856222017791, 12.168054451871969, 1.254273993614111, 3.2766163461359143, -14.42970034778056, -23.15128412719728, -23.506876483106172, -10.123142022371347, -1.8072157549184087, 2.089974864267628, -7.987701523217552, -2.8317568067688503, -15.529544218541663, -3.932605878306481, -4.1081840135121315, -11.90842044803896, -6.1878466355324635, 7.427817828729167, -3.565463489318145, -6.275983897091181, -7.783129086058621, -5.5204481007716355, 4.611305694159865, -2.5174106121964446, 7.99, -3.55, 7.461112949236655, -1.3760627777730532, 4.322036091235949, 6.575557426752473, 11.34083333370798, 6.33412860101442, 12.943426448238343, 6.416526544466227, 2.6967110097668794, -13.581612459901724, -0.8417012712618661, 5.699805650231923, 3.373768316329076, -4.961544479646743, -0.5468080117762951, 2.0999927294675826, -11.305637130177024, -8.512224449411192, -7.740448558355367, -6.493210835522596, 8.52094704777411, 2.7949172795097215, 0.5850854640747154, 1.2794687481777234, 7.015954948112561, 2.6613039146096757, 6.99, 1.23, -6.551995747158331, -2.3692927026568995, 3.7894390266826417, -6.818475776481637, 0.6399252142293248, 22.4963592932846, 14.124912889165724, 10.221432317396323, 4.309235293417086, 6.672434464003462, -12.754415696882788, -2.0559572178764283, -9.266793836658067, -13.216768139187899, -12.682253171285087, 4.719260499634656, 4.275400294237253, -1.6503352646090361, 7.161941475685927, -7.62192040873476, -3.2465249054228953, 7.916505051481118, 6.9960177077649535, 8.12925048756341, 8.411228645993907, 3.2, -2.09, -2.27, -5.045842751426335, -9.800850973034375, 6.873628033668235, -2.6796911554604583, 1.7651172524963354, 13.7741456808787, 16.966749119877413, 16.785287621646162, 21.32383311720203, -2.0342978082224215, -3.425179706551802, -8.135581500240576, -1.3806710422879895, -11.198718127723534, 0.03376425890832058, 6.228467745695919, -7.2958772149333, 4.012676858137832, -10.729535258046536, -8.307446509871953, -7.221127519298303, -7.492218705849499, 3.06141784529545, 7.645334631965722, -3.5227109910368135, 1.21, 6.6, 4.6, -4.796021769357026, -7.1782201053452175, 5.16394011310158, -3.608113056609313, -4.982343428058568, 14.138510299280744, 11.054242970427074, 26.186913718544382, 7.459796822076616, 12.856166408084157, -2.3298584022139384, 8.877182757444581, -4.077181802200245, 11.030747526747373, 8.910341634267883, -2.9840638049946966, 6.677809575102972, -7.033072601896054, 8.22259177280032, -7.913599556248813, -5.578313459788876, -10.713567518042202, 9.718556357965403, -9.772622737386147, -8.49923631060324, -1.62, -7.16, -0.65, 2.7359165066654936, 2.5358026079663474, -6.280823543008161, -9.114319465524853, 9.556537206050832, 4.216705861387068, -2.3188379482029458, 4.433049420265826, 10.653129159724548, 7.641866059558697, 4.947350457636871, 10.638076117129977, -1.402458086751348, 15.901710962832881, 0.9848047087890531, -7.42595835726323, 8.916230651996258, -8.20952778193679, -10.139769063639712, -9.113215610401452, 3.6061235873437716, 5.796615795789675, 8.287135385200417, 5.832958565707511, -6.9488899534433415, -0.5, -4.39, 2.1, 7.03, -1.4734535792103642, -0.7536691636189732, 3.7511855616871386, -5.239661886718079, 1.6827186993093532, -2.096485566751403, 7.15107415659227, 5.943695477749548, 7.320976976592542, 3.018111622392344, -3.1134410325353183, 11.67909162850882, 10.54352943812109, -2.8107109669614, -1.1079750591446826, -9.928477061125374, 3.0324619802024797, -3.7497976323940936, -8.160316486953239, 1.0094660222085365, 2.8890717260504846, 4.80635510108851, -7.11, 7.76, 0.45999999999999996, -5.4, -8.09, -1.92, 1.6548943731038785, -7.23199567567199, -1.567000233024713, 4.687279611606761, 1.355048112739318, 7.794561038450228, 4.483089000217075, 9.417112149115509, -2.2088894938172667, -5.15192717522365, -6.890215294278574, 5.259081323066592, -1.9734754117494218, 12.03484693472167, 6.094693802600503, 0.891488370269549, 3.325216072770647, -4.261622553984153, -5.181536574500697, -1.288118335180608, -9.642180522166644, 9.833964478928406, 1.0699999999999998, -4.83, -3.74, -6.93, 4.13, 8.2, -0.6189364820114829, 5.9109945381962, 8.793868605525228, -8.206945508793453, 0.47863551529099857, -1.5794600442254827, 4.319124066512142, 8.207642511555536, -4.701375987185709, -5.041735475641949, -7.1097059884869225, -2.4693441298389205, 10.991617507731675, 7.614180327302048, 4.999844277733047, 8.172374989682492, 1.7381293092149757, 0.6359952700392517, 1.9791922613840125, -5.283772147302567, 5.643908236811229, -7.46, 9.81, -10.62, -0.37, 7.89, -2.25, -8.81, 5.55, -8.2, 4.553768738692795, -2.7927601412106275, 1.5840436150149795, -0.5954069825053713, -7.167797495735158, 8.68017454745255, 7.142570961059974, -5.891947416792435, 2.5610724356733616, -7.060320914133747, -7.195819410300655, -3.3554115318255926, 6.74724294114165, -4.9515635572705206, -7.469527816326011, 8.031197278165063, 0.7248625038490352, -4.8954370355447505, 8.48, -7.39, -4.49, 4.67, -9.22], [-5.87, 9.75, 7.31, 0.36, 3.41, -9.42, 8.55, -7.18, -2.81, -9.24, 4.88, -6.43, 6.8, 5.87, -9.81, -2.01, 2.7199999999999998, 5.25, -0.89, -10.6, 3.38, -2.54, 8.04, 6.41, 5.9, 2.7199999999999998, 0.74, -6.63, -5.16, 8.88, -8.6, 6.98, -9.76, 8.95, -3.08, -0.76, 0.24, 1.98, 4.129472808847483, -8.061695496846879, -7.4692773063988325, -1.5510829257830432, -10.195480610072051, 1.210365951367431, -2.723304042935599, 5.432112913586406, -6.159808089668139, -9.579574437666123, -0.7207480914364439, 2.6372696141776575, -5.89987851727443, -8.32, 3.13, -10.76, -1.03, 7.75, -6.56, -0.53, -8.82, 2.69, -8.38, 5.909964458105096, 1.8698352148508985, 0.44847246617929526, -8.210083503310692, -0.9863393204902167, 4.2439623561941255, -3.8777724302511576, -1.5926392427510818, -8.024119224551184, 2.4683661510890595, 7.853759553243883, -8.418467453154596, 6.07593733137906, 3.850667147123284, 0.8092784466480787, -2.0079965510453985, -8.98154333482801, -6.484857953718648, 2.1652527828762143, 4.679624336451319, 0.6799999999999999, -10.09, -8.74, 9.44, 1.51, -5.68, -5.72, 3.46, -2.4452085245968855, -9.596730734998197, -4.196754692644183, -5.42783673812103, 8.154815482818783, -1.1155288990795311, -8.483830145178771, 4.532471100015693, 7.655973053220606, -2.6098356696047955, 7.541951697653679, 5.636611202028095, 2.99664925408656, 6.302331019923395, 5.284362729097648, -1.6007422472512924, 0.6178980525460314, -2.101389942721221, 8.440516455478834, -2.651299591525681, 7.79, 3.36, 6.84, 5.18, 7.05, -9.08, -4.287747664127542, -1.6855132543699463, -4.158985718494102, -3.671479602623418, 2.8348620477632216, -9.34355778073613, -2.7819667782365274, -7.637934725825241, -7.4850410106296605, -3.747533358162146, 5.458001228558713, -0.05568549534984267, 8.87929688679384, 1.3902174796523812, -3.8296228515127986, 8.386212092825929, -2.3383888205759846, -3.543598164309529, -9.477882919588179, 8.57448420900969, 2.961210885031071, -9.007228147957802, 3.885359596866449, 2.71, -8.17, -7.45, -2.85, -9.420486044089927, 2.289976685742398, 7.8870991135524005, -0.10693424012537399, 0.2870962162947474, -11.27646618942719, -7.958936518304078, -5.166727524928336, 1.6253276116818944, 5.338755507478181, -4.903466488899714, 6.671616986509582, 0.871790369990088, 6.322735231826032, 7.455107989173952, 13.106386479860461, 4.960806534894465, -2.142628569111683, -4.351061577430103, 6.468304887760844, -5.609646385686639, -7.3261294159477695, 6.128205707667584, 0.1948332280777267, 7.733158370004924, -2.84125086716433, -0.56, 1.26, 9.245102201112749, 1.5887055151412917, -0.7557359863172531, -7.21516509726175, 1.2336553771894567, -12.716348156115187, 2.7907982522915753, 3.648669787787126, -0.6965149956443528, -8.533313540160131, -8.684341326010426, -3.4190892697130058, 1.9629378988646005, 2.5127378842758503, 8.740014887930787, 14.541197150583276, 7.434467494313168, 8.129755241177172, -6.641403429827272, 7.035310707389062, -2.448777795523589, 1.495400975756004, -5.800736988836516, 3.9369269687071253, 5.668145810466611, -5.9955787963862495, -0.7889613303760146, 5.320980461253746, 8.944189493889322, 2.7389834795222234, -0.036507663450600775, 5.301586521968147, -6.977166284467057, -0.4548974655833409, 4.316979855020819, -3.5723036090784186, -1.217683236102983, 3.211978026719808, -4.377325448743017, 9.85645693779862, -1.4851621782834328, 16.05846034878821, 2.8943848010718356, 10.883594345930883, 1.3483470469667929, 1.1021474799633444, -2.8224746252390007, -3.1534081506637017, -2.049554895793465, -10.73193398803719, -5.6064590705590405, -5.250114157503846, 1.4834657788414367, 9.065643715086201, -2.943864129825932, -0.883868960906299, -5.463052924030301, -10.92034908907653, -0.17502496781882684, 6.317509483298867, -8.051647682989836, 4.201627144343796, -8.829541427004134, 4.265825925260636, -1.6577577209553573, -2.4397506947416625, -2.7950998847855266, -3.104903780439118, 15.538138807514398, 7.57227061381135, 2.6584680578514597, -4.409517524914815, -3.53951662932062, -9.528420851408418, 5.207944036148199, -12.682090738872075, -0.9010738725183416, -2.233683105833408, 0.953327494828329, 7.826889793890092, 3.532110446415293, 7.524533349823382, 7.9904723140073095, -8.198222295581003, 2.2441475778811264, 1.788368512127659, -1.0219783791186108, -6.41326677212557, -11.311519744260472, -8.888577007057453, -11.394897965897378, -9.069151671474952, 9.197690792032521, -3.0807818290394344, 2.7193330124785993, 0.6279736678222099, 11.37698915182197, -5.965596360567681, -8.435668103820866, 0.3632199597990423, 2.1331189978380545, -2.38730128011734, -4.265645649420972, 4.879894439725855, -13.651392565814966, -2.940657921085666, -2.09171421155605, -2.989333677359498, 5.085642288075678, 4.305738894412616, -3.73, 0.28261444125099583, -0.3671791178658103, -3.7761826090235737, -11.98017980897092, -8.982054366268104, -4.682803712697086, 2.6609357394526048, -5.862452079950169, 9.214347519747072, 12.089587696860406, 13.669323019625025, 4.5035075817146355, 11.900852070838845, -3.477632748303409, 2.787501197528482, -13.569238401436515, 3.998676878309818, -4.800430253526122, -4.748290599522383, -0.7148481308709864, -6.843608175283576, 3.4711702355314835, 10.477846805638597, 7.524253606073383, 1.3447152957491673, -0.6153393614944885, 7.33, 3.98, 9.229366211669578, -9.838980756715088, -6.952096686889344, -0.78407829935695, 7.1100911898866626, 5.907201306773004, -5.474892722172113, 5.131376008047844, 7.546433166275341, 11.780630624008351, -2.3189539153045953, -2.575090080641101, -6.720570582356187, -6.176257526081857, 0.164709546801098, 4.865885897037692, 2.388604647065275, -9.491390498615377, -4.767300858310829, -7.306926509428686, 8.942102794355714, 11.168589395871999, 3.626519350005307, -0.13897973225733987, -4.000547232616278, -10.23772629516061, -10.450122971803973, 0.17000000000000004, 2.1533729609218937, -10.332699810496146, 1.434607525112229, 5.7322226043579425, 0.772371919395628, 10.429588108285097, 6.779693765677738, 3.130260912105109, -4.084975403952428, 1.8203086126810986, -3.0909474177474885, 5.334939052922849, 2.4019831554575513, -5.0986239602806025, -5.588798842067332, 6.038611063906003, -7.087531971854633, 9.862766650856875, 2.711920921886002, 4.284038910935678, 13.628005518019709, -1.7711491600233231, 9.44203248793833, 9.10554422129441, 3.6487772275051342, 0.6140267131234753, 1.7095783823863795, -3.76, 1.9921732539434767, -4.345821365870791, -1.431807182717774, -11.628972897395137, -5.325377296849808, 10.041904868815253, 12.877167114657668, 13.176076382612349, 4.489046752779895, 9.972401508273734, 10.122635141561569, 4.922217640199441, 3.19244625950089, -1.0168412951489703, 7.520367696121902, -5.170925907289658, -10.744415490060188, -1.7078005712696225, 0.027989154403793237, 6.209922250945657, 10.57914296923273, -3.571144983440572, 6.76007011780691, 9.54070953793873, 8.674802948520547, 0.09672368022443811, 8.44, -9.69, 1.8600711112063748, -0.6941029104361846, -2.947504747188581, 8.157162480061015, 8.116206666933698, 10.889402908367275, 0.15196565523593458, -1.5954128458395092, 12.622976400247087, 12.107871039194944, -2.8852642650184346, -8.119344862908758, 5.365990753314501, 13.417824955568861, -7.760707684535351, -8.189857654096594, 2.628634956128059, 3.1413721628239277, 0.2222755144320232, -8.11044549310437, 9.894898142905998, 9.323878440501282, -3.4069834871139046, -8.26164357287397, -9.543826704348849, 8.831722461795598, -7.32, -0.28, -2.3899964738244774, -9.779891863950636, 7.699155539667515, 5.875242378947852, -1.1809587370575167, 6.205239603371073, 2.0424077051990146, 13.270275963239278, 5.899389318943919, 11.745337832092131, 5.469541323614184, 6.021920930832875, -2.2811375473516673, 3.536514963945645, 3.4737244871364084, -1.901972563313322, -4.1699371157268, -8.97462502312703, -8.334000267930112, 4.9935445595280665, 2.3713801647106356, -3.8136484512594913, -0.43647278627817726, 8.761614211191413, -8.237634254374372, 1.7653498423615535, -5.599996779931703, -5.75, 3.12, -2.711213057834652, 2.579727475090764, -8.776026874354303, -1.735523155413918, -5.037040689606063, -2.8101687077905457, -0.41135165287567976, 6.586133940477691, 12.925413073559668, 9.227391209734519, -0.8811355519173489, -9.460931427684843, -4.7152635956251565, -5.004465952297659, -1.3137139523396952, -1.2821307363403718, -8.585300987838721, -1.0549868494071548, -10.799644528744354, 0.8163606782112739, 4.950019815647989, 0.030771878075678834, 4.353288983191251, 3.21830230743629, 5.214130363443091, 6.230005903458543, -6.44, 6.83, -5.060131866552135, -9.206394375094332, 1.079447180560316, -7.3750283265082635, 9.977594652802496, 10.786821141167687, 7.008293111283713, 5.086148697822534, 5.120559390800189, -2.4766267046819714, 9.1503359615994, -4.2397421681018095, -10.934062543805043, -0.056506529538563444, -7.603622521361396, -5.973627681809093, -6.4333984336085, -1.4628607519786339, -2.826568665083805, -5.9011058194447825, 1.58532735649037, -8.553950122122542, -1.4087731980223963, -5.295650435030041, -1.3257089189653544, 3.996041676767688, -7.8, -5.52, -0.29743961495023513, -1.529929151695931, 2.5906023575970862, -8.455784167832965, -3.1122488833111333, 14.545665253668888, 4.580307976008387, 8.770638942464675, 10.199509228282636, 2.0864897461827456, 2.690440124541291, 1.4776481552905234, 3.8829499053344128, -1.2099193431823811, -3.02040820205668, -6.6710975301633235, 8.545889120719915, 1.3193156654793783, 0.5026468567202964, -1.5489278072354515, 8.481416802556872, 6.4933366784950435, 4.29876468991355, -2.3420220276487074, -3.11838199865617, 1.793104807720848, -5.21, 6.7, 4.679512476425564, -11.780844343942482, 1.642325128507716, -9.958069223038235, 7.303281202704748, 9.172566116556922, 5.362394073734773, 2.8893639743639965, -1.3138730995900452, 6.386276069188978, 3.5859667622452096, 2.6428630804848448, 5.723704943608947, 5.974670801637438, 0.8835205908179045, 3.017196857353805, -6.769766448973724, 1.0222006930152583, -8.16472690214987, -6.258892362282025, -10.22220868175058, 9.406088441107105, -6.507024710737389, 6.23266066159178, 7.675757061463485, 5.303707164488405, 7.0600000000000005, -9.28, -3.245011469638106, -1.4041907429015528, -1.5604690089852506, 5.388130351642741, 2.316691209559291, 7.366625069984937, 1.475569420349857, 11.454452084668818, 13.555185888979915, 13.190405091493247, 9.022869057888695, -1.736740784488322, -0.39256368618112, 5.971981029469371, 10.740190789163158, -6.841901957556982, -7.541271335538312, -1.788983555789096, -4.81982140516992, 6.452915034630481, 3.932830869137835, -3.9848963576108054, -3.4167291806945137, -7.138699327662789, 6.649739102255459, 5.47, 7.51, -3.05, -8.785643772978348, -3.059034769985853, -0.9071755469392606, -10.954474534390181, -3.801921261969155, -5.8022019024687665, 3.768245954580932, -4.13434760329568, 1.1073647133647533, -2.7093316204313824, 9.378399174194232, 2.1792644407218904, -0.4480201679139265, 4.251929037631538, -6.805065024466192, -2.756061391615964, 3.1825068814254935, -2.002022094613727, 4.588551129766327, -7.383240962477353, -3.3891792200340247, 7.494707068063449, 0.15600685460369101, -5.919923227005456, 1.5575300022270813, -9.41, -6.04, -5.21, -4.157937570681948, 9.40918537131484, -8.007713873739702, 0.15760655651217043, -4.642431856945722, 8.604410851006886, 3.2969054925564385, -7.896143573147938, -0.6852458766270864, -7.02136370915157, 3.496130629537814, -5.927578103152788, 6.658973724037233, 5.033868239510923, 8.772497712407379, -8.02440522350832, 1.4700045067362633, 5.238953346530538, -7.331117169508498, -10.289399880648366, -7.215512354718819, 0.7419505896654696, -4.523947308200016, 2.278008827561459, 8.338060097375191, -6.39, -4.41, -10.79, -7.577364304082125, 2.9344111221324103, 2.087545052488852, -0.18614194399313408, -0.18083097233182105, -0.8593863745293766, -8.402766697200207, 9.338059414620194, 9.408494165391746, 3.798915376499067, -8.779162011491902, 4.253175069895826, 1.3721351341671912, -7.7482606983260025, -10.027363673525823, -2.1570447928991476, -1.3035016493500968, -7.761446741242945, -1.3770856755731804, 3.509045276664426, -0.031197282532192908, 2.2997525170188116, -4.486640095162042, -9.315577663619736, -2.2807253289315836, 0.46, 0.52, 1.67, -9.5, 4.726058014866353, 5.759964645641939, 4.847772608758652, -1.2509647828624293, 3.095235538689252, -12.222471921028117, -9.326429524015884, -5.210103628737577, -7.002357201742256, 3.2420443912863917, -6.459640192707607, -1.3471866798434564, -11.442004159168368, -0.8482861240777293, 9.687077791804246, -7.699514374575099, 3.444112693746955, 10.567122242367914, -0.8276261070508197, 5.75643935988778, -10.562121476993529, -4.6688974386822455, 4.27, 6.62, 4.64, -5.95, -9.06, -6.85, -7.83407625454224, 8.23522853874878, -0.1998188630590487, -4.035840135807295, -4.737716793578028, -0.848800634978045, -10.620131293222114, -0.08396380430833765, 5.140879726229637, 3.4235207133148426, 1.776423639412943, -12.810456471722903, -0.9771509982298272, 4.819812792224539, -2.900369040820261, -3.4435853845104973, 7.058990358890636, -5.838161948936592, -7.633678157674368, -5.32849344124621, 9.535093688407624, 1.7016241984504574, 0.18999999999999995, 7.44, -5.28, -0.15, -3.18, -10.65, -0.8238373042254095, 6.103165907865459, 7.876570086986071, 7.9908378754839555, 7.559048204113911, 3.9857705585584458, -4.445075075244249, 8.557369814208002, 0.24440746829567334, 0.9567489440049952, -2.5100126866985506, -0.5364770215914809, 5.248892421035616, -0.4167969520873791, -4.273279989845709, -3.212090257724938, 2.675518584676764, -6.192764515616088, 0.2500326379931515, -5.804062395551771, 3.958242323292392, -10.6, 4.92, -1.74, -9.25, -8.08, 0.84, 8.53, 4.1899999999999995, 6.48, -4.758793685214054, 3.5424693013717365, -7.703676226729236, 1.1532555995853693, 4.165565071407389, 2.6743922224673913, 8.366235796490649, 7.318052268750209, 3.159526995799905, -2.4593793851266064, -10.583723100247129, -5.706450102028309, 0.14975278364923722, -4.757420226429897, -7.032638317027695, -8.394433325339266, 8.36639542052086, 3.1674709453473535, -3.7199999999999998, 4.68, -9.14, -0.31, 4.6], [8.26, -10.72, -9.69, -6.54, -7.19, 4.89, -5.93, -8.65, -1.75, 2.06, 0.44999999999999996, 8.87, -10.58, -9.0, -10.58, -9.49, 0.15000000000000002, 3.77, 1.4, 5.77, 4.43, 6.54, -6.37, -4.68, -6.12, -4.51, -4.53, -5.71, -8.26, 6.98, -6.49, -4.51, -8.9, 2.2, -4.46, -5.53, -2.16, -4.06, -6.168627664812982, 7.9642861787938655, 1.488210066190011, -7.150339106094174, -3.87225719138185, -7.990779749063965, -6.6726908160294345, -4.780536051692168, 2.995072373400675, -3.2797629497278007, 6.896155345251038, -8.659615943486354, -2.4394019990964066, 4.63, -6.0, -9.81, -4.17, -7.4, 9.87, 5.85, 4.09, 8.63, 5.01, -5.6299039861937565, 2.240445154919857, 3.3842616613462013, -0.998739464030547, -2.1912968326600746, 6.9235060134251185, -3.862204331605559, 3.497465688038695, -7.039708706680737, -6.070983714310166, -5.615683618102006, -11.236022140329815, -2.973581806066406, -13.305220147893067, -8.826045829651827, 5.656820450888827, -3.5101191603212523, 8.232528337354283, -9.049223719524932, 0.8510078321768346, 3.93, 8.16, -10.86, -1.33, 5.1899999999999995, -9.15, 6.01, 8.82, 2.865302639940938, -4.646193407477318, 2.008917162137399, -0.651298575591311, 5.183743098585057, -2.360936574480932, -3.7977285015026765, 6.2932117242447845, -8.99483768265987, -6.314237569087604, -9.559246094448495, -13.408620116881181, -4.198954723490023, -15.258733824489486, -13.66859614293454, 0.7044995252663241, 3.2613189172710246, -2.171458339458592, -7.109977267203158, -9.641157140174727, 4.71, -1.37, -6.0, -9.3, 8.98, -10.84, 7.022720040724498, 8.38254666523583, 6.484622017530949, -3.793838004431829, 1.6397440972306163, 0.29352153103545875, -2.2507426723303343, -0.17652523071089501, -0.8590581734163785, 0.45692868427646083, -7.835002716742658, 0.09448721623635664, -0.6858876932023312, -4.761690212596071, -8.772019022277293, -15.533037919750981, -4.780456827025536, -13.764520643223431, -3.129688974715436, -1.3479011197075277, -0.8854842367756776, 5.758956460385509, 3.542741774390491, -5.13, -1.9, 3.1, -2.76, -2.208699783707371, -5.93485760179346, -4.163505112261363, -7.506876285888531, 3.5103540705712906, -7.0601730014356345, -4.334593639136823, 0.1760221680650666, -0.8197591735223724, -1.466349343857041, -3.757866668546279, 3.2170785528445327, 7.9272807835899775, -9.89049637077354, -7.817201630714015, 4.999116057725883, 1.6347630496100312, -13.464853667639316, 1.5278384595100982, -4.732869392338943, -16.84368075767276, -12.703016566807086, -8.772887844409857, 4.613293650585483, -5.877182460374448, 5.264668708125865, -6.75, 9.47, 3.301186368144933, -4.172059527918523, -0.6348780776308641, -2.870415530422781, 2.078699859487973, -2.745737414965976, 0.13376535550251323, -8.36478199617872, -13.416988402199479, -2.734434066585244, 5.110423787987906, 8.841744106476453, -7.937595924541499, 3.8841102928951288, 8.075492174553608, 0.3419768012011931, 1.4500063298751378, 1.3685502862495578, -5.845213534843671, -6.918560165835493, -12.871427055105572, 1.4091681646510572, -11.442000241554963, -5.721990185324347, -4.742246678632505, 0.3443659227942687, 5.5832156069052115, 0.08647179550531169, -2.313712333290331, -6.23516786762881, -1.9675680855583035, -0.33558326628606827, -10.635363731533797, -0.40890261594383637, -2.997145280679462, -0.7886450005680077, -0.5968432890060219, -10.212049628830348, -10.987009989585163, -7.198820654792647, 4.132280884885283, 10.990212822201897, 15.583417552848237, -1.2434992376344116, -0.5555461651428779, 3.7886017152176406, 1.4863764291832255, -10.151894520690332, -15.37080643685992, -4.6791907245293825, 2.1075638651816755, -15.319493009113815, 2.8137365388436386, -5.431907711893744, 9.671791083380754, -6.589300767103064, 4.545911419881233, -10.172024857796146, -8.09728455885503, -8.083723167132066, 4.257452113625211, -3.2343216767590883, -12.891206497866616, -10.256002719434235, -13.947864179393438, -15.35218544706681, 4.5566759455101655, -0.4836836813923435, 3.4288581522638024, 5.268936355655714, 8.45477206468106, 9.717789352843072, -0.9833946919266788, 0.5111318210290623, 5.496811237889401, -5.788228847892576, -0.7624880440728112, 1.7948582026395206, -6.067802835248426, 4.844037154447865, -2.7920185219520666, -1.2845353704749076, 4.748929442852374, -6.353542491094761, -2.513918907548773, -11.199719124427965, -6.994805750420007, 3.920109771635678, -5.072718108648997, 0.17521168993242708, -10.278875322735896, -14.19371551967752, -18.29182619267587, -8.753741762218091, -10.277284003951037, -4.68081983120546, -4.693981758644991, -13.565907364011759, -6.8583331067916085, 2.36481235908896, -6.339156011933097, 14.750471678521514, 13.161451224839517, -0.5487357971145495, -4.349682731272585, -9.275845659071102, -9.299249899527629, -7.87692183556206, 5.7552019769712786, -2.6036389850977515, 6.9, 1.950647543086881, -9.716476976456914, -3.422028756459407, 6.207440138193182, -0.5089656824233065, -0.5589314303520085, -12.772179715911355, -7.08201274389872, -8.794967284333781, -17.325554569830846, -17.000061428809655, -17.107221460450223, -16.747845586402157, -16.70601746641634, -15.397900808691759, -7.098161832131795, 4.751509939917972, -2.336216367264824, 5.475256735094492, 6.886022879177411, 17.7511968448922, 12.820887743017645, 3.191182056448581, -9.162134635400438, 3.294761871474969, 3.3204589598503866, 0.37, -0.14, 3.743717145818123, 6.169065686245816, -0.006274418054320294, -10.028838619291314, -9.02673019155644, -12.685527678542725, -8.622869232194839, -11.794237038829054, -9.258583666179813, -25.5089433614911, -21.9840348731989, -25.61899443327227, -11.455712047826237, -12.045007268311975, -4.455167009932955, -5.056556741158597, 4.667427867936884, 1.41379573504187, 14.391931058730256, 7.02746244985925, 9.67904756772289, -0.4903027927148854, 6.6541554853455835, -5.1685796668301265, -2.7247189751916143, -1.4972564909487607, 8.790350020859659, 8.79, 1.3949317835443589, -9.238862226440988, 8.108431407128482, -11.064143309102356, -3.662241701864276, -3.783025745859412, -9.377279683193077, -5.906558665154832, -14.940577191685167, -21.53052547539053, -24.89857139787727, -14.047943038777072, -7.243849512995647, -15.747652568233372, 1.6813321774474752, 5.48387753146411, -6.678173293665633, -4.496986878096124, 10.053487696001369, -4.357987027383101, 10.162991444223994, 10.733027341762527, -3.3768328648696566, -7.634159606757724, 4.47369113060551, -1.806878798040673, 8.141200071518833, 8.06, -0.5810064008772092, 6.858461052713389, 6.2246263582089485, 7.799665500024058, -5.2734224424086955, -5.776622236398197, -5.938201843251108, 0.7005405775295019, -10.269896652894467, -14.559777980014044, -20.045368232097523, -6.526403507651839, -12.372237486810056, -12.701940917612562, 0.6873864299749404, -14.613798537345012, -1.9957232593710734, -6.56520950338018, -6.63040479079297, -7.706677411213133, 6.880096601510358, 0.41853139344031354, 9.073921247127881, 6.601685325723207, -4.472579401560067, -5.25783449725952, -9.36, -9.03, -0.39019298358412574, -0.5955898014060981, -7.327237767543645, -5.528682372723969, 4.298494701027077, -7.649921332834925, -9.717986474282657, 4.949576851306244, 0.8215173451781107, -7.549289444628945, -10.166363376933422, -4.525864541249819, 1.634399250467542, -4.085561525414748, -14.54080287150174, 0.27938861165430107, -1.2129238168459633, 3.460683875144177, -11.310731885432881, -4.064188168189102, 3.6957056339725787, -9.481449484117418, -2.8507955042364443, -3.604597674103366, 5.5481669908297455, -3.8860544728297834, -7.63, 4.88, 8.689990430566075, 6.159706537359677, -8.739136522972354, -9.110760595105422, 5.657855976060117, -7.026065125394076, -2.258213401494066, 6.511237800576909, 7.606974301313865, 4.246573132587746, 6.2168302953387755, -0.2657683933018066, 5.688752421808039, -10.863849245590346, -2.2628888286104045, -2.9993478330242427, 0.11678893047475081, -2.3346876151734812, -15.08358340844466, -15.262756119495846, -4.000305390357847, 5.054294923037496, 4.8378685282043525, 1.0549286880602682, -1.6361755579870703, -10.200487167663535, -4.480017171478409, 8.0, 7.52, -2.995533783049333, 7.022738462448204, -9.829300007694481, 6.3003150125742495, -2.0391885786679103, 16.380682988233186, 11.990815860485258, -4.995396438153379, 6.294723456920136, 11.157487960696816, 9.45971034772959, -4.551936894898373, -8.142521849198959, -6.768381970027684, 8.489801300986473, 5.895849198653155, -14.306310231936548, -5.8896266063303315, -20.078100057172914, -10.087841492875398, -0.2694952135584736, -4.423632532188514, -0.14124316605553097, -1.737747404011657, 3.691319802889126, -10.99003148104375, 4.88, 7.54, -5.113262634079465, -7.225389929214234, 1.8799383576726296, -1.5160421269342388, 9.651225885580102, 7.0084607568628305, 12.249290484900376, 3.667767918122131, -1.3834259897527257, -3.8748341994843623, 2.16521495893615, 8.090069907496561, 2.5110004785050704, 1.7654884689288401, -10.017092109285763, -8.493055515195488, -7.115658803000582, -10.582042734909527, -12.675221889192056, 2.459666243490755, -7.997624016615895, -2.7686124862771395, -4.721488917962038, -2.8085447458286965, 5.411929665486028, -8.803660104195576, -1.57, 1.07, -9.295894488767798, 7.202340196075777, -5.006302003864669, 11.956056574883386, 6.279430604027834, 3.7667577341323337, 2.9215096237469136, -0.012819817975337267, 4.460871432226012, 7.216806592018352, -6.754688747426925, -7.158073501647958, 1.6489165668269368, 5.701521896465083, -10.789430094518838, -17.370185471256192, -10.430626288724158, -5.0073626212857905, -5.515016408211843, -7.089319969523829, 6.92305838779547, -3.0594340867745027, 2.5670055902067848, 4.764305816230162, -6.441087428757047, 4.730774095169467, 5.65, 4.64, -2.5022134505748244, -3.864867321049951, 9.915576286050694, 8.372715597291425, -1.6896613010047639, 3.060017503931365, -5.166546147904635, -6.77856440049264, 9.35605782537617, -9.340070155830874, -5.48478353993369, -10.690160226821925, -4.893947503811529, -13.483232051012816, -7.83737539997255, -24.278405753345883, -14.029471632317334, -16.94264156326363, -8.439791220499526, -0.10892454795889572, -8.910741037207442, -3.4705137325727744, -3.2958155914140006, 7.350414205323232, 5.119296373234347, 7.924786612690899, -7.71, -5.74, 8.89682161520284, -0.6353156379524975, 0.9338274266863248, -2.125365808405597, 8.421743058155938, 1.6365266107675898, -4.08800098753463, -11.919161571114108, -13.627247253674371, -4.479851054144591, -10.59641196471212, -8.262156537248838, -15.465463267834595, -3.032625759998027, -19.39245796296652, -4.839679227348784, -4.238906869359083, 1.834291117465423, -13.78978069457785, 5.129879747761163, -5.857869549753308, 8.908131060338325, 8.427864105821973, 3.2659067311832586, 1.66539946687684, 6.65, 8.96, -6.27, -7.853005585571628, 5.949895909313699, 2.3894535687558944, 10.504433371847158, -0.7786843675132044, 8.306367756584335, -9.177263511629992, 2.5409140638691228, -16.56423216311113, -1.4830027549888092, -3.706838565759707, -6.317543214443878, -10.936713742380276, -22.316597567597356, -16.320660771787715, -6.54023899869058, 0.10166948113749164, -0.53556967151789, 8.41010476366635, 10.502760746160082, -1.0735220959158271, -4.257492211697772, 2.4093122705656222, 5.312258514329687, -9.023514480401401, 3.25, -7.47, 2.39, 7.951178617478261, 0.7402560348907354, 7.780757175437296, 10.32656266405335, 10.1203736670912, -9.243229072648047, 1.1149894739283353, -9.122250071115719, -0.3096628146481395, -0.18651468416172312, -0.07306787555688501, 3.8962061993341983, 0.9999922019914538, -7.10614681656495, -10.8766426862991, -10.091102816087865, -9.456599578059036, 5.857557655702992, 6.290666550206132, 0.396663061791457, 4.616681393103472, -8.0886485961852, -7.887126798545887, 3.4543023921507703, -9.926620509142033, 6.16, -3.01, -8.22, -4.080565212170567, 1.2028664156409734, 4.962779609954508, 9.749286860909669, -5.496517414992257, -10.735106126864707, -1.8014170454722278, -10.123777568312612, -13.576907305947243, 4.731039455660292, -10.350607209868613, -12.02922340996349, -14.939499325603386, -12.843664281745392, -1.328341968438695, -12.254862349763535, 3.0488601761294496, -3.9757610192062023, -2.9924458828465896, 6.99936901596141, 8.345306664164633, -3.18366931707238, -5.531839940794001, -9.627785243027503, 3.909102123884182, -8.68, -4.1, 6.44, 6.25, 6.680461882814665, -6.304840843678425, -0.5727941791991259, 6.934076000704646, -6.850948481498219, 2.5889066672469765, -9.237939232193378, -1.8139077215267287, -3.707596368514944, -1.2369952610465855, -12.062747209782037, -7.549871697836956, -4.608332203553044, -11.473671022290583, -2.4413949039610974, -8.546093508114566, 9.321305506004872, 3.9257025774169976, 5.848901096956083, -7.945824875364627, 5.819178572721692, -0.9203972023564031, -10.77, 5.2, 0.55, -3.88, -8.6, -9.23, 2.315576002779613, 5.711029018353381, 9.322154307041261, 7.54886858016271, 5.428733385466954, -4.649557806540516, -3.5951108916851484, -4.7044322005096975, 3.8003698208191197, -5.468638476411903, -13.157752938750091, -3.322771887277344, -8.161986202074857, 3.755301085339047, -1.3529931655552947, 4.2778489719005774, 5.735296783892066, -9.401148028188878, 8.203992399427277, -3.7961480178754408, -7.138368252896698, -3.7010405307319885, -4.21, 1.92, 8.91, 3.13, 4.0, 0.32, -2.2755846195639773, -2.0852758445894186, -7.293637339672821, -10.868963438407405, 0.7865744987523186, -3.568618962376329, -5.2030004839662345, -6.574048264631888, -4.133406284010632, 3.06133786037307, -8.195057598979636, 2.683498537530936, -1.0826264407179198, -3.3942684862621912, 6.707866980890445, -4.7339153929244, -2.2653398113770957, -4.302802553810117, -6.811860770006289, 6.75137371222464, -9.861285380844784, 1.1, 3.59, -4.26, -7.63, -9.76, -3.68, 4.49, -2.77, -9.84, -4.759150715125508, -0.9136203091426932, -3.8925095739339954, -5.809973117804367, -7.579880088100133, 0.9225311953638765, 4.160173443966285, -5.674908554603869, -2.979884168879925, -9.082217885912446, -3.862413234908865, 0.22354907726187492, 3.592456381817509, -0.01253135894191822, -4.629696435106831, -7.520506407134702, 5.994772776440377, -4.3722408265342345, 0.5800000000000001, 3.26, 1.0899999999999999, 7.01, 0.74], [5.85, -2.39, 7.37, -7.28, 6.58, -5.73, 8.15, 1.28, -5.77, 4.52, -4.9, -5.01, 9.23, -4.59, 2.49, 8.92, -3.61, 5.61, 5.38, 7.1, 4.79, -9.15, 5.6899999999999995, 0.87, 7.46, -0.35, 1.78, -2.43, -7.85, -8.56, 1.31, 9.16, -10.4, -8.57, -5.33, -2.65, -1.32, -8.05, 5.0089729857558725, -7.093299787234723, 8.221400949033328, 4.472630530720765, -6.901918966506209, -7.021882086846909, 1.0416878461202075, -4.373095505647215, 0.19084835496178554, -4.8656754970063325, -5.296399382777617, -9.420750028004113, 3.3171565638872327, -7.01, -8.14, -5.83, 2.69, -1.72, 4.3, 1.9100000000000001, -7.28, -5.61, 0.61, 1.7299308119051668, 2.6496792188330462, 5.274834780215577, 5.868686463964163, -9.227192055371647, 4.51202681601215, 4.574792081025145, 9.30303954720898, -5.1597594199869405, -9.393290734736992, -6.7022254001024795, -11.498465878544492, -3.465780738200236, 2.013787597890791, 1.30737135531513, -7.438612923092356, -0.2602413509188139, -6.068045375231316, -8.113554810691461, -0.010850203913006682, -9.69, 7.1899999999999995, 2.2800000000000002, -2.05, -8.94, -8.04, 9.5, 3.69, -8.431856472395138, -3.026509342015006, 1.3102144101253446, -6.459314809906464, -8.578422164701655, -2.8070616312380254, 1.9556418297082492, -7.798856893946041, -9.376476515897433, 4.473662575891374, -7.648884937822611, -2.7344485243883816, 4.320821908328735, 4.593721449041782, 1.4715351872422393, -6.250753227812074, -0.31960772145847477, -7.848457092789148, -4.054986004597969, 4.276743321902856, 8.04, -5.79, 1.2, 9.44, 2.64, -2.35, 3.182365671125292, -4.6129460853967394, -7.851483546012708, 1.824029539101626, 3.69640810748864, 8.495373390228641, -3.7496000165031753, -8.96134898275827, 8.630986345492733, -6.078211632785265, -3.875733404112296, 4.870867137774608, -2.4877226231012535, -1.3693727759221384, -4.183228431305819, -7.969164164673741, -4.193880539673561, -7.654638182611816, 5.264262509189385, -8.403965017403552, -5.787921943307541, 8.730633101815151, 9.715403090598452, -6.91, -6.08, -6.35, 7.39, -3.4810222129371957, -0.6324534116528405, 6.052516661022842, -3.80475791402962, 3.4121532891643027, -2.3300946613287787, -7.90827111028654, 8.459830724691217, -8.870888686945563, -1.712064654514452, 6.203822465240314, -1.4231277786491188, -9.501615875503951, -7.8532222259913524, -11.148487262547771, -2.220279611396563, -7.5165189002191894, -2.3518009648420017, 1.1404737059534835, -1.0526741861432487, -7.969855128846924, -5.017878293254117, -10.691773345679065, 3.0695053206659644, 9.09282559239592, -9.235179869294607, 3.02, -9.46, -3.8429031803613816, -6.531362643877122, -8.757375525922782, -9.41308578867131, -6.554879249829602, -9.148412661381446, 0.7775361891609157, 4.871737849111769, -9.72032015487397, -12.325426288704621, -11.020027995812063, -9.231646211779282, -0.39029802170876793, 6.262492862860819, -6.147251844074394, 9.310350092519027, -7.7867817690156755, -2.974306025067022, 5.677290138663826, -5.921303240295873, -14.32794743979244, -15.23031926766925, -4.76593045957872, 0.6395124212400056, -0.9925122433543847, -6.414223556799619, 3.769413088542817, 7.354635631035915, 2.9017980000889434, -0.18787509257300622, 4.790458535318634, -4.673538760717127, -10.462354920238148, -4.898335900855633, -5.68421815593589, 2.688228503083369, 0.5125001180417271, -0.12358323886725608, 5.729072196777082, 15.282773159129318, 2.9242829055679223, 13.548419821403378, 19.00051518976437, 9.865227775954969, 11.436083674952432, 11.626135565533106, -9.544199556583283, -12.911590885898551, -14.890107479446895, -6.580628539006815, -4.939908188641042, -1.6002949305063485, 2.0486921811055363, 2.4126987466427052, 8.00952978535485, 7.7671463254266, -0.031822451157658374, -9.609890741546899, -7.6017650963057415, 7.652323097621865, -10.058751738654193, -6.728258719725597, -0.20006457078524975, -12.50012478153037, 5.841757975799293, 6.905064825957748, 9.605934770603428, 18.483864259301033, 11.080257572208422, 19.610759147427714, 11.334444928922096, 26.833561149178315, 13.661194033143332, 4.334779843895403, -6.540830258012425, -11.519072771167512, -5.753188132457778, -11.565533973523205, -15.40774589657923, 2.1136789608472792, -3.224942633903927, 2.2532935712544853, -1.2705998777696315, 6.511672049277878, -1.7341576654181283, -4.493781718555244, -0.48883890099266386, -4.558506572443818, -3.2409791731371276, 3.5188652836547876, -5.9177518130641005, 6.038340954910381, 13.883792683720566, 10.412071049565784, 2.4138001769422535, 8.50347404878245, 16.317590054142013, 9.304042092091603, 8.513276980081686, 15.297342061586077, 20.87467215354126, 6.5705639924839785, 13.006742223166137, -6.187288016264788, -8.463932758454247, -6.4396426626258965, -0.4030011636078131, 0.7010735421942452, 4.376767176049693, 1.2974728808331488, -9.37, -0.09115226627719489, -9.071894058650246, 0.9463493232928631, -5.882298699132552, -7.6027785504998375, 7.739808994041413, 8.622446099974761, 3.3307581253654543, 13.251308499441988, 13.15537881931153, 9.692429398803203, 11.679286395611758, -4.297105615895188, -4.887167737591745, -0.23803826233457404, 17.292658283662657, 6.942367574003908, 11.554513887738821, 18.276994304957544, 15.989912359380776, 0.49682657898031657, 7.880826037659723, -6.437172004648372, 5.186506111165524, 3.3765276056508724, 7.853771059027927, 5.39, 6.6, -9.055392678301963, 3.426190793227856, -4.211118390950897, -3.98478861890535, -9.335567573615819, 2.398929217862001, 2.74076271655434, 9.100834640399567, 1.914066810948066, -3.8376003757648225, 6.277148618546156, -11.399908620958591, 2.236913438756568, 4.1663393040399015, -4.417760642703298, 14.514834503580783, 12.134401221192357, 5.730369100948268, 12.160881629847125, 8.409002499906329, 14.641590647560704, -1.3823152617259877, -7.222271357631456, -6.426750867394296, -8.554250462817532, -2.368387048315388, -8.060259195889813, 8.53, 6.6324337622808915, 8.254115694919532, 0.3428660837048062, -0.1736788990999084, -7.118236960564408, -5.705624485232613, -0.09037200277886603, 14.691263972660149, -1.9588192329834464, -4.7050634099423805, -13.763769810326941, 2.390444874259584, 1.0843607926692531, 6.472871052273645, 7.827820676112128, -3.318519118726461, 13.280980528788184, 16.176565570866288, 4.416842847967706, 11.735835911671597, -0.13523264661396106, 5.377458068630732, -2.9408699281481967, 8.764254649176651, -6.369366620198573, 1.6252363668518328, -4.470888671622215, 3.08, -0.05219880065792197, 0.2821250064254653, -9.330316208906325, -4.46510356386518, 9.461326379698997, 10.747396243240397, 14.16522462513452, -2.4578380216930995, -6.649394628327002, -5.651468199550949, -2.7763067632080087, -11.319602863689836, -12.955161387100546, 5.401720149219023, -2.3813772129289075, 6.480743816405175, -3.9208145042305094, 10.473957547425782, 10.829449901684503, 10.065319131177473, 9.29753286859583, 3.657057626908221, 6.968175625211137, -4.065088463669255, -2.946270035133089, 4.374078997815088, -9.74, 1.44, 8.280154349401586, -4.9867627383234705, -1.4645143663572704, 9.806410791997001, -0.6782905460954186, 8.727111697706949, -4.070354873583696, 8.058591058849542, -3.537859242649715, -4.719666958523454, -4.065590019576517, -9.786846425427449, -3.8993224751891002, 1.252249882393162, -8.015630360921582, 1.356642713477085, -1.2792312271373305, 0.08164774596225999, -4.142178970274324, 7.875757539539888, -1.0107056415142532, -5.904928343453364, 3.095919087751786, 1.413545134570698, 3.654614606177497, 7.999852173072543, 3.19, -6.4, 4.750007653689335, 7.960234713139604, -9.829885167290689, 0.14318522591517008, 3.7013725947365677, -3.4467046483593857, -2.9089641380563416, -2.670626276908553, 8.550197216091005, -1.7438274545113732, -1.2152589633871358, -3.204151674899777, -5.201616762118527, -9.881770511996393, 3.6940895558380555, 4.267714600551899, 5.055266204584523, -5.076570638346424, -6.850268675465929, 7.305011546319443, 3.9904233322352103, 8.870082019227324, -0.7213904458663516, 5.912935686338482, 8.384532369416759, 1.706748077286356, 8.590008017863727, -8.83, 4.89, -9.232798135018664, -3.9842439441874293, 1.3750086433105855, 6.223755626578536, -0.9531449011381985, -3.3766515091673583, 12.501524572425144, 9.770035429503745, -3.157161761730115, 5.029744747264753, -5.282192507170622, -6.232657826101577, -1.7568140423527718, 1.1119346268664663, 1.1707354120780993, -4.769162805469661, 0.4174883480805156, -0.6159354507313137, -8.24062247131467, -1.3461503227847438, -4.897563569758241, -8.609849876917357, -1.4018323440201608, 1.422618088163224, 5.948011439282166, -6.199985300583164, 2.54, 5.91, -0.012646378701616862, 3.0123278278098238, 5.831452851142172, 8.658440290416998, 8.129352147508715, 6.838283653424922, 8.544434742569974, 0.6776834556283506, 3.511529078357081, -9.012983890436306, -9.41590224422895, 11.649462645255472, 10.985346243222299, 9.454585485454155, 6.0673982501640005, 2.7853564752332827, -4.3749676715940184, 5.850803503875176, -10.84114089369383, -4.976467455484753, 3.9350725559337327, -10.295275868706934, -5.0038192378155975, -5.122537987387632, 1.5254377226133229, -9.760182770658332, 0.97, 5.02, 6.621448546504146, 3.7130289765553735, 4.016393223997576, 3.1268081575789406, 3.163965285494132, -0.6862943446629706, 4.8865437065497925, -3.8191312272092683, -2.8412878388331233, -1.3178766904381185, -9.771445859018202, -7.76094732931936, 1.558347157854865, -1.0623732987538421, 5.505395239906063, 4.171820938936226, -6.143015743612238, 0.5604718380410971, -9.494383364021287, -9.584802652274371, -0.6983880664219995, -7.15518222850291, 7.07658366921046, -2.2308972056908334, 2.8620651339152112, 5.085296811148613, -4.6, -1.54, 1.676901097526179, 3.3358991061437093, -1.7707466444383273, -1.3722344863262266, 6.420911101492438, -7.700524459624442, 0.7894278934022085, -11.178707680638242, -4.412491196926183, 3.9944012214846074, 4.838074478313755, 8.777059419787482, -2.0715258761182813, -4.296193401860328, -7.875685160098792, -10.357427700918446, -10.626746816812751, -1.9078456754121893, 5.557887186333786, -0.10576476840191673, 4.844074182765777, -4.3486178761621135, 7.428431155931614, -8.119787676825926, 5.968207723069403, -4.363084737692749, 1.29, -8.54, -1.1986308264290215, 2.7193287021374943, -11.843263187610289, -3.496384841254044, -6.324897537102145, 2.1102620883302237, -11.229269289203128, -9.047916677467075, -4.3255369594103055, 0.5317073528378707, 1.4006021077386737, -8.596008594119038, 0.907874766856641, -10.650649885679023, 1.913218722853828, -12.513564105427792, 7.318795251400391, 2.7158694612061085, -9.079888272115308, -6.371545624400298, -4.463715406326962, 6.5928635179833, 6.2982156674223235, -4.327652258986888, 1.4135780760927739, 2.54, 7.18, 1.7, -5.11618626224863, 6.2517102025648414, 4.285652977677807, 6.947371704026781, -1.217465370296393, -8.294548953509452, -10.72005618782346, 3.005878714155205, 9.36908267178071, -3.052761088456769, -7.294694337387955, 3.8268932666874007, -5.381924226061516, -9.656120604371145, -4.6172126559557904, 2.8431273419944936, -3.9345797445624906, 7.231591486978493, -3.396318113592592, 6.20004763413748, 0.669720384570506, 5.96826327243168, -4.35021979579287, -3.219684819422053, 7.059808540020456, 3.08, 6.98, -3.05, -8.45337618241164, -0.7155629362734179, 5.5318126910970475, -2.8119082626511127, 6.0978332275724645, -6.140170413870842, 9.028444668129827, 3.573704287895212, -4.117075343580141, -5.435667639148069, 0.15044185263611543, 1.9029826001389427, 8.237962169445428, -2.431243402487764, 5.5118362801079614, -0.8416660636670785, -1.763493675682904, -6.395137147380114, 3.0753134049514657, -9.285609133889388, -0.08210591892349717, -7.409579281373386, -1.7218059096994562, -7.462944840141532, 8.276295968954244, -7.68, -2.2, -0.9, -5.434770610285284, -1.0462729589632558, 7.8394324194907155, 8.85821836544612, 2.1190806486202245, -1.648709737324241, 0.5126689258536588, 4.902858336139763, 14.95111220923855, 10.578393856872504, 8.371948433310871, -1.4882336642908571, 1.406959323940844, -3.600904266870171, -0.7767390488818866, -13.472590972745177, -8.533593168308945, 1.6710788535618213, 3.8981531288029556, -5.699031848863877, 6.292515191542444, -4.508693912180601, -0.7871086108430153, 7.3750790576150305, 7.184490228141188, 2.96, -6.5, 7.92, 2.81, 2.408266200922175, -8.345256895889154, -0.5407941125033842, -4.126806546577508, 9.405434676651113, -4.436960837262843, -2.202415010995469, 11.27506280676592, 9.513249368879682, -2.0030753455044406, -5.034980125605476, -10.28008559414192, 8.790742990798542, 9.004941916194815, -7.072221338467896, -0.4452477438994924, 3.2052238172542986, -6.468267937432126, -2.963040247746955, 1.4286062970908295, 10.035562289249711, -5.248647142534077, -1.23, 1.09, -9.85, 3.5, 8.41, -5.99, 1.323517656230547, -8.235316129695448, -6.369059166662551, -5.940157182721256, 3.641856543811718, -0.9312335581511242, 6.841069462977423, 7.475856002645283, 13.968340667178136, 6.25032622910051, 4.707482073606104, 13.245282744972185, 9.330175095392855, 12.740624020876828, 10.787432368582305, -3.9275037472268877, 11.132983944767496, 0.09756274172766538, -2.8389179655177315, 1.6763944495712426, -4.177216927719937, -8.725525282695465, 3.68, 0.35, -8.87, -4.36, 6.86, 7.76, 7.789767705353793, -5.054917167414114, -7.634743876929876, -0.8730005792445074, 0.18745676149531895, 3.425626832658996, 6.972616548442918, 8.317821827516664, 1.9409056424491853, -8.702531362757929, -7.456910628758933, 3.593221392408091, -5.155725396627722, -0.11845911403181063, -8.114331125384808, -8.829791140215383, 4.737140961178595, 4.7119934953894385, 3.145187024578979, 7.224031288132449, 1.3934782353955377, 5.4, -0.4, 1.76, -7.71, 5.78, 1.8599999999999999, 0.84, 8.12, -4.42, 3.5721101049298536, 9.09349444472009, -6.873589139882121, 3.5925817130917896, -6.885763200423492, 5.19123018781909, 0.8900043833556134, -9.18507721114984, 6.1671675272973765, 3.936618356661741, 2.6353456940364137, 7.038035427046739, 1.465487330294716, -5.500696782340559, -1.7368662051778807, -2.614224370505256, -2.6668833273568096, -0.7531203750996385, 0.6, 8.54, 2.59, 5.4, -2.7199999999999998], [-6.9, 6.0, -9.85, -5.98, 6.33, 8.04, 2.24, 4.27, 2.49, -5.59, -7.64, -8.76, 2.65, -2.14, 7.99, 5.39, 8.76, 0.58, -7.5, -5.37, -3.62, -0.97, -8.21, -8.09, -2.88, -3.89, 5.77, -1.53, -7.42, -1.56, -7.73, 7.09, -7.49, 1.33, -5.26, -0.65, 0.3, 8.81, -4.760183749590141, 1.8094422343219811, 0.6120604408942611, -9.24488311540248, 3.904990349521046, -0.2670633691795401, -4.824123702362837, -9.284452654919864, 4.182068600957414, -1.5776595763920134, -3.699537714230574, 3.798465724950793, 5.838802485233263, 3.09, -4.78, -7.56, 4.67, -4.55, 4.61, -5.7, 4.4, 1.55, 4.96, -8.630011808386207, 8.179945252027585, 3.644543881297486, -6.736668776425888, 0.9506168989906874, -7.5420927645256635, 6.158256108376282, -8.65778652384557, 6.306681053976762, -4.339284243658501, -10.630568786235218, 4.200389754757662, -9.893125053848962, 2.3874426314370822, 5.3924848111314585, -7.223918142036025, 1.9123661123768108, 7.562166489337438, -6.449690248196417, 9.51963264648526, 1.79, -2.12, -4.55, -9.24, -5.4, 2.21, 2.98, 5.9399999999999995, 7.73053976562275, 1.67468920752942, -0.7818764301220077, -7.962177791549768, 7.1799376314263474, 3.988996797462715, 3.484044186031066, -4.903903930135492, -6.535220279363416, 6.105914047256043, 5.038357580245841, -0.9511924012705446, 1.483211785549433, -4.945351216144041, -9.852304066265686, -10.384387650205703, 8.09093193893458, 1.8347368248412932, 8.030202501821456, 2.100141186013554, -5.13, 9.23, 9.06, -5.27, -2.46, 7.23, 5.292268021090441, 9.874402084249503, -1.805676737755812, 7.790480783346641, 9.89563159133002, -1.8785531828351187, 10.346232857018189, 12.532805086536655, 6.641872751387832, 11.675040313610106, 15.432793882038792, 6.54622492768202, 0.407495394863571, 12.626501945158735, 14.292663152757509, 10.08155667151959, 6.256413047833519, -8.363749499557692, -4.101501002640997, 5.238350440871591, -4.240463615558802, 2.8430796398607323, -6.169518784965479, -5.57, 7.26, -1.87, -10.9, -6.940303741568251, 6.691496607428983, -8.380119215230186, 7.479204750463832, 4.03812419075288, -3.06927552651452, 10.921605096720837, 4.279450248756411, 10.066631455230436, 3.4635916477867856, 14.848898958000452, 8.268925006052083, 4.976058416018954, 20.149223737002572, 5.4124374088832425, 2.9457276828495997, 1.835957634553584, 16.995776889100146, 11.112767676821749, 11.248241854261224, -7.9773358681268505, -3.403802978940147, -7.494435984508489, 7.904356668669362, 3.153557749984219, -8.867637422009727, -5.47, -1.5, -8.820991254718066, 5.690999663491037, 9.138892148580783, 1.5057456499173236, 9.015404763459042, 11.55912550901178, 12.732639039073334, 16.782229896062137, 15.773692540541301, 5.190583539064808, 5.317998624395746, 19.0954934488286, 16.502943690458128, 14.84462806372476, 0.8867644947161382, 4.483841384263848, -2.059770444533259, -2.317034286989216, 11.323200871915065, -2.475450004657568, 6.852602293989186, -3.2350314011134964, -6.551675884222953, -2.291660049133692, -2.582119922357101, 2.517245299423086, 0.911906526582958, -7.124143625747986, -7.873036486011259, 6.521697721717617, -9.309580489925438, -4.388617698963822, -1.5816697877133334, 3.480685888813188, 1.38721287033609, -5.417831413765594, -3.0400144846210106, -8.08851834970844, -8.256764322010035, 0.30032739131951836, 1.8616449850618868, -10.43599861374644, -1.4684542984617828, -3.478734292640871, -0.764500519776186, 2.7708926916149985, -2.502735582311721, 6.137715816820101, -6.691783850791836, -4.19515461564766, 3.9069741911108236, 5.098695360596859, 3.652306963577687, 0.859078791541519, -3.113528796226703, 2.8229403208746784, 5.281702896363974, -2.110538552254217, -1.5355690958317305, 8.79728255247416, -0.7161135419281637, -5.522559944305973, 4.666678465863889, -14.362146751536189, -7.7412987135037445, -20.938800777146692, -25.187625275439213, -20.393838973433414, -18.935478432701235, -3.179310444842199, -18.18658434653449, -5.715602758304029, -4.23869715756617, -19.747753277127952, -0.6147636021648566, 1.3466407777703613, 1.3272933214116458, 4.05959345377547, 4.872818063587629, 7.349263679545316, 5.923464337992533, 7.633932914357096, 5.508066006895142, 4.530139081500546, 7.240712635440968, -7.451276858938898, -4.861973251323659, 1.0744635075188707, -11.937755612497181, -10.25958917152959, -23.427136853548227, -24.04769823888786, -30.98510308370638, -26.889666572893947, -19.93326178015422, -14.957462409591098, -17.797650814719848, -4.719290093839822, -14.248307191498037, -8.304425745022197, -11.140295244061223, -19.68959280264929, -7.643607660248157, -13.29253630958252, -10.471487500973032, 7.913922017940192, -2.5512605730041473, -0.7178485027526231, 10.142405859585907, -3.2679596505619326, 4.15, -6.684293876812908, 1.6724017584676107, 6.566600196903283, -6.195404752208075, -6.8096750461315185, -15.379251470454196, -20.544652694688473, -13.82135949856889, -34.70597447337175, -40.685832314491655, -26.275681627601656, -17.779872141214828, -16.433662696373304, 12.13159799056661, 10.921425630075255, -1.6647844518518344, -3.11721591321851, -23.65431469245175, -20.00012539545442, -33.550569150478495, -10.464738879132362, -1.081287118211853, -7.742999673368315, 8.976719251245912, -0.448621022360399, -6.203689534833068, -10.61, -0.47, 1.3694710446635006, 7.057196957126316, 3.0633391267002157, -7.633713184381829, -12.433455587144211, -8.867480636124299, -23.38451486711512, -22.96353867389911, -30.38703149793571, -32.315952919637674, -35.29995522534243, -18.371187207288344, 0.4607320758149931, 26.081588751269035, 26.387409580203112, 4.240402570531207, -19.433522737974428, -30.353835083325787, -38.982289767953304, -35.78864177429147, -13.685082713719874, -19.821937907224132, -11.90403395148906, -6.350683270360546, 8.604246227009376, -0.33096332668650075, 9.499949112556374, -5.83, -4.951646767298604, 4.366994274870372, -5.337521048134857, -10.836202190647915, 1.5489303903214917, -20.437417181094606, -23.917934105838803, -28.509524328649974, -40.254190476689296, -25.537631091442798, -21.97713455929531, -7.020805358554205, 14.836495298395345, 23.98668795415367, 8.32694120349619, 6.577044957139942, -11.151328854353608, -29.336793733227875, -35.069648253336666, -15.420607688425454, -9.559859784954941, -18.90712290251461, 3.7155382078587387, 1.3459267734625258, -10.57790251036436, 0.5009282203214906, 7.4598255287647115, -7.46, 6.019850002782111, 0.9063872430904854, -2.641137363011203, 1.7953993625636155, 0.6620711160144848, -21.018148067863734, -10.198766510657942, -21.355433511951503, -31.848317300616333, -29.723604669836497, -14.08884134699574, -1.4410274254482751, 18.555021262789822, 22.756776688634396, 1.8919728357327013, -11.088811311573894, -15.94014308459837, -19.53216949308858, -29.195711331385752, -25.371730111549834, -19.277408249617405, -8.803776447681248, -10.43146614043664, -10.10683075971537, 1.9957839506398611, -9.934290801651933, -1.12, 9.13, 4.090020492697631, -3.329030430342106, 0.49926690904680215, 7.223054987727597, 0.0742339476849439, -13.23044681978191, -18.0023684247924, -17.21875944078182, -8.465742831882242, -2.3252376830833956, -8.23087983168171, 8.223442278941778, 21.44041683084049, 17.409411474729964, -3.8716875216094917, -26.743426410503307, -31.559961316667394, -17.840391835764343, -23.023642291702732, -7.5357352758947975, -18.154766284361095, -17.98815619836034, 2.164133437606142, -9.910838122135518, -10.885580999987178, 6.12799427135741, -9.95, -10.33, 7.340001016166824, 3.7500311624492904, 4.696910967503289, 0.9970632497103624, -10.118285086980901, -10.69907192219477, -17.89504828981881, -12.58691492625881, -23.315186760906183, -15.063194674095394, -4.2731306010072325, -1.7187107239520443, 9.488452866075601, 0.7687862064162468, -10.80334200134405, -25.6231939365931, -23.822676770203344, -20.128088076451228, -16.692434536362818, -8.00930850345258, -15.337989191019266, -9.092269631149993, 4.533626697948007, -5.350286303319337, 0.1794921469195102, 9.038707519812007, -8.909998607824631, -1.17, -1.31, -4.759832613945156, -6.754080967802679, -5.560469167417919, -10.733374392229189, -3.858199059109873, -16.449513458127175, -18.571879969274423, -14.488464121554706, -23.158220623872207, -10.094981738945103, 0.618800614840489, 2.0083694893088038, 7.558041715981648, -24.576710562442443, -29.16784537212025, -20.333526619613924, -13.16766047003992, -7.845428316498368, -2.1313265753794925, -3.448718535998962, 8.197813891671364, 7.779597123459668, -3.750459303544967, -5.1452648358296775, -0.7796561102569588, -0.43999744767849025, -8.0, -6.64, 5.2075863467099195, 9.632044523115237, 6.397017831724826, 10.600553011924857, -4.441470801068931, -13.34420849530223, -10.892570715641988, -24.03613074808971, -11.2523204576197, -7.521850092930208, -11.838383663143684, -5.40198366922289, -0.6844924892943893, -15.024010138615267, -9.654328501118655, -15.003822774764249, -0.7507467288667924, -6.9332421293905035, -3.729360622456225, 0.5477108253228073, 6.5234913912839545, -1.3503467718228175, 4.801122492971777, 8.451216085837933, 9.45941676328866, -2.1683281616824366, -9.91, 0.29, -4.444385227339174, -1.329071853538437, 4.792605601897876, 8.356370163871714, 9.682041920374692, -11.515976423815511, -11.483118573277551, -9.184778129244751, -14.71420023965281, 4.66767863180974, 8.301868014380613, -6.812156701198294, -5.961048357565341, -15.229195506072982, -10.586518327157911, -1.4248382530139039, -10.95931901567478, 0.7178067432600636, 11.394400194142412, 16.693477408861412, 12.192464414887095, -0.23989316336297897, -1.2186649635335085, -9.350163081902934, -6.2725190866370335, -3.5314072804887857, -1.37, 2.76, 1.4037114710037586, 7.22369395098844, 0.9421476430013551, 5.135895954815444, 16.135191648073604, 11.127427460645091, 5.085541281435981, 10.851669702321345, -6.802529536798059, -4.715691891973278, 8.270475944756113, 5.086618578665504, -3.6493267375109664, -17.81754485622717, -15.20868217665254, -3.4212732901148626, -0.20183002998820554, -2.0226460349093798, -2.977773897295262, 0.2870435576719476, 8.384174607282402, 1.2636510428241932, 0.08708753812173482, -0.587205145097304, 1.2547761007217613, -2.0883879206787643, -1.24, 0.65, 2.8264060184956095, 10.63311861489029, 9.00312726217642, 19.287775302550898, 21.001662388407016, 14.064863725961636, 6.814289037056712, 0.965526333901461, 0.422948743775744, 6.000593929273956, -1.7195605522215185, -1.7484961367627712, -0.19245148468264783, -9.249161815605364, -3.378412066281336, 2.8679772152688945, -3.583746634789244, -2.165825365908495, 10.726640264729866, 4.12645940459023, -2.3656125441503417, 2.261348943132694, 3.390065506941945, 8.829596396258864, 8.418903971811735, -10.81, 3.3, -3.14, -8.287579738572953, 5.444772575999479, 12.483030412262268, 16.554793462530675, 17.378042363022864, 17.454770904482142, 10.50710051363106, 18.447525727977464, 12.108970019939603, -0.36479058285428223, -4.584240335105989, 3.768976490764696, 3.616042466407781, -4.162381745968712, 5.373793945986781, -7.830429799536575, -5.16497108038145, 1.372608303424361, 1.2222847712406195, -2.5551042787938827, -2.006931029889367, -7.117522087097279, -2.23076870158766, -2.572968604133058, -4.015865647561611, -2.37, 1.77, -9.74, 3.334908955915179, 3.9651110951957533, 6.88146366968075, 11.264423422270337, 5.430788565857689, 15.295758544237305, 13.35891178479783, 2.2778906817770266, 8.125499607566047, -10.381367878952613, 0.4116844155740341, -0.23237797169288799, -7.784182093362103, -9.56867227239277, -0.4019961998316227, 6.926615078773905, 10.08368684513839, 8.967354736592078, 6.030219102644041, -6.766709165159765, 9.364060799612977, 9.292495218925815, 6.555354057692324, -4.947866058371139, 5.494420914491376, 5.01, -5.29, 0.65, 0.6057774298437679, 0.17463096926142094, -7.18803460634147, 0.5831348012478381, 4.550199937094416, -1.1079309363979777, 6.6660347722673885, -9.45438473408295, -1.9619223036395452, -8.213995931816005, -15.188295817706845, -3.901125131378101, -9.752325273594947, 2.5679490225909665, 1.9534331168757793, -9.392215574348446, -8.916458350925948, 0.6605972152842048, 4.544729589297993, -2.865989116439135, -4.43591880394487, 9.33014328943657, 6.204387562421166, -6.177151118511489, 7.9491900170277034, 2.44, 1.96, -5.35, -3.4699999999999998, 1.1118896234688502, -9.806982583708598, -2.9573598764616236, -7.484202657894475, -4.4241184502358175, 3.3191741803245183, -6.660143061004612, -6.207662647639302, -16.396541406986497, -10.134447517616698, -4.1186214734261615, -14.884466812383662, -13.76689090238213, -1.225506870014552, 2.351009007140515, -1.4722714197681188, -3.3554204995543504, 1.0670538460923942, -0.6555298274254417, 5.4471505960825874, 6.046043099409694, 4.68087038758933, 3.03, 0.02, 7.43, 1.9100000000000001, -1.56, 0.74, 7.187735235654033, 4.589521350185711, -3.0752396061533913, -10.423222042949734, -6.766168562517269, -1.4666092928517442, -6.858747360334605, -8.013944339868402, -13.514772797317887, -6.713532316417071, -7.589256455192292, -6.608929158821627, -17.92370032246578, -12.444568217961658, -1.8033375794976172, 3.454527317033231, -5.375169481388922, -7.651079621908007, 5.7050378588438875, 3.465395087843551, 5.856864590786129, -2.3115887398827364, 6.92, -1.45, 6.85, -0.65, -3.98, -8.64, -7.151962120309981, -3.630034805974795, -2.271536611036875, -4.791105717758852, -5.739597323948175, -1.8992598699101344, -4.086754366430056, -4.62098519259912, 4.771334107581568, -11.70599282478975, 3.1053658312849484, 0.11689548368375197, 0.5383444355192136, 2.9308057646874524, 3.894552554512421, -0.46547014560289907, 0.0906563678711535, -5.860050649424199, 3.873117447849977, 2.09223792299841, 9.102437063647466, 6.26, -1.46, 0.31, -5.41, -4.72, 3.11, 1.34, 5.96, -0.97, -8.85630820908584, 0.888088113686654, -5.606090974626574, 8.055906085114778, 7.303486770267431, -2.846850722956811, -0.6842016753232213, 8.587352660758988, 4.695103875713748, -8.917708626555205, -1.6939562477211074, -3.043333300098579, -0.949938338887175, -4.750275167042758, -0.44392017085287133, 3.898814806470493, 3.662558461451454, -2.4789813806848837, -3.89, -9.09, 3.74, -6.03, -1.12], [-9.67, 7.9, 7.46, -3.86, -9.4, 3.32, -0.06000000000000005, -5.09, -2.98, 0.44999999999999996, -4.27, 7.89, 5.25, 7.01, -10.23, 6.01, -6.67, 3.0, 0.36, 2.71, -4.01, 4.56, 7.38, -3.36, -1.79, 0.77, 3.8, 6.38, 2.34, 2.01, 8.5, 7.56, -9.76, -8.47, -8.38, 7.99, -0.5800000000000001, 3.7199999999999998, -5.930302965410798, 2.0790750559385116, 6.1615627241037805, -3.5089665131318073, 3.3466750624910446, 8.59118672379291, -4.5685332279007556, 2.5783070674658113, -5.734387696458064, -0.6105127795961595, 3.7516855017343036, 6.824425620093782, 5.927439900959117, -8.56, -8.99, -2.62, 5.93, 2.82, 7.22, 6.74, 4.25, -4.02, -4.48, 8.04998017038394, 8.02990806268917, -9.44894441870532, 0.5452127854624522, -6.997098113130036, -2.877962680252825, -7.231803993329907, 5.033588616107466, -0.9342606976339117, 1.6378973157871404, -1.236822330209171, 1.59232928366157, 4.287081711471456, -3.2241242022210397, 0.2922562648568323, -11.05675993134314, -8.93011870721162, 3.018385645130385, -8.904327881076147, 2.4095084132519338, 8.8, -1.79, -9.87, -9.88, 6.12, -6.53, -0.95, -2.34, -2.3610101029309405, -1.797214696651738, 1.5346925904327509, 5.294652685274979, 8.85673949001865, -6.867487236435478, -7.89264930366345, -0.8041694070232609, 0.3122639232486638, -9.53950129113825, -1.8885908963494744, -0.46000075436039, -1.1744140366722158, -3.633349206296601, -7.328046153749317, 2.2476739949549613, -2.490723611375845, 8.538291716259856, -7.431049271542801, -8.978973284253472, 7.47, 4.12, 1.15, 7.77, 0.4, -0.040000000000000036, -9.935090395915472, 1.9167546502390538, 10.092026919843473, 3.794675360504865, -5.475920495504742, 8.366482664011341, 2.594032563613139, -4.078512090798751, 0.18985310456566964, 1.9032200834061266, 6.894116460538247, 8.183788084913985, -3.5501889738550156, 13.219368351053635, -3.5820429098979507, -2.8133451147424156, -6.432991623800385, -0.1464243146517276, -5.794026565950129, -5.773695243862536, -3.7090474692560926, 6.6504531844168735, -0.7707980181348014, -9.57, -7.42, -0.79, -6.8, -7.770372321725933, -6.179452208984774, 1.0620615373641524, 10.901473057297958, 8.787253201387871, 4.786250981637131, 8.012626069786394, 3.916290940678753, 10.53954218349594, 7.501904323218285, 7.1120021191754095, 13.053641516965982, 12.849761593896423, 11.688150128727406, 24.01091470396027, 13.173001775239259, 8.178560923266819, 14.776249643219055, 0.12577869877557396, 11.220338300310026, -4.912923353205875, -3.954038779141874, -4.31436504285734, 7.690154135460555, -7.861678286324299, -6.2146263981752945, 5.91, 4.39, -10.323932053156003, -6.941497087535642, -6.554588032315901, -6.428432552525504, -6.634260617644783, -2.772119171644717, 10.30569345479645, 4.136880807681514, 6.101019691760566, 11.097805717737227, 2.387488530175468, 20.662440093202825, 2.3121875196189094, 4.179037941969881, 2.7492035399077963, 2.647677188113201, 13.265096200051042, 15.13808763051496, 20.452933331660503, 10.951569311000895, 0.5577841383317196, 1.227572886910742, 0.15412322868166894, 6.566791924126584, 2.095891939663528, -8.743476155371962, 8.963969973909116, -5.448276980572157, 4.084162772282696, -0.6669049187026949, 6.958577624602919, 9.320849367520422, 11.786298757888236, 3.6899425833494623, 2.9184440573698742, 8.166318573799485, 10.693400570011232, 9.475022000707991, -5.245544946349705, 1.1078314869169494, -0.05065720193686207, -3.724541266519145, -13.121288632468202, -2.140761810805515, -5.812817011042778, 6.596390062132383, 7.561497266552625, 9.458479058633944, 19.534515230338894, 1.2624970024283924, 9.29708760189511, 1.328345469673924, 7.138670315636274, 7.100470318064899, 1.0548567024817266, -5.966123080184307, 6.103319511472864, 2.89006523297477, 0.4502392548022444, 4.848785611136324, 2.0821806098728723, -4.797397689417023, 0.050069486623352644, 9.490915746491982, -6.423984961077728, -6.181359536875532, -2.3349271097500055, -13.882189134130725, -13.84843537135794, -11.057153993883944, -9.54466302557925, 6.845487021383931, -0.43208337412771236, 10.339205822550264, 2.230602942618117, 2.054786167490941, 17.62082196336831, 12.202096989861657, 15.129949240683066, 13.018609048223688, 2.8115730688445524, 6.387807877006129, -2.5705729959322854, -3.9999444017022308, 8.064647073349368, -5.458099223209747, 9.878860105076745, 4.666210875264957, -2.719546443384905, -2.988956914482008, -0.12706761943671352, -4.2727811409565675, -20.052453661846997, -9.355430417030973, -10.873159466144788, -5.175535775788794, -13.018163397313447, 7.651337128893507, 5.851801577773438, 5.302268568419979, 3.934917740710545, -9.548255216318806, -5.561608826173741, 5.589343618899304, 7.473956485451742, 3.1057312044283036, -4.896424240728594, -2.819848772024678, -0.11234406040968634, -4.617446095535801, -0.57, -3.12937615310842, 8.157094392791914, 8.210398159656037, 1.4714033549228105, -3.8672579860940886, -1.4940243404113915, 3.1140270453733736, -13.232702072935066, -21.730305139016703, -26.936450142526592, -24.07309398072767, -9.85872808331976, 7.231167731658709, 11.972578932010869, 13.207519819467473, 1.1483476861962734, -12.109635059456563, -0.9268214671624422, -7.736779612280128, -8.419886767845083, -2.664658895778126, 5.8053581915062695, 9.75336644963124, 8.398362382127175, 0.2166274673040175, -5.889121885066514, 5.29, -7.01, -1.151243725566694, -0.8073190968207296, -7.65841490559843, 1.730638130743326, 1.0199843655107694, -11.503928023162768, -18.710679716182216, -19.422411720443176, -23.236166852257856, -20.734050639743593, -11.062963107983602, -2.961302997750623, -3.6375623424097254, 12.733298818155111, 2.6666620106139236, 9.9905796666451, -10.272540931381839, -12.795757934629169, -11.511337851007927, -12.603491128722116, -14.09579417364364, -3.745127630400361, 0.6540967024999513, -10.799420012613341, 3.8247755099533065, -8.345978270995202, -0.5001010065809984, -9.12, 5.470515883775504, -2.7913732581195534, 4.8682307230660165, -3.95364284019241, -10.336195768773779, -15.331564343927505, -17.028804076263324, -15.143543632445459, -12.793538378008854, -18.806135524485178, -5.149165536594113, 1.546705254413494, 16.4538755203425, 10.664169901199392, -3.0072405108523377, -11.5569997571118, -26.580759118422797, -17.51201165212052, -33.46652238508379, -25.743870863141897, -4.614277740459062, -11.958725819277257, -12.775362829283527, -9.601421606045658, -8.690968009135176, 3.5731447440833737, -10.360346308277709, -8.62, 0.2301644618136077, 9.798296717368364, 2.7471930108372837, 6.029637275953118, -4.8594339106681685, -4.384141604357764, -15.256645666165294, -20.549470303964576, -15.045998506956284, -4.337469636658757, -8.352395253485145, 6.204178272145002, 3.5753246831974232, 5.893368142089917, 5.14561802282432, -18.603309673991387, -31.387329473731675, -29.25486019330103, -24.219283514905868, -21.133358928588972, -16.722604480417132, -15.007724010569765, 2.0307454832093392, -5.29491755078418, -3.378747444093532, -5.875643131824177, 1.25, -6.95, 8.830046943362484, -9.177172154573263, 0.07902172175221675, 5.603608474571083, -14.09036565304058, -12.262746680884948, -8.32981645195552, -12.338822918797241, -11.750193988291567, -3.8932201176264716, -1.0032749041488611, 12.524524072821759, 7.041604956197044, -6.508757000514967, -15.465355428110758, -24.92742807759341, -22.96058098153346, -18.2962909259926, -5.640188580270543, -8.05394367869263, -2.8442945092135825, -4.9213343443266835, -10.814641032097267, 5.815217318905582, -0.23266155363717947, 1.3400387899539286, 2.38, -7.27, -9.99999767222996, -5.089928615052089, 1.3030972505708505, -9.08498921607421, 4.652385823043982, -1.649463129439965, -10.506823196620573, -13.679737254615432, -8.164951636841812, -6.929719413343185, -11.21164541682638, 1.5246934372109742, -3.561520383136844, -7.928238692536371, -18.392414523308954, -32.41575508549943, -13.207519702092682, -4.026845017787024, -10.29474737464742, -6.658173056618789, -8.786310676610857, -0.6172440810829117, -8.942564489510733, -2.426533777010953, 9.878542588770793, 1.3620626256922732, -2.7399904154193973, -3.67, -3.9, -9.749174141735962, 3.681608270676038, -5.0879744111756064, 0.5277296713717932, 1.3483591679736333, -16.098854740493046, -22.098985016856385, -12.36429765693371, -14.490164683644522, 2.486538728708545, 4.022438379440023, -7.994616615767097, -16.537051714991126, -18.08939819629065, -9.419117219250884, -7.404230374685577, 2.7597344241112975, 4.307671318111778, -11.822047681208025, 6.337811560539639, 7.3680291995005325, -9.541480168461378, 5.010159528274949, -8.674494827848811, 7.949670523219332, 3.830017571731106, 1.41, -7.54, 8.510814851889839, -9.256773514136198, 7.358723022245006, 3.4185704068057006, 6.8944571733326585, 1.3870401523326648, -2.654813759119247, -15.37587005797206, -14.539387219418868, -15.6712042029483, -11.971602225854856, -15.05898812912415, -8.25896291043554, -15.902451144079802, -13.85701438814747, -7.1989869422769495, -7.511959018006292, 0.6921337694088309, 4.600585796855449, 10.404406296420724, 4.239443712061436, 4.982695237506973, -6.889062896802166, 4.585751179628147, 4.9721698172856525, 9.387933840628317, -6.73, 0.12, -4.1481375481782585, 7.809120914970025, 3.11222748437939, 11.428913709916499, 15.372564298730289, 11.904583291148716, 3.033930335050807, -9.720749256704119, -18.168548787971744, -11.666581547287942, -8.05955690854084, -2.2537670387541655, -21.07277553891054, -18.702598905059865, -7.808278209283223, 1.614780239819201, 6.073310671028301, 1.299550919585021, -1.863910201798018, 9.83489958937169, 4.716671899977019, 7.111357787669441, -0.28650551413616965, 0.20716337117267972, -4.27434696394522, -8.179840356363112, -8.79, 6.72, 0.06755098502011414, 8.562420988590558, 1.1369455975881584, 6.472693558095527, 11.022285149870953, 23.553013804625724, 16.40664742860781, 5.76063672743373, -3.444673810612949, 5.753125518387069, -5.445910227298598, -11.54796733273568, -6.498524916812437, -4.567725428111618, -9.214062101661602, 0.17023544032480672, 2.067959141551273, 10.65192311404212, 14.13160114200022, 5.731955801663949, 6.951742604161364, 4.98297669796293, 5.764770073645012, -7.844396781182757, 7.678550537390964, 5.541954494040725, 1.95, 7.83, -5.590229211605918, -0.02041447429491021, 9.378777229932268, 9.624906653643558, 23.98865001184055, 17.060291099484694, 25.077824321276502, 8.275286735480954, -0.32795543482514145, 8.519625026947313, 6.033564554530301, -3.0265507932391498, -6.795429744138855, 0.015572733530312355, 2.2309780563201165, 5.1454967390285375, 0.36641894163263533, 6.033477524448772, 14.498423403360112, 14.422615903377402, 13.400380552192289, 0.063010390357504, -4.905805000826252, -6.956591349287359, 6.998319536097612, 7.96, 0.14, 0.75, 6.53857826518244, -4.774821090370927, 0.6330493951253353, 18.902417286607864, 23.540043665346687, 19.575128887414497, 14.200798152517002, 18.263779038016867, 8.090361785940518, -0.17600573614237097, -3.3541962142681543, -2.721282045332001, -0.22883314099711205, -7.386719517492963, 4.413042378448048, -0.34938397034927404, 12.356156220540974, 13.844683286410305, 11.577521065005396, 9.773099868435349, 1.2540426495731738, 6.174055960232523, -5.708025036210787, -6.108212855632136, -9.998886466435106, -3.1, 3.15, -4.26, -3.6787937105941437, 0.8070878874751403, -7.390909304404032, 0.4176115743533123, 5.9489845170859414, 21.988733527877425, 2.733774778031999, 12.967563175883802, 6.200532733356944, 17.484322415656102, 12.422635993306356, -1.5673897891066435, 13.929003472122874, 15.236274383288293, 11.212493220684904, 11.7150771701776, 4.211716620955135, 11.557868917973142, 0.7885373136086975, 0.39594993932323674, 5.227609347397214, -6.457581351209697, -7.883670034915453, -6.239953309215077, -7.758319310326575, 4.7, -0.23, -0.27, 2.496039253913215, 1.630561606923441, 5.914449718575076, 5.713451000057291, 0.25078487552180606, 15.601803020577101, 5.416149022568326, 3.4360189224899096, -1.712265919524215, 3.1742788761273455, 16.120263215034196, 16.043160165414367, 2.8039491391177367, 15.175660710541766, 10.259967777753822, -4.330023724978911, 8.609399704148707, 9.42631916993898, 6.707832682970668, -5.599543498262261, -10.012434756511354, 1.3565759919119527, -2.875548862710163, -6.287799684454061, 5.694243555161485, 1.3, 3.25, 1.32, 9.21, 6.589054465648787, -2.2700691216368, -1.0757386431664981, 0.5981485084986295, -3.1128153757777364, 7.336617202153955, 0.014093929410472661, 0.2966827471462795, 4.807895360191261, -6.997507900366265, 5.304022957027923, 0.3196204994161417, 7.401345039182366, 2.5968075393291783, 1.1599634145575637, 0.81813629377762, 5.34175782160526, -2.9977409939305932, 6.326057197365484, -8.95015008881328, -6.8403885177495045, 4.887186190368651, 0.28, 2.95, 3.24, -3.36, -3.46, 2.37, -5.239723648081163, 1.7758061170273511, -0.28171858367151653, -2.662268437159934, -10.865747093987787, 0.5798001260403431, -1.3586223502629506, -0.9744165743041143, -15.124114085916426, -13.820775983272283, -15.357794193625201, 0.32517233159942593, -1.9985384248653602, -6.574174720725337, -3.798004443806417, 6.301265629730789, 1.7349182747037277, -10.810993657600127, 0.08787141856608538, 6.128208934081797, -4.196262253814084, -9.277957083748031, 3.85, -7.97, 6.63, -5.72, 3.97, -9.46, 3.4011906582135447, 4.375063909233717, -3.0573311223126614, 0.9586098766640164, -12.122114890846985, -11.420258761526728, -8.544350164750231, -2.871311133816737, -7.680751245654113, 3.6979027270274867, 2.9863542819127233, -0.40756941674953606, 1.3905952028177482, 7.19095299276447, -3.6010927580654193, -10.999328928237334, 7.1288419937324425, -6.998241026666602, -5.224735360143344, -3.8461129889386387, 2.7549904313799494, -7.28, 7.69, -5.77, -3.7, -9.35, -8.25, 7.72, -4.9, -9.98, 6.167084950827239, -1.2310432092600532, 4.626999446362421, -0.99140755491625, 4.881202992734198, -6.378788364263082, -3.9033326074250345, -2.781418931860431, 2.131437870635519, -3.313247519488009, -7.536057242185916, -10.263505453882438, 0.7525194233608655, -4.783156084261279, -3.1237553433398815, 3.939142696785865, 6.857624082646385, 7.546201248427468, 0.62, -3.51, -1.81, -2.46, -2.2], [-9.88, -4.55, -6.8100000000000005, 4.74, 4.24, -10.96, 6.79, -5.23, 6.58, 1.25, 3.54, -6.54, -3.08, -2.4, 7.64, -3.38, -8.85, 8.79, -3.07, 1.13, -3.16, 4.99, -8.24, -3.08, -1.1800000000000002, -6.34, 2.85, 7.02, 2.24, -5.68, 7.5600000000000005, -8.27, 0.19999999999999996, -5.48, -2.1, -5.3, 8.28, -5.37, -6.920848559522515, 1.3872845660993312, -9.797878769208866, 7.575571526656578, 3.669449206416611, -3.799011509225031, 5.177396875462253, -0.09923407234287734, -8.771004222604324, 3.3013254069727846, 7.279484939176057, 0.37259247889837777, -8.091480637831749, 2.83, 9.48, -5.81, -6.16, 4.17, 5.18, -2.85, 7.29, -7.43, 5.91, 0.15994348916570345, 7.129737995222807, 8.048177368154004, -10.19593454608716, -10.818555983012313, -7.568227239549064, -1.3430160983819954, -4.085913996441618, 3.6574596191361812, 7.245892666139144, -5.080886517568303, 4.3849780962381315, -9.51527726755247, -0.4668209333429634, 5.0730012806562055, 8.346429222202719, -4.767111710367553, 3.1108688726524183, -6.638154178676208, 5.509181944157643, -2.8, 2.5300000000000002, -1.37, 7.51, 0.73, 3.69, 7.15, 0.99, -5.064590165660229, -5.335463741006505, -8.020378519880401, -6.08150657307526, -5.91718591869851, -1.547118878325885, -0.24613559631841136, 0.9812668147181309, -2.762440150342593, -2.5319238374180597, 4.565000974286981, -1.6545495842018134, 10.4888639382097, -6.840224429370109, -9.654494286269856, -9.775065371882704, 1.9324116090944288, 7.161602722025701, -10.001297878918844, 3.7359866903714765, 2.98, -7.17, 1.88, 2.36, 2.29, -5.09, 3.595678226268038, -4.1867838742913115, 5.74321120167647, 9.612540956715643, -4.311956771316852, 1.6872500748010584, -6.514137361573324, 4.921694843456914, 9.63815220772611, 9.671428973049577, -4.370592413272679, 6.756386514013264, -5.314953253951117, 9.856476345062628, 2.934948016222358, 1.8688429429418867, -2.577178312527683, -10.598908308114376, -5.749456893310705, 1.0332440094265976, 8.455719777799816, -5.243080459467914, 7.500538913261088, -0.18999999999999995, 6.24, -4.1, -0.42000000000000004, -4.820798395418248, -3.672070568886963, 6.251607789844579, -0.4997750679678191, 9.598401829672763, 5.301251448703837, -8.20203401093579, -7.164570148930912, 10.162601493152776, -4.330812228139356, -5.028864520606913, -2.402777996638876, 4.8856371158287555, 4.288360062373559, 3.1424559911162184, -2.146161920327091, 9.792713447794467, 6.708761171934416, -8.908784337118188, -7.405122985755535, 0.34371715535779107, -0.32746641007678584, -1.3112595825748699, 9.063183629449833, 1.011653466357669, 0.23929363069727852, -7.78, -1.6800000000000002, -4.725389292521705, 6.143192419053617, 8.820979918943264, 3.5591529564632114, 5.1604128837551855, -9.484011347189435, -4.043136684873384, -7.304992119240087, 6.517751417528748, 2.2254580264497426, 8.980721159234232, 10.175170801802881, 3.9481359387342825, 6.210828833567905, 0.9456323316444355, 14.72347832024235, 12.291650133272617, 4.2600686333273075, -2.9958575421828297, 6.004103879613223, -4.023650941207046, 3.2827473571918215, -5.922733536023997, 1.9787736581837978, 2.2266629649404712, -3.86595313535816, -0.15272992778702452, 0.3706736931554904, 6.672386445306013, 7.8179341914674945, -5.577357606897245, -9.918729561017368, -6.411581046726205, 7.292650373182557, 1.8426435414939983, -7.584499660013588, 3.529408272159417, 8.198558926836496, 0.020675037646967154, 3.354991916092432, 11.179308062365035, -1.6985244803452244, 4.202731173547255, 0.8920291930473513, -7.213458357116244, -4.031784719115386, 6.410463491330717, 1.0133946483417862, -9.632530363740774, -1.5195264835571571, 9.723872736873004, 3.728317104988031, -1.1402450448825112, -3.0955369239331167, 4.430182633886773, -2.897963178310399, 3.3685780870925517, -4.797658028457688, 8.762218037951214, 6.367346153305605, -5.419314405962857, -8.18537733865006, -0.30503834342961217, -0.8854223494915632, -6.529471519764529, 10.834516949392533, 7.235068530897085, 8.177244855077241, -1.2997067006218628, 9.33871949110394, -6.822669774840757, 2.476744759314008, 8.330983282713698, 0.12737718861774927, -0.5741180788708611, -2.246982600619221, -5.310005703098435, -8.655967165990393, 4.568470735685978, 8.240602202138524, 7.891430658810844, -2.2742733520060683, 0.6913908986936648, -10.462870484465597, -1.742873250582427, -4.721136438799258, -7.44216393841963, 4.513792257675513, 3.820429997121892, 1.8597653789171478, -1.4010932989299343, 3.242830149100037, 2.3389491427274676, -1.3717572712020858, 5.257865216423347, 2.937985627227309, 3.5708212586241146, -5.876415724154178, -0.9985385255846474, 8.425347839179535, -9.217779220273734, 8.076401294014548, 1.2509564420732298, -2.828221960498878, -7.594737055407193, 9.57501389108402, 6.897520340204003, 8.532265087642067, -9.882752227903438, -2.955455546094346, 3.31, 0.9709036468568315, 2.158186750407444, -5.794513423027167, -8.37430965603212, 4.588869584359823, -8.28980132546744, 5.906690878107736, 6.351048182704273, -6.355419845045892, -1.0735421371235832, 3.8422137962324294, -2.906951944378775, -6.457181146704069, 6.593944020140828, -10.92676731013693, -8.807648785097314, -1.3829952058665016, -4.199878707160722, -3.6443175701005406, 1.7385793573724027, -9.131080031046725, -9.519722856334996, 6.44552796867575, 1.0070838689837616, -8.672697968591326, -5.472188187794605, -8.35, -9.93, -5.004069536277976, -8.24923672221935, -9.824152280614078, -2.9484291195930528, -6.534615128792436, -10.296401492533679, 4.337498582666598, -1.5293935794550606, 4.30266434343112, 5.362128419081384, 0.2779198221163217, -0.3751823719242751, -4.684751952301579, 6.804534310251686, -2.7534034036271784, 6.086368236742397, 4.081784984789019, -0.37165250113195925, -9.08744732696659, 8.445003975738942, -7.521536489409892, -1.4904415739597872, -3.2305459708637563, 0.40547783450721464, -1.0302922528700076, -2.7102455639766685, -5.210223523612008, 3.25, -9.54513042761273, -1.9234771426652646, -0.0011056204906434476, 4.506624140111104, 6.573415888446849, -9.630706789405192, -10.622841972450848, -9.128040527443149, -5.391131562097645, 3.6102830756927253, 2.9874523955517387, 7.989043400422959, 6.211280228865392, 2.674472636502749, 4.783524852415583, -8.522182852369342, 5.709343268624661, -6.57493625656494, 1.8313720671875424, -5.54995962986329, 6.045064132346396, 1.3166895602201143, -8.762275991210664, 7.050027481422159, -5.844801030511586, -3.5865744897297156, 6.219233633330257, 8.64, -4.86334693298471, -6.4619703912096895, -5.42166375236183, -3.9987735637872586, -9.70327081537946, -10.485302508097812, -3.0948607248959528, -0.8979153013985781, -6.653990128108357, -12.411611078204274, 11.350954862892003, -5.398823551741603, 6.4378855470784355, 8.726751230364833, 3.965565774795082, 1.5888247194062106, -4.166562765382024, 0.7893890796235304, 0.27034033405212543, 5.642128712357325, -0.6667918582995728, 6.291209106595978, -7.143805273430861, -8.85416716304698, -7.675602903906714, 0.3225457006858179, 8.39, 4.6899999999999995, 6.730117071404112, 2.28151200258152, -5.126890576528183, 0.5539620868039414, 7.649330874369719, -8.925949521941469, 6.763124507853371, -0.33889222870246677, -6.633264808968492, 7.3594767650171296, 11.870505269339837, 6.363542730928461, 13.625762003531115, 7.533354831576555, -3.083941372453013, -8.918428110281175, -6.095992343111179, -4.111977299070937, 1.0756691517627501, 0.15587040097169297, -0.7679441825185325, -6.741389410548711, 0.06633247923723272, -4.326583162020364, -9.32965041025636, -6.935891092897369, 3.41, -9.81, 3.2000058051935927, -5.97982197406317, 8.808361530424133, 4.06148855323264, -5.677364136710732, 5.195400631198772, -4.0403744236221675, -4.4428250433989875, 5.738350680172911, 7.778213381142162, 10.408257993641826, 6.175320812762617, 14.879341056913614, 0.13775318713878615, 0.9154405149897468, 3.0167761764444765, -7.878810677210829, -4.476533777769796, -13.013224515051913, 4.170058026255095, 3.747817940693766, -7.0327755868359025, 2.5332661340936817, 8.541081940191585, -0.8571766280792064, -5.664866722430663, 0.6100059740120655, 3.14, -8.77, -3.3300277246967895, -5.352031902058086, -2.391284639135157, -8.87011041107872, 5.569733920453521, -8.129224710601132, -5.787283634958576, -5.6263876762484015, -5.3602271610885035, 13.17688883516382, 6.542665104895302, 13.159980510571096, -0.1744432023622831, 8.070741136470463, 2.11004601979504, -6.472671113894409, -5.524650156551655, 3.642015475599862, 5.519781843668303, -9.878255498098977, -4.201708174003946, -3.077910009465168, 4.775913450096586, 0.08956571651329436, -2.3166080666176327, -2.639989047644547, 0.43, -0.78, 8.421329427418266, 4.580020362026882, 1.7342710674061246, 1.186582177930766, 3.9030356152312393, -4.902790163474831, -4.534502793582648, -0.9173492647854176, 3.5855949461079604, 3.0828969566112656, -2.975159926366919, 12.946210024465763, -3.7073749965094622, -1.85607669706962, -6.903710565676558, -7.6960482524618685, -4.313804638339303, -6.494068386261249, 0.5312686750700109, -3.7245442339308186, -0.9608813058702761, 6.625943477119197, -0.3835820061499347, 3.418141871560155, -8.656804808307074, -9.778864300042702, -5.31, 1.16, -6.683155446559278, -4.266592900073415, 7.2819292032699146, -10.829986035124934, 2.574968900240271, 0.7681590717488647, 7.832041739620962, -5.077601171844399, 7.132312093107278, 3.3536549936226354, -1.9489693689445788, -6.107241209867033, 13.722218512629759, 0.8964388333641529, 1.257084881730116, 9.55517222623421, -9.828312228952575, 4.614513389056505, -6.439835047839817, 11.73202128795857, -4.125161081804168, 7.663929352302002, 4.157078489265487, 5.926837540747216, 4.5948592190122355, 2.8517050823433654, 0.44, -4.81, -4.424683403503601, 3.702403548325291, -10.05709385681083, -8.090188376358405, 10.165789334548904, 4.067016940075118, -2.678809286100581, 13.647955539381535, 7.6352182312904375, -2.3828321240746324, 13.261203035439243, 5.659120548266893, -1.964553370943786, 11.402423538091588, -1.0788244479429259, -6.502932128498887, -0.20619191013751303, -4.881804030899497, -3.4748304933071865, -1.3548426702224625, 11.22459416922393, 1.4561852756993, -1.418606616300804, -5.79694854965256, 1.166884015482471, 5.564388631179495, 5.0, 6.15, -6.99184228495973, -4.8893868255743955, -6.754757389313528, -9.27255060099795, 1.5516303776158682, -5.012054040857007, 4.599286110258107, 5.566510906397454, -4.864526682875192, -3.5831000450047883, 9.947784931761472, 8.004297005167153, -8.194755734305469, 5.750112479942752, -8.708271509093068, -6.959351719573723, 6.861199028530861, 8.238110437077228, 2.1841478216893693, -7.38525978680633, -7.089683638080238, -7.328257853453845, 2.7902245447410596, 8.119285407185746, 5.958779862328087, -2.95, 3.24, 6.43, -2.666709998056183, -3.366063230039685, -2.9933824815682955, 7.688591675372676, 11.940810554285356, 3.3303850083339, -2.016541346300131, 8.004031881881659, 10.73762687422218, -6.814175321517595, 2.592347918087859, 9.341355747947077, 0.9099451349489525, 3.667307780226107, 4.264758205216372, 3.4758147841190725, 3.104007162018714, 3.496092471198141, 10.559442631935061, 1.6757824572707927, -6.920432548736731, 2.3669548074341775, -7.152963554436961, -6.034402777988894, 5.510679231367223, -6.88, -7.2, -4.64, 4.070241056260181, -6.783388363956198, -9.210669549310863, -4.933622545322943, 7.881215135846346, -8.034408932468235, 4.829867036963906, 1.4409754576450264, 3.0021505727773268, -5.598423768314289, -4.8010058234198105, 4.842580057187315, 1.744738672978233, -0.05348074734487929, 10.580892246355202, 7.548024318394759, -0.7076157214431872, 7.965449252983565, 3.3957094819667724, 0.6491654826068296, 3.540261176712528, -6.002532044887554, -10.143361691084964, -1.6303434916030919, 4.9983747157000336, -4.48, 4.08, 4.95, 5.058844024604371, -9.241949375629227, 0.3943384793520264, 8.311201367978827, 6.5393345408722805, -4.12364808503619, 0.5702813838806775, -3.7071894476034277, 2.4527049740226032, 1.3725925866026438, 0.7846855064159299, 7.324647918805589, -6.647832257277713, -3.0536019646472816, 0.7361379538169088, -2.089976173524935, -1.6203994585345463, 10.192971334228936, 0.11334026237651325, 0.30369978205667203, 4.436484220217665, -5.213308897380441, 8.584939703599675, -9.874358885982703, 7.673711946196447, -3.26, -9.32, -8.2, 6.21, -2.2163008507394153, -6.968618172039656, -1.3577564427569382, -3.9536960222286774, 5.211649722704418, -2.5336884245703484, -4.157383696928356, 1.1832711142957495, 6.688688440097389, 2.9563969286403506, -4.289120718403977, 5.6977456686457, -5.376646006946589, -1.704269821088033, 8.405322882930268, -1.5306654248100005, 5.421332913255505, -0.04723240575360947, 3.288628624460144, 0.7943924936831328, 0.8706553661454532, -3.6188251771943145, -0.74, -8.48, 0.12, -3.76, -2.27, -5.78, 7.167914666119393, 4.858818867491117, -5.837973236485004, 2.8552231561503727, -5.741728285501169, 2.9585268882253932, -2.5098661408002645, -4.4243995699305065, 9.496256527724757, 1.878196289717771, 1.8462190821629425, -4.59895783289678, -8.953913554316484, 3.589143962593751, -3.817309943030774, -5.0331766421106, -3.9401054944406475, 4.002972917076446, 8.427439535317566, -0.027313213715391547, 0.07379176800154474, 4.973726615138568, -1.17, -5.11, -7.63, -5.84, -4.17, 0.6699999999999999, 3.423612074757864, -4.46070151694697, -1.548347529887381, 4.1029680097468475, -7.017336901331213, 4.176217321869219, -5.787413474781493, -8.46087627133702, 5.448186598432414, -1.6372125806191202, 7.345714694644508, -0.04554507311282567, 7.952824168388238, -6.3912514565630145, -2.6369284565706828, 9.42116124206076, -3.9435896450904133, -2.845305501783443, 0.22907629209630564, -4.05719281066408, -7.23397301385682, 8.55, 5.43, -10.05, -2.51, 7.55, 3.96, -2.2800000000000002, 8.35, -5.77, 4.304936587612213, 9.205422876112292, -8.385241350613596, -1.0027073415236358, 5.441399705326459, 6.673924490801851, 3.934092680308838, 3.9354474497941703, -9.950714066081076, -10.044723953665772, 6.529153401286784, -0.23535268839640242, -9.270874465588141, 9.323746905713502, 0.5425046331905392, 4.981147843792359, -8.501462602654554, -4.711420437606426, -8.47, 3.95, 0.64, 3.5, 2.82], [-9.22, -2.2199999999999998, 3.78, 5.05, -4.09, 0.17000000000000004, -3.11, 6.68, 7.56, 6.16, 5.33, -7.46, -5.95, -6.1, 8.84, 0.84, -0.81, -7.58, -3.35, 9.15, 3.0300000000000002, -8.41, -4.8, -6.98, -6.67, -8.41, 1.06, -8.04, -10.87, -6.07, 4.27, 2.71, -2.79, -8.55, -10.35, -3.03, -3.4699999999999998, 7.95, -4.821311919113026, 3.625901977439946, -8.342912250860403, 3.5594492806071854, 3.7999020359629276, -2.9302713281155057, 0.9354929260857143, 4.867283152619812, -9.258328145822773, -8.11599829960599, 3.6468039166884285, 3.722599739885446, -5.004683510247995, 0.18999999999999995, -1.66, -5.29, -0.07, -1.19, 2.32, 4.36, 9.56, 5.11, 6.07, 7.249908296405029, 7.799574828786952, 0.11447682009870616, 2.002207841192994, 6.718974385951027, -5.382051521804154, -9.519016313011807, 4.779780442839857, -9.24864051325466, -1.8822696124808806, -1.9095512442645677, -5.327722216524477, -11.481492949684569, 6.536740030295322, -4.34386618903497, 2.58571181410963, 2.8550430075981534, 0.7439257779215209, 3.081757129929894, -9.721040135131641, 8.79, -0.34, 3.88, -4.72, -7.15, 5.39, 0.03, 8.63, -0.4829154993478551, -9.520532029318368, -1.1801800593021985, -9.659564755691372, -1.815001158280305, -8.510669223186513, -4.024443641467638, -2.907335791924055, -2.318512317052947, -1.6034473079035672, 4.835516467307993, -5.86892179348313, -0.4367728110060697, 1.3663951954173619, 3.0920472836706456, -6.1166536249846795, 0.34336397934699203, -5.558313633601188, 0.7009400086251428, -2.374577242982787, 0.24, 7.08, -5.23, 2.78, 2.2800000000000002, 1.04, 2.7362557118631043, -1.0168886249697786, -1.0774511657714512, -9.574469510184535, 6.230240449226439, -5.135628332242455, 0.47009329741055855, 5.910306668706797, 11.040900436358179, -7.891057111550123, -7.349495020546229, -6.84215453157228, -3.4422601628685965, -10.296851122731706, 4.932801807999077, -10.216719260423602, -6.328498731918556, -4.82197266300337, -6.464594072385376, 