[[-5.4, -8.17, -5.06, 9.02, 3.1, 3.98, 0.35, -3.18, -6.57, 4.25, -0.050000000000000044, 0.94, -7.13, 7.41, 5.37, -0.2, -0.76, 5.51, 1.59, 8.52, -6.55, -6.21, -6.25, -8.68, 0.08999999999999997, -6.6, 0.84, -7.96, -2.65, -7.36, -2.59, 4.98, 2.81, 6.77, -9.8, -2.64, -3.08, 9.7, -2.18, -4.74, 5.66, 3.2800000000000002, -0.43999999999999995, 2.27, -1.75, -7.53, -1.16, -1.0899999999999999, 5.33, -4.26, 1.9, 0.53, 6.79, -9.67, 4.17, -9.74, 4.0, -8.77, 1.0699999999999998, -7.27, -1.5899999999999999, 2.19, 3.73, -10.22, 4.61, -6.4399999999999995, -2.49, -4.51, -9.83, -5.98, 7.46, -5.38, -4.35, -1.92, 1.27, 7.62, 3.18, -2.83, -4.91, 4.68, -5.3100000000000005, 3.44, -3.93, 6.44, -1.76, 2.15, 1.01, 0.16000000000000003, -2.42, -0.44999999999999996, -6.43, 5.28, -8.5, -9.43, -1.71, -0.09, 9.28, -9.81, -8.18, 2.46, 8.52, -10.72, -7.39, 5.83, -6.34, 9.25, 8.09, -3.54, 8.65, 5.48, -2.4699999999999998, 1.66, 0.45, -5.5, 7.83, -0.06000000000000005, -6.71, 8.27, 2.0, 3.11, -10.83, 7.12, 5.3100000000000005, -7.3, 0.89, -3.74, -4.22, -1.0, -8.3, 7.47, -0.29, 0.35, -6.1899999999999995, 4.82, -8.97, 7.58, 8.53, -8.01, -7.46, -5.63, -10.68, 3.1, -0.51, 3.25, -6.82, 5.33, 8.52, -8.32, 4.37, -7.38, 0.6, 6.93, -2.77, -8.98, -0.35, -9.39, -0.13, 0.18000000000000005, 7.32, -1.62, -1.08, -4.86, -6.14, -1.62, -10.65, 3.29, -10.15, -7.1, 8.56, -7.14, -4.99, 2.87, 6.87, -9.25, 8.92, 4.28, -6.93, 0.03, 1.81, -3.63, -5.71, -4.76, -2.29, 4.46, -1.7, -7.46, -10.22, 6.73, -9.84, 1.5699999999999998, 4.59, -0.18, 6.27, -3.65, -1.46, -7.35, -9.99, -7.0, 3.3, 2.94, -9.71, -5.01, -1.85, 2.48, 1.74, -5.14, 2.63, -7.87, 0.8, 0.63, -8.76, -0.25, 7.36, 7.74, -8.66, -9.73, 5.76, -8.49, -7.14, 2.36, 0.81, -7.7, -6.07, 3.06, 4.84, -6.53, 8.59, -2.4699999999999998, 7.9, 6.49, -8.43, 3.32, -4.8100000000000005, 2.02, 0.71, 4.99, -9.64, -6.64, -2.08, -10.16, -9.27, -6.01, 7.03, 6.59, -7.6, -3.62, 0.82, -2.2, 0.65, 6.32, -10.19, -8.71, -1.6800000000000002, -5.49, -1.19, 3.16, -1.06, 6.26, -1.88, -6.83, 0.59, 7.93, 7.56, 4.07, 6.01, 5.59, 5.82, -6.19, 0.42, -7.55, -5.53, 9.14, -10.72, -3.33, 4.09, -4.3100000000000005, -3.75, -5.55, -4.45, 1.6, -8.17, -5.93, 3.7199999999999998, 9.63, -2.99, 0.6, -4.45, -3.84, 2.52, -5.95, 4.75, -9.07, 8.46, 3.94, -6.22, 4.8100000000000005, 0.24, -7.74, -7.95, 6.89, -0.8, 3.18, -7.04, 0.17, -7.05, 5.54, -2.8, 2.46, -1.27, -4.65, 3.57, 5.37, 2.55, 2.97, -0.6599999999999999, -0.91, 5.22, 6.7, -10.85, 7.52, 6.44, 1.6400000000000001, -7.54, -3.18, 2.9, 7.92, 6.1, 8.77, -9.69, -6.77, 4.28, 3.41, -9.74, 0.010000000000000009, -6.99, 4.92, -6.73, -8.89, -8.31, 6.23, -6.17, -0.79, -9.1, 3.55, 5.32, 4.68, 9.11, -2.81, 7.28, -6.82, 4.83, -8.96, 6.41, -1.29, -2.34, -0.55, 2.61, 7.74, -1.82, 3.42, -0.97, 3.02, 2.26, 7.03, 3.3, -1.48, 7.76, 8.59, -4.72, -5.7, 3.29, 5.2, -2.84, 6.12, -2.09, 5.25, -0.11, -7.85, -6.96, 4.62, -0.06, 2.4699999999999998, -2.21, 8.5, -2.62, 3.0300000000000002, -5.26, -3.21, -6.94, -8.55, -6.37, 6.45, 3.7199999999999998, -3.4699999999999998, 7.51, -5.76, 0.43000000000000005, 0.94, -7.66, -9.02, -7.56, -5.1, -2.32, 9.3, -8.29, -3.61, -0.57, -0.07999999999999996, -8.96, -9.21, 8.0, -6.92, 9.72, 8.44, -4.37, 6.93, 7.43, 5.63, 1.13, -4.45, 1.77, 8.71, -0.28, -7.91, -3.73, -8.23, 0.73, 1.05, 3.97, 5.46, -2.23, 3.29, 5.15, -3.92, 8.18, 0.19, -6.61, 3.02, -5.42, 1.26, -5.82, 4.28, 8.37, 2.46, -4.59, 0.13, -9.11, -9.88, 8.17, -1.21, -1.92, -1.56, 7.65, -2.78, -2.19, 0.41, 7.25, 2.12, -9.94, 0.79, 0.4, 6.68, 7.56, 4.75, -1.4, -0.1, 0.38, 0.08, -1.53, -7.39, -9.22, -5.99, 8.88, -8.04, 0.05, -1.3599999999999999, -4.04, -1.35, -6.49, -8.09, -0.43999999999999995, -10.66, 5.3, -3.1, 3.7, 0.78, -3.3, 4.58, 8.97, 4.39, -9.51, -9.25, 0.37, 1.8, -8.4, -9.2, -2.36, -0.18, 3.67, -8.48, -9.39, -8.74, 6.9, 1.96, 1.34, -2.96, -3.56, -10.53, 7.43, -1.74, -3.38, -0.73, -2.13, -3.17, 7.95, -5.91, 6.5, 5.99, -5.48, 2.29, 4.6899999999999995, 0.67, -1.56, -1.96, -8.3, -2.91, 0.27, 2.67, 0.51, -4.05, -4.04, -4.55, 9.25, -7.95, -1.4100000000000001, -3.0, -4.64, -6.93, 6.3, -3.12, 2.11, 7.64, 2.31, 2.34, 0.92, 5.95, -7.14, -7.08, -3.38, -7.49, -6.24, 5.24, -9.61, -6.46, 0.83, 0.19999999999999996, -1.76, -6.63, -6.12, 1.05, -2.16, -6.39, -0.8, -2.29, 0.27, 1.0, -0.83, 4.95, 0.74, 7.4, 2.09, 6.03, 1.76, -8.5, 3.15, -4.9, -3.2800000000000002, 4.79, 5.57, 4.34, -6.82, -7.23, -4.11, 8.33, -1.24, -4.88, -10.98, 5.63, -4.23, 8.83, -5.14, -4.61, 6.67, 6.67, -9.67, -1.52, 0.6, -8.91, 9.66, -2.77, -6.11, 3.68, -1.08, 2.86, 0.61, -4.6, -8.51, -9.11, -7.28, -1.52, 7.37, -2.18, -9.15, 9.13, 0.8, 8.52, 6.17, -0.95, 1.65, -7.78, 6.9, -5.8100000000000005, 5.89, -8.85, -0.9, -3.16, -7.97, -4.37, 6.09, -4.9, -8.64, -0.22999999999999998, 2.25, 1.3900000000000001, -6.04, -7.5600000000000005, 8.84, 4.68, -6.71, -9.52, -4.44, -7.42, -7.8, -4.41, -5.38, 6.05, -4.44, -6.88, 7.77, -3.74, -8.54, -3.11, -9.52, -1.37, -9.2, 2.71, 3.8, -9.57, -9.13, -1.72, -2.16, -8.24, -9.17, -8.16, -2.48, 7.68, -9.69, 8.79, 6.22, 3.2199999999999998, 6.95, -6.04, -7.28, 5.07, 2.91, -2.57, 4.38, -5.21, 6.75, 0.9299999999999999, 2.21, 5.26, 4.15, -3.29, -2.54, 5.8100000000000005, 5.87, -6.18, -8.69, 7.79, 6.6899999999999995, -8.16, 0.85, 6.12, -4.68, -9.46, -5.65, -2.77, 5.86, -1.31, -3.32, 2.5, 8.35, 4.86, 6.17, 6.32, -3.86, -7.08, -3.82, -7.59, -5.08, 1.52, -5.2, -2.15, 5.4, 2.18, -5.16, 2.6, 2.31, 9.16, -9.31, -5.84, -9.07, -2.09, 8.51, 6.18, -8.2, -4.03, -5.32, -1.25, -5.71, 8.31, -8.2, 0.63, 6.12, -10.72, 5.9, -8.78, -7.47, -0.62, -4.67, -2.46, 7.43, -7.95, -2.81, 8.7, 6.57, -6.86, 3.37, 1.78, -0.02, -0.91, 3.95, -7.99, 0.78, 7.16, -10.49, 7.0, -5.7, 8.37, -2.5, -6.8100000000000005, -8.07, -5.96, 5.2, -10.54, -9.39, 4.74, -8.41, 5.61, -3.83, 2.5300000000000002, -7.97, -5.38, 1.76, -2.0, -6.7, 7.39, 9.78, -6.91, -9.51, 6.11, -6.47, 9.63], [-2.55, -6.75, -3.88, 4.71, -3.63, 4.1, 7.79, -3.19, -7.81, -0.69, -2.48, -6.75, 7.58, -5.66, -0.18000000000000005, -8.62, -10.7, -0.08, 1.69, 2.34, -5.59, 4.59, -9.26, -6.14, -9.0, 2.32, 8.93, 6.61, 4.49, -3.85, -6.91, -4.9, 3.94, -0.14, 4.95, 8.66, -0.97, 7.46, -8.52, 7.52, -2.81, -9.54, 2.12, -9.11, 3.2, 4.13, -3.29, 6.17, -6.17, 8.54, -3.67, -2.41, 8.52, 8.52, -10.29, -2.26, -9.21, 3.09, 9.63, 8.0, -10.95, -4.55, 7.74, 0.64, -2.7199999999999998, 8.51, -8.38, 8.73, 6.7, 5.47, -9.96, 6.4, -2.29, -3.92, -6.93, -3.6, -7.9399999999999995, -6.62, 4.66, 7.01, -3.7, -8.47, 6.7, 3.0, -5.27, -9.63, -7.8100000000000005, 1.32, 1.22, -8.6, -2.25, -6.01, -4.67, 5.38, 3.49, -2.81, 6.15, 4.3100000000000005, 5.71, -0.45999999999999996, 0.75, -6.84, -2.54, 1.67, 5.35, 0.93, 4.21, -8.42, 2.51, -4.07, -3.46, -2.2199999999999998, -9.16, 1.02, -5.19, 8.52, -6.24, -3.74, 0.66, 6.9, -5.17, 4.01, 0.25, 2.33, 3.0, 9.45, 6.64, -4.8100000000000005, -8.29, 1.6600000000000001, 4.19, -3.17, 4.48, -3.5, -6.62, 4.7, -1.77, -10.88, 5.67, -2.81, -3.5300000000000002, -7.26, -1.63, 4.85, -3.63, 3.23, -5.29, 6.94, 0.20999999999999996, -9.82, -2.83, 7.81, 7.9399999999999995, -10.26, -8.17, 3.12, 2.5300000000000002, 5.42, -2.5, -3.43, -1.81, 7.17, -5.62, 0.13, 0.26, -6.62, 8.61, 4.26, 5.1, -9.79, -9.11, -7.6, -4.34, 5.49, -3.42, -3.15, -9.37, -7.19, 4.12, -8.36, -3.14, -9.44, -7.04, 5.1, 4.52, -3.88, -9.19, 0.68, -2.2199999999999998, 5.98, -6.1, 7.34, 0.52, -5.55, 4.4, -1.3900000000000001, -8.62, -2.56, -5.69, 0.27, 7.08, 7.4399999999999995, -3.1, -3.33, 5.22, -0.93, -3.99, -6.65, 8.39, 4.61, 5.59, -5.78, 4.29, -2.44, 5.86, 7.16, 9.01, -5.51, 5.17, 4.34, 5.82, 0.8, -9.35, 1.63, -9.45, 5.22, 2.18, -8.68, -1.94, -10.27, -8.59, -9.87, 1.94, -8.39, -9.21, 2.14, -2.83, 8.67, -10.29, 0.05, -1.56, -6.9, -10.05, -0.18000000000000005, -0.94, 0.22, -4.08, -10.44, -5.27, -0.06000000000000005, -6.79, 9.39, 4.3, 0.22, -4.61, -9.93, -8.9, -4.34, 8.78, 1.62, 5.36, 1.41, -2.05, -10.65, 9.14, -7.15, 5.25, 8.55, -6.88, 2.7199999999999998, 8.65, -6.47, 4.71, 8.2, 2.8, 1.35, 4.4, 9.68, 0.18999999999999995, 7.06, 4.08, -7.64, -1.6, 1.97, -3.51, -1.12, -9.16, -3.02, -2.39, 4.98, -10.14, 0.42, -4.65, 3.17, -9.29, -4.38, 6.97, -8.68, -2.7199999999999998, -5.72, 5.26, 1.3399999999999999, -7.61, -0.67, -4.75, 1.03, -7.42, 7.08, -1.26, 4.0, 4.92, 2.75, -8.81, -3.4, 5.9, 3.22, -1.4, 9.0, 3.73, -2.01, -4.43, 1.3, -2.27, -4.29, -3.66, 2.87, -5.8, -8.71, -10.22, 2.7800000000000002, -8.22, -4.92, 4.77, -4.87, -9.73, -8.9, 3.58, -3.4699999999999998, 5.63, -10.35, -6.25, -3.8, 3.76, 9.92, -2.38, 5.2, 4.32, 9.16, 9.24, -7.24, -1.35, 0.16, 4.42, -10.64, -8.06, 7.81, -0.04, 4.77, 7.31, 1.15, -6.96, 0.16, -2.79, 3.93, -5.11, -7.57, -7.99, 0.43000000000000005, -1.13, -6.02, -4.4399999999999995, 4.87, -8.83, -7.62, 2.4699999999999998, 3.09, -1.35, -10.65, 3.85, -1.6800000000000002, -8.95, -7.35, 8.31, 2.04, -1.15, -3.26, -1.1, -3.1, 1.92, 2.77, -5.29, -0.6599999999999999, 3.09, 4.49, -8.99, -0.09999999999999998, -0.34, 1.48, 3.94, 2.1, -6.66, 4.74, 6.18, 9.73, 3.26, -0.54, -1.85, -6.61, 5.66, -7.89, -4.1, -0.06, 1.77, 4.02, -5.73, -2.75, 9.37, -1.08, -5.16, 1.81, 7.27, -5.91, -3.85, -6.43, -3.04, 6.23, -2.54, 1.22, -10.96, -4.85, 5.02, 1.63, 8.5, -8.25, -9.05, 7.16, -3.37, 0.44, -3.23, 7.14, 5.94, 7.4, 0.19, 2.97, -4.73, -3.15, 1.68, 5.88, 7.34, -7.18, 6.48, 8.96, -0.54, -4.11, -9.42, 6.98, -4.62, 0.71, 5.12, 0.87, 9.24, -5.5, -3.19, 3.38, 4.07, -6.55, 7.4399999999999995, 7.46, -7.71, 1.12, -7.9, 4.18, -5.95, 2.37, 4.56, -4.41, -9.15, 8.44, -9.1, -9.71, -10.37, -4.08, -1.87, -5.24, 7.86, -2.11, -2.08, -3.26, -3.2, 9.27, -2.45, -3.57, 6.73, -7.1, -2.6, 6.37, -1.03, -7.61, -3.13, -5.54, -0.5, -9.68, 5.86, -6.47, 8.51, -1.0, -8.62, -9.09, 7.57, -10.97, -6.86, -1.78, 7.82, 5.92, 7.23, -10.6, -0.74, 9.58, -3.6, -1.52, -9.21, -7.86, 3.06, 9.64, 6.37, -0.48, 1.62, 8.38, -3.65, 9.45, -3.21, 5.72, -4.03, -6.45, -3.38, 4.55, -3.93, 3.13, -3.61, 7.58, 4.7, 4.93, 2.09, -0.6, -4.76, 6.1, -10.13, -2.12, -3.26, 5.63, -2.0, 1.25, -7.81, 3.41, -2.92, -4.04, -9.26, 7.68, -5.91, 2.8, 3.27, -4.11, -9.26, -7.04, -7.44, 4.94, -0.48, -0.35, 8.52, -9.02, 3.07, -1.3900000000000001, -2.3, -0.08999999999999997, -6.97, -1.42, 5.75, -9.16, 5.38, -2.65, -3.65, 4.04, 5.85, -7.52, -3.09, 1.6099999999999999, 3.18, -0.96, 2.93, -9.97, 2.91, -8.86, 6.53, -3.5, 5.71, -6.24, 2.38, -2.4, -0.7, 2.08, 8.48, -0.94, -6.58, 7.84, 3.3, -2.39, -3.36, 6.4399999999999995, -8.97, -3.51, 5.16, 7.71, -7.05, -10.11, -5.8, 2.39, -7.1, 8.47, -4.47, -4.35, 4.42, -3.98, 5.44, 1.46, 8.62, -8.06, 1.51, 4.36, -0.8200000000000001, -4.9399999999999995, 3.71, 3.67, 1.54, -9.37, 4.07, 7.32, -6.98, 7.79, 1.8599999999999999, -0.15000000000000002, -3.34, -5.68, -8.89, 0.15, 3.17, 3.06, 7.92, -8.53, -2.82, -1.21, 2.51, 1.96, 4.63, 6.08, -1.76, -9.03, 0.33, -2.19, -10.89, -1.49, -4.0, 9.12, 9.33, 8.96, -7.01, -4.45, 6.04, -5.25, -10.57, -2.05, -3.83, 4.38, 6.42, 1.8900000000000001, 2.14, 8.73, -4.98, -7.86, 3.43, -4.13, -1.4100000000000001, 9.06, 3.84, 6.25, -2.51, 2.06, 2.56, 6.0, -4.01, 8.93, -3.56, 4.54, 0.14, 1.8900000000000001, 8.29, 1.31, 8.13, -0.88, 2.05, -0.48, -6.72, 7.38, -6.41, 0.22, 2.27, -7.44, -0.67, 9.73, 1.05, 0.6799999999999999, -7.6, 7.1899999999999995, 0.2, -6.26, 5.76, -4.77, 0.33, -2.3, 6.8100000000000005, 9.42, -0.27, 2.27, -0.27, -9.33, -4.97, -1.51, 7.39, -7.96, -9.21, -9.36, 0.87, -8.45, -1.26, 1.98, -4.95, -7.21, 2.96, -1.47, -3.54, -8.05, 9.57, 8.62, 3.54, -6.13, -0.45999999999999996, 1.2, 0.92, -0.68, -9.02, 9.0, 8.45, 4.7, 5.45, -7.07, 1.44, 3.62, 9.99, -9.93, 3.46, -6.85, 4.44, -6.77, -6.32, -8.2, -6.15, 0.69, 2.42, 1.6, -9.54, -1.37, 2.07, 3.41, -9.41, -7.64, -9.4, 8.64, 8.76, 0.42, 0.9, 3.38, 3.37, 3.41, 3.5300000000000002, -7.84], [0.63, -4.5600000000000005, -3.27, -1.6, 8.38, -2.5300000000000002, 2.87, 8.74, 6.09, -6.21, 5.53, -9.07, 7.55, 1.58, 5.71, -7.43, 9.41, 4.51, -0.5800000000000001, 5.76, 3.33, -5.65, -1.21, 8.96, 9.36, 3.92, 3.44, -4.28, -8.89, 8.96, 2.5300000000000002, 3.64, -7.46, 6.06, -9.5, 7.7, -2.43, 1.54, 8.14, -5.36, 2.04, 5.01, 8.77, -3.45, -10.68, 9.56, -0.21, 4.09, -4.85, 2.48, -5.74, -0.78, -1.25, -0.91, 5.62, -8.78, -6.47, 4.73, 3.56, 3.35, 5.69, -3.45, 8.98, 6.32, 1.03, -2.66, 7.13, -1.4300000000000002, -5.98, 6.36, -2.34, 1.0, 7.98, -1.48, -7.73, 1.76, 3.06, 0.94, -4.05, -1.4300000000000002, -6.41, 8.1, -3.4699999999999998, -6.69, -9.37, 2.7, 3.26, -6.78, -4.68, 8.24, -2.7, -9.17, -2.99, -2.44, 0.04, -4.16, -11.0, -3.25, 2.07, -2.31, 7.25, 4.18, 2.65, 4.73, 3.06, -0.48, 7.51, 1.37, -3.85, 5.94, -1.51, -3.2800000000000002, 7.82, 3.54, 5.99, 4.38, -7.61, 4.43, -2.41, 1.8599999999999999, 5.57, 4.85, -7.6899999999999995, -9.99, 6.82, -6.2, -3.98, -0.78, 2.67, -8.79, 7.7, -2.9699999999999998, -0.96, 2.55, 2.21, -1.67, -1.69, -1.52, 8.01, -1.09, -3.41, 3.25, -1.07, -1.65, -7.17, -3.87, 6.48, 8.62, 2.32, 1.09, 3.74, -7.25, -4.71, 6.1899999999999995, -9.64, 5.66, -9.5, -4.51, 8.23, -4.23, 5.85, 0.7, 4.36, 8.78, -3.82, 8.31, 7.59, -7.58, -5.24, 1.98, -9.16, 5.34, -8.06, -2.44, -2.01, 9.19, 2.01, 9.72, -4.45, -10.33, -1.77, 3.81, 0.41000000000000003, -0.69, 5.2, 8.51, 3.69, 2.98, 3.03, 2.13, -8.96, 1.08, -8.46, 7.51, 4.74, 1.54, -2.9, 5.46, -3.48, 2.36, -0.67, -5.16, -8.8, -1.01, 4.24, -3.87, 1.63, -0.76, -9.72, 7.88, 8.98, -3.71, -3.2, 0.69, -8.9, -9.4, -4.2, -7.22, -1.18, -2.31, -8.77, -3.85, 1.84, 6.15, 6.89, -3.65, -6.21, 0.8, 4.47, -1.23, -1.94, 2.69, -3.58, 2.01, 4.01, -3.97, 7.95, 3.48, -9.87, -6.76, -8.47, 1.75, -4.73, -0.31999999999999995, -9.88, 7.72, -0.43000000000000005, 5.95, -1.79, 4.85, 4.52, 2.48, -10.14, 6.18, 2.09, -2.88, 1.34, -10.3, -3.59, -3.09, 0.72, 3.32, -2.75, -6.24, 6.89, -5.77, 3.63, -5.08, 7.11, 8.74, 8.8, 2.66, 0.020000000000000018, 1.5899999999999999, 5.77, -3.7199999999999998, 3.4, -7.72, 7.28, -2.43, 6.13, -4.48, -2.63, 5.4, 8.41, 4.01, 5.12, -9.17, 4.9, -6.6, -4.71, -6.8100000000000005, -2.99, 1.54, -1.68, -6.74, 2.17, -10.52, -4.37, 2.16, 6.23, -3.09, -8.7, 6.36, -1.52, 2.86, 8.42, -0.35, -3.36, 4.77, -2.87, 2.18, 1.01, -10.16, 0.15000000000000002, 7.09, -4.25, -1.11, 2.65, 4.1, 8.38, -2.49, 2.25, -0.5, -1.28, -0.87, 3.4699999999999998, -10.18, 4.17, 3.43, -4.29, -7.8, 8.39, -7.47, -3.79, -6.17, 1.65, 0.4, -5.11, -1.8599999999999999, -2.56, -9.39, -8.27, -4.04, -7.96, -1.35, 0.9299999999999999, -6.47, -0.51, 4.43, -8.33, 0.81, 0.32999999999999996, -1.85, -9.16, -1.0899999999999999, -4.1, -8.13, 1.8900000000000001, -1.63, 1.27, -1.96, -3.11, -0.57, 1.18, 7.34, -1.52, -9.63, 6.01, -3.76, 3.32, -0.56, 4.81, 3.89, -10.11, 2.42, -3.43, 0.5700000000000001, 3.65, 6.1, 2.83, 1.03, 1.35, 3.2, 7.22, 5.92, 4.84, 5.13, 3.12, 9.86, 9.02, -9.88, -10.37, -8.83, 2.11, 3.54, 8.64, -1.32, 6.03, -10.49, 0.6799999999999999, -5.11, 6.34, 1.22, 7.06, -9.82, 0.12, -3.91, 1.19, -0.6, -10.88, -10.42, -3.4699999999999998, 1.75, -1.48, -0.23, -4.01, 6.78, -0.42, -10.37, -0.49, -8.67, -7.32, -5.57, -5.67, -2.6, -9.94, -6.02, -3.46, -2.66, -5.3100000000000005, -6.35, -1.79, 9.73, -5.03, 3.82, 9.53, 3.5, 7.7, -3.48, 8.51, 2.67, -9.5, 9.87, -7.66, 4.15, 0.44999999999999996, -9.88, -5.89, -9.3, 6.29, 4.35, -1.26, 1.77, -4.7, -3.9699999999999998, 7.17, -0.8200000000000001, -7.23, 7.74, -9.1, 3.27, -6.18, 8.53, -5.13, -9.09, 3.48, 7.17, -0.47, 5.96, -1.81, -4.08, -3.29, 2.44, 1.6099999999999999, -7.86, -5.34, -5.05, -3.89, -2.65, -6.23, -7.02, -3.07, 7.22, -8.38, -3.12, -6.5, 8.42, -0.63, -3.56, 7.54, -8.21, 7.13, -8.92, -0.49, 2.01, 3.83, -10.29, -0.5700000000000001, 3.59, -2.34, -9.38, -7.91, -4.72, -1.17, 9.66, 9.17, -2.57, -7.26, 8.34, 6.77, -2.0, -8.05, -6.13, 8.71, 2.5, -1.54, 8.0, -7.47, 3.49, -0.81, 6.99, 4.59, 5.66, -2.35, -3.79, -9.97, -3.16, -9.04, -1.26, 6.74, 9.68, -7.81, -9.28, -3.81, 8.76, 8.19, -10.3, 3.7800000000000002, -0.37, -4.25, -6.68, 0.04, 2.34, 2.85, 5.97, -3.7, -1.6099999999999999, -0.69, -5.61, -5.76, -8.93, 6.65, -3.15, 8.79, 1.71, 4.32, -5.5600000000000005, -3.49, 7.26, 2.57, 5.18, -6.89, 5.89, -9.03, 0.98, -4.13, 2.74, 8.71, -6.61, -7.65, 6.4, 3.14, -5.09, 6.71, 9.5, 4.02, 0.43999999999999995, 7.69, -4.53, -0.5800000000000001, 8.18, 5.43, -0.87, 4.27, -6.67, -6.37, 0.94, 1.96, 3.84, 4.54, 4.5, -10.84, 6.07, -2.44, -8.13, -9.76, 8.39, -1.05, -9.64, -1.63, 1.0, -4.65, -7.53, 8.61, 8.65, -0.18999999999999995, 2.64, 7.18, -4.3, -9.1, 2.43, 1.78, 1.1, 6.8, 4.61, -4.86, -2.04, 8.39, 8.79, -8.8, 3.74, -3.22, 6.27, -9.3, 7.93, 3.9, 0.15, -2.58, -7.73, -1.49, -5.56, -2.07, 0.04, -0.1, -9.17, 1.99, -2.7, -1.2, -0.83, -9.92, -6.51, 0.21, -5.66, 5.86, -9.29, 6.71, -6.26, 8.69, 9.88, -4.87, -4.53, 6.45, -7.25, -6.07, 1.98, 1.04, 5.12, -2.07, 2.17, 4.51, -1.8900000000000001, -4.13, -7.84, -8.07, -6.15, 1.42, 8.59, -10.62, -8.19, 4.79, -9.34, -9.65, 7.79, 1.63, -2.52, 1.78, 5.5600000000000005, 2.4699999999999998, -1.31, 7.92, -5.66, 7.91, -1.38, -2.64, -4.48, -0.85, -7.61, 7.88, -8.26, 3.85, 6.03, 6.74, -9.49, -3.12, 1.57, 3.97, -8.34, -7.57, -0.74, 3.92, 2.92, -8.4, -9.73, 7.37, -3.61, -9.05, -7.39, -6.28, -4.58, -10.45, -9.97, -0.69, 7.51, 7.78, -1.81, 3.4, -7.95, -7.96, -7.31, 5.15, 4.14, 2.89, -7.18, -7.49, 0.85, 0.15000000000000002, -7.93, 9.22, 6.51, 4.13, 4.51, 1.56, -4.11, 3.97, 4.6899999999999995, -5.74, -0.73, 2.34, 3.56, -6.1, -6.54, -5.01, 6.27, 4.34, 1.3, 6.11, -10.46, 0.2, 4.6899999999999995, 8.84, 0.09, 3.02, -1.21, 3.01, -9.75, 1.42, -10.95, -1.13, -3.96, 4.51, 3.61, -5.18, -6.68, -8.9, -6.51, 2.13, 1.2, -2.09, -10.79, -8.13, -3.0, -5.58, 0.53, -8.09, -3.48, 6.54, 2.4699999999999998, -1.43, -2.66, 2.04, -2.06, 0.5, -7.52], [1.06, 0.22999999999999998, 2.63, -7.51, 8.89, 3.97, -9.07, 1.35, -9.28, -1.8, 1.75, -7.37, 8.41, 8.72, -3.99, 4.67, -2.79, -0.05, -4.93, 7.58, 8.05, -3.38, 9.03, 4.41, 7.7, 2.42, 8.94, -8.65, 7.24, -2.88, -1.12, -9.42, 1.69, 8.56, -7.26, 8.5, 4.59, 9.6, -9.0, -5.77, 8.16, 6.4, 9.72, -5.78, 1.47, 1.97, -7.84, -5.2, -7.29, -3.15, -3.34, 3.16, -3.22, -5.98, 8.55, 5.55, 5.52, 3.96, 9.43, 0.21999999999999997, -7.53, 7.26, 1.83, -4.62, 3.04, -3.96, -6.34, -9.78, 6.66, -0.41000000000000003, 9.33, 0.39, -0.02, 2.01, -8.27, 6.46, 7.53, 0.05, -10.17, -4.78, -7.34, 0.9299999999999999, 3.49, -6.24, 0.12, 9.46, 2.39, -4.47, 1.8399999999999999, 3.64, 3.06, -6.18, 6.05, 7.05, -0.45999999999999996, 3.1, 1.5899999999999999, 2.45, 4.79, -3.3, 6.38, 3.92, 7.86, -4.53, 2.74, -0.71, -7.71, 5.05, 7.26, 4.16, 5.02, -3.59, 1.22, -4.04, -4.9, -0.15, -9.82, -2.31, -4.9, -4.55, -10.58, 4.14, 8.28, -1.69, -8.62, -9.23, 1.28, 9.4, 9.04, -6.98, -3.37, -2.94, -2.19, -4.66, 5.17, 1.56, 1.4100000000000001, -9.14, -7.71, 4.53, 5.82, 4.43, -4.23, 0.58, -3.73, -1.34, 6.13, -2.23, -10.47, -10.99, -7.72, 8.91, 8.99, 3.35, -4.93, -10.73, -4.54, 2.54, 3.36, -2.67, 9.67, -3.1, 2.75, -3.64, -6.31, 3.7800000000000002, 4.1899999999999995, 7.33, 8.04, 7.76, 3.8, -7.74, -8.4, 9.97, -7.25, 6.54, 7.02, -7.62, -6.89, -8.99, -6.26, 4.08, 3.52, -1.26, 5.0, 4.63, -8.22, -7.65, -3.87, 3.63, -4.66, -2.59, -8.03, -8.17, -3.33, 5.8, 4.64, 8.51, 4.78, -7.64, -8.47, 4.29, -9.67, 3.43, 5.88, 6.84, -5.27, -0.64, 3.4, 8.67, -2.38, -7.53, 7.9399999999999995, -0.05, 9.34, -1.9300000000000002, -4.95, -5.77, 3.23, -7.88, -1.06, 3.8, -6.73, 2.44, -7.32, -6.6, -8.1, 8.34, 8.03, 1.21, 4.23, -9.56, -4.9399999999999995, 3.61, 3.95, -8.74, 0.95, -9.23, 8.74, -9.44, 4.2, -4.65, -9.7, -3.03, -2.92, -3.86, 5.65, 2.14, 6.99, -9.58, 8.23, -7.6, 4.83, -7.26, 0.71, -0.1, -1.8900000000000001, 2.2, 1.05, 6.39, -1.16, -9.89, 7.47, -5.09, 6.86, 3.33, 5.86, -4.15, 0.81, 5.33, -9.28, 2.0300000000000002, -3.05, -0.24, 7.59, -4.61, 5.84, 3.29, 1.6400000000000001, -1.8599999999999999, 1.42, 2.23, -1.9300000000000002, 8.57, 2.69, 6.23, 9.15, 6.45, 3.05, -3.61, -8.01, -5.15, -1.56, -2.61, 2.34, -5.48, -6.53, 1.29, 3.34, -10.34, -6.82, -0.94, 7.93, 8.73, 6.39, -7.77, 0.0, 9.4, 3.59, -8.3, -8.52, -7.42, 4.52, 5.22, -2.67, -9.93, 1.4, -4.2, 2.63, 1.82, 1.9300000000000002, -8.82, -5.11, 5.66, -1.3399999999999999, -9.72, 8.54, -2.98, 3.64, -4.92, 4.01, 9.72, 0.64, -1.22, 0.8, 7.34, 4.56, 5.45, -9.48, -5.5, -1.41, 6.82, 1.1099999999999999, 8.59, 7.9, 6.97, 8.69, -7.77, -5.13, 3.48, -10.31, 8.52, 4.71, -9.15, -2.51, -4.12, 7.48, -6.24, -1.11, 6.29, 5.32, 0.22, -10.7, 3.81, -0.33999999999999997, 2.74, 6.38, 0.61, -6.97, -10.26, -8.75, -9.1, 1.9, 0.050000000000000044, 0.03, 0.8, -4.61, -8.43, 9.23, -8.04, 6.83, 7.02, -9.99, 6.21, -5.47, -7.72, 6.49, -0.040000000000000036, 8.98, 2.6, -3.33, 2.92, -6.32, 1.73, 6.78, 9.32, -3.27, -2.54, -0.78, -1.63, 1.55, 0.3, -7.14, 0.4, -1.12, -9.25, -4.23, -7.07, 6.1, -4.12, -6.04, -5.16, -7.87, 1.26, -5.27, -7.72, -1.5699999999999998, 6.73, 1.49, -1.7, -4.03, -9.5, -8.15, -8.07, -4.39, -4.09, -0.54, -0.68, 2.65, -4.52, -5.53, -7.48, -3.86, -0.41000000000000003, -7.54, -8.82, -1.44, 0.91, 3.43, -10.37, -2.16, 3.65, -0.20999999999999996, -2.25, 8.38, -8.28, 4.02, -4.4, -2.8, 0.77, -9.44, 7.75, -0.29000000000000004, -9.22, 1.96, 8.87, 8.6, 0.39, 7.63, -3.11, -5.89, 0.56, -2.63, -5.5, 2.21, -8.29, 0.13, -4.91, -9.42, -7.73, 2.52, 6.12, 4.21, 8.96, 2.13, -4.43, -8.33, -1.57, -6.9399999999999995, -8.59, 6.16, -4.97, 3.0, -5.53, -6.74, -4.76, -9.53, 4.02, -5.62, 1.5899999999999999, -1.1, 5.74, -7.79, -7.43, 1.46, -6.91, 0.13, 8.8, -2.39, 4.59, -5.43, -1.15, 3.54, -4.45, 1.6800000000000002, 5.7, -8.36, 0.93, -5.18, -2.67, -1.24, 2.34, -3.65, -8.82, 6.12, 4.1, 9.81, 6.11, 7.74, 2.88, -1.09, 4.36, -5.76, -5.21, 8.61, -7.04, 3.87, -1.58, -8.5, -7.74, 3.82, 4.09, -0.96, -7.51, 7.86, -6.85, 3.8, 6.52, 4.36, 4.72, 8.11, -3.66, 0.6699999999999999, 6.76, -5.5, -3.96, 1.55, 1.18, -3.87, 8.84, -7.24, 5.95, -5.67, -4.8100000000000005, 4.27, -0.65, -9.39, 9.6, -3.86, -2.25, -8.94, -3.21, 3.27, -8.27, 6.91, -8.93, 0.16000000000000003, -9.31, 7.89, 0.88, -10.37, 1.07, 2.46, -7.89, 5.4, -6.81, -3.82, -7.93, -7.44, 7.88, 0.21, 3.61, -1.52, -1.73, 7.56, 7.01, -0.28, -4.01, 6.55, 4.41, -5.4, -0.050000000000000044, 6.01, 3.7199999999999998, 1.1, -3.6, -4.19, -2.16, 9.71, -7.99, 4.87, -4.52, -1.79, -6.04, 4.4, -4.25, -4.24, -9.41, -4.77, 1.6400000000000001, -4.46, -7.61, 4.52, -10.01, -8.73, 4.8100000000000005, -8.4, 0.87, -9.17, 1.17, -7.28, -8.51, -1.75, -0.67, -7.22, 6.27, -7.8, 2.67, -6.85, -8.57, 2.74, -2.2, -0.98, 0.79, 4.74, 5.49, -1.8, -0.58, 1.3599999999999999, 8.33, -8.57, 0.33, -3.52, -10.69, -7.22, 4.54, -7.47, -2.4699999999999998, 3.57, -10.29, 9.75, -6.43, -8.96, -4.34, 5.83, -4.35, -2.69, -1.34, 2.06, 9.48, -6.2, -1.4, -10.09, -4.3100000000000005, -4.37, -3.91, 3.45, 5.3, 0.6, -1.3900000000000001, 6.51, 5.58, -3.2800000000000002, -6.27, -2.07, -7.57, -3.92, 6.86, -5.3100000000000005, -9.68, 6.64, -10.85, -0.010000000000000009, -9.6, 5.85, -7.02, -10.34, 6.43, -6.6899999999999995, 7.09, 3.64, 2.92, 0.48, 5.02, 2.32, -9.52, 3.26, 5.89, -0.52, -1.31, 1.17, -2.09, 3.73, 4.1899999999999995, -1.96, -2.21, -0.24, 6.47, -4.02, 9.15, -4.9, 2.61, -7.12, 2.89, -6.14, -1.12, 4.0, 2.14, 1.35, -9.53, -1.29, 5.11, -8.58, 3.69, 6.89, 3.23, 3.74, 0.30000000000000004, 5.0, -0.49, -9.8, 7.77, 7.41, 8.03, -6.55, 0.36, 6.95, 5.49, -9.66, -4.54, 3.33, -2.34, -5.9, 2.02, 6.3100000000000005, 0.73, -7.39, -5.91, 3.1, 2.39, -4.67, 2.6, 7.3100000000000005, 3.01, -10.69, -7.1899999999999995, 3.52, 1.5899999999999999, -8.6, 0.63, 4.24, 3.13, -7.27, 4.89, -1.13, -10.21, -9.07, -6.21, -8.34, 9.38, -5.06, -3.44, -0.85, 2.05, -2.59, -6.83, -1.26, -8.15, 3.64, -6.04, -3.23, -0.22999999999999998, 5.44, -5.67], [6.06, 0.83, -6.9399999999999995, -5.33, 5.28, 2.2199999999999998, 7.38, 2.13, -8.48, 1.71, 7.5, 4.76, -5.46, 4.73, 7.67, -2.88, 3.27, -6.4, -9.21, 6.89, 2.38, 7.15, -1.55, 7.0600000000000005, 4.15, -2.1, 0.46, 4.96, -5.47, -9.78, -3.31, -6.85, 0.4, -4.75, -0.95, 4.46, -3.21, 2.2800000000000002, -1.48, -3.15, 1.65, -6.46, -2.4, 3.85, -8.6, -9.87, 7.71, -4.02, 9.4, -3.56, 3.84, -1.46, -2.34, -7.55, 1.5, 2.2800000000000002, 6.16, 8.1, -6.23, 1.1400000000000001, 2.56, -3.7, 0.2, 8.93, 2.94, -4.18, -1.02, 5.48, 1.0, 7.2, 7.75, -4.36, -1.13, 9.11, 0.45999999999999996, 8.18, 1.02, 4.02, -6.17, -6.09, -5.42, 7.79, -3.22, 5.58, 5.51, 5.56, -9.16, 3.09, 2.14, -9.07, -9.6, 1.19, 4.79, -5.73, -7.89, 6.3, -9.55, 6.05, -4.01, 4.19, 4.67, -4.53, 4.07, -5.35, 9.56, -8.75, 6.01, -3.9, 7.03, -5.93, -6.39, -7.7, -3.22, -6.41, -5.77, -7.11, 1.1600000000000001, -0.69, 3.68, 4.81, -2.86, -3.82, -9.37, -3.84, 5.5, -5.92, -5.41, -3.3, -5.6, -6.87, 0.06000000000000005, -0.41, 5.54, -0.9, -3.25, -1.6099999999999999, -1.18, 2.26, -3.71, -11.0, -6.32, 6.07, -3.4699999999999998, -7.58, -0.16000000000000003, -5.24, -4.35, 1.08, -3.36, -4.75, 0.62, 0.25, 4.5, 7.8, 0.64, -1.45, -3.02, 3.46, -10.79, 1.4100000000000001, -9.7, 7.32, 5.86, -3.06, 4.22, 9.46, -6.01, -9.3, -3.26, 2.45, 9.24, 8.92, -8.28, 0.32999999999999996, -7.58, -0.28, -5.64, 0.83, 8.1, 4.77, -2.26, 3.62, -2.2, 2.58, 4.58, 6.43, -3.85, -8.56, -7.11, -10.4, -3.55, -7.99, 0.08, -8.78, -4.99, -7.12, -8.94, -3.32, -7.59, 0.16, 9.58, -9.0, 2.38, -1.79, -2.48, -3.69, 6.2, 9.29, 5.87, 0.13, 4.55, -10.29, -0.68, 8.37, 7.79, 5.62, -9.97, -0.63, -2.57, 7.64, 7.14, 3.7, 8.52, -8.75, 1.3, 0.82, 2.71, -4.62, -8.0, -1.41, 2.08, -9.53, -4.82, -5.06, 0.89, 3.8, -1.25, -6.96, 1.1400000000000001, -3.13, -7.56, -1.24, 1.4100000000000001, 8.28, 3.07, -0.020000000000000018, -9.58, -8.36, -3.87, -7.05, 1.84, -0.22, -0.69, -2.37, 4.88, 0.45, -9.71, 1.24, -8.94, 9.49, 4.33, 3.31, 6.69, 8.97, -4.78, -3.99, -0.77, 6.79, -8.3, 1.42, -8.95, -4.26, -5.57, 5.42, -8.64, 2.57, -5.45, -7.81, -6.65, 8.5, -8.42, 9.57, -2.85, -6.95, -8.09, 8.05, -1.29, 7.88, -3.92, -3.88, -2.25, -6.4399999999999995, -6.09, 8.37, 4.6899999999999995, -8.68, -0.27, 6.7, -3.88, 3.82, 1.68, -10.17, 5.24, -8.81, -1.9, -1.34, -6.37, -0.91, 2.26, 3.4, 4.18, 3.98, 4.11, 7.11, -0.28, -0.13, 1.28, 0.71, -4.3, 9.71, -1.3599999999999999, -2.69, 1.52, 8.31, 5.28, -1.53, -2.62, -1.6099999999999999, -7.82, 3.76, 6.97, -2.79, 3.96, -2.7199999999999998, 0.30000000000000004, -0.78, 8.72, 1.19, 4.97, 6.7, 7.09, -8.88, -5.06, -4.04, -0.58, 2.1, -10.56, -3.29, -2.05, 0.97, 3.24, 7.1, -6.14, 0.18999999999999995, 4.29, 4.8, 2.05, 1.08, 6.16, -1.67, -6.43, -8.14, -5.32, 6.35, 5.35, -6.82, 7.09, -4.22, -0.96, 2.99, -6.79, -0.45999999999999996, 4.15, 4.95, 4.85, 9.48, -1.87, -6.34, 2.82, -3.51, -0.33999999999999997, -4.67, -9.56, -10.0, -8.62, 3.44, 9.49, 7.73, 2.95, 0.78, -7.84, 0.4, 8.24, 7.62, 5.87, 8.8, 7.1, 8.48, -0.46, -9.28, -2.51, 6.0600000000000005, -0.67, -9.63, 1.1400000000000001, 0.030000000000000027, -6.23, -2.5300000000000002, -0.11, -5.3, -6.13, 1.4300000000000002, -6.33, -7.99, -1.82, 4.17, -2.09, -8.65, 0.31000000000000005, 7.74, -7.24, -8.51, -7.47, 5.75, 7.2, 3.74, 9.53, 1.56, 8.74, 2.67, -7.69, -1.75, -8.73, 5.12, 8.21, 0.35, -7.05, -10.21, -6.04, 0.16000000000000003, 6.44, -2.55, 5.08, 3.7, 5.32, -3.51, -0.87, 3.57, 5.9, -1.99, 6.31, -6.49, -6.11, 6.52, -2.36, 3.93, -0.18999999999999995, -3.59, -9.16, 1.94, 3.32, -6.82, -0.88, -1.08, -10.81, -0.09, -3.66, -1.21, 2.23, -3.84, -7.27, -2.81, 3.3, -7.04, 8.07, 2.33, 3.94, -6.26, 3.0, 5.58, -6.33, -2.65, 2.81, 9.16, 5.92, -3.76, 1.29, 0.43999999999999995, -3.93, 3.82, -0.39, 5.96, 5.96, 7.69, -10.3, 0.69, -0.24, -5.52, -6.47, -8.58, 5.47, -0.43, -6.62, -7.21, -1.52, -7.25, 3.86, -4.92, -5.96, -2.2800000000000002, -6.68, -6.67, 0.42, 3.87, -10.29, 5.34, -2.55, -7.21, 6.95, -5.02, -8.79, 5.9, 1.6099999999999999, 6.26, 4.86, -6.49, 1.13, -7.4399999999999995, 6.74, -10.23, -2.78, 0.88, -10.7, -4.26, 7.93, -3.65, -9.94, -5.34, -9.2, -0.49, -0.31, -6.7, 5.82, 9.53, 7.38, 1.4300000000000002, 1.29, -3.5, 4.2, 5.16, -1.87, 8.22, 0.47, 7.0600000000000005, 1.3, -6.61, 1.94, 5.48, 0.61, -9.59, -3.07, 8.82, -2.55, 5.71, -3.36, -10.98, -1.06, -0.71, 3.12, -1.9, 4.16, -7.74, 6.45, -5.62, 2.6, -6.88, -3.09, 8.24, 1.31, 7.75, -4.55, -6.73, -9.76, -2.99, -9.84, 7.06, -5.27, -6.02, 7.62, -4.08, 6.89, -10.09, 9.09, 2.77, 1.42, -2.37, 7.02, 1.58, 1.97, -0.39, 1.6800000000000002, -5.51, 1.6600000000000001, 5.16, -5.3100000000000005, 0.28, -2.9, -4.11, 9.3, 3.5300000000000002, -9.04, -1.95, 2.71, -4.6, -7.74, -6.17, 2.73, -3.32, -5.99, -2.6, 9.4, -6.04, -1.23, 6.64, 6.92, 3.99, 0.8200000000000001, 6.41, 1.57, -6.31, 4.91, -1.71, -1.99, 3.88, -6.83, 4.99, -0.9, 7.93, 8.48, 0.92, -7.63, -9.0, -9.86, -3.7199999999999998, -8.0, 1.28, -3.04, -8.75, -9.5, 0.65, 4.86, 6.42, -8.39, 6.92, 3.04, -2.3, -2.17, -4.03, 5.48, -1.66, -10.76, -6.24, 1.13, 4.7, -10.09, 9.97, 6.31, 2.2, 2.31, 0.86, -1.12, -7.8100000000000005, 2.26, -10.17, 4.02, -0.20999999999999996, -0.39, 1.72, -5.61, -7.03, 5.93, -2.85, 8.97, -4.11, 3.21, -9.29, -0.95, 1.91, -8.09, 6.93, 5.91, 7.12, -1.63, 5.48, -9.74, 3.78, 4.91, 5.73, 1.38, 7.23, -0.4, -6.58, 7.49, -3.06, 2.9, 8.79, -3.04, -3.5300000000000002, 9.5, -7.39, -3.04, -2.39, -5.54, -2.87, -1.7, 7.91, 8.5, -0.36, 8.57, 9.1, -2.01, 4.87, 1.26, -5.53, -6.93, -1.66, 5.9399999999999995, 8.71, 2.18, -1.97, -5.98, 3.94, -4.0, -8.63, 2.09, 0.43999999999999995, -8.31, 2.93, 8.8, 5.04, 8.24, -6.28, 1.05, 2.32, -5.12, -4.27, 0.24, -9.01, 5.87, 1.1099999999999999, -6.45, 3.4, 2.06, -9.51, -8.23, -3.23, -8.32, 6.98, 6.61, -2.54, 3.7199999999999998, -7.98, -4.54, -6.1, 9.59, -0.13, 3.27, -6.8100000000000005, 8.83, -2.23, 1.43, 5.51, 1.59, -7.64, 2.7199999999999998, -2.19, -2.9, -2.5300000000000002, -10.53, -4.4, 6.93, 6.66, 4.18, -5.89], [7.5, -4.47, 3.4699999999999998, -6.48, -5.53, -5.58, -6.97, -8.61, 0.11, 9.91, 6.44, 2.54, 4.32, -6.32, -3.12, -6.88, -4.52, -4.29, -5.86, -5.97, 4.62, 8.02, -2.5300000000000002, 0.52, -0.46, 6.9, 8.37, 5.01, 1.53, -8.62, -9.16, -7.33, -1.44, -9.35, -2.16, -6.36, -0.97, 6.85, -10.19, -7.07, -1.34, 4.54, -1.09, -8.14, -0.030000000000000027, -1.52, -10.96, -3.4699999999999998, 8.4, -8.73, 8.42, 7.3100000000000005, 2.3, -9.89, -7.08, 0.55, -9.74, -9.92, 8.15, -8.76, 5.68, 8.79, -9.32, -0.65, 7.24, 3.46, 2.26, -6.58, 1.48, 2.79, 8.7, -3.57, -6.09, 1.99, -3.69, -0.58, 2.09, 4.82, -6.23, 9.18, -2.9699999999999998, -3.5, 5.51, 3.94, -0.26, 7.24, -3.5300000000000002, -7.93, 8.26, -7.66, -5.77, 3.33, 9.85, 5.14, -5.23, -2.02, -1.87, -9.79, -7.32, 0.67, -5.01, -5.25, 1.9100000000000001, 3.2, -5.84, 2.76, -1.95, -6.46, 6.63, -1.3900000000000001, 2.01, -10.63, 4.5600000000000005, -6.64, 4.13, -0.84, 9.8, -7.04, 3.97, -3.6, -8.79, 6.75, -2.38, -1.15, -7.65, 7.37, -6.19, 1.1600000000000001, 5.59, 6.37, 1.47, -7.38, 2.5, 2.41, -2.7199999999999998, 2.3, -10.92, 6.08, 5.09, 7.58, 8.77, 1.52, -3.94, 7.71, 9.17, 7.28, 6.49, -1.5, -9.9, 0.18, -9.43, -2.7, 8.46, -5.36, -1.48, 4.9, -2.15, -9.65, 5.97, 1.9, 6.84, 4.15, -4.03, 2.62, 1.02, -3.99, 5.67, -3.65, -1.15, -8.72, 5.63, -4.9, 5.61, 5.5, 0.51, -3.29, -10.17, 4.1, -9.47, -1.1600000000000001, -8.47, -10.63, 5.02, -10.95, -8.1, 3.13, 5.17, -5.93, -6.86, -2.67, 8.42, 9.57, 5.01, -9.23, 4.35, -7.6, 0.2, 7.22, -7.16, -1.88, 6.3100000000000005, 2.07, 5.04, 7.19, 3.94, -7.75, -4.43, 0.97, -0.83, -10.33, -0.39, 6.96, -2.98, -4.78, -1.28, 3.11, -3.54, -8.55, 4.87, 6.05, 9.29, -0.18000000000000005, -8.62, -6.94, -8.83, -1.05, -0.14, -10.9, -6.73, 7.67, -0.87, 2.51, 6.85, -8.03, 7.85, 2.62, -5.0, -6.61, -3.3, -5.8100000000000005, -10.79, -9.12, -3.9, -4.56, -2.98, 4.1, 4.48, -2.82, 5.41, 1.81, -10.19, 5.59, -3.64, -8.12, 4.93, -7.91, -0.92, 5.76, 8.0, -9.55, -10.04, -6.55, 5.16, 8.39, 2.35, -3.39, -7.86, -2.36, 3.32, 9.02, -5.24, -4.43, -6.62, -4.14, 7.01, 0.3, -5.16, 6.46, 4.15, 8.78, 4.04, 5.55, 2.41, -6.14, 2.26, 6.25, -7.52, 0.95, -4.57, -10.51, -7.67, -8.32, -7.22, -5.5, -0.18000000000000005, 1.74, -2.89, -4.8, 4.31, -3.1, 5.38, -0.7, -6.24, 5.8100000000000005, -0.83, -3.09, -3.91, 5.02, 3.23, 7.41, -3.34, 5.52, -10.99, -9.11, -6.43, -6.91, -6.3100000000000005, 0.020000000000000018, 1.2, 1.81, -2.7199999999999998, -3.59, 1.8599999999999999, -7.87, 2.51, -0.3, 7.22, -4.0600000000000005, 7.65, 5.62, -8.73, 0.29, -3.39, 0.37, 2.35, 3.95, 8.59, 1.84, 8.5, 7.75, -4.24, -6.96, 8.43, 8.88, 1.05, 6.33, -4.07, -4.9399999999999995, -3.19, 8.83, 4.4, -4.48, -9.65, -3.81, -2.09, 4.8, -6.07, 6.13, -5.72, -10.43, -0.85, 1.87, 4.52, -7.87, 0.43999999999999995, -2.94, -6.41, -8.1, 7.35, 8.15, 0.24, 0.53, 0.38, -8.96, 1.8900000000000001, 7.67, -2.37, 8.52, -6.07, 7.95, -5.4, -6.98, -5.98, 5.37, 8.79, 7.33, -9.42, 4.8100000000000005, -1.17, -4.34, -8.95, -4.6899999999999995, -2.77, -6.32, 8.22, -7.2, -6.47, 8.08, 2.9699999999999998, -0.38, -6.37, -3.7199999999999998, 3.84, -7.67, -3.41, -3.7800000000000002, -4.35, 3.87, -7.75, 3.13, 6.71, 0.26, -6.23, 1.32, 5.02, -6.91, -2.95, 2.38, -7.2, -9.03, -10.8, 5.42, -4.3, -8.1, 4.41, -5.86, -9.31, -1.3900000000000001, 7.44, -7.78, -2.7, -9.4, 2.25, 2.87, -0.52, 3.07, -9.0, -5.59, 3.85, 3.78, -4.32, 2.93, 8.42, 6.92, 4.27, -6.81, -2.42, 5.88, -9.07, 1.2, -4.33, -8.68, 2.93, 2.41, -3.07, -6.32, 1.93, -3.9, -9.26, 3.77, -8.76, -9.92, -2.22, -4.58, 0.58, -2.41, -5.87, 0.57, 4.12, -3.52, 3.98, -9.66, 0.63, 6.33, 7.18, 0.19999999999999996, -3.32, 6.53, -0.9299999999999999, -7.67, -2.02, 2.3, 8.14, 7.27, -0.06, 2.07, -6.84, -5.71, 4.95, -7.72, -7.65, 5.21, 8.92, -7.73, 9.63, -9.22, 6.32, -0.03, 4.58, 0.91, 7.7, 4.55, -5.17, 2.23, -7.42, 1.23, 3.43, 6.54, 3.34, 2.9699999999999998, -8.71, -8.85, -7.49, 7.74, -7.61, -7.17, -3.49, -2.1, 0.18000000000000005, 3.62, -6.73, -5.47, -4.6, 0.49, -6.02, 7.84, -7.1, -10.05, -2.04, 4.21, 1.84, -8.71, 3.94, -7.8100000000000005, 6.73, -0.6, -7.34, 2.64, 6.22, -5.8100000000000005, 1.62, 4.0, -6.21, 6.61, -1.73, -1.0, 4.31, 1.9, -3.43, 8.45, -4.21, -6.11, 5.57, 0.8, -2.88, 2.91, -0.35, -9.7, 7.1899999999999995, 9.43, 3.59, 2.26, -7.9, 2.64, 6.74, 4.08, 6.45, -3.45, -9.61, 3.55, 3.18, -0.6599999999999999, -4.12, -10.36, 5.96, 6.41, 1.4, -8.06, 3.71, -9.61, -3.14, 9.79, 6.28, 4.63, 4.36, 7.74, -3.76, -9.81, -5.14, -8.46, 4.48, 4.15, 1.37, -2.48, -0.54, -8.75, 7.0, -9.38, -9.75, -6.4399999999999995, -3.64, 5.27, -5.42, -5.22, 0.14, 6.8, 9.74, -2.08, -5.0, -8.32, 5.26, 8.01, -9.46, -1.87, 8.86, 2.88, -6.67, 8.59, -6.3, 6.0600000000000005, 2.38, -5.48, 2.38, -8.15, 1.1400000000000001, 7.08, 0.53, 6.77, -4.72, 9.73, -6.76, -6.53, -2.55, -6.98, -2.65, 5.75, -1.98, -0.51, 9.49, -9.19, 3.17, -7.6, 4.59, 0.85, -3.51, -0.96, -2.62, -1.6, 0.67, -0.65, 1.21, -3.1, -5.06, 4.84, 3.0, -10.52, 0.27, -1.8599999999999999, -1.5, -5.3100000000000005, 1.35, -6.89, -6.5, -9.52, -7.08, 7.28, -6.13, -0.91, -8.41, -5.91, -5.69, -9.57, 8.32, -5.03, 0.77, -4.84, -8.48, -2.9, -2.08, 6.45, -4.49, -0.09999999999999998, -8.56, -5.16, -1.33, 6.17, -0.45, -1.1, -4.86, 3.16, 1.4, 9.86, 3.62, 3.9, -0.72, -5.86, 6.91, -9.03, -6.1, 0.21999999999999997, 7.92, -2.73, 6.61, -5.99, -5.03, 5.36, 0.6, -5.28, 8.31, 5.5600000000000005, -1.4100000000000001, -9.6, 5.67, 6.74, -4.13, 2.57, -10.76, -5.47, -5.77, 4.16, -3.31, 8.72, 3.34, -4.47, 0.45, 7.63, 8.95, 0.17000000000000004, -5.08, -6.56, 3.76, 0.18, -2.96, -10.78, 7.37, -5.24, 3.7, 7.48, 0.020000000000000018, -0.57, 7.6899999999999995, -0.36, 2.3, -3.9, 8.14, 6.63, -9.61, -6.13, 3.43, 6.65, 3.34, 6.61, -9.84, -2.43, 6.77, 5.99, -5.4, -2.8, -2.11, -4.35, -4.15, -4.48, 0.22, 5.32, 9.53, -8.36, 7.15, 7.62, 4.35, -10.72, 6.46, 0.77, -6.35, -10.0, -3.92, -0.72, 0.69, -5.51, 0.75, -2.34, -9.3, 6.93, 2.41, -1.84], [-3.09, 8.45, 3.09, 3.23, 4.54, 5.07, -6.59, -9.12, 5.86, 4.95, -4.6, -8.9, 3.32, -1.79, 0.75, 6.76, -1.3599999999999999, 3.22, -6.85, -1.3900000000000001, -1.01, -3.12, 8.08, -6.87, -0.08, -9.53, 3.36, 1.19, 3.07, -7.45, -1.37, 7.47, -4.99, 4.64, 6.62, -10.19, 6.69, 5.57, -4.85, -3.16, -4.45, -5.47, -1.0, -6.34, -1.53, -3.77, 5.6, -9.24, -8.21, 6.48, -2.83, -6.93, -7.84, -10.66, 7.6899999999999995, 8.62, 7.63, -3.37, 5.0, -4.97, 9.14, -2.85, -8.87, 8.3, -6.28, 4.74, -1.5899999999999999, -2.39, -4.3, -8.59, 2.66, -8.78, -3.89, 0.010000000000000009, -7.72, 6.21, -6.15, 6.24, -6.5, -4.05, 3.12, -5.98, 7.99, 0.86, 2.12, 2.45, -1.81, -7.27, -4.1, 4.84, 7.86, 5.79, -7.83, -2.87, 3.92, 5.72, -8.31, 3.32, -4.88, 7.14, 8.91, -3.06, -9.6, 2.18, -0.9, 4.18, -0.1, -9.25, -2.88, -6.08, -4.02, 4.84, 6.15, 0.85, 8.38, -7.82, -6.62, -8.24, 0.10999999999999999, -6.41, 5.59, -5.71, 0.19, -2.82, 6.07, -2.31, 5.25, 7.16, 9.7, 1.35, -6.45, 0.7, -10.39, -5.6899999999999995, 2.98, -8.18, 0.98, -7.51, -9.17, 7.08, -10.54, -1.8900000000000001, -3.91, -8.74, 0.98, -8.98, -2.58, -6.41, 5.73, 6.76, -0.74, -9.61, 2.17, 6.0600000000000005, 3.24, -1.6600000000000001, 1.85, -9.27, 5.42, -0.55, 4.16, 2.89, 7.1, -8.71, 7.15, 8.25, 0.07, 9.04, -6.78, 5.89, -10.64, 4.51, -0.43999999999999995, 3.18, 4.0, -4.24, 5.65, -8.97, 2.22, 5.0600000000000005, 1.6, 3.57, -10.17, 3.31, 7.63, 2.19, -1.19, 2.11, -6.24, 4.99, -2.21, -0.94, 3.79, 7.07, -3.49, -8.45, 6.27, 6.53, -2.5, -5.54, -8.44, -5.07, -6.53, -6.0, 3.32, -3.3, -4.2, -9.27, 0.8200000000000001, 1.6400000000000001, 2.87, -8.88, -4.09, -2.14, -7.72, 8.32, -3.56, -3.12, -7.31, 8.24, -1.95, 4.76, 9.59, 1.07, 2.36, -1.74, -7.6, -1.02, 2.41, -1.02, -1.5899999999999999, -2.52, -5.71, -7.58, -4.91, -6.61, -5.03, -3.87, 3.33, -5.22, -10.37, 7.91, 7.63, -3.99, 0.21999999999999997, 7.89, -6.59, 4.08, 3.56, -9.07, -5.36, -4.4399999999999995, 9.62, 2.06, -1.69, -3.17, 4.29, -5.98, -1.38, 3.75, -3.17, -5.75, -8.03, 5.12, -5.41, -4.4, -0.74, -3.67, 0.92, 7.79, -0.75, 4.6899999999999995, 4.67, 1.52, -4.26, 1.82, -6.91, -6.68, 5.87, -3.08, -1.99, 0.22999999999999998, -4.27, -2.0300000000000002, 4.16, -0.96, 6.03, -9.22, -7.51, -5.92, 0.56, -9.85, 0.72, 5.96, -2.69, 5.96, 0.21, 0.93, -2.79, -5.27, 0.030000000000000027, 1.81, -7.97, -8.82, -7.86, 5.1, -9.55, -10.91, 1.1, 7.87, -6.77, -0.96, -5.68, -9.25, 7.57, -5.58, 4.77, -2.58, -4.39, 0.07, 3.86, 6.74, 2.04, 3.05, -1.74, -2.34, 9.18, 8.86, -3.54, -4.82, 2.02, -0.55, -8.1, -9.18, -3.17, 5.48, -2.12, 7.88, 1.83, -0.91, 1.06, 1.85, -0.44999999999999996, -4.41, 7.66, -7.61, 5.37, 2.44, -2.56, -7.1899999999999995, -4.78, -2.11, 4.02, -6.77, -1.9300000000000002, -7.58, -4.5, 1.15, 5.31, -7.21, 2.33, -2.96, 3.19, 3.76, 1.92, 2.03, -2.84, -2.78, 0.21, -2.41, -4.69, -7.13, 0.19999999999999996, 2.24, -6.02, -9.52, -6.86, 4.4, 6.91, -4.72, -7.58, -2.7, 0.31999999999999995, 3.0300000000000002, 6.88, -5.1, 3.12, 6.46, -3.37, 2.32, 3.75, -4.23, -0.42, 8.24, -8.29, 2.98, 7.73, 1.11, 7.02, -7.87, 7.99, -0.85, 8.31, 8.74, -2.49, 1.87, -5.4, -4.43, 0.72, -0.96, -9.59, 6.87, -2.29, -10.42, 9.65, 2.09, -5.42, -1.07, 1.04, 7.12, -10.11, -7.04, 2.08, 3.06, -3.94, -4.54, 0.9299999999999999, -0.17000000000000004, -3.54, -7.98, -6.6, 0.85, 5.68, 8.14, 4.16, 7.0, -5.4399999999999995, 5.62, 4.9399999999999995, -6.58, 1.03, 3.7199999999999998, -3.64, 0.78, -10.83, -7.74, 1.91, 5.91, 0.69, -9.35, -4.03, -8.8, -9.19, 4.24, -10.08, 1.68, 9.47, 5.47, -8.47, 6.43, -0.38, 0.76, 4.66, -2.04, 3.57, -5.9, 8.29, -3.81, -5.18, 0.99, -5.56, -8.65, 1.94, 3.69, -4.72, 5.95, -0.26, -0.08999999999999997, 0.72, -6.18, -6.28, 3.43, 2.58, -1.15, 5.46, 0.72, -6.52, -1.63, 7.92, -0.04, 5.23, -2.1, 1.62, 8.47, 5.08, -8.0, -9.37, -9.92, 2.8, -4.75, -3.41, -9.87, 1.35, 2.71, 4.45, 5.43, 0.17000000000000004, -8.11, -5.57, 0.81, 7.38, 6.67, 9.18, 7.64, -1.92, -0.63, -1.62, -0.19, -9.44, -3.04, -10.14, -4.7, 7.21, -2.18, 9.67, -8.55, -4.84, 5.89, 1.6400000000000001, 0.33, 5.64, -6.38, 2.17, -9.09, 4.71, 8.5, -9.88, -3.31, -2.68, 9.18, -2.93, -9.1, -7.85, 1.4, 7.98, 0.91, 6.4399999999999995, 0.29000000000000004, 1.23, 3.71, 2.09, -1.33, -0.92, -0.7, -8.48, -5.33, -7.13, -5.75, -4.91, 9.07, -6.65, -1.95, 8.59, 2.18, -9.21, -2.2, -9.34, 4.16, -5.4399999999999995, -10.3, -0.5, 3.98, -8.85, -6.88, -8.84, 0.85, 8.16, -5.56, -9.39, 9.47, -3.26, 2.52, 8.0, -9.14, -7.72, -3.92, -3.79, -9.02, 3.35, 7.97, -6.92, -9.89, 3.03, 8.39, -0.53, 7.95, 2.25, -6.43, 2.79, 8.3, 8.57, -1.3, -0.94, -9.23, -0.79, -9.93, 2.51, -5.99, -2.19, -9.12, -7.73, 5.19, -4.55, -2.59, -5.09, -7.94, 2.13, -8.35, 8.99, -9.88, -3.02, 0.75, 7.48, -5.71, -2.66, 4.54, -6.68, -2.68, 7.91, -0.36, -8.93, -8.37, 7.83, 9.39, 3.88, -8.11, 9.84, 6.67, 8.29, 5.3, -1.1, -1.1800000000000002, 7.61, -2.17, -2.68, 4.17, -6.8, -1.69, 2.09, 3.33, 4.23, -0.08999999999999997, 6.43, 1.81, -2.1, -6.63, -5.79, 3.51, -3.5300000000000002, -5.58, 7.53, -1.98, -7.59, 4.03, -1.47, -2.76, 2.14, -6.09, -0.83, 4.94, -4.0, 6.57, -5.93, 9.85, 3.4699999999999998, 4.75, 5.17, 4.62, 7.0, -6.98, 3.36, 3.31, 6.6, -0.28, 0.95, -7.43, 7.85, 7.29, 9.94, -4.62, -9.96, -4.25, 6.01, 5.39, 8.8, 9.55, 1.1, 6.93, 4.36, 6.93, 7.58, 0.52, -7.13, -0.87, -6.02, -2.48, -7.75, -2.82, -5.75, -4.5600000000000005, 2.35, 7.62, 9.34, 1.0699999999999998, -3.29, -2.26, -1.02, -9.58, 4.98, -5.65, 1.65, -0.81, -2.09, 1.6800000000000002, -2.6, -4.44, -6.73, -5.79, 3.13, -10.36, 0.6, 8.85, 4.08, 1.73, -6.31, 2.41, 4.5, 7.97, -6.29, -3.66, -9.96, -7.56, -3.24, -2.69, -0.54, -4.1, -3.52, -9.24, -4.25, -9.73, 0.6699999999999999, -4.13, -7.59, 2.82, 5.85, 0.13, -6.82, 6.28, 8.8, -7.7, 1.4300000000000002, 0.82, -10.11, 8.33, 8.75, -1.74, 5.93, 8.03, -5.47, 9.63, -8.69, 0.85, 8.33, -8.06, 8.09, 2.83, -4.03, -3.68, -0.06000000000000005, 5.48, 3.33, 5.3, -1.31, 7.17], [9.56, 4.28, 2.97, 5.15, -9.92, -10.57, -7.01, 2.04, -6.76, -7.88, -2.5, 3.81, -8.52, 6.89, -6.19, -1.95, 2.12, -8.22, 5.82, -1.74, 3.04, -10.38, 5.84, -4.26, -7.98, 2.32, -7.36, -0.20999999999999996, 0.6599999999999999, 6.84, -9.79, -10.72, 8.27, 5.32, 1.27, -9.57, -2.89, -4.99, -8.93, -9.15, -7.0, -5.49, -2.08, 2.81, 2.89, -8.25, -8.46, 8.54, 4.53, -8.74, 7.08, 5.08, 6.91, 7.86, 4.48, 6.7, -5.52, 3.77, 7.12, -5.89, 9.35, -4.77, 0.09999999999999998, -2.51, 7.65, -6.72, 2.24, 6.17, 4.32, 9.85, -3.57, -6.25, 5.77, -4.3, -9.47, 8.03, 6.25, -9.28, -1.87, -5.62, -1.8399999999999999, 7.34, -9.56, -10.89, 5.14, -1.3900000000000001, 7.59, 1.51, -4.01, -0.15, 6.13, 3.0300000000000002, -8.4, 2.44, 5.55, 5.35, 5.63, -2.06, -6.38, 7.6899999999999995, 1.78, 1.59, -3.03, -6.52, -5.75, 7.45, 8.4, 4.87, -6.79, 8.03, 7.6, 9.39, -0.84, -5.69, -5.6, 8.87, 3.43, -2.3, 4.55, 8.41, -4.75, -1.48, -2.73, 6.16, 4.61, 6.43, 8.21, 5.61, 1.51, -3.26, -5.82, -0.31000000000000005, 9.51, -1.17, 6.76, -3.52, -10.11, -4.55, -3.02, -2.66, 8.66, -7.14, -10.59, 7.71, 2.59, 5.74, 2.9, -3.38, -4.86, 6.6899999999999995, -2.66, -7.08, -7.39, -3.31, 7.03, -5.01, -7.9399999999999995, 7.52, 6.37, 4.32, -5.04, 6.87, 4.27, 5.1, 6.05, -5.97, -4.96, -8.26, -4.64, 4.36, -4.86, 8.23, -6.65, -8.3, -3.22, -5.31, 5.92, -3.21, 7.42, 8.52, -2.7800000000000002, 8.68, -6.13, -6.03, -10.96, -2.7199999999999998, -8.48, -2.91, -10.52, 4.58, 8.76, -4.81, -6.62, 8.36, -5.08, -0.33, -4.73, -4.69, 9.58, -5.89, -5.19, 8.75, -8.45, -6.34, -1.6400000000000001, 6.15, 6.02, 7.22, -7.98, -1.06, 0.35, 1.01, -5.64, 1.81, -9.61, -9.78, -8.63, 7.9, 7.0, 5.97, 5.73, -0.32999999999999996, -0.49, 3.98, 7.94, 4.84, 7.79, 8.57, -3.8, -6.59, 5.77, -2.01, -9.64, 4.42, -0.89, -4.03, 6.0, 2.73, 1.1800000000000002, -8.36, -9.82, -9.63, -10.55, 4.97, -7.51, -6.68, 7.01, 0.41000000000000003, -4.51, -2.2800000000000002, 3.89, -0.99, -0.63, 3.09, -8.13, 0.36, 4.03, 3.19, -3.9699999999999998, 2.77, -10.35, -1.56, -6.97, -8.76, -6.46, -3.77, -10.09, -3.33, 7.25, 7.29, -8.7, -3.12, -4.01, 1.49, 3.44, -9.87, 3.82, -8.96, 9.26, 4.3, -5.21, 6.99, 7.13, 2.02, -10.61, 5.97, -1.3900000000000001, 9.48, -1.74, -7.01, -1.6, 9.99, 3.73, 3.36, 5.52, 2.38, 0.6, 7.8, -7.35, -6.33, -8.59, 4.81, -4.54, -4.46, -2.11, 3.97, 6.83, -1.71, 1.09, 0.64, -3.17, -8.24, -1.71, 0.6, -1.99, 3.7, -5.62, 4.3, -8.33, 8.84, -6.08, 6.61, -3.57, -5.95, 5.63, -0.6799999999999999, -4.47, 9.85, -3.31, 7.52, -5.98, -3.93, -3.5, -9.84, -10.85, 7.29, -1.48, -10.38, 9.64, -4.89, 6.89, 3.0300000000000002, 3.17, -3.33, 2.57, -10.3, -7.3100000000000005, 9.46, -6.77, -2.76, -2.12, -8.42, 5.49, -6.98, 8.08, -7.91, 6.1, -8.57, 7.28, -1.8599999999999999, -6.96, -3.78, -1.92, 4.99, 9.8, -4.02, 6.84, 1.6, 8.82, 7.3, -1.32, 6.83, 5.41, -4.39, -8.85, 1.15, 9.6, -5.09, 4.19, 4.92, -4.05, -1.59, 8.11, 7.04, 2.1, -9.24, 6.05, 2.48, -3.75, 7.35, 5.38, 0.5, -4.73, -9.19, 5.91, 3.4, 2.95, -9.39, 7.77, -10.87, -1.49, 1.09, 1.35, -0.5, 0.61, 4.1899999999999995, -8.94, 3.07, 2.4699999999999998, 0.35, -0.39, -7.85, 5.09, 2.59, -1.03, -5.83, -11.0, -2.36, 2.46, -6.63, -9.74, 0.98, -6.66, 1.29, 8.61, -9.34, 9.56, -10.31, -5.85, 2.79, 4.9, 3.09, -4.05, 0.55, 1.76, -5.27, -8.17, -6.82, 5.99, 7.63, 3.07, -6.72, 4.78, 3.5, -4.87, -6.12, 0.15000000000000002, -10.41, 4.95, 3.23, -9.58, 3.8, -4.53, -0.26, 1.97, 5.5, 3.15, 7.98, -8.55, 3.29, 7.63, -1.32, -9.17, -2.36, -9.32, -8.03, 0.53, 1.19, 4.33, -5.26, 2.7, -7.77, -9.97, -2.25, 8.03, -10.54, -8.16, 3.39, -9.92, -9.83, -10.67, -9.61, -6.0, 2.31, -4.67, 0.42, -8.97, 9.47, -2.74, -9.9, -8.1, -2.68, 7.47, -2.14, -7.12, 3.74, 9.75, 5.95, 7.9, -5.79, 9.31, -2.68, 4.97, -0.99, 1.6400000000000001, -4.21, -2.32, 7.26, -8.85, 3.63, -5.95, 3.29, 0.49, -7.4, -2.9, -1.91, 4.53, 2.43, -7.14, 8.18, -9.56, -3.88, 2.62, 3.42, 4.61, 7.04, -4.91, 2.59, -8.11, 5.65, 9.62, -1.84, -5.48, -0.97, -0.62, -8.61, -0.73, 8.03, 0.29000000000000004, 0.02, 2.76, 8.89, -2.34, -8.71, 8.52, -4.64, -9.61, 8.95, 0.85, -8.22, 5.0600000000000005, 3.24, -3.39, -8.71, -3.14, -3.13, -2.82, 9.33, -0.45, 6.95, -3.25, -5.18, 6.9399999999999995, -9.96, 4.3, 2.42, 2.71, -6.43, 4.28, -5.11, -8.66, -9.92, -0.33, -9.84, -1.46, -3.18, 9.81, 9.23, 6.01, -1.29, 2.83, 2.81, -10.21, 2.13, -7.98, -3.17, -8.43, 1.55, -5.27, 4.9, -3.67, 0.87, 5.84, 1.8399999999999999, 3.9, -8.3, 0.2, -10.57, 1.76, -10.72, 6.12, -0.39, 2.99, -2.22, 4.57, 7.42, 8.11, -9.18, -8.7, -7.26, 2.86, -3.96, -8.82, -2.29, 3.21, 5.14, 0.44999999999999996, 8.75, 5.89, 2.91, -6.45, -3.11, 0.94, 9.33, 6.25, -2.04, 2.52, -4.57, 9.81, 0.83, -5.52, -4.24, -9.38, 4.09, -4.55, -8.45, 2.1, 4.36, -0.88, -4.7, 4.09, -3.98, 1.04, 6.06, 7.03, -9.16, 5.98, 2.24, -9.83, -0.57, -6.33, -8.62, 4.2, 9.92, 4.64, -8.7, 1.63, 2.65, -3.7800000000000002, -5.64, 8.86, 0.4, -7.68, -8.57, 1.53, 6.47, -7.66, -4.16, 6.57, -6.73, -3.05, 7.95, 8.93, -0.51, 7.43, -0.55, -8.24, 3.17, -7.82, 1.99, -5.99, 4.76, 8.0, 1.13, -0.36, -7.8, 6.46, -2.95, -1.25, -1.37, -7.09, -8.94, 2.41, 7.16, -4.42, -2.56, -7.32, -6.49, 5.17, 8.61, -9.77, -5.64, -3.73, -5.22, -9.59, -5.0600000000000005, -7.21, -7.11, -7.14, -4.83, -2.7800000000000002, 0.44, -1.94, -5.91, -10.47, -6.3100000000000005, 2.37, 3.78, 5.05, -1.1, -4.37, -3.85, 8.47, 6.97, 4.01, -1.05, 7.97, 5.68, 7.55, -2.19, -7.72, 4.9, -5.37, 4.74, -1.23, -9.36, -4.51, 4.88, -9.87, -9.61, -10.7, 8.06, -9.79, 7.03, -10.0, -5.54, 6.86, -0.61, -0.5, -0.55, -2.1, -3.71, -4.34, 1.26, 4.39, -4.1, -5.51, -2.42, 6.2, -3.41, -5.54, 0.37, -7.93, -5.77, 7.24, -8.51, 5.2, 5.98, 0.36, -9.3, -5.48, 4.6, 8.41, 4.29, -4.61, 6.96, -9.55, -3.84, 4.33, 7.66, 8.9, 8.04, 4.52, 5.06], [-4.5600000000000005, -4.88, 8.59, -6.0, 7.98, 5.5600000000000005, -7.42, -3.79, -9.96, 3.77, 4.94, 5.7, 8.55, 6.08, 0.37, -9.66, -9.44, -3.22, 2.03, -9.29, -4.22, 7.89, -10.4, 2.86, 1.44, -2.91, 0.21, -3.04, 5.1, -10.56, -2.89, -3.23, 3.81, -1.5899999999999999, 4.46, -5.07, 4.05, 6.52, -3.17, -7.88, -3.19, -9.26, -2.67, -1.92, -6.89, 2.08, -2.33, -7.58, 1.96, 2.66, -5.13, 9.74, 2.22, -4.91, 3.61, 4.52, -2.95, 4.77, -3.43, 8.15, -7.34, -1.28, -2.59, -0.27, -3.88, 5.74, -3.68, -1.11, 9.49, 6.68, 7.19, -3.55, -7.98, -8.79, -0.24, 2.29, -7.71, 2.83, -7.23, -4.82, -2.73, -3.2800000000000002, -6.51, -8.79, -1.55, 4.83, -7.55, -5.67, -6.07, -7.18, 2.5300000000000002, -0.49, -10.85, -9.65, 0.0, -3.06, 0.47, 0.56, 7.29, -6.97, -5.88, -4.0, 4.91, -3.49, 1.77, -3.7199999999999998, 6.93, 6.45, -0.92, -5.48, -8.78, -7.29, -9.21, -10.24, -2.01, 8.01, 8.94, 9.18, -3.79, -8.26, -5.76, -10.99, 1.3900000000000001, 4.88, -9.74, 2.11, 1.98, -2.93, -4.53, -7.87, -1.33, -8.64, -7.55, -1.52, -9.96, -1.5, 6.39, 1.38, -9.12, -6.79, 8.11, 0.07999999999999996, -7.51, 8.48, 8.02, 6.17, 2.86, -5.05, -2.78, 6.39, -6.77, -2.73, -1.9100000000000001, 5.93, -8.47, -5.76, -2.99, -6.07, -4.85, 1.82, 0.5, -7.82, 9.54, -1.46, 0.93, -1.92, -9.03, 2.73, 8.79, -1.89, -8.98, -9.68, -10.96, 6.18, 1.28, -9.45, 0.14, -3.15, 1.59, 6.8, -9.72, 8.68, 7.24, -4.95, -9.57, -4.22, -5.65, 0.040000000000000036, 4.71, -1.06, -5.17, 6.37, -8.37, -8.37, -6.56, 7.67, 4.37, 1.3199999999999998, 3.64, -8.31, -6.0, 5.93, 8.83, 5.92, 2.12, 9.28, -8.76, -10.54, -5.53, -2.64, 3.77, 2.4699999999999998, 5.45, 6.54, 8.76, -3.34, -2.7, 3.02, -10.27, 4.92, 5.83, -9.34, 3.65, -7.96, 2.4699999999999998, -4.23, 6.38, -6.58, 1.31, 7.8, -6.58, 0.91, -7.75, -7.32, -5.62, 0.47, -3.81, -9.71, -7.16, -6.7, -0.28, 6.87, -8.23, 6.2, -2.81, -1.37, -4.92, 8.67, -7.12, -10.06, -6.1, -5.09, -5.17, -1.77, -3.45, -9.16, -6.85, -9.76, -2.57, 1.28, -4.63, 1.56, -0.25, -2.51, 5.48, 8.11, -1.35, -0.5800000000000001, 9.85, -8.51, -3.83, -1.56, -4.51, 9.03, 3.95, -6.09, -0.39, 0.57, 1.0, -3.13, 4.78, 4.14, 5.07, -9.79, -9.59, -7.44, 2.71, 2.76, 1.3, -7.35, 8.35, 4.08, -4.9399999999999995, 9.06, 7.85, 7.85, -5.07, -6.64, -3.07, -2.75, -5.14, -2.57, -7.74, 2.68, 6.23, 9.88, -9.13, -5.62, 3.1, 4.05, -4.15, 4.05, -7.0600000000000005, -1.91, -3.13, -9.41, 7.67, -7.1899999999999995, 1.9300000000000002, 3.54, 6.63, 5.79, 0.19, 2.9, -1.7, -0.55, 8.33, -3.24, -7.74, 7.23, -5.51, -7.7, 0.01, -1.15, -9.83, -4.66, 0.5, -9.08, 0.9, -1.9100000000000001, -9.36, 4.4399999999999995, -1.47, 6.65, -8.34, 5.65, -4.07, 9.56, -6.17, -9.72, -8.84, 4.26, 0.69, -4.42, -7.35, -10.79, 1.51, -10.64, 9.26, -8.4, -7.87, 5.47, -3.9, -8.0, -8.84, -3.4699999999999998, 8.05, 3.23, 5.13, 3.9, -10.04, 2.67, -5.92, -1.67, -8.36, -1.35, 6.5600000000000005, 5.55, -4.84, -8.53, 3.66, 3.63, -7.3, -1.22, -3.19, 8.48, 7.46, -5.87, 0.010000000000000009, 6.99, 2.49, -6.1, 0.16000000000000003, 4.09, -8.77, 8.75, 8.04, 5.63, -3.44, -10.09, 9.1, 0.92, -6.25, -6.38, 0.08, 5.57, -9.75, 1.55, 0.46, 2.46, -1.37, 7.4399999999999995, -7.5600000000000005, 4.02, -8.41, 7.77, 0.24, -6.85, 0.7, 0.56, -3.17, 2.5300000000000002, 8.1, -3.6, 5.28, -1.75, 2.54, 8.53, -7.64, -3.02, -3.4, 6.86, 7.42, -8.44, 5.34, 8.6, -9.49, 5.57, -4.41, -3.3, -3.89, 5.37, -8.52, 0.7, -10.39, -10.5, 8.56, -6.28, -4.63, 4.23, -9.34, 1.25, -6.32, -3.45, -6.08, 5.74, -9.32, -0.84, 8.63, -1.24, 0.13, 4.81, -5.08, -3.23, 8.18, -9.93, 8.63, -9.94, -4.98, 6.39, 8.67, 0.39, 2.82, -4.7, 1.12, -9.5, -8.21, -2.43, 2.15, -1.88, -8.78, -4.68, -8.76, -2.7199999999999998, -3.96, -8.14, 9.54, 7.11, -3.15, -5.06, -4.13, -3.02, -1.9100000000000001, 0.71, 6.76, 8.43, -7.49, 5.48, -0.37, 6.52, -6.84, 7.53, -1.18, -3.38, -7.0600000000000005, 7.55, 0.7, 2.82, 5.47, 2.67, 2.12, -1.05, 5.89, 0.27, 0.7, -10.24, -3.14, -2.61, 2.9699999999999998, -4.69, -3.55, -0.13, 7.36, 3.93, 9.15, -4.3, 6.28, 1.45, -0.65, 5.47, -0.41, 8.65, 9.7, 4.02, -6.13, 8.69, -3.94, 2.1, -1.23, -2.21, -10.23, -5.12, -10.39, 0.2, -7.95, 9.79, 3.68, 3.1, -0.45999999999999996, -3.34, -1.11, -7.67, 9.41, -6.07, -1.6400000000000001, -4.13, -2.14, -9.19, -4.24, -6.84, -6.49, 1.6, -6.74, 6.24, 5.11, -3.94, -3.58, 7.3, 7.26, 9.92, 1.92, -5.75, -5.67, 5.92, -6.11, -9.96, 0.21, 1.8599999999999999, -7.45, -5.37, 0.33, -4.06, -4.73, 3.81, -7.24, -3.71, 5.6899999999999995, -9.52, -2.84, 1.76, -10.13, 2.48, 0.6599999999999999, 9.91, -10.97, -3.09, -7.21, -1.02, 0.42, 5.29, 0.53, -0.4, 4.6, -0.56, -3.3, -4.58, 5.27, -8.78, -3.3, 2.12, -4.13, 1.87, 9.27, -9.4, -3.9, -6.1, -9.27, 8.72, -7.8, 3.88, 0.47, 3.52, -0.48, 0.42, -9.54, 3.21, -5.79, -4.59, -7.69, -7.45, 6.16, -2.82, 1.09, -1.72, -0.35, 2.04, -2.87, -9.85, -7.49, 5.47, 0.53, 1.46, -3.25, -7.97, -0.84, 5.59, 0.22999999999999998, 8.48, 2.85, -5.16, 5.24, 9.43, -4.95, -0.03, -7.63, -6.3100000000000005, 1.83, 5.11, 2.62, 8.99, 6.96, 0.43000000000000005, 6.83, -6.12, -6.82, -3.58, -4.23, 4.82, 6.5, 9.15, -8.48, -8.17, 1.54, -9.66, -1.19, -7.3, -9.56, -2.38, 5.35, -6.4399999999999995, 9.87, -2.64, -5.36, -3.46, 3.22, -5.8, -5.42, 6.15, -3.02, 2.06, -3.99, -10.13, -2.02, -6.36, -3.82, 3.73, 1.41, 6.39, -1.66, 1.79, 0.72, 6.89, 3.51, 3.65, -7.27, 5.57, -7.49, -1.3199999999999998, -2.44, -7.17, 6.91, -0.02, -10.1, -2.06, 5.18, -10.06, 5.28, -5.38, -8.09, -6.48, 6.22, 1.12, 3.73, 4.34, 7.15, 5.16, 6.65, -2.08, 3.09, -5.84, -2.5300000000000002, -4.29, 0.02, -0.59, -6.82, -8.97, 3.95, -1.4300000000000002, 8.62, -0.79, 2.79, -5.77, -2.31, -0.16000000000000003, 4.74, 2.09, 7.72, -2.41, 2.09, -8.09, -3.27, -8.02, -2.55, 7.62, -9.84, -8.9, -4.66, 5.53, 2.77, -1.9100000000000001, -7.16, -10.81, 3.29, -5.24, 7.29, 4.3, -2.75, -2.02, 6.57, 9.32, -7.75, -8.47, 5.86, -2.38, 4.55, -8.97, 3.7, 3.07, 8.18, -9.24, -5.6, -7.16, -3.68, 3.66], [-2.31, 7.1, -1.98, 7.8100000000000005, -5.86, -8.4, 7.58, 4.33, -3.11, 3.75, 3.52, 1.62, -8.64, -10.19, 7.41, -7.04, -1.52, 9.95, -7.25, 3.86, -7.37, -10.95, -0.99, -9.89, 1.6099999999999999, 2.05, -7.66, 7.11, 5.57, -3.61, -0.42, -8.37, -9.1, -9.47, -0.66, 1.9, -3.93, -6.62, -9.49, -10.61, -9.56, -4.89, -8.02, -7.55, -3.24, 0.53, -2.31, 1.88, -3.68, 3.97, -9.67, -7.08, -5.86, -4.81, -0.48, -9.38, -8.34, -6.8100000000000005, -4.53, -1.76, 8.7, -4.8, 8.25, -0.44, 0.9299999999999999, -5.58, -2.24, -4.39, -7.71, -8.45, 1.85, 5.0, 7.6, 6.18, -0.74, -4.6, -5.24, -2.25, 7.25, -3.52, -6.1, -8.24, 5.46, -10.53, 2.76, 3.2, -3.38, 7.64, -10.8, 8.17, 0.82, 3.33, -5.44, -0.62, -2.12, -2.24, -8.3, 5.08, 0.55, -1.18, -3.94, 4.62, 0.10999999999999999, 7.43, 2.79, -7.4399999999999995, 8.12, 1.88, -7.96, -1.21, -0.41, 2.35, 6.62, -10.62, -9.07, 5.6, 8.18, 6.53, 6.66, -5.46, -1.89, -3.6, -6.48, -1.78, 8.67, 7.09, 7.83, -0.66, -4.89, -4.95, -1.05, 4.85, 0.95, -6.43, 8.33, 6.76, 0.06000000000000005, -3.79, -7.09, -1.65, -1.71, -4.23, -3.87, 3.64, -10.24, 4.32, 3.31, 6.42, 4.38, 3.7, -1.75, 9.24, 5.02, 8.13, 1.87, 0.010000000000000009, -7.24, -7.38, -7.63, 8.77, 0.09, -8.28, 6.77, 7.78, -9.69, 5.53, 4.11, 3.36, -8.33, -1.33, 3.7, -1.83, 9.19, -8.31, 5.88, -0.9, 3.74, 3.19, 0.85, -2.2, 2.45, -3.93, 4.35, 9.11, 6.0600000000000005, -1.69, 4.75, -7.99, -3.51, -4.73, 4.12, -2.98, 1.97, 2.49, -2.77, 1.87, 1.45, -2.95, 2.09, 4.06, 6.24, -9.15, -10.93, -8.4, -5.24, 1.4100000000000001, -2.14, 1.55, 6.52, 1.26, -3.83, -1.21, -2.55, 9.46, 0.61, 1.29, -7.66, 5.12, -8.21, 2.7199999999999998, 7.7, 9.16, -8.59, -9.16, -1.3599999999999999, -8.47, -3.74, 1.22, 8.85, 2.34, -4.0600000000000005, 1.92, -6.73, 5.14, -5.43, -9.12, 9.96, 4.55, -7.17, 6.99, 4.57, 8.62, 2.04, -4.16, -10.9, -2.42, -10.17, 7.15, 4.36, -6.97, -0.43999999999999995, -6.71, 6.17, 6.99, 2.55, 3.79, -10.45, 4.0, 1.8599999999999999, 0.88, -8.26, -5.41, 6.23, 3.05, -1.83, -10.52, -6.65, -9.68, -0.6599999999999999, 8.39, 7.79, 3.06, -8.37, -2.67, -10.61, -8.29, -0.18000000000000005, 4.29, -6.36, -7.4, -5.11, 3.17, -4.29, 4.03, 2.87, -9.75, 2.42, 7.91, -1.2, -6.5600000000000005, 4.55, -10.25, -7.16, 7.2, -6.99, 0.5700000000000001, 1.08, 8.34, -3.58, 7.9, -7.73, -8.33, 2.75, -0.74, 4.6, 7.32, 2.77, -5.7, -6.26, 8.85, -6.29, -3.8, 0.20999999999999996, -8.08, -9.67, -3.41, -6.02, 2.13, 6.86, -6.74, 7.58, -2.92, 8.59, -3.88, -8.05, -6.39, 6.41, -1.2, 8.77, 3.77, -2.11, 7.75, -1.69, -3.38, 3.37, 1.4100000000000001, -4.2, -2.42, 0.69, -5.28, 0.12, -3.7800000000000002, -10.27, 4.05, 1.67, -3.48, -9.24, -6.77, 0.18, 8.51, 9.77, -7.94, 6.54, 5.9, -9.88, 7.7, -8.73, -2.5, 1.88, 2.01, 1.47, -7.34, 3.4699999999999998, -5.89, -7.29, -6.84, 7.12, 1.25, -1.02, -10.49, -8.84, 5.93, -8.87, 8.36, 4.01, 3.87, -9.41, 8.45, 0.1, 0.29000000000000004, 4.91, 4.58, -9.57, -0.29000000000000004, 4.6, -1.17, 8.21, 7.19, -2.5, 3.8, 0.050000000000000044, -8.17, 0.51, -9.7, -4.48, 6.59, -7.56, -2.99, 0.03, -9.91, -1.46, 3.81, -6.29, 0.31, -10.77, -3.96, -1.16, -7.23, -1.93, 5.57, 6.33, -7.4, 0.68, -1.51, 9.22, -5.02, -8.16, 1.5, 9.14, -5.21, 8.38, 9.35, 4.0, -0.58, -10.01, 4.37, 2.67, 3.25, 4.9, 9.27, 8.2, -2.75, 8.41, 5.29, -4.66, -4.13, 7.3, 7.92, -10.15, 0.53, 3.58, 7.13, -6.16, 2.69, -8.79, 9.21, -0.010000000000000009, -10.35, 0.020000000000000018, -9.9, 5.67, -0.95, -9.8, 2.44, -10.54, -9.68, 0.55, -10.09, -9.14, 5.51, -4.71, 7.8100000000000005, -1.94, -0.3, -8.36, 6.82, 8.2, -10.73, 6.92, 8.11, 8.76, 7.55, -4.53, 4.47, -7.34, -0.5, 4.93, -2.8, 4.5, 7.19, 3.7, 7.18, 3.24, -9.85, 4.68, -6.14, -2.08, 5.62, -9.97, 3.06, 4.77, 8.92, -6.45, -6.53, -4.9399999999999995, 5.6, -2.87, -9.44, 7.08, -3.64, 6.41, -4.92, -8.3, 6.26, -4.12, -7.13, -2.66, -9.63, -1.0899999999999999, -8.1, 0.99, 1.81, -4.62, -8.2, 7.57, -5.43, -9.35, -8.87, -1.48, 8.46, 4.87, -7.85, 2.85, -0.5800000000000001, -7.93, 4.9, 4.57, -10.11, -8.72, 7.05, 3.35, -9.0, 1.45, -5.38, -9.16, -5.94, -1.78, 1.85, 5.31, 9.78, -1.06, -2.4, 9.84, -1.7, -1.24, 7.61, 1.78, -2.2800000000000002, 5.85, 0.030000000000000027, 5.42, -5.2, -8.66, 7.8, -6.7, 1.73, -4.13, 1.88, -6.27, 7.38, -4.27, 5.53, 6.23, -3.77, 1.3900000000000001, -3.48, 0.6699999999999999, -8.8, -9.34, -6.22, 0.26, 1.1600000000000001, -6.5, 0.19999999999999996, -10.46, -6.91, -9.11, 8.55, -3.39, -0.87, -4.86, 0.43999999999999995, -2.99, 0.72, -2.08, 6.19, 3.92, -5.25, -4.96, 5.95, -8.58, -9.46, -5.7, 1.82, 9.88, -1.51, 6.28, -5.27, -3.52, -9.2, 3.55, 4.78, 3.91, -8.14, -2.64, 2.18, -3.71, 3.13, -0.5700000000000001, -5.73, -3.83, 8.96, -7.0600000000000005, -3.48, -4.65, 7.65, -5.9399999999999995, 1.0, -4.86, 0.12, -4.28, -7.17, 0.27, 2.34, -5.93, 6.29, 4.01, 5.97, 1.87, -2.39, 6.8, 6.72, -8.0, -8.16, -7.82, -0.44999999999999996, 0.59, 5.97, 6.63, -5.09, -9.05, -6.38, -5.48, 7.73, 5.07, -2.59, 4.17, -5.32, 4.43, -1.94, -5.84, 6.28, -5.1, 7.84, 8.82, 6.89, 5.03, 1.74, 2.75, -7.27, 1.84, -6.48, 5.62, -5.22, -0.35, -4.8, 1.54, -5.0600000000000005, 7.86, -2.49, 6.24, 6.47, 6.98, -9.93, -4.3, -6.48, -10.2, 7.6, 2.23, -7.7, 2.13, -0.05, -7.04, -7.28, -2.84, 2.7199999999999998, 5.88, 5.48, 6.71, 4.29, 0.16, -6.3, 6.46, 5.9, 6.78, -8.77, 1.04, 4.55, 4.14, -0.64, -5.58, 4.22, -10.4, 1.46, -6.68, 3.49, -7.97, -0.41, -0.5800000000000001, -3.45, -7.78, 1.25, 6.11, 5.96, 5.59, -3.95, -4.44, -6.01, -8.92, 6.86, 4.5600000000000005, -0.45999999999999996, -3.21, 7.47, -5.51, -0.10999999999999999, 3.71, 8.31, -8.58, -3.01, 5.39, -5.4, 0.010000000000000009, 8.88, 0.96, -9.65, 0.63, 4.15, 1.49, 1.67, -5.59, -9.1, 0.78, -3.18, -3.39, 7.93, 2.21, -7.54, -6.74, -4.21, 5.18, 4.71, 2.39, 3.21, 6.92, -2.83, 7.95, -1.72, 3.35, -5.61, -4.26, -6.99, 5.38, 8.01, 1.54, 0.97, -9.63, -10.11, 6.49, -9.39, 4.5, -8.22, -3.01, -1.0899999999999999, 0.19999999999999996, 3.03, -1.6600000000000001, 4.48, -5.97, 2.82, -1.1, 6.24, -9.11, -5.84], [7.89, -3.46, -3.36, -10.16, 1.84, -5.02, 6.92, -5.41, -9.99, -4.22, 4.31, 7.35, 3.8, 1.9, -7.9399999999999995, -3.05, 6.15, -10.31, -6.01, -1.15, -3.7, 0.42, 1.35, -5.24, -8.02, 5.7, 2.95, 7.1899999999999995, 6.56, 8.63, 2.07, -4.57, -1.62, -7.59, 9.71, -10.64, -2.91, -9.53, 3.13, -10.5, -9.59, 0.61, 2.32, 1.3900000000000001, -3.12, -4.04, 6.21, -1.83, -9.36, -5.96, -6.89, -10.5, 3.34, -10.9, 7.89, -7.07, -8.48, 3.83, 3.83, 9.22, -9.77, -8.25, -9.89, -0.98, -10.19, 6.77, -3.93, -5.17, -6.9, 0.30000000000000004, 4.17, -2.2800000000000002, -5.82, 5.18, 0.5, -4.62, 3.45, -3.68, -10.09, 8.1, -10.77, 0.85, -7.53, -2.35, -9.67, -6.43, 8.99, 2.05, 6.84, -9.58, 8.09, 1.31, 4.19, 8.73, -6.56, 9.4, 8.32, 7.65, -5.84, -4.13, 3.7199999999999998, -4.4, 1.54, -1.08, 0.43, 5.88, -5.17, -1.96, 5.48, -4.53, 2.07, -7.93, -9.75, 0.6699999999999999, -2.71, -0.59, -3.8, -7.46, -8.1, 3.16, 6.82, 5.25, -2.33, 1.31, 5.27, -1.17, -0.26, 6.38, -7.89, -5.82, -7.8100000000000005, 7.3100000000000005, 0.030000000000000027, 2.26, -8.5, -6.21, 5.72, 7.93, -10.36, -2.13, 6.1, 1.96, -2.89, -6.12, 2.8, -7.57, -3.01, 7.47, 2.5300000000000002, -9.52, 1.43, 1.1, -8.97, -9.63, -9.69, -1.87, 8.72, -9.52, -4.32, -5.41, -7.53, -6.82, 1.53, 8.91, 7.07, -2.17, 0.83, 0.62, -9.41, -0.86, 2.8, -8.53, 3.86, -0.75, 7.96, 2.12, -5.6899999999999995, -6.52, 1.19, -0.15000000000000002, -8.86, -6.55, 2.04, 9.57, 6.34, 2.89, -9.63, -1.83, -1.01, -2.07, -4.84, 2.5, -8.18, 0.5, 5.34, 1.97, -5.76, 9.69, 8.22, 3.98, -6.08, 2.61, -1.84, -2.15, 2.1, 1.74, 8.45, 4.23, -0.33, -7.42, 4.16, -5.17, -2.27, 8.72, -5.02, -2.71, 0.65, 4.19, -9.67, 4.31, 3.46, 4.46, 0.63, 8.31, 3.63, 2.62, -9.24, -8.1, -9.8, 2.2, 0.28, -4.34, -5.97, -1.2, -2.04, -7.8, -10.74, 0.65, -0.01, 5.74, 1.05, -9.8, 3.32, -7.85, 4.21, 1.31, -11.0, -8.38, -1.15, -4.46, -5.96, 2.82, -4.83, -5.6, -0.9299999999999999, -8.16, -6.16, -1.99, 4.27, 3.84, -8.28, -5.96, -7.32, -1.6, 5.7, -0.76, -9.96, 6.59, -2.77, -10.92, 1.1800000000000002, -7.17, -0.92, -6.15, 3.04, -6.15, -0.73, 6.63, 4.6899999999999995, 1.47, -2.18, -6.42, -4.91, -6.29, 6.21, -1.3900000000000001, 3.4699999999999998, 0.6799999999999999, -8.42, -8.61, 7.76, -8.56, -8.27, -8.58, -5.78, -1.29, 0.73, 7.85, -2.63, 4.87, -0.68, 5.65, 1.6400000000000001, -6.65, 0.35, 0.14, -5.56, 6.47, 3.52, -9.77, 6.56, 8.94, -8.74, 5.95, -3.73, -9.54, -0.25, -3.45, -4.92, -3.32, 2.6, 0.030000000000000027, -7.02, -3.0300000000000002, -5.58, 4.57, -7.27, 5.87, 7.53, -9.89, 5.43, -7.86, 3.95, -9.36, -2.32, -1.8599999999999999, -7.12, -3.55, -8.8, 7.99, 9.62, 7.74, -9.15, 6.32, -9.84, -1.4100000000000001, -4.67, 2.22, -3.67, 9.19, 3.22, 6.79, 5.87, -6.05, -2.67, -5.42, 4.39, -6.89, -4.05, 5.49, -9.19, -3.98, -8.33, 2.99, -3.97, 5.47, -5.89, -1.99, 7.71, -9.66, -2.86, -3.43, -3.16, 6.05, 8.02, 2.45, 3.39, -9.69, 0.36, -1.11, -3.62, -7.51, -10.33, -9.57, -5.63, -4.07, -3.22, 1.38, 2.23, -3.45, 8.87, 3.64, -7.48, 6.12, -0.47, -10.59, 2.63, 0.010000000000000009, -0.91, -0.42000000000000004, -7.44, 5.52, 7.8, 1.3, 4.72, -3.37, 9.84, -0.75, 9.65, -5.05, 8.17, 3.7800000000000002, -9.89, -4.53, -2.44, 0.41, -0.03, 8.09, 7.01, -10.63, -5.7, -6.33, 6.76, -3.92, -8.2, 0.74, -1.57, -2.52, -8.32, -8.98, -2.65, -6.51, -5.51, -8.52, 7.7, 4.54, -9.83, -9.41, 5.68, 5.24, 6.27, 2.18, -8.87, 7.7, 0.02, 7.23, -10.7, -5.62, 7.35, 2.2800000000000002, -7.38, 6.34, -0.39, 0.99, 0.89, -9.64, 7.09, 6.39, -4.07, -2.4699999999999998, -2.65, -9.97, 7.37, -3.57, -4.35, 3.06, 3.03, -4.41, -3.92, 2.82, -6.04, -2.96, 2.7199999999999998, 2.58, -1.97, 6.32, -4.31, -5.75, -2.21, 2.86, 3.71, -6.9, -7.17, 4.94, 1.88, 1.05, 9.29, -6.22, 8.16, 2.48, -2.9699999999999998, 6.58, -9.62, 6.78, 0.05, -5.9399999999999995, 7.09, -2.48, 4.16, -10.21, 5.66, 0.55, -7.8100000000000005, 5.27, -7.94, 2.45, 2.7, -0.2, -0.62, -9.81, -7.66, 4.95, -2.98, -7.5600000000000005, -7.84, -5.88, -3.02, -6.97, 0.41, 2.51, -4.7, 1.06, 3.92, 6.39, -2.38, 0.35, 2.18, 4.41, 8.3, -5.1899999999999995, -7.0, 6.54, -0.43, -3.2199999999999998, -3.27, -1.4100000000000001, 7.85, 8.23, 3.7800000000000002, -0.45999999999999996, 8.22, -1.3900000000000001, 4.24, 5.36, 1.09, -0.78, 8.94, -1.76, -0.69, 6.75, -0.55, 6.07, -3.89, -8.05, 9.01, 6.68, 3.65, -0.86, 5.12, 5.47, -7.32, -6.47, -4.23, -1.99, -8.86, 0.76, -7.78, 3.38, -0.91, -7.33, 1.47, -4.42, -6.58, 0.83, 8.26, -2.41, 4.95, -5.21, 0.27, -7.38, 9.07, -9.14, -4.43, -2.74, -2.14, -3.62, -6.12, 5.16, -0.18000000000000005, 3.99, 1.67, 0.92, -0.5, 7.57, 8.48, -9.41, 0.83, 5.8, -6.38, -8.42, 0.32, -4.9, 3.61, -1.65, -9.14, 1.76, -7.41, 5.98, 6.74, -6.56, 4.11, -6.4, 4.99, 4.84, -1.4, -4.29, -8.2, -10.63, 8.29, -5.0, 2.92, -5.11, 0.5, -9.76, -5.64, 6.27, 9.14, 7.34, -8.66, 4.73, -7.87, -2.4699999999999998, -3.12, 6.55, 5.99, 3.1, -4.89, 1.01, -10.34, -8.7, 2.81, -0.61, -8.38, 8.73, -3.11, 7.58, -2.45, 0.38, 6.61, -4.6899999999999995, 2.51, 9.98, -5.54, 6.03, -8.21, -8.19, 5.85, -2.75, 7.45, 7.31, 2.45, 0.88, 8.48, -6.24, 8.01, 3.56, 2.92, -4.13, -9.4, -10.08, -8.71, -1.13, -7.46, 6.66, -8.02, -7.6, 6.3, 8.97, 8.35, -3.01, 3.68, 6.5, -5.42, -1.5699999999999998, -9.42, 4.49, -4.95, 3.98, -4.23, 0.09, -3.49, -2.83, 0.43, -3.3, -6.61, 4.56, 4.6, 3.32, 5.09, -9.72, 1.73, -1.63, -2.11, 7.11, 4.58, -5.94, 4.17, -2.7199999999999998, -0.58, -2.34, 2.95, 3.4, 5.47, -10.38, 6.13, 6.51, -1.55, -6.72, -2.25, -6.65, -8.98, 3.51, -1.85, -4.9399999999999995, -3.95, 2.51, -2.82, -4.55, 7.37, -10.77, -2.21, 6.04, 3.03, 6.81, -10.83, 0.71, 1.75, 9.55, -0.28, 0.43999999999999995, 0.98, 2.76, 8.24, 3.77, 4.08, -3.44, -1.12, 6.53, 0.29, -5.87, -3.88, -0.96, 2.65, -10.79, -2.71, -4.32, -3.27, -7.06, -7.32, -3.61, 8.03, -3.0, -2.83, 7.79, -10.53, -2.55, -2.41, -1.75, 4.56, -8.26, 1.56, -8.58, 6.85, 1.9, 7.02, -8.69, 9.17, 1.69, 3.15, -6.76, -9.88, 2.07, 0.45, -3.44], [3.9, 8.34, -4.87, -7.18, -3.08, -1.16, -7.6, 9.28, -6.6, 3.75, -2.5300000000000002, 2.08, -7.49, 2.76, -0.74, -2.17, -7.24, -3.2800000000000002, 9.09, 1.31, 4.81, 2.54, -9.27, -10.14, 3.23, -3.93, 8.92, -9.25, 7.71, -3.24, -4.5, 0.71, -7.35, -10.72, 4.48, 1.6400000000000001, -7.18, 1.97, 9.96, -10.7, -0.71, -3.94, 1.58, 4.29, 7.97, 0.45, -9.96, 4.24, -0.64, 2.63, 7.38, -3.96, -1.73, 0.98, -0.24, 0.94, -8.53, -3.75, 2.83, 0.91, -4.97, 5.61, -4.03, 4.37, -6.91, -2.65, -2.8, 5.91, -2.58, 4.03, 2.7199999999999998, 0.32999999999999996, 3.24, -3.63, -6.35, -6.88, 5.09, 5.41, -4.14, 1.65, 4.67, -5.97, 7.71, -2.1, -8.9, -6.6899999999999995, -7.47, -2.24, -7.99, -5.24, -8.19, 1.65, 8.8, 1.1, 6.62, -2.27, -9.11, -5.36, 9.14, 2.62, 8.85, 0.5800000000000001, -6.79, -6.92, 7.13, -10.83, 0.83, 9.13, -2.01, 1.44, -3.34, -1.05, -9.33, 2.63, 9.57, -7.22, 7.79, -10.3, 8.54, 3.26, -4.58, 5.67, -3.2800000000000002, -3.95, 2.6, -3.1, 0.79, -7.99, -6.55, -10.52, -0.06000000000000005, 5.04, 6.91, -1.97, 0.83, -3.79, -2.2800000000000002, 4.84, -9.16, -0.99, -5.57, -6.77, -4.83, 0.89, 3.02, 8.53, -1.28, -9.28, -6.1, -9.79, 4.55, 8.52, 1.69, -2.19, -1.85, 9.05, -9.95, -4.93, 7.74, 7.33, 9.91, -10.82, 7.45, 3.23, 2.77, 5.79, -5.63, -5.6, 0.5800000000000001, 2.61, 8.82, 8.25, 4.54, 3.9, -0.91, 4.62, -3.0, -8.61, 4.41, -7.11, -9.58, 9.65, -4.95, 1.75, -9.29, 7.5, -1.99, -0.37, -6.36, -5.67, 3.38, 0.96, -9.79, 9.55, -1.01, 0.84, -3.35, 9.37, 7.18, 0.11, 4.1, -7.1, -3.27, -6.12, -8.27, -10.46, 8.15, 7.22, 4.9, 5.27, 7.02, 4.86, -0.32999999999999996, 3.8, -8.12, 8.0, -6.15, -4.24, -1.88, 4.25, 1.03, 6.5, -6.71, -5.4, -0.16000000000000003, -10.94, 2.14, -8.49, -8.05, -10.98, 4.84, 6.26, 1.67, 8.15, 4.18, 6.39, -8.54, -4.0600000000000005, 5.03, -1.83, 0.77, 6.58, 9.55, -4.09, -5.48, 1.01, -7.54, 2.2, 2.9, -10.91, -6.26, 0.88, 3.69, -6.64, 3.73, 3.56, 3.99, 2.95, -2.06, 1.49, 7.2, -5.35, 8.8, 2.54, -6.78, -8.81, -0.97, 7.29, -6.05, -4.53, 2.83, 2.82, -7.92, -1.24, 5.94, 3.05, 3.16, -7.78, -8.3, 6.74, -8.4, 6.38, 0.0, -6.29, 0.33999999999999997, 6.1, -1.96, 5.08, -10.36, -4.4399999999999995, -0.22999999999999998, 1.74, 4.8, 8.77, 7.39, 3.49, -9.83, -0.95, 4.2, 5.97, 3.6, -2.21, 0.94, 0.81, 2.63, -4.97, 0.48, 3.95, -3.73, -7.93, -0.41, -2.0300000000000002, -10.26, -1.94, -6.3100000000000005, -6.53, 5.69, -0.16, -8.56, -2.74, 1.49, -9.39, -6.02, -1.63, 8.19, -1.38, -8.65, 1.79, -4.01, -4.69, 8.11, 7.54, -9.35, 7.87, -6.59, -3.76, -8.1, -5.42, 8.11, 5.04, 2.26, -2.11, -0.44, 1.63, -3.05, 2.57, -7.1, -7.42, -4.45, -9.42, 8.75, -3.38, 1.98, -10.2, 4.22, 0.29000000000000004, 3.79, 5.02, 2.42, 4.66, -0.9, 8.86, 4.18, -8.22, 5.01, -2.42, 5.45, -5.61, 3.96, -0.42000000000000004, -4.3, -8.67, 5.84, 2.92, -8.26, 3.7199999999999998, -2.2199999999999998, -9.11, 5.65, 6.27, 8.63, 6.52, 7.67, 8.5, 1.13, 0.030000000000000027, -7.81, -8.21, -0.69, -9.27, 5.1, 0.09, 7.33, -9.15, -10.22, 4.42, 4.25, 5.55, -3.45, -0.23, 4.48, -9.32, 0.73, 6.7, -1.0899999999999999, -6.94, 6.48, -2.18, 3.25, 8.33, -0.31999999999999995, -3.42, 3.96, -1.04, -9.79, -10.12, -6.61, 0.12, 0.74, 6.9, -10.85, 2.2800000000000002, -2.45, 2.66, 9.2, 8.97, 8.75, -3.25, 2.33, -4.68, 0.5800000000000001, -0.14, 5.55, -7.04, -10.67, -8.76, -2.94, 0.7, 5.94, -4.95, -4.13, -1.88, -0.99, 3.41, -3.5, 4.23, -9.87, 3.48, 6.34, -0.25, 7.65, 5.03, 5.37, 6.32, -6.27, 5.85, -2.21, -4.23, 6.6, -1.83, -4.3, 8.68, -8.37, -3.43, -9.56, 2.87, -4.91, 3.6, 6.71, -4.58, 0.020000000000000018, -3.58, 7.72, 1.19, -9.12, -2.0, 2.09, 2.73, -10.56, -2.94, 5.37, -9.48, -7.71, -6.76, -2.6, -4.59, -1.13, -4.25, -4.95, -4.04, 2.84, -4.04, -5.24, -0.65, -8.56, 7.92, 5.76, 0.81, -5.78, -9.08, -5.03, 5.78, 8.91, 3.83, -1.51, -8.34, -5.95, 4.15, -2.02, 7.72, -4.32, -5.03, 8.19, 4.12, 5.6, -9.13, 3.91, 5.54, -0.02, 5.27, -10.0, 3.89, -8.5, -5.94, -1.83, -6.24, 2.48, -8.36, -5.83, 1.63, 6.45, -1.69, -3.37, -7.03, -8.03, 8.53, -5.87, -6.03, -7.98, 8.68, -3.05, -8.31, -0.55, -7.14, 2.7199999999999998, -5.1899999999999995, -4.82, -3.61, -0.24, 0.73, 4.71, -6.14, -9.67, -7.14, 2.63, 8.47, -4.73, 3.7199999999999998, -8.0, 4.15, 6.64, -7.52, -6.69, 1.3900000000000001, -5.42, -6.01, -0.84, 5.59, 7.82, 5.86, 4.42, 8.88, 1.49, -0.17000000000000004, -9.32, 1.8599999999999999, 1.88, 6.25, -5.8, -10.39, 2.56, 6.95, -0.82, -6.59, -0.56, -3.94, 4.96, -3.4699999999999998, -3.11, -6.09, -4.27, 2.63, 8.67, -6.47, 4.2, -3.34, -4.49, -6.97, -2.89, 1.09, -4.52, 0.5, -2.15, 3.52, -6.78, 0.16, 6.73, 5.43, 5.25, -7.77, 6.94, -9.86, 3.99, -1.81, -1.7, -8.43, -9.48, -0.28, -9.38, 0.23, -1.88, -8.62, -10.53, 7.5, 2.98, 6.18, -5.09, -10.47, -4.04, -10.75, -6.29, 8.24, -10.12, -4.15, -5.52, 9.78, 6.8100000000000005, -0.58, -3.4, 2.76, -0.38, -6.08, 5.85, -6.64, -1.97, -2.03, -5.7, -6.1899999999999995, -0.81, -6.59, -3.52, -1.5, 6.94, 4.83, -2.62, -3.77, -1.87, -8.19, -2.3, -4.13, -5.28, 0.73, -7.64, -6.95, 4.14, -1.75, -10.26, 2.19, -5.0, -0.29, -4.54, 7.0600000000000005, 6.1, 4.23, -6.03, -1.46, 4.99, 8.07, 2.25, 5.72, -5.4, 1.95, -4.57, 3.81, 8.3, -9.22, -7.34, -9.22, -1.44, 2.68, -7.73, -8.27, -2.85, -6.88, 4.53, -0.63, 7.09, -4.87, -7.97, -3.7, -7.48, 0.15, -5.98, -3.24, 2.43, -1.8399999999999999, 7.8100000000000005, -7.23, -5.14, -10.91, -6.51, -9.69, 5.33, 1.19, 2.29, -0.86, 5.22, 5.32, -9.48, 7.5, -4.11, 5.47, -0.31999999999999995, 9.41, -5.46, 4.68, -3.29, -5.9, 2.73, -6.8100000000000005, 3.6, -3.89, -6.83, 5.3, 1.37, -2.15, 9.07, 1.13, 6.28, -5.69, -2.82, -9.16, -4.25, -2.88, -2.68, 0.5, -7.24, -2.36, 8.07, -5.09, -5.91, 9.91, -7.9, 0.38, 6.97, -2.24, 4.15, 7.46, 0.88, 5.17, -10.66, -0.59, -6.3, -0.02, -4.64, 5.4, -5.5600000000000005, -0.9, -4.06, -4.83, 2.3, 7.79, -3.42, -3.5, 7.33, 7.55, -2.2800000000000002, -5.86, -1.71, -9.45, -6.42, 1.0, 0.61, 2.38], [2.82, -10.18, -9.89, 1.35, -0.06999999999999995, 2.5, -1.78, -6.64, 4.13, 6.92, -0.42, -2.1, -7.48, 8.31, -8.09, -1.54, -0.61, 6.21, 6.87, -2.58, 6.0600000000000005, 7.11, -5.57, -3.33, -2.59, -9.71, 2.03, 1.35, 1.26, 3.58, 4.27, -2.62, 0.06999999999999995, 9.75, -1.25, 0.65, 9.49, 5.04, -7.39, -4.43, 1.3599999999999999, -4.39, -11.0, -5.92, 6.68, -8.88, -6.79, -6.9, 4.61, -4.03, -3.36, 8.79, 8.81, 6.64, -3.92, 1.16, 5.64, -7.97, -2.85, -5.26, -9.29, -7.87, 5.6899999999999995, -1.85, 3.0, -4.86, -4.71, 1.17, -5.16, 9.71, 9.31, 1.72, -4.42, 0.39, 5.18, -8.36, 8.79, 6.26, -10.62, 2.0, -6.29, -4.79, -4.11, 7.32, -1.8900000000000001, 3.17, 9.26, 0.72, 7.87, -9.68, 5.65, -7.21, 0.25, -4.67, -6.66, 3.9, 8.85, 0.13, 2.99, -1.47, 7.62, 1.32, 7.6, 6.91, 4.84, -5.71, -3.15, -9.04, -5.2, -1.1400000000000001, -5.57, 1.55, 0.58, 5.67, 1.66, 7.66, 5.25, -6.45, -0.21999999999999997, 7.41, -9.02, 8.44, -1.6800000000000002, -2.08, -8.45, 7.43, 9.08, 0.76, -4.35, -9.47, -10.31, 1.43, -8.31, 9.68, -3.78, 7.39, 0.06, -8.13, -1.54, 4.33, -3.15, -3.37, 3.93, -2.59, -0.24, -1.83, 1.95, 5.49, 0.2, -2.61, 5.51, 2.2199999999999998, 3.6, 2.29, 1.98, 8.54, 2.63, -0.54, 8.45, -9.85, -3.93, 1.79, -7.1, -1.82, -7.68, 5.98, -9.58, -9.31, 2.94, 5.37, -6.1, 9.85, 5.74, 5.01, 0.8, 3.4699999999999998, -4.75, -1.12, 7.56, 4.64, 0.93, 5.29, 3.95, 5.19, 6.38, 8.76, 8.8, -3.17, 8.67, 3.76, -3.36, -2.22, 8.92, 2.39, -7.2, 5.0600000000000005, -5.94, -4.78, -7.53, 7.27, -5.61, 1.88, 7.3100000000000005, 4.62, -3.4, 3.43, -7.81, 2.75, 0.46, -2.34, 1.47, 3.94, 1.0, 1.0, -8.56, 8.6, 3.29, 3.71, 5.91, 4.83, 5.64, -5.37, 1.6400000000000001, -6.03, -4.95, -5.48, 7.61, 4.52, -4.43, -8.95, -7.74, 7.86, -5.41, -0.07, -1.83, 5.83, -0.76, -2.59, 3.76, 4.1, -1.85, 6.71, 5.96, 9.19, -0.33999999999999997, -3.8, 6.83, -0.34, -2.66, 5.72, -6.04, -0.78, 6.43, 8.98, -6.33, 3.41, -9.64, -5.66, 7.58, -7.43, -8.82, 4.5, 6.7, -7.37, -10.24, -9.26, -5.92, 8.27, 2.97, 0.020000000000000018, 0.36, -10.52, 6.94, -9.44, -8.06, -10.64, 3.81, -7.81, 0.96, 3.52, 8.54, 5.74, 7.0600000000000005, -5.66, -2.46, 4.81, 8.9, -5.8, -8.04, -0.62, 7.76, 1.78, -1.51, 7.77, 4.38, 6.47, 5.06, -4.57, -10.01, 9.14, 2.02, -8.14, -8.2, -5.97, -1.05, -7.72, 1.42, -7.96, -0.33999999999999997, -5.07, 5.59, 1.62, -4.58, 2.33, 0.48, 6.81, -9.74, -3.68, 3.44, 8.88, 5.38, 7.38, 0.14, -10.01, 3.5300000000000002, 8.36, 1.8599999999999999, -6.03, -8.17, 5.08, 1.57, 5.73, -1.83, -8.45, 7.35, -5.5600000000000005, -8.51, -3.05, -3.74, -2.14, -5.61, 7.47, -6.39, -9.27, 0.71, -4.28, -4.72, -1.53, -0.65, 4.45, -7.87, -2.43, 3.69, 8.33, -7.52, 7.38, 1.38, -5.18, -5.18, -6.12, 8.89, 6.04, 0.5, -2.49, 6.25, -3.12, -4.5, 9.21, -7.11, -2.13, -10.7, 2.06, 7.85, 2.48, 8.18, 9.22, 2.46, 7.73, -2.33, -4.96, 9.53, 2.49, 4.35, -7.76, -9.72, 6.43, 1.77, 2.04, 3.1, 9.21, 9.36, -6.91, 3.06, 2.36, -0.86, -7.1, -3.23, 2.42, -3.3, 0.85, -1.02, 9.53, -5.57, -9.42, 6.98, 2.04, -4.88, -0.15000000000000002, 8.32, -9.87, -0.68, 7.32, 6.84, 7.56, 4.69, 1.15, -10.42, -10.35, 7.0, -9.27, -0.8, -7.93, 5.03, 0.29, 7.82, 2.81, 3.46, -3.12, -9.0, -3.82, -6.85, 2.79, 4.27, -3.38, 6.38, 0.25, 7.79, 5.09, -9.38, 1.1, 6.61, 3.64, -7.84, 3.38, 1.87, 5.99, -2.33, 7.89, -1.28, -2.12, -7.32, -0.48, -1.75, 5.2, 2.95, -7.37, 0.64, 3.9699999999999998, -8.39, -4.57, 4.85, -9.27, 6.46, -7.22, -3.7, 4.3, 3.7, 3.74, 5.24, -3.02, 8.72, -7.4, 6.85, 6.42, 3.71, -9.93, 0.85, 2.07, -9.21, 2.27, -4.0600000000000005, 2.88, 2.75, 7.48, -10.0, -3.59, -10.83, 0.54, 2.29, -8.74, -4.76, -10.95, 5.93, 7.46, 6.58, 3.7, 2.02, -3.2800000000000002, -7.78, -8.89, -2.08, -1.42, 3.49, 8.4, 0.35, -4.74, -9.75, 4.24, 5.67, 1.2, -8.23, -1.72, 9.25, -6.78, -2.7, 7.19, 1.82, -6.97, -8.29, -9.07, 0.72, -7.63, -5.38, 7.57, -6.99, -8.18, 2.36, 4.55, -0.61, -7.79, -9.49, 1.74, -2.38, 8.55, -4.4399999999999995, 3.88, -9.64, -6.17, -4.87, 4.01, -4.93, -3.15, 6.74, 7.81, 8.92, 8.48, -2.48, 1.46, 7.29, 4.4, -2.17, 0.20999999999999996, 0.38, 2.67, -3.7, -6.74, 5.96, 6.98, 6.27, -5.45, -4.16, -2.52, 7.5, 5.2, -7.76, 5.48, 1.67, 6.4, 1.8900000000000001, -8.58, 7.5, -0.15, -3.87, 4.66, 3.11, 0.62, 6.17, -7.09, 0.47, -8.95, -6.78, -0.26, -8.46, -9.08, 0.32999999999999996, 0.73, -0.21999999999999997, -2.85, -0.85, 9.34, 7.58, 7.05, -10.33, -8.91, -4.86, -6.91, -4.04, 7.55, 8.44, -5.61, 4.47, 6.27, 0.42000000000000004, -0.47, -8.67, -5.25, 5.7, -9.55, -2.79, -9.22, -6.96, 6.62, -8.76, 4.99, -6.49, 4.17, -6.87, 6.1899999999999995, -3.84, -4.61, 8.61, -2.03, 2.44, -6.76, -6.8, -3.73, 4.6, 0.8, -7.58, 2.92, -9.65, 6.38, 2.59, -4.8, -2.4, 8.94, -6.23, 3.68, -0.01, 5.51, 2.98, -9.51, 8.48, 9.37, -5.37, -7.89, 1.82, 0.09, 4.46, 1.87, -6.01, -7.14, -8.59, -7.27, -9.41, -10.8, -1.01, -7.85, 4.26, -0.38, 5.77, 6.02, -6.99, 2.8, 7.47, 0.87, -1.04, -5.59, 5.03, 6.26, -10.4, -3.19, -0.94, -5.9399999999999995, -0.1, 4.17, -4.54, -9.12, 1.11, -4.48, -10.48, -5.23, -7.16, -2.08, 2.8, 2.2, -8.8, -8.92, 7.53, -7.3, 0.38, 6.49, 6.48, 8.04, 8.86, 1.3399999999999999, -2.98, 3.5300000000000002, 5.4399999999999995, 0.89, -7.73, 6.13, -4.62, 6.34, 5.0, -0.09, -3.04, -4.16, 8.23, 2.14, 0.65, 2.56, 7.61, 0.7, -9.12, 9.02, 7.97, -2.24, -0.85, -5.51, -8.01, -7.4, 1.1400000000000001, 1.48, -3.4, 2.75, 1.67, -4.12, -0.8200000000000001, 7.99, 8.47, 1.76, -7.97, 8.17, 3.82, 2.13, -0.62, -5.03, 8.58, 1.06, -5.5, -9.12, -7.82, 0.10999999999999999, 8.84, -4.24, 9.78, 2.58, -0.66, 8.26, -2.0, -8.38, 8.22, -9.87, -0.69, -0.16, -0.9, -8.32, -2.56, 4.92, -5.14, -9.41, -9.14, 7.37, -3.98, -10.18, 4.79, -0.87, -4.09, -2.79, -5.06, 0.73, -5.48, 4.25, -7.11, -2.07, -9.12, 3.04, 3.36, 5.35, 0.61, 0.47, 0.28, -7.7], [5.16, 8.88, -6.15, 4.35, 5.88, -7.96, -7.04, -7.86, 9.34, 4.54, 5.12, 2.81, -8.76, -9.25, 0.5700000000000001, -8.23, 0.25, -6.35, -3.89, 4.36, 0.84, -5.4, -9.29, 6.54, 8.66, 7.17, 6.93, 1.96, 6.35, 8.91, -4.95, -0.47, -3.04, -2.39, 5.59, 6.34, 4.08, 8.6, -6.6, -4.91, 9.02, 8.83, -2.59, -7.5, 3.7800000000000002, 7.01, 2.4, 3.77, -5.01, -8.38, -6.64, 1.28, -1.03, 1.18, -1.27, 5.22, -7.36, -0.72, 0.82, 7.87, 3.84, -3.75, 8.28, 7.96, 6.43, -4.21, -5.11, -7.01, 4.67, -4.42, -4.47, 5.47, 6.63, 8.91, -0.07999999999999996, 0.51, 0.63, -1.3199999999999998, -4.32, 3.26, -2.7, 9.89, -8.29, -1.05, -8.04, -3.0, 0.86, -8.95, -5.65, -8.08, 2.94, -5.01, 4.5, 7.62, -7.47, -8.86, 3.46, -4.15, 9.6, 7.95, 2.27, 2.13, 4.2, -6.34, -9.74, -6.4, 7.08, -2.73, 1.06, -9.12, 1.79, -1.31, 7.72, 6.65, -9.32, -0.15, -6.4, -1.93, -8.0, -9.62, 7.63, -4.96, 2.68, -7.68, 8.61, -0.72, 0.21999999999999997, 4.63, -5.38, -6.73, 5.09, -4.54, -5.43, 5.36, -9.01, -1.51, -8.82, 9.98, -0.78, 5.87, 3.13, 5.04, 0.3, -8.49, -3.49, -10.16, 2.1, 1.28, -2.24, 0.83, -6.43, -6.47, 3.99, 4.71, -2.81, 2.61, -9.29, 3.24, -4.6899999999999995, 3.68, 6.05, 4.33, -6.59, 9.39, -1.6, -1.99, -3.98, 5.13, 5.77, 0.21999999999999997, 4.01, 0.08, 0.0, -0.8, 8.53, -3.76, -3.52, -6.18, -7.49, 1.98, -0.65, -3.61, 4.19, 1.62, -2.12, -9.69, 6.28, 0.81, -8.98, 7.75, -1.8, -9.09, -8.68, 9.27, -1.17, -4.17, 4.62, 5.41, -4.48, 2.34, 2.63, -7.64, -1.51, -7.0600000000000005, 7.97, -7.21, -4.9, -0.09999999999999998, -2.95, 5.29, 1.82, 4.61, 4.39, -0.91, -1.29, 1.5899999999999999, -0.54, 8.21, -3.79, -3.02, -2.07, 7.9, -7.88, 2.71, 4.87, 8.02, -1.74, 6.13, -6.0, -3.48, 4.1, -9.7, -4.21, -4.08, -7.47, -7.5, -4.0, -5.33, -3.21, 4.93, -9.52, 4.6, -3.35, 2.76, 6.82, -2.08, -10.4, 7.95, 2.91, 3.58, 7.8100000000000005, 2.84, 4.76, 1.55, 2.7800000000000002, -3.21, -1.74, -2.16, 0.6699999999999999, 0.10999999999999999, 0.55, -10.06, -0.64, 2.95, -9.89, 8.97, -10.7, -10.25, 1.65, 5.83, 2.37, -2.38, -4.73, 1.6400000000000001, 6.9399999999999995, -9.72, -7.97, -6.6899999999999995, -0.78, -5.88, 4.26, 7.81, 6.35, 3.08, -6.6, 0.2, -1.42, -3.26, 3.98, -2.69, 0.78, 3.91, -1.7, 8.63, 4.02, 8.03, -9.3, -8.1, 3.99, -6.74, 1.9300000000000002, 4.58, -5.77, -7.28, -2.2, -3.4, 1.82, 0.0, 8.38, -7.32, -6.44, -0.5, -5.22, -7.72, 7.41, -8.17, -5.76, 8.4, -2.42, 8.49, 1.76, -1.83, 8.23, -6.0600000000000005, -3.13, -0.73, -4.11, 0.62, 9.53, 0.11, -6.67, -3.92, -9.68, 7.93, 8.82, 2.5300000000000002, 4.0, -9.26, -0.75, 3.85, 3.27, -4.4, -9.05, -10.25, -2.4699999999999998, -6.34, 2.99, 3.79, 0.75, -1.71, -10.63, 9.15, -7.51, 3.19, 6.47, 4.97, 6.86, -1.51, -1.22, -3.42, -7.52, -0.21999999999999997, 2.5300000000000002, -1.7, 4.07, -0.69, -4.12, 5.82, -5.45, -7.96, -3.73, -1.5, -9.91, 1.52, 8.86, -6.16, 5.14, 4.58, 4.46, 7.65, 5.6, 0.33999999999999997, -9.51, -4.02, -5.61, -8.53, 1.31, 1.8, -2.65, -3.81, 7.42, -8.75, -0.38, -0.41000000000000003, 0.72, 2.87, -2.41, 0.23, -1.65, 0.55, -4.48, -6.61, -0.79, -3.29, -9.9, -4.92, 1.02, -5.35, -3.32, 7.93, -3.6, 6.72, -0.47, -9.66, -4.6, -7.22, -7.26, -5.45, 7.04, 7.6, 4.95, 6.59, 6.18, -2.84, -6.37, 8.26, -8.08, -9.13, -1.0699999999999998, -5.5600000000000005, 5.98, 9.64, -7.66, 1.1, -3.86, -6.8, -4.51, 7.23, -9.03, 6.0, -1.44, 1.79, 2.54, -4.31, 4.15, -6.18, -2.76, 9.62, -6.76, 0.28, -3.37, -0.38, -9.28, 4.98, 3.54, -7.33, 8.71, 2.39, 2.1, 7.32, -3.58, 4.46, 8.27, -10.61, 7.29, 0.16000000000000003, 9.47, 9.83, 6.34, 4.29, -0.73, -1.06, 6.52, -1.01, -6.1, -4.41, -2.35, -8.12, -0.76, -6.88, 7.84, 7.33, -6.29, 8.18, -2.59, -4.47, 7.78, -5.35, -0.19999999999999996, -8.93, -0.46, -2.77, 1.53, -9.91, -2.55, -6.93, -3.86, -3.0, 0.56, 3.92, -8.7, 5.38, 9.75, 3.51, 0.95, -5.04, 8.18, -9.08, -7.17, -8.14, -1.6400000000000001, 9.58, -6.43, -8.44, 7.41, 7.91, -10.39, -7.38, 1.46, 6.89, -3.89, -3.45, -8.28, 4.67, 1.1400000000000001, 4.34, -4.73, -9.16, 4.64, -8.32, -2.38, -5.78, 2.66, -1.51, 0.3, -7.01, 0.24, 8.31, 0.10999999999999999, -4.88, 6.97, 7.97, -7.08, -2.29, -7.04, -7.12, -6.63, -10.44, -2.67, -8.38, -8.04, -9.45, 4.02, -6.69, 4.59, 0.85, -10.98, -9.02, 5.39, -9.98, 0.94, -3.56, -4.76, -7.37, -10.46, -8.1, -0.17, -7.93, 6.84, 2.63, 3.2800000000000002, -10.44, -2.66, 0.15000000000000002, -7.57, -4.74, -7.99, -0.29, 4.3100000000000005, -0.83, 2.21, -1.01, -8.37, 8.06, 3.2800000000000002, -5.79, -7.38, 2.02, 7.69, -4.14, 3.97, -7.85, -3.74, -5.49, -3.39, -0.5700000000000001, 2.33, -3.96, -5.67, -8.68, -8.25, 6.5600000000000005, 8.23, -1.11, -8.77, -0.05, 5.84, -10.37, 7.33, 5.88, 3.67, 7.16, -2.13, 1.58, -5.35, -0.88, 4.66, -9.57, -5.86, 9.23, -3.48, 0.91, -10.37, 6.43, 3.7199999999999998, 7.36, -2.16, 7.18, 0.92, 1.1, 1.95, 5.25, 7.28, -4.98, 4.62, 5.61, -7.73, 0.35, 5.06, 8.97, 8.13, 0.18000000000000005, 2.12, -9.95, -6.62, 9.6, 8.6, 8.64, 6.25, -7.46, -10.31, -2.67, 3.4699999999999998, 7.26, -6.18, -3.4, 7.08, -9.88, -8.74, 7.72, -7.65, -6.22, -9.9, 9.73, -0.38, 3.36, 8.99, -4.65, 1.71, 9.26, 4.3, 8.24, 5.58, -0.73, -6.97, -8.05, 9.6, 5.02, -3.65, 2.2800000000000002, -5.82, -5.12, -5.5, 2.9, 5.55, -9.97, -3.08, 4.34, -10.67, 3.98, 1.74, 8.03, 8.45, -4.33, -4.58, -9.39, 7.46, -9.83, 2.44, -8.47, 2.11, 3.22, 3.99, -5.97, 8.25, -10.49, 4.14, 4.83, -1.73, 5.1, 6.68, -4.0600000000000005, 7.38, -8.71, 1.19, -6.92, 7.0, 7.29, -8.83, 3.68, 3.12, -8.95, -7.31, 9.95, 6.2, 4.57, -7.74, -5.77, 8.05, 2.1, 4.89, -3.37, -0.25, -0.3, 1.53, -3.12, -4.78, 9.84, 6.27, -9.9, 1.4300000000000002, 1.83, -6.88, 1.67, 3.29, -3.11, 5.87, -9.79, 5.46, 7.69, -8.33, 8.23, 9.09, -0.98, 7.82, -0.31000000000000005, -8.9, 7.52, -1.81, -0.69, 2.94, 7.28, 9.76, -7.48, 7.45, 8.43, -9.72, -8.47, -6.76, -2.43, 6.86, -7.7, 8.58, -5.9, -6.27, 8.25, -0.76, 8.53, 6.26, -3.35, 0.38, 6.02, 6.5, -2.55], [-5.0, 1.31, -6.2, -4.08, -1.8599999999999999, -7.44, -10.26, 5.42, -0.48, -8.45, -4.43, 2.97, -1.29, -3.93, 0.38, 0.12, 3.59, -5.63, 2.69, 0.10999999999999999, -7.67, 4.33, -9.09, -6.43, 0.72, -6.87, -8.12, -8.58, -6.74, -3.66, 0.020000000000000018, 7.48, -0.15000000000000002, 7.88, 9.13, 1.4, 4.64, 8.62, -6.96, 5.59, 0.69, 8.92, 2.05, -3.5300000000000002, -2.05, -4.16, 1.56, 5.06, -4.24, 4.36, 2.43, -9.63, -0.6599999999999999, -4.92, -2.73, 0.43000000000000005, -4.68, 5.11, -8.52, -9.21, 6.0600000000000005, -10.46, -4.17, 1.37, 1.3399999999999999, 5.14, 4.8100000000000005, 5.93, -9.43, -6.54, 4.0, -8.66, 1.77, -3.65, -7.4, 2.44, -7.69, -5.47, 1.48, -2.6, 4.98, 0.68, -10.81, 5.03, -3.4, 3.84, -3.71, 6.72, -4.15, -7.21, -4.09, -6.64, -0.5, 5.11, -3.26, -6.51, 6.52, -6.0, -0.4, -5.46, 7.15, 9.61, -0.87, 9.39, -3.35, -3.2199999999999998, -8.91, -1.54, -6.59, 1.6400000000000001, -4.5600000000000005, 8.57, -1.03, -2.83, 9.9, -4.61, -2.2199999999999998, -0.67, -2.2800000000000002, 6.05, 3.37, -2.48, -7.76, -3.05, -4.98, -9.37, 3.99, 0.25, 0.15000000000000002, 7.94, 2.7800000000000002, 8.29, 4.03, -5.11, -1.11, -9.96, 5.72, -6.84, 3.96, -5.2, -2.17, 4.53, -3.06, 1.69, 0.52, 2.25, -7.92, -7.85, 4.71, 6.34, -3.75, -1.37, -9.91, 9.65, 5.48, -9.63, -1.03, -0.69, -9.8, 8.64, -4.46, -10.98, -6.96, -3.91, -1.27, -5.02, 5.01, 6.73, -0.26, 9.99, -2.45, -10.06, -7.04, 1.3599999999999999, -8.2, -1.62, 9.78, -5.2, -10.53, 4.03, -1.05, 7.28, 6.78, 7.8, -8.23, 0.51, -9.05, 4.36, -5.98, -1.83, 5.67, 4.36, 4.01, -8.4, 3.24, -0.93, 4.74, 6.46, -5.9, -10.24, -4.21, 2.98, 0.16000000000000003, -1.99, 0.69, -1.11, -9.81, -9.73, -5.02, -5.28, 7.35, 6.33, 7.58, -5.25, -1.6, -5.41, -7.9399999999999995, -6.02, 2.27, 3.98, -1.07, 1.06, 5.91, 1.63, -7.12, -0.03, 7.78, -2.95, 2.6, -3.07, 1.32, -10.63, 4.0, -4.96, -2.63, -2.0, 8.44, -1.23, 0.4, 5.31, 7.45, -6.96, -2.12, -2.25, -9.67, -2.6, 3.54, -0.28, -4.26, -0.06999999999999995, 8.1, 8.25, -6.9399999999999995, 7.59, -8.16, 4.98, 0.85, 2.63, 6.8, -0.38, 4.17, -0.81, -3.38, 5.15, -6.6, -7.52, 1.83, 1.9, -3.19, -4.41, 0.6, 5.79, -9.31, 1.71, -4.07, 7.52, -2.06, -3.7800000000000002, 3.7, -8.58, -2.61, -5.87, 6.76, -4.45, -6.12, 0.47, 0.16, 2.63, 2.09, 1.93, 4.82, 7.22, -5.16, -7.85, -5.41, 1.03, -4.29, -9.04, -0.2, -1.3900000000000001, -7.03, 3.51, 0.84, 3.96, -5.68, -1.1400000000000001, 8.14, 0.59, -5.46, -7.39, 4.7, -5.96, -3.13, -1.45, 7.63, 5.99, 7.26, 8.99, -6.3100000000000005, -2.9699999999999998, 0.87, -2.14, -0.26, -9.57, 8.55, -7.01, -3.45, 4.19, 8.38, 3.37, -9.6, -6.61, 3.29, -4.27, -1.69, 6.02, 1.42, 5.6899999999999995, 3.26, -3.58, -1.0, -8.11, -2.56, 6.46, 0.36, 6.8100000000000005, -2.92, -2.41, 2.75, -7.0600000000000005, 0.99, -8.69, -9.98, 4.08, 9.55, 5.86, -5.27, 1.05, -9.35, 2.0, 7.5, 0.5, -1.51, 7.03, 3.42, -5.9, -7.72, -5.5, -7.98, -0.06999999999999995, 6.31, 6.68, -7.44, -5.84, -10.62, 1.19, 2.44, 9.89, -2.7, 5.16, 8.24, 8.01, -0.55, -8.22, 4.17, -6.9399999999999995, -0.30000000000000004, 0.95, -3.81, -2.42, 8.22, 7.85, 5.78, 1.89, -0.22999999999999998, 5.23, 3.15, -8.42, 1.77, -3.02, 5.14, 2.14, -7.02, -5.59, -9.54, 6.18, -2.15, -8.67, 7.22, 3.81, 2.58, 4.69, -9.57, 0.32, -2.62, -8.45, 4.42, 7.4399999999999995, 2.59, -4.54, 0.32, 8.99, -2.27, 1.6600000000000001, -10.84, 1.54, -4.07, -7.97, 2.31, -5.32, 5.88, 5.28, -1.17, 1.32, 5.95, -2.45, 4.4399999999999995, -3.49, 7.47, 4.33, 3.98, -4.81, -4.36, -5.38, 4.8, -5.34, -7.08, 0.37, -9.04, -2.62, 7.77, -7.36, -3.48, 4.34, -2.97, -7.21, -8.7, -0.31, 4.85, 5.3, 3.95, 9.7, -6.38, -0.73, 6.1899999999999995, 5.47, -0.78, 6.1899999999999995, -10.34, 9.87, 6.83, -5.67, 6.17, -4.4, -3.13, 5.83, -3.81, -4.84, 4.62, -1.3199999999999998, -3.5, -3.42, 7.5, -9.26, 9.95, 3.7199999999999998, 2.9, -7.09, 4.67, -1.68, -2.63, -4.7, -4.44, -7.05, -1.71, -0.79, 3.35, -3.62, 1.16, -3.12, 3.32, -1.54, -7.61, -8.07, -9.14, -5.54, -2.98, -4.47, -6.43, 0.06000000000000005, -3.79, -9.87, 8.92, -2.06, -7.37, 8.05, -0.4, 3.63, -4.21, 3.5, -6.43, 6.03, -7.54, 4.55, -3.83, 2.51, -3.87, 5.37, 9.47, -4.85, 4.19, 6.8, -1.2, 8.69, 5.33, 5.05, -7.08, -1.72, -3.44, -3.96, 6.46, -4.98, -6.43, 4.96, 7.3100000000000005, -3.43, -5.24, 7.05, 1.59, 7.18, 7.63, 3.03, 3.51, 8.95, 0.26, 6.92, 1.05, -8.99, 5.35, 0.4, -8.25, 7.04, -0.12, 0.32, -3.29, -5.99, 7.86, -5.87, 2.35, 3.9699999999999998, 3.01, 3.55, 8.49, 3.92, -9.2, -4.9399999999999995, -7.87, -7.47, -4.59, 3.02, 3.8, -2.35, -8.1, 8.55, 2.5, -2.01, -9.66, -7.83, 2.93, -3.02, -2.64, 3.27, 6.54, 3.82, -3.93, -7.69, 2.68, 4.5, -3.38, -9.17, 7.47, -5.24, 5.28, 7.73, 7.47, -10.67, 0.66, -6.85, 0.88, -0.21999999999999997, -3.6, -4.6899999999999995, 3.68, -7.74, -3.02, 3.35, -7.44, 6.48, 5.54, -4.71, -5.97, 8.06, -10.86, -1.19, -10.77, -8.84, -9.75, 8.77, -7.4399999999999995, -6.08, 3.65, -1.06, -1.83, -9.61, -5.38, 3.9, -6.28, 1.93, 4.01, -6.77, 4.55, 0.24, 1.99, -6.53, 2.12, 1.79, -7.54, -2.68, -7.9, -9.15, -10.18, -3.62, -2.74, 1.33, -2.18, 5.64, 5.43, 9.65, 2.64, -8.48, 8.58, 8.6, -4.2, -7.21, 9.35, -1.62, -8.96, 0.2, -4.62, -5.84, -2.6, 1.3900000000000001, -3.07, -4.87, -0.68, 0.59, -8.17, 7.38, 2.83, 8.0, -6.31, 7.99, -7.08, 9.41, 5.07, 1.46, -0.94, 3.24, -5.96, -0.32, -9.06, -6.73, 4.78, -5.01, 2.27, 6.3100000000000005, -3.18, 2.83, 2.14, -5.83, -0.99, 5.45, 2.33, 2.25, 2.5300000000000002, 9.49, -7.7, -1.08, -4.27, 4.15, -5.11, -4.1899999999999995, 2.26, -0.81, -9.81, 6.84, -0.25, -9.69, 6.54, 1.65, 0.56, 2.21, -8.52, -5.81, -4.32, -6.18, -7.29, -1.51, 7.65, 3.61, -3.1, -6.49, -6.32, 3.92, -1.96, -6.95, -6.1899999999999995, 0.050000000000000044, 1.84, 2.71, 2.16, 7.43, -0.34, 1.45, -6.68, 5.1, -0.75, 8.67, -6.51, 1.95, -9.02, 7.08, 0.33, 6.64, 2.0, -6.46, 3.09, -9.52, -4.11, 7.28, 6.58, 1.55, 0.1, -2.09, -3.36, 4.64, 9.1, 0.86, 7.01, -0.4, -9.5, -7.9, 9.94, 0.87, -2.44, -4.03, -9.36, 5.01, -7.1, 6.34, 9.8, -9.07, -8.27, -10.52], [4.51, 4.08, 7.64, 7.6, -3.66, -8.41, 5.72, -10.86, 6.53, -6.54, 5.99, -8.59, -5.1, -8.97, 0.47, -2.38, 2.33, -2.42, -0.26, -3.55, 5.51, -1.48, 5.51, 4.96, -5.73, 4.6899999999999995, -0.8200000000000001, 3.29, 8.49, -6.09, 1.99, 8.39, -4.78, -9.66, -9.66, 1.1400000000000001, 5.21, -8.81, 8.27, -2.55, 3.3, 2.36, 4.3, -1.78, -5.63, 0.17, -4.72, -7.26, 3.63, -5.38, -9.89, -4.15, 2.71, -0.16, 6.4, 5.0, 0.27, 7.35, -5.99, -6.82, -8.3, 5.77, 6.95, 8.07, -2.89, 8.24, -7.83, 2.88, -3.63, 5.8, -5.75, 5.29, -9.87, -8.99, -10.95, -7.3, 3.52, -0.29, 5.82, -9.95, 0.9, -9.02, -0.48, 2.13, -1.76, 0.20999999999999996, 9.9, -10.63, -8.43, 5.84, -4.42, -2.41, -8.36, -4.94, -2.7800000000000002, -10.92, -0.47, -9.98, 9.41, 0.06, -0.08, 2.95, 6.02, -1.47, -3.75, 4.78, -5.9, 0.75, -7.72, 2.54, -5.22, -4.84, 2.79, 7.48, -4.02, -3.62, -1.42, 3.11, -0.36, -1.24, 7.89, 2.71, 0.39, -5.16, 1.62, 1.52, -0.19999999999999996, 2.43, -2.0300000000000002, -10.57, -9.75, -6.84, 2.87, 0.22, -1.9, 2.42, -1.6099999999999999, 1.77, 4.8100000000000005, 8.72, 4.82, 2.35, -3.45, -9.05, 4.95, 6.58, 5.3100000000000005, 7.79, -0.78, 0.2, 4.07, 1.3199999999999998, -1.71, -5.07, 5.97, 2.13, -9.89, 2.58, 8.34, -9.0, 8.9, 5.37, 8.85, -2.7199999999999998, 5.22, 3.95, -3.77, 5.41, -1.8900000000000001, -1.3900000000000001, 4.66, -9.27, 0.17000000000000004, -2.35, 5.58, 4.99, -9.62, -9.0, -4.5, 0.6799999999999999, 1.52, -5.92, 2.42, 2.03, -2.82, 8.94, 0.55, -4.89, 7.64, 8.18, -2.58, -4.92, -9.21, -6.12, -3.37, 3.51, -0.83, 5.86, 1.3900000000000001, 1.21, -3.82, 7.17, -0.64, -5.37, 2.98, 6.12, -3.31, -6.0, 8.2, 6.92, -5.65, 7.41, 4.26, -5.28, -6.11, 4.1, 6.47, 4.8, -0.32999999999999996, -5.8, -4.88, 0.09, -0.99, -0.43999999999999995, -9.0, 6.78, -9.02, -3.69, -9.35, 4.45, 6.52, -9.63, -1.31, -4.42, 8.41, -10.0, 6.62, 2.87, -9.77, -1.4300000000000002, 6.46, 0.55, -1.12, 0.96, -3.32, -0.28, 3.11, -3.76, -8.76, -6.46, -9.29, -3.27, 9.1, 4.37, 0.9, -10.51, -1.6800000000000002, -1.76, -8.33, 8.37, 6.91, -7.5, 6.87, -4.37, 3.95, 7.26, -3.85, -4.11, -5.3, -0.55, -8.25, -4.5600000000000005, -8.15, -2.74, 7.03, -3.9699999999999998, -4.35, -6.5, -6.82, 6.35, -4.26, 2.12, 1.1400000000000001, -1.44, -6.49, -9.04, 5.21, 1.15, 6.87, -9.57, 8.08, 8.57, -3.85, -8.56, -7.43, -5.15, 9.03, -1.22, 0.56, -7.47, -7.3, -0.18000000000000005, 1.24, 3.67, 4.47, 9.24, 6.54, -0.81, 8.36, -4.89, -7.03, 3.87, -2.58, -6.84, -5.03, -1.32, -4.18, 8.5, 2.57, 2.73, 7.39, 3.73, 3.2800000000000002, 8.48, -8.4, -1.1600000000000001, -2.35, 6.89, 7.04, 8.4, 5.9399999999999995, 5.76, -8.66, -0.8, 9.41, -5.49, -1.3900000000000001, -5.94, -4.4399999999999995, -3.91, -1.8199999999999998, 4.59, -6.86, 3.27, 5.53, 9.46, 8.0, -3.22, -0.28, -0.84, -8.87, 0.49, 0.73, 5.1, 2.26, -8.43, 1.77, 2.04, 6.4, -6.09, 3.92, 9.69, -8.19, 2.23, -4.55, -6.23, -6.91, 8.19, 4.65, -8.19, -8.69, 9.78, -10.26, -1.47, -0.37, 2.88, 7.48, -2.41, -7.35, -6.78, 7.75, 2.39, -5.14, -8.45, -7.6, 1.92, -2.46, -0.05, 9.61, 0.52, -5.48, 4.53, 4.46, -8.23, -2.08, -5.18, 0.6699999999999999, 5.8, -8.02, 7.61, -0.01, -7.48, -6.1, -4.66, -3.58, 6.75, -3.94, -5.85, 9.44, -9.87, -10.65, 7.92, 1.32, 1.33, -2.89, 3.89, 6.65, 2.54, -4.38, -4.22, 2.46, 5.28, -2.08, 4.3100000000000005, -2.94, 1.75, -5.25, -7.14, 8.74, 8.71, 4.18, -1.69, -0.22999999999999998, 1.04, -0.27, 7.39, 9.97, -9.95, -6.08, 4.17, -8.6, -2.95, -7.75, 3.96, -9.91, -0.05, -2.95, 7.2, -1.71, 6.04, -10.89, -1.0899999999999999, -1.78, 2.74, -8.59, -0.37, -8.64, -0.51, -8.89, 7.77, -7.5600000000000005, -0.57, -8.59, 5.5600000000000005, 1.1400000000000001, 8.46, -6.11, -2.57, -3.17, 2.34, 2.99, 9.77, 5.43, 5.13, 6.43, -5.26, -2.52, 5.3100000000000005, 6.29, 2.38, -7.41, -1.25, -7.5600000000000005, -2.9, 6.71, -5.82, -10.26, 2.07, 7.38, 7.25, 2.5300000000000002, 8.64, 1.24, -4.37, 5.13, 1.54, -7.11, -4.93, -0.76, 1.03, -6.49, 8.75, 8.18, 6.35, 6.5, -5.76, 0.83, 6.09, 5.74, -9.61, -1.38, 7.04, 8.03, 5.75, -9.04, -5.43, 8.96, 6.26, -8.91, -0.76, 4.79, -2.0, -9.47, -10.79, -7.74, -8.93, -10.98, -5.03, 5.3, -10.81, 8.48, -3.21, 9.26, 5.6899999999999995, 5.11, -3.59, -0.38, 4.91, 8.13, -5.02, -2.6, -10.14, 2.86, -2.03, 0.02, -7.79, 9.62, -2.64, -1.46, 5.95, -6.6, -2.96, -3.19, 6.04, -0.46, -4.96, -0.05, -8.04, 1.03, -8.43, 4.76, -5.7, 3.66, 0.14, 5.03, 0.85, 1.67, -9.87, -7.1, 0.79, -7.07, 1.28, 6.7, -8.05, -7.85, 9.25, 5.14, -8.74, -3.42, 7.15, -9.92, 2.9699999999999998, 0.34, 4.95, 4.44, 5.52, 9.91, 2.38, -7.73, 4.54, 6.46, 4.65, 8.03, 1.44, 6.82, -5.93, 6.18, -7.07, 0.83, 2.95, 2.8, -10.05, 7.14, -9.0, -5.68, -0.21, -3.36, 7.38, -8.6, 8.68, 7.28, 7.94, -2.18, -1.81, -0.95, 7.57, -0.13, -1.1, 0.51, 6.64, 9.1, 0.7, -5.36, -0.010000000000000009, 5.13, 7.06, -4.78, 8.73, -8.65, 4.4, 6.38, 6.52, 7.9, 8.05, -9.01, -7.79, 6.65, -8.37, -9.14, 6.85, 6.98, -5.43, -6.19, -5.41, 3.85, 3.7, -5.8100000000000005, 2.76, -9.3, 8.28, 5.8, 0.59, -1.9100000000000001, -3.61, -3.52, -4.19, -4.36, 9.26, 7.94, -1.83, 9.48, -6.01, 6.93, 5.52, -10.59, 8.64, -4.68, 3.75, 2.4, 3.76, -0.55, -9.06, -5.8, -1.32, -2.61, -9.73, -4.46, -2.9699999999999998, -1.18, 1.84, -3.11, 3.1, -0.8200000000000001, -5.31, 7.36, -0.8, 0.05, 3.4699999999999998, -1.23, -2.71, -6.14, 5.57, 7.51, -10.79, 1.47, -8.04, -4.56, 2.87, -2.26, 7.93, 7.1899999999999995, 0.08, 1.3900000000000001, 2.91, -7.94, 7.6, 1.83, -6.99, 5.07, -9.58, 7.55, 7.4, -5.75, -8.2, 6.71, -3.38, 4.58, -10.8, 2.54, 1.8900000000000001, 0.61, -9.95, 5.0, -5.06, 1.06, 4.26, -6.76, -8.4, 5.95, -1.67, 6.91, 3.54, 8.31, 2.3, -2.2, -7.18, 7.06, -1.25, -5.11, -9.1, -0.010000000000000009, 6.8, -8.5, 8.33, -3.31, -2.41, 4.26, -2.74, 1.87, -7.62, 7.48, 2.33, -7.45, 0.15000000000000002, -1.43, 2.32, -9.86, -6.75, 2.13, 8.33, -6.34, 2.82, -4.81, 3.85, -2.69, 6.22, 5.28, 8.78, 2.93, -8.41, -7.37, 0.48, 2.71, 4.55, 1.22, -7.7, 6.8, 4.49, -10.64, 2.81, 3.79, 7.49, -5.89, -9.25], [-9.35, 6.73, 5.74, 6.7, 0.85, -9.61, -7.59, -9.25, 3.01, -3.7199999999999998, -0.39, -5.54, -2.2, -9.21, -6.46, -5.85, 6.73, 0.8, 5.44, -4.55, 6.93, -7.58, -3.1, 4.36, 0.75, 5.6, 8.26, -0.59, 6.1, -4.24, -3.25, -3.2800000000000002, 0.63, 4.91, -6.59, 1.63, 5.1, 1.65, 0.54, 0.63, -3.74, 7.25, -0.33, -2.81, -4.49, -4.2, 7.65, 2.48, 0.91, -10.48, -5.32, -1.3599999999999999, 4.15, -0.99, 9.88, -6.37, -4.53, -3.05, -1.09, 0.36, -10.77, 2.65, -4.35, -1.77, 7.1899999999999995, -7.8, -9.57, -9.49, 2.7199999999999998, -10.3, -2.94, -0.47, -5.8100000000000005, -5.25, -2.15, 5.72, -5.65, 8.68, -1.43, -3.18, 7.46, 9.57, -9.26, 2.59, -9.45, -7.8, 7.54, 0.28, 4.02, -8.47, 4.1899999999999995, 1.44, -4.29, -0.56, -7.75, 0.81, 1.46, 2.51, 8.22, -6.74, -9.16, 1.67, 8.82, 5.8, -10.55, -2.35, 5.2, 6.39, 5.55, 3.4699999999999998, -4.97, 5.46, -6.48, -1.8399999999999999, -6.11, -8.37, 8.87, -8.8, -2.2, 4.64, -10.78, 7.6, 5.66, 6.93, 5.65, 5.38, -10.36, -2.51, 5.34, -1.83, -3.13, 6.31, -8.09, 4.65, -1.67, 8.32, 2.38, 4.13, -0.45, -7.38, 4.12, 2.64, -2.52, -1.06, -5.94, 3.76, 4.62, 3.0300000000000002, -6.13, -1.42, 3.93, -4.79, 5.78, 9.58, 5.9399999999999995, -1.81, -0.21, -6.39, 8.26, 2.59, -4.79, 4.88, 1.9300000000000002, 0.36, 3.2, 6.07, 3.51, 8.12, 4.1, 3.66, -6.49, 0.9, -4.6, -4.94, -0.06, 8.4, 4.23, 7.16, -2.54, -3.33, 3.23, 9.29, 8.45, -8.07, -3.36, 2.1, 2.06, 3.11, 6.13, 7.43, -4.66, 9.19, -7.57, 5.22, -3.59, 3.2800000000000002, 8.21, -6.47, 1.16, 4.11, -4.18, -6.45, -6.51, -3.99, 4.53, -7.48, 0.72, -0.76, -0.53, -0.27, -5.88, -2.4, -8.19, -7.68, 0.18999999999999995, 0.51, -1.92, -8.81, 2.69, -0.65, -0.49, 3.42, 6.35, 0.67, -1.94, -8.73, 3.38, 1.04, -8.11, -5.94, -4.49, -7.03, -2.74, 6.55, -4.54, -5.54, 8.11, -7.26, -8.26, -6.77, -8.07, -3.14, -8.31, -6.22, -7.75, 5.87, -4.74, -8.02, -4.65, -1.98, -4.8100000000000005, -7.96, 1.94, 0.6699999999999999, 6.57, 8.95, -4.08, -8.96, -3.66, -2.66, -4.43, -1.72, 2.52, -0.010000000000000009, 2.37, -7.46, 6.8, -9.49, -1.78, -0.42000000000000004, -2.91, 8.61, 5.16, -4.2, -9.33, -2.05, -6.06, 4.92, -7.7, -0.87, -7.21, 6.03, -2.49, -6.65, -6.8100000000000005, 4.86, 3.96, 3.46, -0.19, 6.66, -10.58, 6.23, -7.95, 5.05, -3.86, 3.31, -0.44999999999999996, 3.87, 1.65, -2.09, 2.21, -6.08, 7.07, 7.6899999999999995, 5.11, -4.34, 4.61, 3.23, -6.7, 9.92, -0.85, -3.56, 7.29, 4.12, -5.15, 1.1600000000000001, 7.5600000000000005, -1.99, 1.62, -4.11, 4.41, -6.03, -9.98, 4.77, 8.28, 6.08, -0.55, -7.02, 1.03, -2.06, 0.30000000000000004, -3.7800000000000002, -8.75, 3.9699999999999998, -2.38, 2.71, -6.78, -9.22, -0.95, 7.8100000000000005, -8.84, -3.48, -6.08, 8.46, -9.99, 9.22, -1.76, -4.74, 2.97, -8.68, -6.34, -1.31, -3.7, -5.33, 8.44, 1.44, -5.11, 6.88, -2.8, 8.78, 3.65, 6.03, 0.91, -9.42, 5.82, -6.22, -2.59, 0.18000000000000005, 3.0, -9.46, -5.8100000000000005, 0.39, -1.4, 3.06, -6.6899999999999995, -3.5, -10.46, 0.78, -7.34, 0.24, -6.8, -2.43, 0.050000000000000044, -7.64, 1.22, -8.87, -3.58, -0.34, 4.58, -7.86, -7.11, -9.4, -1.1800000000000002, 8.67, 0.86, 0.03, -1.09, 1.18, 0.020000000000000018, 1.6400000000000001, -3.38, 5.78, 2.01, 1.81, 0.9, -5.22, -9.05, 3.83, 0.4, 4.6, 2.94, 4.2, -10.6, 9.36, 1.78, -6.22, -9.71, -1.1, -8.68, 2.31, 6.33, -1.25, -3.89, 0.33999999999999997, -3.01, 7.86, 5.07, 7.24, -9.07, 6.8, 0.93, -9.8, 2.3, 4.53, 3.13, 5.74, -8.21, 1.35, 2.57, -9.46, -0.21999999999999997, -3.4, 3.18, 2.69, -9.67, -2.65, -9.51, -1.59, -0.33999999999999997, 4.85, 7.48, -5.81, 3.92, 3.55, -2.27, -2.33, -3.31, 9.39, 4.24, -5.92, 9.05, 2.43, -1.27, -6.46, 7.23, -7.91, 1.05, -5.06, -1.1, -4.34, -1.27, 7.3, 7.66, 2.39, -0.1, 3.18, -8.54, -4.13, -5.44, -4.53, 8.45, 2.95, 6.82, -2.85, 4.37, -6.36, -6.36, 6.33, 3.82, -3.91, 8.37, 9.41, -10.29, -5.67, -3.85, -5.09, 1.91, -0.88, 9.02, -2.36, -1.7, 3.76, -6.78, -10.55, -0.36, 1.3599999999999999, -8.84, 8.48, -9.48, -9.46, -2.65, -8.41, -0.38, -1.62, -4.96, -4.27, -4.65, -0.24, -3.2800000000000002, 8.73, 5.25, 4.0, 0.15, 2.93, -6.72, 8.4, 5.33, -1.44, -3.24, -3.01, 6.88, -3.6, 1.28, 7.21, -6.12, 6.35, 1.1600000000000001, -6.01, 4.48, -7.9, 8.37, -4.78, -7.71, -3.45, -4.08, 1.96, -4.75, -1.0, -1.6600000000000001, -0.52, -1.91, -10.22, 8.1, 6.14, -5.54, 4.79, 7.28, -4.79, 5.05, -8.39, -9.77, 7.58, 0.81, -7.68, -7.66, 4.19, -4.54, 6.68, -4.69, 9.82, -3.05, -9.04, -2.31, -1.6, -4.94, -8.41, 1.05, 1.03, 0.05, 5.05, -3.98, 1.5, 0.12, -4.28, -3.63, -9.64, 5.43, -3.36, -4.77, 0.31, 3.67, 8.33, -2.9, 8.52, -1.34, -4.73, 7.08, 9.12, -3.31, -6.27, -7.34, 7.34, -6.38, 2.23, -0.39, -9.84, 6.86, 2.0, -1.6, 1.3, 0.89, -6.44, -0.76, 8.1, -4.12, -7.87, -0.73, -2.11, -5.12, -8.91, 5.18, 8.52, -7.14, -9.87, -8.13, 3.79, 4.8, -5.66, -8.55, 1.99, -1.17, 8.46, 0.53, -3.63, 0.15, -8.03, 2.86, -4.79, 8.28, -8.03, 3.45, 0.2, -3.65, -2.87, -0.91, 9.58, -0.15, -8.42, 8.93, -5.25, -5.95, 2.61, -7.98, -5.1, -7.61, 2.18, -8.3, 4.01, 4.35, -5.12, -2.19, -5.83, -0.79, 0.49, -8.5, 5.58, -0.11, -9.4, -3.96, -2.37, -10.07, -6.22, 8.6, -3.23, -9.2, -6.65, -7.74, 0.53, -0.49, -4.25, -6.87, 4.46, 8.75, 9.19, -3.2800000000000002, 6.63, -1.02, -3.49, 4.36, -2.01, 4.26, -9.93, -7.47, 0.58, -1.6, -8.74, -3.08, -5.22, 0.74, -5.42, -0.96, -2.07, -10.87, -6.88, 7.66, 9.43, 1.1600000000000001, 2.16, 1.6600000000000001, 7.03, -6.46, 3.84, 7.51, 8.42, -8.27, -5.5600000000000005, 6.14, 6.22, -8.26, -1.03, -1.45, 8.14, 8.81, -5.0, -8.54, -3.74, 6.24, -0.16000000000000003, -0.42, 6.27, -8.11, -6.05, 6.15, 7.82, -10.71, -6.12, 1.7, 8.02, 1.5699999999999998, -4.46, -7.5, -5.07, 3.44, 8.74, 9.27, -3.48, -8.59, 1.44, -3.64, 4.48, 2.0, -5.06, -5.58, 3.2800000000000002, -10.22, -8.46, 4.17, 4.72, 2.19, 3.17, 2.62, -10.06, 3.08, -9.51, 6.84, 0.52, 7.49, 4.48, -4.36, 6.14, 7.89, 4.28, 5.1, 0.17000000000000004, 2.75, 2.32, 8.98, 3.65, 8.5, -1.97, 1.18, -0.88, -9.35, 8.37], [-0.55, -6.2, -1.44, 1.6, -2.6, -2.06, -9.72, -4.44, -2.7, 3.7800000000000002, -3.08, 1.8599999999999999, 0.27, 3.06, 0.56, 3.59, 4.22, -4.73, 6.57, 3.6, 3.45, 6.6, 0.85, 5.37, 1.93, -2.52, -1.05, 8.67, -1.49, 3.89, 5.34, -8.33, -9.32, -0.15000000000000002, 5.85, 1.82, -0.42, -3.58, -0.08, 5.02, 2.06, -7.59, 6.79, 0.97, -5.22, 9.69, -1.55, -0.55, -6.12, 6.99, 8.39, -5.41, -11.0, 3.63, 1.65, 6.72, -2.15, -10.43, 0.62, -7.26, 4.4399999999999995, 8.23, 3.87, 3.86, -3.91, -9.72, -6.18, -7.21, 8.26, -6.9, -8.27, 7.22, -6.09, 1.73, 4.92, -7.65, -0.31999999999999995, 0.89, -9.0, 0.98, -5.33, 6.05, 8.17, -9.42, 7.39, 6.8100000000000005, -3.56, -2.59, 3.16, 5.11, 2.91, 8.92, -0.68, 4.87, 2.06, 1.3199999999999998, -1.6, -3.78, -5.62, -3.16, -7.03, 9.99, 6.91, -8.64, -7.48, -0.93, -0.96, 3.98, -7.04, -1.98, -3.12, -10.23, -10.14, 2.76, -9.26, 7.68, -0.54, 4.88, 0.45999999999999996, -4.48, 8.61, 6.66, 1.69, -3.04, -7.87, -6.78, 7.46, 0.9299999999999999, -9.66, 0.58, 7.57, 3.35, -1.35, -2.15, 1.01, -6.47, -4.29, 0.6799999999999999, -8.77, -3.48, 6.53, -1.85, -4.42, 8.52, -7.73, -10.18, -9.38, -9.92, 5.91, 0.78, -2.37, -5.08, -4.85, 2.68, 5.63, -6.05, 0.58, -10.59, -3.78, 0.91, 6.53, -4.67, 5.92, 5.01, -7.26, 0.89, 8.49, -8.9, -9.57, -4.52, 6.36, -9.78, 4.8, 4.57, 5.82, 4.73, -0.55, -9.77, 5.28, -1.4, 3.25, -4.24, 4.96, 2.37, 3.14, -9.14, 4.0600000000000005, -7.21, -7.46, 2.46, 5.88, 0.74, -3.31, 8.48, -5.3, 4.51, 3.12, -9.12, 1.58, 6.05, -6.09, 5.65, -0.1, -9.9, -5.43, -9.31, 7.35, -8.42, -3.37, 1.57, 6.72, 6.46, 8.31, -3.49, -5.73, -4.41, -9.05, 6.27, 2.59, 8.0, -7.37, 1.15, 5.12, 6.93, 1.1, -8.62, -9.34, 0.6599999999999999, 7.44, 5.4, 4.16, -5.22, -2.74, -2.03, 4.25, -4.87, 6.56, 1.7, -4.35, 8.06, 6.14, -3.52, 9.14, 1.63, -6.52, 5.81, 2.26, -2.7199999999999998, 4.42, 9.54, -3.18, 3.41, -0.030000000000000027, 6.59, -8.44, -6.03, -6.3, 4.85, -8.88, 7.38, -10.99, 9.4, -3.41, -2.89, 5.41, -1.21, -5.79, -10.89, -10.59, 5.21, 0.38, -9.38, -2.32, 3.78, 8.8, -6.07, 9.83, -3.82, -10.91, 5.38, 2.3, -4.23, -2.44, 2.11, 2.43, -7.18, -1.33, 9.42, -9.85, -5.94, 6.28, -8.61, 1.54, -8.68, -6.48, 4.29, -2.46, -2.59, -10.25, -9.1, 5.6, 4.29, -0.22999999999999998, -8.96, -3.48, -8.19,