[[-10.17, -1.18, 8.66, -3.21, 8.07, 8.37, 8.22, 3.35, 2.86, 1.2, -7.24, -6.93, -0.95, -0.5700000000000001, 6.68, -4.93, -5.57, 8.25, -3.57, 1.23, -3.4, 2.67, -2.9699999999999998, -6.7, -7.3100000000000005, -1.33, -5.7, 6.12, 2.48, -8.88, -1.4, 1.54, 3.9699999999999998, -6.78, -8.49, 2.73, -10.01, -6.6, 2.56, 6.03, -10.33, -4.08, -2.3, -0.61, 5.15, 0.92, -1.95, -10.47, 6.46, 0.95, 3.79, -0.15000000000000002, 4.09, -1.3599999999999999, 4.38, 4.2, -3.17, 6.66, 2.98, 6.08, -6.04, -9.38, 0.32999999999999996, 5.1, -2.21, 7.85, -9.72, -6.15, -10.24, 4.95, -2.4, 1.47, 1.02, -3.56, -7.42, -6.55, -0.67, 3.86, -4.74, -5.57, 9.53, -9.21, 5.14, -1.51, 4.5, -9.54, 0.25, 1.99, 7.33, -4.17, 6.1, 0.8200000000000001, -2.08, 3.54, 1.56, -7.54, 6.35, -7.41, -6.32, -7.9, -4.53, 6.91, 7.27, 6.27, -3.13, -9.46, 2.46, 0.08999999999999997, 3.05, 3.68, -3.57, 3.51, 6.03, -0.44, 2.16, -4.08, 2.99, -0.18000000000000005, 8.61, -8.1, 8.07, -8.94, -2.39, -4.86, 3.03, 8.36, 8.83, 1.32, -3.61, 5.82, 8.78, -1.17, -4.85, -1.2, 8.59, 9.52, -8.93, 7.23, 4.1, 0.3, 5.98, -6.72, -9.93, 0.87, 7.82, -7.16, 4.4, 3.18, 7.15, 0.84, 7.1, -3.05, -5.96, -1.21, 3.43, 6.82, -6.4, 8.09, 8.61, -7.97, -5.99, -1.15, 3.77, -9.13, -0.5, 8.26, 8.29, -7.78, -9.7, -9.88, -5.51, 7.38, 4.61, -4.45, 4.79, -2.14, 4.86, -6.26, -6.07, 4.88, 0.13, -9.86, -1.46, -6.86, -4.9, -5.9, 2.75, 2.9, -10.79, -9.22, 2.65, 1.4100000000000001, 8.34, -7.27, -3.97, -2.65, 8.08, -8.62, 6.08, -9.6, 7.3, 7.11, -8.27, 1.1800000000000002, -0.6599999999999999, -9.24, -3.86, 1.24, -4.66, -10.69, -9.49, 5.48, 7.5600000000000005, -2.87, -5.19, -10.97, -5.18, -5.92, 5.69, 4.75, -7.46, -2.51, 4.17, -5.87, -3.08, 5.06, 4.86, 0.42000000000000004, 4.96, -8.95, -0.69, -8.46, 3.58, 4.57, 0.36, 1.72, 4.86, -7.5, -3.3, 1.7, -7.46, 0.58, -0.48, -1.33, -1.3900000000000001, 0.16000000000000003, 2.79, 1.77, -9.1, 7.91, -7.67, 4.88, -9.99, 8.1, 6.42, 2.71, 5.58, -10.52, -6.54, 9.92, -7.52, -8.18, -1.38, -9.15, -1.37, -3.19, 7.33, 7.67, 0.43999999999999995, 6.0600000000000005, -5.06, -3.01, -7.13, 9.3, 1.99, 5.2, -4.06, 2.39, -8.11, 5.57, 8.09, 8.61, 4.08, 6.89, -7.09, 4.83, 1.51, 2.11, -5.33, 0.4, -7.31, 6.54, 2.43, 4.82, -7.97, -1.3900000000000001, 7.22, 0.7, -2.23, -7.5, -5.8, 3.6, -6.23, -5.33, -8.52, 9.36, 5.64, -1.03, -3.51, 2.96, -5.24, 1.12, 4.88, -11.0, -10.63, 7.29, 1.6, -0.89, 1.3, 0.96, -8.39, -9.13, 6.51, 1.13, 5.59, -10.51, 7.82, 7.37, -1.41, 6.52, 6.74, 7.12, 4.51, -5.65, -5.98, 6.55, -5.41, 5.36, 1.67, 0.9299999999999999, 3.21, 5.21, 6.29, 1.3, 6.0, -2.93, -5.47, -0.87, -2.4, -0.14, 5.45, 1.04, -7.33, 0.73, 0.8200000000000001, 1.9, 5.4, -8.05, 4.58, -2.39, 3.71, -9.59, -2.88, 1.33, 3.85, 3.55, -5.66, 7.66, 9.92, 2.75, 8.91, -8.36, 0.99, -7.69, -7.0, -8.1, 1.05, 1.7, -6.08, -10.61, 1.97, -5.47, 5.35, -5.99, -2.55, 5.62, -4.3100000000000005, -4.36, 6.73, -9.86, 8.21, -4.42, -2.56, -0.67, -1.96, 2.5, -3.25, 6.27, -2.12, 8.17, 0.87, 4.56, -5.0600000000000005, 5.03, 3.52, 2.97, -9.03, -6.59, 7.98, -9.26, -2.2199999999999998, -8.5, -8.1, 6.84, -4.13, -6.68, -7.97, 0.16, 9.89, 1.6400000000000001, -8.19, -10.51, 6.84, 3.78, -1.25, -5.97, 1.31, 1.52, 2.42, -3.38, -7.8100000000000005, 2.52, 4.17, 1.28, -8.77, 5.63, 4.3100000000000005, -7.33, 5.3, 5.14, 8.44, -6.43, -7.7, 7.85, -2.06, 9.23, -9.75, -0.78, 1.1800000000000002, -2.9, -7.51, -3.55, -9.43, 4.17, 2.96, -5.18, 1.02, -1.93, 7.77, 1.28, 5.16, -0.33999999999999997, -1.74, -7.34, -5.61, 7.28, -0.52, 5.57, 6.79, -6.11, 9.5, -7.46, -2.19, -8.32, 6.27, -4.84, -5.3, -0.99, -9.35, -3.52, 6.54, 5.29, 6.31, -7.55, 7.2, 0.74, -5.1899999999999995, 8.71, -5.98, -4.57, -3.73, 6.54, -10.9, 0.76, -8.02, 0.5700000000000001, -10.27, 5.6899999999999995, 5.25, 3.27, 3.55, 5.2, -5.93, -5.03, 4.63, 2.51, 8.55, -3.98, 8.95, 6.28, -7.09, 4.89, -6.47, -7.01, -10.14, -6.46, 8.78, 9.05, 5.1, 2.98, 0.52, 5.76, -3.4699999999999998, -6.58, -5.32, 9.43, -5.55, -5.91, 1.96, 3.5, -3.15, 8.37, -8.76, 0.28, 4.0600000000000005, -4.02, 6.46, 4.57, -6.04, -8.85, -10.93, -7.42, 0.49, 5.35, -1.93, -1.38, -10.98, -5.6, 3.97, 7.05, -7.17, 8.02, 1.92, 1.99, 2.81, -8.94, -9.35, 2.26, -6.22, 1.56, -1.03, -7.86, 5.76, -6.48, -2.4, 7.72, 4.96, -4.79, 8.27, -5.95, 1.74, -1.95, -3.95, -4.51, -9.1, 6.35, 0.43, -2.22, 3.5300000000000002, -0.22, 6.53, -5.4, 7.73, -7.32, -6.67, -8.96, 5.93, -7.53, 4.72, -3.09, -10.15, -0.85, -4.84, -0.9, 1.43, 4.03, 4.06, 0.55, -0.77, -0.04, -4.23, -5.98, -6.87, -5.83, 6.22, 8.95, -6.07, 4.4399999999999995, -9.78, -3.68, -10.26, 0.54, -10.87, -1.8199999999999998, -6.15, -1.45, 4.55, -1.62, 4.77, -5.29, 8.67, 3.94, 1.2, -3.06, 9.41, -2.37, -4.98, -9.24, 8.81, 4.59, 1.66, -1.1800000000000002, 3.91, -8.1, -5.01, -2.95, 3.2, 6.89, -0.77, -1.75, 5.3100000000000005, 2.04, -1.34, -10.7, 6.63, 2.5300000000000002, 2.36, -4.26, -4.15, -7.21, -2.4, -3.48, -2.03, 1.38, 5.18, -8.81, -2.48, 2.2, -7.49, 1.51, -8.6, -4.26, 5.39, -4.5, -7.35, 4.74, -5.62, 7.12, 1.56, 8.01, -3.18, 8.02, 5.9, 1.98, -6.13, 0.63, 1.5, -9.39, 5.39, 4.41, 2.71, -6.5, -7.97, 0.91, 1.11, -0.09, -0.8200000000000001, -5.6, 1.73, 7.54, 8.95, 8.7, -3.4699999999999998, -9.09, -10.44, -9.8, -1.1400000000000001, 7.12, -4.34, 1.5, 4.34, 8.48, -5.24, -8.28, -6.45, 1.3, -8.69, -6.59, -5.28, -4.1899999999999995, -0.5800000000000001, -6.74, 8.46, 8.49, 7.52, -10.08, -8.17, -1.35, -4.68, -7.1, -4.19, 6.88, -7.47, -1.83, 9.75, -1.11, -6.84, 2.57, 2.67, -2.42, -6.9, 1.08, 4.91, -0.55, 1.85, 5.06, 6.77, 4.76, 6.39, 9.31, 7.39, -1.99, 0.04, -7.8100000000000005, -7.22, -1.88, -3.43, 2.79, -1.18, -9.77, 0.69, 8.6, -7.4, 8.74, 7.79, 6.93, 7.45, 9.51, 1.13, -6.72, -9.73, 6.78, 0.19999999999999996, -5.95, 7.4399999999999995, -0.25, -10.62, -9.46, 3.01, -7.62, -4.14, -0.83, -9.51, -8.6, -10.91, -4.05, 7.1, 9.17, -0.32999999999999996, -9.76, -4.84, -6.3100000000000005, -5.33, -4.72], [-6.3, -4.49, -8.63, 7.45, 0.03, -3.5300000000000002, 5.82, 6.73, -1.92, -0.26, -0.12, 2.94, -8.81, 2.9699999999999998, -10.73, 8.7, 8.5, 6.91, -10.45, -6.78, -10.08, 3.98, 6.8, 8.44, 8.07, -4.99, -2.44, -0.19999999999999996, -5.06, -2.91, -2.95, -7.64, -0.46, 4.3100000000000005, -9.33, -5.84, 6.33, 7.77, 6.59, 4.25, 8.94, -1.56, 5.05, -4.78, 5.42, 7.99, 5.74, 1.27, -5.16, -0.86, 5.7, 6.96, 0.35, -2.16, 7.59, 2.71, -3.75, -1.1600000000000001, -1.02, 3.96, -3.61, 3.21, -5.69, 6.76, -5.95, 6.5, 7.2, 3.32, 1.69, 7.9399999999999995, 1.1, 5.61, 4.7, 4.07, -2.99, -5.9, 8.34, 8.37, 2.21, 7.25, -3.95, 2.31, 1.35, -4.69, -7.11, 3.75, 1.08, 6.21, 7.29, 5.79, -4.38, 3.82, -7.19, 8.18, -8.89, -1.49, 7.18, 7.3100000000000005, 8.14, 9.14, 2.33, 6.5, -8.16, -5.22, -4.65, 1.3, -9.4, -1.21, -3.52, -7.16, 4.46, 3.09, -1.4300000000000002, 1.35, 0.6, -4.51, -3.99, -0.78, -8.07, 3.0300000000000002, 8.19, -5.12, 7.8, -6.51, 0.05, 4.15, -10.36, -6.22, -1.6099999999999999, -7.69, -1.42, -0.10999999999999999, 6.44, 6.45, -4.82, 7.49, 6.38, -3.96, -8.05, 3.81, 1.56, 3.15, 6.89, 0.42, -5.29, 5.78, 8.07, -3.39, 7.38, 6.66, -7.22, -7.81, 3.42, -9.17, 9.32, -6.47, 0.51, -5.61, -0.95, -7.69, -8.12, -8.12, -3.17, -3.86, -1.5899999999999999, -9.15, -4.3100000000000005, -4.03, 2.56, 7.36, 6.28, -7.6899999999999995, 1.02, 9.04, -4.52, -9.84, -5.82, 2.16, 8.9, -8.44, 1.1, 0.83, 6.78, 1.2, -6.03, 7.39, -10.29, -8.63, -4.39, -9.3, 0.24, -7.59, 6.88, 1.23, -5.27, 4.11, -0.48, -4.29, -5.93, -7.74, 4.25, -2.59, 2.51, 3.94, 2.61, 8.9, -4.33, -1.5699999999999998, 2.77, 6.77, -2.5, -4.04, 8.81, -8.07, -7.76, 6.68, -7.11, -0.07999999999999996, -4.88, 5.5600000000000005, -1.78, 0.52, -4.77, 2.65, -6.33, -6.89, -3.2, -5.33, -7.35, -2.22, -2.54, -4.7, 9.66, 4.66, 0.14, 2.56, -8.67, -10.28, 6.97, 3.63, 7.37, -8.94, -9.4, -6.11, -7.53, -10.79, -5.46, 6.41, 4.9, -5.82, -4.65, -0.32, -7.84, 7.75, -8.95, 8.83, -6.07, -0.55, 2.92, 5.9, -7.84, 7.09, 1.82, -5.31, -2.7, 1.29, -4.8, -0.86, 7.12, -10.53, -0.19999999999999996, -9.64, -4.72, 4.89, -5.03, 1.11, -5.51, -5.25, 9.11, -0.82, 5.83, 1.08, 0.95, -4.39, -6.73, 5.6, -9.17, -2.68, -4.33, 5.46, 6.88, 3.42, -5.82, 3.7, 2.5300000000000002, 1.02, -0.05, -10.88, -1.4300000000000002, -5.4, -9.56, -8.21, 8.67, 4.78, -1.51, -5.5, -7.07, -7.45, 3.2, -10.86, 8.45, -0.75, -6.04, -5.8, -4.57, 4.0, -1.73, 2.68, 7.97, 4.31, -0.06, -3.88, 1.06, -3.37, -8.44, 7.49, -5.81, -3.43, 0.32999999999999996, 6.74, -7.74, 5.67, 2.15, -0.28, -4.14, 3.37, -3.34, -1.49, 7.43, 7.51, 3.66, -0.78, -7.14, 0.21, 0.83, -7.36, -4.05, -0.33, -7.08, -2.73, 4.59, -6.5, -7.65, 6.64, -3.13, -9.29, 1.9300000000000002, -5.95, -7.82, -4.64, 6.27, 1.02, 8.3, -6.36, 1.4300000000000002, -8.74, 3.06, 6.76, -3.83, -0.23, -4.44, -2.97, -8.09, -8.81, -2.62, -6.98, 1.32, -4.2, -3.31, -8.55, -1.47, -0.56, -9.95, -1.31, -1.83, -4.23, -3.46, -10.02, 5.3, 5.88, 0.85, -10.99, -0.23, -1.53, 2.39, -3.59, -4.68, 1.6, 8.65, -5.78, -4.74, -7.86, 9.32, -7.48, -8.84, 4.66, 7.29, -5.84, 5.54, -0.31999999999999995, -5.41, -1.38, -5.02, -1.11, 3.82, -9.2, 6.65, -10.29, -5.97, -1.1, 8.77, 7.15, -0.37, 1.8, 5.26, -10.42, -4.58, -2.05, 0.6699999999999999, -9.25, 4.65, -6.01, -2.41, 5.81, 6.37, 0.59, 4.12, 5.83, 2.18, 1.87, -3.27, 3.56, -4.96, -1.1099999999999999, -2.94, -8.32, -10.21, -9.14, 6.97, -5.79, 7.36, -7.13, 1.83, 3.87, -9.17, 1.22, -5.17, -4.94, 3.85, -4.4, 6.78, 2.38, 6.62, 4.3, -0.040000000000000036, -9.02, 7.98, 3.74, -2.45, 9.62, -2.65, 8.58, -6.15, -1.25, 8.51, -7.5, -2.49, -8.19, -6.29, 6.95, 0.23, -4.82, 2.85, 2.19, -4.25, 1.66, -1.19, 4.01, -9.35, -9.1, -2.5300000000000002, -2.7, -0.55, -3.82, -6.61, 7.28, 7.49, 6.51, 4.68, 2.15, -4.17, -0.41, 5.58, 5.31, 1.1099999999999999, 0.75, 9.46, -7.31, 2.51, -5.36, -10.92, 6.15, -8.36, 7.49, 9.74, 7.75, 1.71, 2.37, -6.14, -0.38, -2.04, 7.14, -2.79, -3.2199999999999998, -7.22, -3.26, 1.88, 4.65, 1.65, -8.93, -7.61, -4.63, 0.43, -2.37, 6.36, 1.56, 8.18, -10.82, -8.3, -5.94, 3.5300000000000002, -0.36, 0.8200000000000001, -0.42, 9.54, -5.72, 2.08, 7.25, -7.69, 7.21, -9.61, -1.29, -6.65, -5.7, -5.76, -2.12, -7.31, -7.77, -5.99, 6.98, -9.69, 7.52, -3.89, -5.77, -6.92, 4.25, 8.98, 1.88, 4.02, -4.86, -2.27, 7.86, 3.74, 4.28, -2.94, -0.15, 3.86, -6.21, -3.41, 4.32, -1.88, 1.42, -0.17000000000000004, -6.96, 6.33, -9.31, -1.49, 8.27, -6.69, -3.13, 3.0, -5.0, -6.49, -4.65, -5.81, -0.36, 5.0, -10.4, -9.28, 5.41, 2.31, -8.39, 4.13, -5.77, 6.65, 8.85, -2.88, 2.77, -4.41, 7.09, -3.13, 5.55, -8.73, 2.66, -5.82, 3.34, 2.37, -6.56, 6.85, 5.97, 2.77, -4.5, -10.78, -9.45, 2.39, -4.6, -0.34, -2.54, 8.24, -7.84, 7.74, 0.59, -1.79, -6.71, -9.2, 2.24, 0.81, -2.91, -4.95, 3.52, -5.59, -9.3, 9.5, -7.41, 1.6400000000000001, 5.73, -10.38, -7.61, -4.66, -5.28, -6.66, -1.6400000000000001, -6.54, -7.07, -10.98, -4.82, 7.36, 3.88, 8.8, 7.78, -3.59, 3.82, -5.0600000000000005, 9.76, -7.62, 4.29, 8.44, 1.01, -9.28, 9.68, -7.62, 4.53, -3.8, -5.63, 4.82, -5.02, 0.010000000000000009, -10.44, -9.54, 1.33, -0.54, 9.21, -0.97, -2.27, -10.07, 8.82, 5.78, 5.16, -8.09, -0.08, 3.94, -10.82, -6.4399999999999995, 2.51, -0.74, -2.61, 8.41, -3.92, -3.37, -7.96, 0.76, -6.52, -8.12, 5.14, 8.98, -7.32, 5.92, 1.62, -2.45, 8.02, 2.2, -0.39, 8.65, -3.83, -0.95, 2.97, 9.41, 0.5700000000000001, 2.01, -7.95, -7.82, -6.54, -8.98, 8.79, -5.79, -8.05, 2.8, -4.0600000000000005, -3.79, 0.99, 1.5899999999999999, -6.78, 0.47, 2.2, 6.88, -6.37, -3.16, 0.25, -8.92, 2.77, -1.59, -8.67, -8.43, 3.11, 4.98, -6.47, 1.0, 5.09, 0.07999999999999996, 8.54, 5.96, 1.74, -0.6799999999999999, -3.38, 4.2, 5.55, 8.21, 8.54, 6.21, -8.73, -3.52, -3.17, 8.99, 4.62, 7.0600000000000005, 2.29, 0.97, 3.94, -9.11, 6.3, 4.66, 6.35, -10.71, -7.47, 0.32, -2.87, 0.31000000000000005, 2.32, -3.48, -6.39, -6.45, 5.26, 2.2, 0.5900000000000001], [-4.05, -1.91, -5.83, 3.5300000000000002, -2.62, -4.75, 4.31, 5.38, -0.11, -5.95, 4.62, -4.17, 9.13, 1.3900000000000001, 6.0, -7.85, 5.6, 7.55, -4.67, -8.69, 6.02, -9.71, 2.18, -9.06, 5.4, 4.37, 2.5, -4.41, -0.02, -8.46, 8.38, -4.46, -7.38, -4.61, 5.98, -6.44, -2.62, 8.8, -2.71, 4.11, -7.13, -0.41000000000000003, 4.72, 9.16, 6.37, 7.63, -4.4399999999999995, -5.93, -5.9399999999999995, 2.61, -7.1, -4.62, -8.92, -3.2, 3.32, 9.27, -10.91, 8.72, 8.24, 4.76, -3.77, -1.74, 8.01, -5.06, 4.1899999999999995, 0.69, 3.63, -2.66, 6.51, -4.38, -6.22, -7.55, 3.51, -10.51, -0.86, 1.9, 7.33, -1.05, -8.57, 7.76, 0.45, -9.7, 0.86, 6.25, 0.05, -9.3, -1.87, 0.31000000000000005, 1.29, -3.18, 3.17, -4.37, -5.54, 5.52, 8.76, 4.26, -3.17, -2.81, 5.7, 3.66, 3.54, -1.88, -5.5600000000000005, 6.27, -5.14, -5.41, 0.88, 1.75, -6.12, -1.69, 8.58, 4.63, 8.64, 7.73, -9.95, -5.05, -3.63, 6.8100000000000005, -7.6, 7.13, -2.32, -3.7800000000000002, -6.68, 3.84, -2.88, -8.67, -2.39, -4.24, -1.8399999999999999, -7.8, 3.32, 5.5, 7.03, 9.87, 2.7199999999999998, -8.21, 2.32, 2.13, -0.42, -5.49, -5.39, 7.27, -1.35, -3.61, 6.68, 8.86, 0.8, 9.88, 8.71, -7.39, 8.77, 7.48, 9.07, -1.1400000000000001, -4.04, -11.0, -5.71, -2.06, -1.85, -0.33, -6.26, -2.23, -0.02, -9.9, -1.19, -6.15, 8.44, 3.88, -5.37, -8.54, 2.82, 1.21, 0.52, -6.29, 3.94, 3.59, -8.73, -2.63, -2.02, -10.16, -4.13, 8.6, 6.78, -0.81, -6.97, -3.05, 3.46, -1.8, 2.73, 2.34, -7.64, 4.84, 7.26, 3.15, -9.75, 8.14, -9.89, 8.62, 5.4399999999999995, 8.19, 9.66, -6.9, -10.02, 7.38, -6.73, 5.88, -0.79, -6.55, 4.05, -4.61, 6.41, -9.83, 1.52, -3.9, -7.15, 6.89, 1.78, 8.18, 6.7, 9.23, 2.21, -7.13, -7.61, -0.5, 4.35, 1.6800000000000002, -4.89, 5.23, 6.99, -10.03, 8.13, 1.38, -3.83, -1.76, -5.24, -3.88, 4.1, -2.62, -2.21, 6.82, -4.33, -5.16, -7.76, 0.95, -7.71, -3.63, 6.25, 5.97, -7.81, 1.76, 2.73, -9.9, -0.13, -0.71, -6.31, 3.96, 8.05, -6.4399999999999995, 6.25, 8.25, -2.73, -2.64, -5.04, 8.97, -2.9, -5.39, 6.91, -7.57, 3.32, 4.51, 6.93, 6.41, -2.52, 3.58, 7.75, -2.19, -1.35, -0.78, 6.59, -0.44, -8.96, -3.33, -0.49, 1.45, 2.04, 6.09, -10.72, -10.22, 1.81, -6.54, -3.38, -4.75, -5.18, 3.83, 3.29, -0.9, 6.13, -2.38, -10.99, -8.81, 0.23, -6.53, -8.4, -2.61, 3.32, -2.57, 7.76, -9.16, 5.37, 9.49, -6.98, -8.85, -6.12, -6.45, -7.3, 5.4, -4.42, -8.07, -0.77, 8.31, -3.76, 2.21, -1.42, 6.22, 7.83, 3.02, -4.46, -9.13, -9.34, -1.8599999999999999, 7.98, 7.26, -9.96, -7.02, 4.91, 8.32, 8.78, -9.85, 6.03, -6.66, 4.39, 5.53, -9.57, -6.61, 4.86, 3.7800000000000002, 0.29, -2.05, 4.83, -3.59, -4.14, 1.65, 4.27, -9.26, -0.010000000000000009, -6.79, 8.23, -8.08, 5.73, 9.01, -10.82, -0.47, -5.8100000000000005, 0.19, 5.3, 8.91, -2.0, -0.59, 4.62, -6.88, -5.57, 3.11, -9.2, 2.0300000000000002, 6.55, -7.06, 6.3, 5.77, -3.11, -5.25, -5.22, -4.41, -3.25, -2.58, 1.34, 5.99, 0.47, -1.0899999999999999, 5.41, 7.28, -1.6099999999999999, -7.12, 5.85, -9.84, -4.72, -9.56, -6.1899999999999995, 6.42, -7.91, 1.78, -4.75, 5.59, 8.53, -6.93, -6.4399999999999995, 6.54, -7.72, 5.68, 9.02, -10.3, -3.14, 6.92, -4.58, 1.05, -6.85, -7.11, -5.95, -7.43, 7.53, -1.72, -1.21, 9.89, -9.42, -8.22, 7.32, -8.33, -4.24, -4.6, 6.25, -2.85, 2.64, 8.61, -5.1899999999999995, 0.54, 5.83, 3.62, -9.14, -10.23, 0.18999999999999995, -0.8200000000000001, -3.58, -5.48, -6.03, 5.15, -4.43, -3.33, -4.34, 8.03, -3.29, 6.56, -10.94, -9.36, -10.7, -2.96, 0.82, -6.64, -9.82, -4.13, 5.07, -2.81, -8.91, 0.79, -9.42, -4.62, 6.14, -3.0300000000000002, 1.6099999999999999, 1.27, -0.25, 1.92, 2.07, 0.73, -5.85, 2.06, -0.1, 4.39, -3.4699999999999998, 1.04, 2.45, 3.51, 2.96, -8.69, -7.1, -7.54, 3.95, -4.66, -2.42, 3.13, -8.0, 0.15000000000000002, -4.1899999999999995, 7.14, -8.59, 8.06, 3.44, 2.11, 6.22, 6.21, 0.35, 7.86, -6.41, 1.8199999999999998, -0.7, 5.47, -2.42, -1.58, -3.6, -5.13, 7.95, -7.25, -6.98, 8.14, 9.62, -2.54, -6.08, 9.24, -10.16, -1.41, -10.8, -10.19, -7.6, 5.75, 1.96, -0.93, -4.42, 6.8100000000000005, -5.96, 3.11, -6.74, -4.59, 0.16, -10.07, 6.01, -4.89, 8.77, -1.0, 1.18, -0.79, -5.21, 0.92, -4.54, 2.27, -2.58, -5.14, -9.96, -0.58, -8.93, 1.31, -7.87, 2.1, -0.52, 4.65, -4.47, -9.96, 8.88, -4.37, 2.79, 1.22, 3.7, -0.93, -9.25, -0.5, 5.17, 3.27, -0.22999999999999998, 1.99, -3.18, 1.05, 8.18, 3.12, -1.22, -1.75, 4.44, 3.64, 0.91, -3.2800000000000002, -8.46, 9.46, 4.64, -0.5800000000000001, -1.78, -0.52, -1.32, 2.99, -9.62, 2.56, 6.86, -6.41, 3.76, 0.21999999999999997, 4.78, 5.38, -10.21, 5.4, -7.33, -5.31, 9.8, 5.71, 6.97, -2.2, 3.69, -2.55, -9.57, 4.78, -7.11, -8.43, -4.72, -9.17, 9.01, -8.28, 2.52, -3.02, 1.35, -4.06, -6.63, 5.1, -2.45, 0.72, -3.4, 1.59, -4.79, 2.17, -7.1, 6.77, -9.76, 3.38, 7.63, -9.47, -0.28, 4.5600000000000005, -6.75, 0.23, 3.45, -2.76, -3.1, 2.11, -5.82, -7.62, 7.16, 6.08, 2.86, -8.76, 8.51, 8.95, 6.8, 1.38, 6.56, 5.28, 3.24, -7.48, -2.86, -6.62, -1.3399999999999999, 0.5700000000000001, -5.71, 5.45, 3.37, 3.57, 6.72, -4.25, 1.45, 4.22, -4.16, -9.5, 0.04, -7.44, -2.74, -8.32, -1.99, 9.04, -3.33, -2.49, 1.1600000000000001, 2.29, -0.5700000000000001, 0.4, -6.33, 3.64, -3.24, 6.39, -6.87, 5.56, -3.06, 1.13, -7.01, -3.4699999999999998, -5.62, -7.52, 1.58, -9.42, 2.2, 7.45, 5.53, 4.32, -7.79, -0.95, 7.92, -9.51, -7.0600000000000005, -0.85, -5.57, 6.21, 4.14, -3.93, 9.23, 1.17, -2.07, 9.11, -2.54, -7.67, -0.19999999999999996, 1.67, -7.54, 6.28, -3.46, 8.95, -0.81, -2.29, 6.57, -3.78, 9.06, -6.93, 5.84, -5.6899999999999995, 4.17, 0.02, 3.25, -1.9, 3.81, -1.79, -7.45, -1.06, 7.54, 8.26, -8.39, -9.87, 5.9399999999999995, 0.8200000000000001, 1.99, -2.81, 8.95, 4.1, -0.76, -3.6, 5.76, -5.63, -6.5, -0.21999999999999997, 1.81, 7.84, 0.94, 7.76, -9.74, -2.32, -4.03, -9.44, -10.41, -4.63, -2.32, -2.5, -5.07, -0.79, -3.23, -4.66, -3.0, -0.35, -0.09999999999999998, 3.51, -2.62, 6.42, 0.63, 8.85, -5.54, 5.88, -3.58, 5.21, 4.45, -0.010000000000000009, 1.6800000000000002, 5.13, 5.8, -1.98, 7.04, -6.84], [-9.63, -2.48, -7.09, -3.48, -2.41, 5.23, -6.67, -0.08999999999999997, 8.78, -2.7199999999999998, -7.02, -1.66, 5.2, 7.1, -10.11, -1.08, -8.73, -8.15, -1.72, 9.41, 8.13, -4.18, -2.52, 5.42, 0.94, 3.7800000000000002, -1.02, -7.55, 2.03, 5.9399999999999995, -6.14, 6.34, 0.6, -3.76, 1.76, 8.74, 4.42, -10.88, -9.88, -0.27, -8.27, 5.63, 4.46, 1.88, 6.43, 1.42, 7.41, 4.03, 4.35, 5.84, 5.23, -8.23, -9.12, 7.13, 4.5600000000000005, 6.19, -4.39, 4.62, -4.24, -6.9399999999999995, 1.05, 0.02, -10.39, 2.11, 8.73, -3.27, 7.53, -8.08, 0.16000000000000003, 2.19, -10.24, -4.27, -4.81, 1.87, 7.54, -5.61, -4.79, 6.36, -5.41, -5.63, -8.46, 2.06, 2.11, 8.94, 2.16, -3.58, 0.15, -9.33, -6.5600000000000005, 1.52, -1.3599999999999999, 6.34, -10.49, 5.83, 3.24, 7.93, -10.24, -3.96, 6.03, -9.73, -8.57, 3.71, -0.07, -3.55, -5.35, 8.31, 5.95, -9.38, 9.19, -3.75, 6.49, 5.01, -6.2, 0.9299999999999999, -9.61, 7.72, 8.19, 5.99, 6.55, -1.04, 0.16000000000000003, 9.92, -9.16, 0.76, -4.38, 7.12, -6.24, 1.97, 6.15, 7.76, -4.73, 3.56, -1.37, 6.81, 2.43, 7.4, 5.95, -2.36, 5.56, 3.33, -1.92, -1.45, -2.94, -4.68, -3.46, -0.29000000000000004, 4.46, -1.68, 0.6699999999999999, 5.5, 8.15, 3.57, -5.38, 9.39, 3.84, -3.74, 6.47, 1.06, -9.3, 0.0, -8.59, -9.49, -6.6, -7.3, 1.79, 6.4399999999999995, 8.48, 2.2199999999999998, -8.32, 4.4399999999999995, -4.39, -0.54, 1.59, 4.16, -5.2, 9.84, 2.81, -3.96, 6.84, 3.95, 2.51, 5.3, 1.53, 6.96, 7.35, -5.02, 7.04, 5.58, -8.75, 5.14, -6.29, -9.4, -10.83, -7.55, 5.39, 5.09, 3.77, 0.28, -0.84, 4.48, 3.98, -2.24, 2.64, -6.41, 3.66, 6.35, 1.37, 3.14, -7.75, -5.02, -0.78, 1.63, -1.01, 5.77, -1.7, 7.38, 3.08, -1.44, 6.85, -2.32, 0.51, 8.77, -2.4, -3.62, 1.44, 8.39, 1.51, 2.71, 1.8, 1.27, -2.7199999999999998, -6.64, -5.56, -2.02, -1.28, -10.06, -7.41, -5.53, -8.74, 2.95, 4.15, -1.1, -10.91, 0.45, 6.95, 9.59, 8.29, -4.06, 2.43, -3.2, -1.1, -3.58, -0.56, -2.14, -1.08, 1.12, 3.38, -6.78, -10.83, 4.27, 5.38, -4.22, -3.05, -0.52, -6.29, -1.94, -5.5, -7.98, -9.74, 0.0, -5.76, 6.72, 0.8200000000000001, -8.71, -3.01, 0.88, 7.26, 0.53, -3.06, -7.1899999999999995, -6.14, 4.28, -3.5, -7.71, -6.11, 6.48, -1.83, 2.2, -2.17, 9.73, 0.98, -1.4, 0.19, 4.59, -9.32, 8.02, 0.23, 1.12, -3.02, 3.13, 6.93, 8.69, -8.41, 7.09, 9.75, -8.61, 5.3100000000000005, -0.39, -1.48, 1.26, 6.78, -8.19, -1.46, 8.61, 8.23, 7.98, -2.0, -10.66, 9.95, -4.01, 7.91, -5.1899999999999995, -9.42, -2.3, 0.040000000000000036, -3.38, -4.33, -7.3, 2.05, -1.28, -5.92, -0.76, 6.3, -0.31, 2.56, -7.69, -3.93, -1.51, -8.2, 2.92, 3.45, -3.98, -3.09, 5.68, 5.05, 9.99, -0.62, 2.25, 1.75, 8.34, -7.02, 4.37, 7.88, -6.91, -0.06999999999999995, 2.64, 9.58, 5.19, 1.9, -1.8599999999999999, -6.49, -5.51, 4.5600000000000005, 0.69, -0.28, 3.63, 8.74, -0.96, -8.94, 5.46, -6.08, -10.9, -9.28, 5.0, -9.71, 6.9, 6.1, 8.19, 0.1, 3.54, 2.96, 4.57, -1.3, 3.52, -3.37, 7.12, -6.72, -5.6, -1.08, -9.78, 5.07, 8.24, 8.27, -5.75, -4.8, 8.96, 6.11, 8.72, 1.52, -6.54, -6.08, -4.91, -6.5600000000000005, -8.83, 0.22999999999999998, -10.64, -5.12, -6.66, 2.71, 0.98, 2.21, -5.3, 8.39, 2.63, 3.62, -0.75, 1.06, -6.13, -4.15, -2.26, -1.9, -5.41, -0.23, -6.64, 8.05, 0.08999999999999997, 7.92, 2.27, 7.82, 8.9, 4.94, -9.36, 5.12, -9.98, -5.4, -5.35, 4.17, 5.59, -6.7, -0.64, -0.98, 8.74, -2.2, -5.87, 5.13, -4.55, -1.3599999999999999, -3.27, -7.4, -9.81, 3.0300000000000002, -9.94, 9.93, 2.4, -10.58, -7.67, 8.61, -2.41, 4.57, 7.97, -9.2, -5.57, -8.72, -2.12, -1.38, -5.84, 7.32, 8.73, 4.36, -1.77, 5.02, 3.31, -7.7, -6.1, 5.9399999999999995, 3.69, 7.32, 8.4, 6.68, -1.6400000000000001, -1.23, 7.15, 4.2, 1.54, -2.89, -2.65, -8.34, -1.24, 8.7, -0.98, 6.79, 3.39, -8.36, -6.22, -2.58, 2.07, -8.53, -0.41, -6.48, 0.92, -9.57, 2.63, 5.38, -5.52, 6.55, 2.29, 1.97, -10.47, -4.65, 7.92, 5.11, 3.81, -9.31, 7.3100000000000005, 0.18000000000000005, -8.64, 8.14, -0.56, -8.37, 8.86, -6.26, -8.51, -3.17, 8.19, -8.59, -1.69, 9.56, 8.57, 6.37, -8.53, 7.7, -2.99, -2.61, -6.55, 7.53, -3.2800000000000002, 3.95, -9.03, 4.72, 2.19, 5.87, -8.29, -1.19, 1.52, -1.99, 0.62, -9.1, -8.64, 4.43, 1.37, 7.12, 6.81, 1.8599999999999999, 7.46, -4.63, 1.5, -9.03, -3.01, 0.43999999999999995, 2.67, -0.63, 7.21, -4.51, -9.07, -5.01, 0.77, -10.17, 9.59, -1.87, -1.4, -5.97, 6.91, 3.03, -2.83, -0.33, -1.71, -6.96, 2.31, 8.76, -2.02, 1.09, -9.99, -1.68, -6.54, -2.29, -4.12, -7.4, 5.72, -8.99, 9.29, -9.47, -6.06, -10.99, -5.05, -5.92, 2.63, 7.1, -7.59, 7.34, -4.72, -5.54, -4.34, 9.13, -1.71, 2.86, -8.51, 0.24, -0.53, -4.12, -0.46, -6.47, -2.17, -3.42, -3.02, 3.23, 5.78, -7.22, 8.11, 6.68, 4.01, 7.61, -2.2800000000000002, -8.52, 9.82, 8.74, -3.56, -10.71, 7.59, -8.75, -2.75, -5.38, -3.43, 0.17000000000000004, 1.1, 2.99, -7.99, -8.68, 4.93, 0.84, 2.66, 2.95, -8.53, -5.59, -3.89, 5.73, 3.24, -2.23, -0.91, -9.89, 3.8, -1.24, 1.6400000000000001, 2.7, 2.41, -4.61, -3.06, 4.23, -9.85, 7.8100000000000005, -9.59, -6.28, 3.98, -1.73, 3.83, -6.51, -1.83, -4.96, 8.18, 8.07, -3.62, 9.93, -6.41, 2.45, -0.6, -9.55, -4.09, -1.41, 4.37, 1.65, -0.6699999999999999, -3.4699999999999998, -5.1, 0.18, 4.22, 0.9, -9.28, -3.05, -5.11, -0.43000000000000005, -5.66, 6.19, -10.03, -0.97, 4.61, -4.83, -8.25, -1.8199999999999998, -4.21, -9.48, -1.46, 9.84, -6.61, 1.4, 5.07, -0.21, -7.89, -9.68, -9.36, -0.56, 3.56, 0.7, -5.62, -3.06, 8.03, 4.1, 0.96, 5.5600000000000005, -1.54, 9.11, -10.33, 5.08, -0.35, 6.85, -9.87, -0.79, -5.61, 5.71, 2.61, 5.15, -3.4, 8.26, 3.62, -10.65, -7.85, 7.84, -3.42, 3.99, -8.47, 5.18, 7.33, 0.63, -1.76, 2.02, -6.44, 1.6, 8.76, 0.4, 8.44, 4.36, -1.94, -3.48, -10.99, -0.22, -9.06, -1.84, -3.66, -0.52, -4.03, 9.14, -0.85, -7.22, -0.5, 8.31, -2.96, 0.43999999999999995, 5.06, -3.02, 8.92, 8.9, -8.78, -9.93, -0.22, -3.37, 2.05, -10.41, 0.5700000000000001, -5.32, -2.74, 1.16, -1.15, -7.03, -4.33, -5.65, -3.32], [6.63, 5.71, -2.12, 3.91, 2.91, -5.3, -0.29, -2.16, 8.64, 5.21, 8.02, 9.56, 3.05, 6.38, 8.78, 1.8, 0.8, 6.26, 2.88, 2.7199999999999998, 0.14, 2.98, 3.82, 1.35, -6.32, -6.32, 7.35, -9.1, -2.42, -0.21999999999999997, -0.32999999999999996, -10.75, 1.19, 9.05, -0.63, 3.0300000000000002, -3.27, 2.7199999999999998, 8.87, -3.21, -5.42, 1.87, -6.21, -1.45, -4.8100000000000005, -2.48, -4.83, -3.63, -9.15, 8.51, -2.21, -6.05, -8.89, -4.67, -7.94, -4.52, -9.5, 1.33, 6.08, 8.38, -8.89, 8.62, -9.53, -10.7, 6.89, 1.46, -0.7, 8.58, 9.21, -5.98, 0.07, 4.9399999999999995, 4.6899999999999995, 4.03, -7.97, 2.34, 8.13, 2.6, -4.68, -0.86, -3.65, -5.97, 3.59, -9.75, 5.1899999999999995, -2.48, 6.24, -2.84, -3.41, -9.72, 0.85, 9.06, 9.86, 9.19, -4.97, 2.1, 3.68, -1.22, 4.27, -0.53, 4.92, 1.93, 8.13, 0.56, 5.53, -4.02, -5.18, 0.5900000000000001, 4.74, 7.36, 5.16, -0.17, -10.0, 2.99, 6.37, -0.84, 9.2, -2.27, 1.69, -10.87, 7.08, -3.33, -9.72, 5.1, -8.02, -3.9, -4.85, 5.62, 2.89, -8.76, -7.92, 4.02, -8.92, 3.48, -3.63, 8.92, -7.99, -5.85, 4.6, -8.43, -5.63, -5.14, -3.19, 4.9, -8.45, -5.55, 8.1, 1.6099999999999999, -7.59, -3.84, -8.7, -2.95, -9.02, 0.82, 6.31, -6.12, -8.86, 5.91, -9.42, 1.63, -2.58, 4.92, 9.63, -5.82, -7.84, 5.92, 0.31999999999999995, 1.8599999999999999, 5.96, 6.41, 6.92, 4.65, 3.7, -6.91, 1.76, -4.51, 8.09, 6.21, 3.2, -0.85, 6.31, 6.3, -2.71, -9.14, -3.15, 6.21, -0.06000000000000005, 5.82, 5.39, 0.75, -4.1899999999999995, -4.68, 8.54, -2.48, -7.04, -2.88, 8.01, 8.89, 0.09999999999999998, -7.53, -2.7, 9.98, -10.05, -7.06, 7.75, -3.4, 2.09, 0.14, -1.8599999999999999, 4.75, 0.32999999999999996, -3.14, -4.35, 3.7199999999999998, -5.52, -7.15, -2.85, -9.72, 3.29, -9.77, -0.11, -9.94, -8.23, -2.18, -0.93, -2.27, -6.54, 0.92, -5.49, 7.52, 7.06, -5.38, -0.71, 6.69, -0.09, 2.06, 1.1800000000000002, -4.5, 1.1, 0.9, 1.84, 3.8, 8.87, -9.04, -6.67, 1.98, -5.59, 5.47, 7.63, -3.05, 3.25, 0.65, 2.6, -1.5699999999999998, 1.13, 7.32, 9.3, 4.46, -7.18, -0.77, -1.17, 0.42, -2.09, -1.5, -4.87, 8.46, 1.79, -7.02, -7.64, 2.35, -8.4, -9.58, 2.88, -6.59, 1.46, -2.4, 6.06, -6.28, -10.78, 2.08, -7.48, -6.27, -5.6, -3.95, -2.62, -0.8, -0.21999999999999997, -8.89, -6.03, 2.56, 7.25, -10.74, -1.97, 0.67, 7.88, -8.25, 6.99, -9.8, 2.67, 6.0600000000000005, -1.3, 8.54, 0.89, -7.2, -8.92, 5.47, -6.45, -10.63, 3.77, 8.44, -8.76, -3.8, -3.96, 2.06, -7.5, -9.79, 1.28, 8.9, 2.13, 1.58, 8.12, -10.24, 3.14, -4.08, -0.6599999999999999, -0.54, -0.06000000000000005, 2.32, 1.45, 1.74, -2.13, -7.27, -2.33, -2.88, -6.07, 5.6, -1.09, -6.77, 2.15, 8.28, 1.73, 3.52, -6.1899999999999995, 8.48, -6.99, 6.74, -10.1, 7.6, -3.43, 0.99, 6.51, -3.71, -4.91, 6.39, -1.45, 3.5, 9.66, -10.55, 8.59, -9.08, 7.38, -2.74, 2.06, 1.72, -6.65, 1.51, -8.47, 0.4, -1.6, -1.48, 4.27, -8.56, 7.59, 4.73, 7.18, 4.36, -8.47, -7.26, 7.01, 1.78, -3.38, -4.05, 0.31, 2.98, -6.99, 4.61, 6.02, -5.85, 1.41, -5.89, 4.26, -3.86, -1.41, -5.09, 2.5300000000000002, -5.09, 4.17, 6.41, 7.79, -1.88, -1.79, -6.3100000000000005, 2.56, -0.92, 6.42, -0.91, -0.47, 9.01, 1.17, -3.7199999999999998, 4.86, -10.45, -4.91, 4.28, -1.49, 4.66, 4.59, -8.44, -8.24, 7.89, 2.14, 5.56, 6.11, -0.43, -0.62, 7.05, -7.91, 7.0, -2.02, -7.66, -9.79, -2.57, 2.23, -4.47, -8.75, -0.86, 6.0, 6.0, 2.24, 4.35, 2.23, 8.63, 0.8, -6.21, 6.67, 5.58, -6.38, 7.65, 5.38, -1.0899999999999999, 3.43, 7.02, 4.95, -0.39, -7.2, 4.85, -8.85, 0.43999999999999995, 3.04, -6.21, -5.55, 2.3, -0.62, 3.09, -1.83, 1.0, -8.78, -7.53, -3.2, -5.03, 5.08, 0.94, -8.22, 0.52, -3.55, 8.1, 2.71, -7.57, 8.48, 8.27, 9.51, -8.8, 1.52, 1.63, 6.46, -8.96, 1.84, 8.79, -3.67, -3.45, -4.7, 2.92, 5.05, 0.74, -9.63, -6.46, -4.15, -7.25, -5.99, -8.5, -9.91, -2.05, -10.07, -1.99, -7.6, -0.56, 4.46, -6.55, -10.59, -2.08, -3.5300000000000002, -2.95, 1.18, -1.99, -7.99, 8.76, -7.92, -5.02, -3.52, -4.99, -8.04, 7.16, -2.87, -0.43999999999999995, -2.68, -3.07, -8.73, -1.96, 0.92, -3.5300000000000002, -1.3399999999999999, -4.58, -4.01, 1.19, 2.31, -3.11, -4.93, 7.02, 5.15, -5.19, -8.11, -5.69, -7.6, 7.49, -8.69, -10.07, -0.13, -4.89, 0.68, -9.72, 1.9, 1.85, 0.77, 3.76, -2.34, 1.33, 6.62, -9.4, 9.62, -10.12, -6.33, 1.83, -8.64, 4.64, 8.94, 5.46, -0.020000000000000018, -2.99, -2.16, 4.25, 7.21, -1.29, 3.39, 9.05, 8.23, 4.63, 1.0, -7.37, 3.79, -8.33, -9.34, -3.03, -3.33, -6.97, -6.51, 9.92, -4.39, -4.75, 2.74, -5.65, -0.3, 6.96, 2.2800000000000002, -6.25, -0.62, -10.57, 3.73, 8.27, 0.85, -0.39, -8.55, -4.27, -2.38, -6.55, -5.72, 4.91, -8.03, -5.54, -7.04, -8.71, -1.9300000000000002, -7.05, 5.8100000000000005, 1.38, 0.96, 2.88, 0.76, -8.34, -4.48, -2.03, -10.92, 8.84, -4.65, 8.97, 1.1, 1.84, 8.94, 3.2800000000000002, 5.1, -4.87, -7.53, -4.24, 0.09, -8.24, 2.15, 0.89, 6.15, 5.28, -2.88, 8.17, 3.22, 3.23, 6.89, -4.86, 0.53, 4.75, 2.3, 0.29, -1.2, 7.29, -1.11, -5.89, 6.25, -8.12, 3.1, 5.4, 6.2, 0.08999999999999997, 1.18, -10.36, 3.61, 4.65, -2.9699999999999998, -3.69, 5.39, -1.89, -9.1, 6.66, 4.9, 5.78, 3.19, -8.28, 3.89, -8.67, 0.30000000000000004, -3.51, 7.71, -8.43, 7.51, 6.75, -8.7, 7.33, -6.92, -4.04, 8.81, -0.76, 5.11, -7.14, 5.53, -0.44999999999999996, 6.24, -8.59, -8.95, 9.48, 5.01, -9.59, -1.23, 7.66, -6.3, -2.18, -6.33, 3.2800000000000002, -5.57, -1.41, -7.91, 6.15, 4.13, -9.91, -0.16, -1.35, -4.62, 1.21, -9.02, -0.77, 5.97, -5.86, -9.05, 8.14, -8.11, -2.08, -1.38, 6.15, 3.45, -9.67, 7.99, 4.86, -3.99, -10.63, -6.48, -3.41, 7.65, 8.37, -9.45, 2.96, -8.97, 6.56, -4.16, 1.03, -3.76, -9.65, 4.45, 8.83, 6.8, 3.89, -7.38, -6.75, -5.4, -2.86, -3.08, 5.25, -7.14, -0.5800000000000001, 3.26, 7.27, -4.99, 4.49, -7.05, -9.46, -3.94, -9.21, 3.65, -5.42, 7.96, 3.2, 6.66, -2.94, 6.82, -6.8, 0.54, 3.05, 4.22, 7.19, -0.49, 5.7, 7.48, 0.73, -5.68, 4.03, 4.32, -7.61, 0.12, -2.0, 1.3, -4.32], [7.71, -9.38, 8.81, -0.35, 0.98, 8.58, -7.92, -7.71, 2.35, -9.33, 0.29, -2.07, -3.71, -5.2, 3.29, -0.050000000000000044, 5.79, -5.35, 8.07, 3.49, -7.88, 8.27, -8.3, -1.35, -0.11, -3.88, -0.21999999999999997, 3.2, 5.15, -3.59, 4.03, 0.8, 6.23, 4.51, -5.32, -9.42, -5.55, 0.51, 3.08, -3.64, -1.45, 7.47, -10.01, -5.81, -10.78, 3.2, 8.46, 4.26, -3.38, 4.26, -10.28, 1.28, 0.36, 8.66, 2.45, 8.21, 2.9, -5.59, 7.37, 1.77, 5.68, 4.61, -6.44, 6.04, 0.22999999999999998, -4.5, 0.5700000000000001, -2.89, 9.94, 4.35, -0.11, 4.6899999999999995, -0.28, 0.29, -7.62, -3.73, -7.13, 3.57, -6.04, 6.83, 3.03, 6.6, 6.8, -1.6800000000000002, -4.6, -9.07, 4.78, 5.23, 6.48, 7.83, -10.46, 0.1, -9.07, -8.89, 4.4, 9.76, 4.31, -7.84, 1.04, 4.52, 3.79, 3.68, 3.08, 0.32, 7.96, 5.68, 0.06000000000000005, -8.93, -4.21, 8.53, 0.38, -1.12, -3.11, -8.78, -9.3, -5.91, -7.38, 4.81, 3.6, -8.04, -7.66, -4.74, 3.16, 8.88, -0.03, -0.27, -3.85, 1.3199999999999998, -0.73, 6.49, -2.25, 2.89, -0.95, -5.07, -4.03, 0.75, 7.64, 2.29, -5.1, -7.52, 5.9399999999999995, -6.65, 0.16000000000000003, 7.72, -10.62, -4.52, -1.76, 1.19, 1.92, 7.85, -8.62, 1.52, -0.48, -0.53, 2.07, 7.0, -6.81, 3.68, -2.68, -3.06, 1.25, 1.29, -5.8, 1.24, -6.35, -4.6, -5.08, -8.04, 0.94, 0.5, -9.86, -6.5, 5.99, -7.29, -7.28, -7.41, 7.66, -2.81, 6.19, 7.95, -4.35, 5.15, -0.82, 6.71, 4.17, -3.8, -6.36, 2.66, -7.37, 0.71, 3.24, 3.01, -5.63, 5.41, -9.33, 9.67, -3.42, 1.79, -8.02, 5.07, 4.02, -4.36, 3.27, 8.93, 6.91, -6.57, -4.95, 2.4699999999999998, -8.14, 1.4100000000000001, -3.4, -1.69, 2.67, -7.11, -3.08, 8.46, 9.52, 0.99, -8.77, 4.27, -0.58, 4.1, -6.45, 1.0699999999999998, -9.48, 1.07, -9.86, -9.97, 8.23, -7.4399999999999995, 8.33, -1.08, -5.54, 1.37, 7.28, 1.45, -7.77, -7.22, -3.79, 0.22, -8.61, -6.84, -1.05, 1.87, -2.3, 1.98, -7.5, -8.06, -4.33, 0.96, -9.9, -3.25, -5.53, 5.96, 1.46, 4.8, 3.73, 6.15, 8.94, 5.87, -1.56, -3.45, 4.14, -5.67, -6.33, -2.34, 7.65, 6.9, -5.37, -8.0, 0.83, 8.05, 6.71, 5.8100000000000005, -7.98, 1.96, 5.0, -9.59, 6.7, -3.95, -2.87, -5.01, -1.68, 1.6800000000000002, -9.49, -0.89, 5.17, -1.56, 3.67, 8.37, 6.64, 1.5, 2.21, -10.35, 8.73, -2.68, 2.81, -10.44, -0.32999999999999996, -3.87, 0.21999999999999997, -9.4, 5.1, -6.95, -1.81, 5.42, -8.38, -3.81, -2.4699999999999998, 6.89, -7.23, 3.21, 3.3, -8.77, 6.86, -0.4, -9.0, -9.57, -8.1, -7.9, -4.2, -0.54, -4.3100000000000005, -7.46, -3.46, -7.98, -0.6799999999999999, -6.17, -0.30000000000000004, -1.78, -7.49, 4.65, -3.64, -0.98, -10.14, -0.09, -4.39, -2.89, 5.59, 7.52, 1.62, -4.55, -7.3, 6.7, 1.77, -3.39, -2.99, 7.58, 5.91, -7.21, -4.3, -9.16, -3.65, -4.03, -8.64, -9.52, 3.71, 1.65, -6.47, 2.0, -8.84, 0.34, 1.05, 9.62, 9.07, -8.64, 0.030000000000000027, 3.37, 0.19999999999999996, -7.12, 3.07, 0.0, 0.5900000000000001, 4.24, -1.94, 3.3, -5.91, 5.24, 2.5300000000000002, -0.3, 6.24, -2.91, -4.16, 5.92, -8.53, 3.82, -4.08, -4.89, -1.5, -8.12, -8.08, -0.92, 5.63, -9.72, -1.48, -4.16, 7.53, 3.9, -4.46, 5.48, -9.4, 9.86, 2.6, -8.78, -7.5, 1.52, 2.61, 8.56, -3.13, -5.7, -7.96, 4.26, 5.26, -10.8, 9.35, 3.56, 3.78, -6.34, -3.89, 3.17, 1.24, -5.4, 7.35, -4.87, -2.12, 6.13, -6.97, 4.3, 0.13, 8.45, -5.36, 1.58, 4.71, -10.16, -2.52, -3.06, -9.23, -10.43, -0.64, 4.33, 6.93, 1.81, -8.74, -2.34, 3.9, 0.75, 0.78, -2.18, 1.43, 6.38, -0.86, 1.42, 2.29, 2.75, 2.32, 5.28, -6.23, -1.42, 1.78, -4.78, -10.99, 3.04, 4.75, -9.66, -0.98, -3.64, 3.66, 5.0600000000000005, 4.89, 6.83, 7.41, -7.61, 8.17, -6.67, 3.35, 8.59, -0.26, 3.49, -6.92, -6.03, 3.87, 1.5, -2.48, -3.9, -5.63, -6.35, -4.62, -2.9, 9.12, -4.51, 7.11, -0.01, -9.04, 4.89, -7.42, -7.4, 5.29, -1.22, -4.1, 0.87, 9.26, -3.64, -8.86, -6.99, 8.03, -0.09999999999999998, -4.35, 4.9, -9.91, -1.12, 6.6899999999999995, -0.82, -9.4, 8.65, -4.85, -2.7, 9.52, 5.83, -3.4, -8.16, -0.81, -9.7, -0.15000000000000002, -7.19, -2.17, -9.0, 7.76, -4.32, 0.9, 8.12, -1.65, 3.01, 9.66, 1.76, -4.83, 2.2800000000000002, 4.43, 5.4, 5.86, -8.54, 2.51, 0.8, -2.33, 3.36, 0.74, 6.27, -4.64, 2.32, -10.3, -0.32999999999999996, 4.36, 6.93, 6.19, -1.95, -4.87, -7.52, -2.37, 3.78, 0.77, 5.3100000000000005, -6.5, 8.85, 1.73, 6.82, -1.5699999999999998, -9.97, -0.48, 1.1400000000000001, -6.28, -0.56, -1.75, 7.5, -6.41, 2.79, -5.0, 6.09, -1.62, -6.36, -9.03, -2.36, -6.96, 0.050000000000000044, -8.03, 7.6, 7.03, -4.99, 1.1, 2.87, -4.59, 0.010000000000000009, -5.11, 7.01, 5.81, 4.31, -0.4, -7.77, -3.4699999999999998, -7.1, -8.89, 1.53, -4.72, 5.26, 8.23, 1.1099999999999999, 7.2, -10.2, -1.87, -4.65, -2.5, -2.57, -8.77, -3.88, 6.98, 4.94, -1.33, -1.13, -4.33, 8.17, 7.52, 4.63, 7.83, -0.53, 8.39, -1.4300000000000002, -9.4, 0.040000000000000036, 5.5600000000000005, -0.74, -4.0, -1.35, 3.19, 4.78, 6.77, 0.6, -7.34, -9.91, -6.6, 7.15, 3.89, -9.23, 7.35, 3.24, 0.87, -10.17, 5.12, -9.02, -4.0600000000000005, -1.58, -7.77, -3.57, 4.12, 9.45, 2.1, 2.33, 2.94, 9.87, -2.52, 3.38, -4.3100000000000005, 3.94, 5.46, -0.32999999999999996, -10.85, -7.6, -1.19, 6.38, 7.99, 5.52, -1.6400000000000001, 6.3, -8.05, 9.14, 8.58, -5.39, -2.84, 1.66, 3.82, 7.84, -4.3, 3.83, 6.01, -3.85, -8.05, -1.0899999999999999, -3.37, -0.83, 9.88, 7.15, -6.72, -6.99, -8.75, -4.3100000000000005, -6.65, -2.5, 1.07, -1.1, -6.34, -7.34, -8.3, -4.79, 6.06, -8.07, 2.06, 8.28, -7.4, -0.34, 7.26, -5.35, -6.43, -7.8100000000000005, 4.48, 7.49, -5.5600000000000005, -3.59, 7.12, 7.61, 7.76, 4.49, -4.76, 0.41, -5.34, -8.89, -0.2, 2.23, 1.95, 4.66, -3.9, 0.84, -8.7, -4.11, 3.8, -2.11, 6.02, 2.24, -5.57, -2.95, 4.9, -1.47, 8.68, -9.92, -6.74, -10.84, -6.45, 6.46, -9.61, -4.86, -1.66, -8.14, -9.94, 1.77, -2.82, 5.15, -6.58, 2.2199999999999998, 3.88, -8.81, -7.16, -5.13, 1.92, 5.1, 7.09, -9.9, 8.24, -7.8, -0.42, 4.82, 6.14, 5.87, -7.19, -5.26, -2.79, -4.25, -4.93, 8.16, -9.09, -10.01, -3.77, 1.1400000000000001, -7.7, 1.65, -3.0300000000000002, -1.38, 2.69, 0.07999999999999996], [-8.01, -9.55, 4.24, 2.62, 4.15, -7.09, -6.63, -4.04, 2.93, 9.92, -2.44, -1.32, -4.83, 2.1, -5.81, 4.55, 0.08999999999999997, 8.09, -1.8399999999999999, 2.6, 0.58, 7.52, 6.69, -2.42, -4.01, 1.83, -3.61, 6.87, 1.0, 4.16, -8.15, 3.31, 7.99, -0.65, 5.66, 7.26, 4.19, 2.38, 4.93, 7.81, 1.21, 1.0, -5.1, 9.51, -5.65, -8.81, 3.62, -7.23, 2.73, 9.24, -0.73, 8.89, 1.33, -3.37, 3.81, -2.87, 0.54, 4.07, -0.72, -10.61, 0.75, 4.23, 0.69, -9.66, 8.25, -9.12, 8.48, 8.56, -6.51, 0.41, 7.29, -1.8599999999999999, 7.83, -2.94, -4.8100000000000005, 6.25, -8.23, -10.46, 6.33, 3.21, 7.62, 1.17, -1.45, 3.61, -10.54, -7.55, -8.58, -5.68, -9.63, -7.1, -0.83, 3.8, -8.29, 1.22, -5.05, -9.74, -1.6400000000000001, 4.74, -6.66, 3.05, -8.08, 7.79, 2.3, 8.86, -0.51, -9.72, 8.72, 2.45, -1.6400000000000001, -9.94, -5.4399999999999995, 1.73, -0.79, -3.87, -2.66, -7.7, -0.77, 1.11, 4.56, 5.55, 8.14, -6.3100000000000005, -1.0, -8.66, -1.34, 2.32, 3.82, 0.77, 4.44, -8.16, -5.28, 9.92, 8.39, 0.62, -7.16, 4.32, -5.03, 0.2, -2.64, -9.86, -8.76, 4.06, 1.76, 4.95, -3.5, -8.88, 5.6899999999999995, 4.92, 4.34, -10.35, -1.33, -5.45, -2.88, 2.68, 9.5, -3.58, 5.15, 8.75, -10.11, -7.84, 0.67, 1.54, -8.88, 5.88, 0.040000000000000036, 5.65, 9.91, 9.61, 7.45, 3.51, 7.32, 5.74, -0.59, 2.66, -0.81, -8.14, -4.64, 4.03, 9.97, 0.54, 6.93, -1.3199999999999998, 2.74, 8.46, -4.27, 8.02, 7.35, 2.25, -1.97, -0.81, -5.29, -4.62, -1.78, -9.58, -4.53, 7.15, 6.83, -7.53, -8.39, 2.0, -2.39, -5.5600000000000005, 2.58, -9.37, -10.95, -9.83, 1.0, -10.93, 7.99, 2.3, 4.42, 7.41, 4.84, -0.31, -0.1, -9.44, 8.63, -2.38, -7.82, 6.18, 4.39, 8.33, -8.14, -1.9, -3.96, 4.34, -1.28, 2.32, -8.85, -10.89, 8.36, -3.63, -2.56, 6.1899999999999995, -3.44, -1.01, -0.74, 3.58, 2.96, -3.89, 8.38, -2.33, -4.39, -7.27, -9.3, 6.21, 4.3100000000000005, -0.94, 5.45, -7.11, -5.16, 2.57, 5.09, -4.57, -0.97, -10.86, 1.41, 4.1, -7.41, -1.79, 1.25, -9.96, 9.9, 7.82, -5.01, -6.95, -1.07, 5.4, -0.44, 6.2, -2.4, -6.41, 3.51, 4.02, 9.12, 9.45, 8.62, -2.23, -3.94, -4.62, 1.3399999999999999, -4.7, -4.03, -1.81, -10.23, -9.18, 8.18, 9.84, -6.51, 1.0, 3.57, -4.98, -5.82, -5.96, 4.08, 8.49, -3.57, 4.63, -2.73, 1.52, 2.29, 5.6899999999999995, -8.33, -2.9, 2.56, -6.88, -7.76, 8.89, 5.0, 6.3, -2.85, 0.88, 6.7, -8.58, -9.82, -5.9399999999999995, 2.38, -8.6, -7.81, -6.61, 0.71, 7.52, 4.73, -9.31, -1.4300000000000002, -6.29, 0.44999999999999996, 0.71, -8.31, -7.77, 8.59, -5.12, 7.08, 0.39, -8.67, -2.1, -9.23, -8.04, 2.69, 3.7199999999999998, -3.64, -2.45, -6.52, 0.19999999999999996, -5.65, -9.16, 0.91, -3.4, 7.88, -3.93, -7.66, -5.19, -6.93, -8.41, -5.83, 1.19, 7.09, 9.28, -1.13, 2.7, -6.29, -10.49, -0.9, -2.16, 0.3, -4.64, -1.13, 4.07, 0.64, 5.54, -2.9, 6.23, -10.27, -0.52, -10.0, 5.8, -9.78, -9.89, 7.35, 9.74, -7.54, -9.91, -5.88, 0.84, -5.39, 2.34, -9.52, 7.83, 7.62, 8.03, 2.88, 3.81, 0.98, 4.38, -7.5, -1.15, 7.21, -10.22, 0.25, -9.9, 3.84, -2.36, 4.62, 7.17, -4.28, 8.89, 8.05, -8.38, -8.89, 8.15, -6.71, 1.35, 8.02, 9.81, 9.07, -10.44, -5.38, -4.27, -6.39, 7.73, -2.29, -8.75, 7.48, 1.9100000000000001, 9.89, 8.28, -1.06, 3.6, -3.88, -1.32, 5.73, 7.47, -9.83, -1.53, -7.23, -10.38, 1.9, 4.1, -4.24, -8.04, -7.69, -2.29, 6.48, -2.48, -2.32, -9.49, 2.56, 1.44, 1.08, 0.5900000000000001, -2.98, 6.86, -7.05, -10.29, 8.59, -3.9, -5.51, -8.31, -7.0, 3.84, 4.1899999999999995, 4.71, -4.22, -8.25, -5.41, -1.56, -0.37, -0.55, -3.7199999999999998, 6.1899999999999995, -2.52, 7.83, 1.32, 6.74, -7.79, -3.09, -7.21, -2.01, 6.28, -7.07, 1.83, 3.75, -8.95, 0.44999999999999996, -8.47, -6.02, -7.64, -6.99, 1.96, -7.78, 0.12, 5.55, 0.48, 2.48, 3.5300000000000002, 5.0, -1.23, -2.93, -0.89, -10.2, 3.99, 0.62, -5.59, 3.0, 8.48, -1.96, 8.62, -9.75, 6.54, -9.7, -9.17, 7.32, -3.41, 7.5600000000000005, -8.05, 7.78, 6.32, -7.13, -9.28, 3.75, 8.77, 1.3, 8.99, 5.55, -0.94, -10.65, -6.35, -0.53, -3.44, 5.63, -7.6, -4.87, -1.81, -0.12, -5.27, -7.08, -2.48, -2.48, -7.01, -1.8, 7.26, -6.23, -7.95, 4.84, -8.86, 1.98, -10.18, -4.27, 9.06, -2.18, 5.13, -1.57, -0.43999999999999995, 1.37, -0.31000000000000005, 5.22, -5.39, -8.36, -0.41000000000000003, -3.95, -1.73, -7.49, -1.28, -7.95, -2.98, 3.87, -7.32, -2.07, 6.1, 3.09, -2.59, -10.74, 0.84, -2.76, 8.68, -8.67, -1.45, 6.14, -5.8, -6.36, 7.53, -10.7, 5.38, -3.62, -2.7199999999999998, 0.57, 8.74, 4.73, 8.08, 4.06, -9.06, 3.64, 0.27, -8.79, 6.08, 3.97, -9.58, -4.73, -1.95, -6.76, 8.88, 6.52, 0.61, -4.56, 3.33, -1.06, 6.15, 5.3100000000000005, -6.76, 2.49, -9.69, 4.93, 2.76, 0.48, -7.27, 8.46, -5.23, -5.58, 2.63, -3.18, -4.66, -5.87, 0.98, -9.92, 8.44, 8.04, -9.12, 4.26, -5.9399999999999995, -5.55, -0.06999999999999995, -5.5600000000000005, 8.07, -10.68, -7.43, -5.96, -8.73, 1.81, 3.94, -8.48, 8.61, -2.74, 0.6599999999999999, -9.93, 0.13, 3.74, -1.27, -5.91, 1.99, -7.12, -3.96, 5.95, -7.3100000000000005, -9.82, 4.02, 4.99, 8.11, -7.74, -6.6, -2.32, -10.79, -1.24, -6.64, -5.2, 7.33, -2.13, 9.77, 8.9, 0.84, -4.91, 1.8, 7.35, 3.91, -3.2, -6.11, 3.4699999999999998, 8.34, -9.19, 6.0, -4.12, -0.54, -1.05, 6.79, -0.42000000000000004, -1.81, -1.6400000000000001, -3.23, 3.35, 6.75, 1.69, -6.6, -10.35, -3.2800000000000002, -7.47, -10.79, 2.65, 7.36, 0.07999999999999996, -3.35, -10.57, 3.21, 8.84, -0.15000000000000002, 1.81, 3.59, 8.9, 1.41, -5.43, -2.88, -1.3599999999999999, 0.88, -5.12, -7.37, -9.78, 6.15, -2.01, 8.67, 5.89, -7.38, 8.25, 8.09, -2.74, -9.22, -3.83, 0.2, -6.52, 3.63, -8.98, -2.29, 0.31, -5.26, 6.91, 1.45, -8.73, -6.45, 5.67, -9.54, 4.08, -9.31, 7.51, -0.69, 9.89, -3.37, -5.67, 9.93, -10.28, 8.33, -5.45, 8.98, -6.22, 4.3, 0.98, -5.34, -2.82, 0.49, 7.65, 7.5, 4.54, -6.79, -5.61, 8.33, 0.43000000000000005, 2.11, -2.51, 4.47, -1.95, 5.4, 2.85, 3.94, 8.73, 7.3100000000000005, -1.6, -8.1, 6.47, 5.98, -5.27, -6.1, 5.68, -9.73, 6.84, -1.45, -7.85, 6.82, -1.6], [3.24, 2.8, 7.06, -6.15, -8.08, -3.2800000000000002, 1.33, -3.33, -2.06, -9.22, -3.15, -1.41, 7.23, 2.6, 6.44, -7.89, -6.72, -4.58, -7.15, 4.14, 6.51, -9.39, 5.76, -10.0, 2.64, -6.79, -3.77, -5.51, 9.42, 2.4, -9.62, 5.93, -0.65, 5.67, 0.52, 4.9399999999999995, -9.85, 4.64, 9.92, -8.88, 6.75, -6.41, -6.93, 4.9, -8.06, 6.42, 6.56, 5.44, -5.68, -7.1, -9.04, -4.37, 1.45, -3.24, -0.69, 3.86, -3.27, -10.27, 9.25, -5.63, -8.27, -1.18, 4.53, 1.91, 4.28, 4.46, -5.48, -8.3, -10.63, -8.95, -3.75, -9.77, 7.72, -0.3, -7.82, 8.07, 2.54, 6.65, -1.06, 1.29, 8.97, -5.25, 5.3, -1.96, -5.64, -6.37, -4.18, -5.87, 4.25, 3.4699999999999998, -6.59, -9.8, -1.81, -0.25, 6.1, 2.51, -1.97, 8.49, -4.97, 8.59, -4.31, -3.83, 8.47, -3.82, -4.98, 8.65, -6.23, -4.32, -7.08, -6.02, -1.03, 5.6, -5.58, -5.44, 2.85, -5.81, -7.77, -8.19, 3.82, -0.2, -5.07, -7.73, -7.65, 1.89, 3.38, 0.39, 4.05, -7.41, -2.84, 9.61, -4.22, 6.18, 2.3, 4.51, -8.01, 0.71, -0.91, 5.1899999999999995, 7.22, -1.9300000000000002, 8.48, 3.96, -8.35, 9.22, 1.23, -9.08, -3.91, -3.5300000000000002, -1.49, 9.13, -10.34, 8.91, -3.24, -0.27, 1.55, 5.57, -2.89, -5.78, 6.93, -3.8, -8.59, 8.91, -3.95, 6.48, -8.28, 5.2, 7.05, 1.4, -5.58, 0.17, 3.82, -9.01, -9.09, 6.52, 6.5, 5.02, -4.79, -1.24, -7.27, -3.6, -10.28, -1.19, -1.62, -6.14, 4.87, -8.01, 0.35, -9.16, 1.5, -1.04, 4.3100000000000005, -3.23, -6.64, -5.6899999999999995, 5.81, 6.34, -6.7, -4.13, 0.16, -5.74, -6.03, -9.17, -4.3, 5.15, -9.99, -0.55, -3.56, 7.9399999999999995, -6.33, -6.5600000000000005, 1.23, -5.15, -10.13, 4.33, -10.96, 6.88, 4.18, 6.58, 3.89, -10.61, 8.41, -1.6, 9.52, -7.67, 4.86, -5.84, -10.37, 7.38, 2.41, -3.11, 0.08999999999999997, 3.76, -7.25, 7.95, -7.09, 2.97, -4.27, 0.26, 8.09, -9.51, -0.63, -6.46, 7.83, 3.48, 3.8, -7.23, 6.65, 6.3100000000000005, -8.3, 8.59, -0.33, -2.79, -2.24, -10.67, -1.76, 5.64, -2.7800000000000002, -1.1800000000000002, -0.83, -10.71, -1.52, 2.59, 2.26, -1.26, -0.26, -7.18, -9.79, -0.6699999999999999, 3.15, 9.38, -9.03, -9.7, -6.8, 6.0, -4.72, 1.69, -7.72, -2.08, 3.3, 7.8, -4.32, 7.5, 9.7, -2.44, 1.03, 2.19, -9.26, -3.07, 2.32, -6.83, -0.39, 1.31, 8.03, -8.98, -4.61, -6.77, 6.19, -4.21, 6.55, -1.6800000000000002, -8.88, 2.44, 5.3100000000000005, 2.83, -5.59, -4.93, -2.62, 4.09, 1.38, 6.22, 1.3199999999999998, -4.66, 6.87, 2.2, -8.8, -8.27, -0.22999999999999998, -10.92, 5.2, -8.15, 1.18, -4.11, -9.61, 7.8100000000000005, -2.02, -1.98, -5.75, -8.35, -4.94, -7.42, -3.08, 4.75, -3.59, -7.79, -0.63, -6.85, 7.09, 6.04, -1.62, -9.78, 1.33, -9.55, 7.13, -0.5700000000000001, -0.32, -1.45, -10.03, -0.53, 6.98, -5.82, -6.44, -5.37, 7.88, 2.45, -5.05, -9.24, -10.46, -8.87, -0.5, 7.12, 4.73, -4.71, -5.59, -5.58, -4.2, 2.02, -6.2, -7.26, -0.93, 1.32, 1.13, 8.67, -4.15, 5.76, -9.04, -0.63, 1.05, 8.56, 8.86, 4.55, 3.59, 4.17, 4.61, 6.73, 0.15, 3.48, -5.92, 2.38, 4.86, 5.47, -1.3900000000000001, -4.48, -9.55, 1.73, -9.15, -10.95, -4.73, -2.11, 7.74, -7.99, 1.5, 7.9399999999999995, 0.99, -9.21, 6.83, 0.5, 5.57, 2.62, -7.08, -0.48, -10.13, 2.11, 2.27, 3.15, -3.6, 0.25, 7.33, 3.26, 1.7, -7.28, 4.11, -3.89, 8.43, 3.11, -5.26, -9.51, 1.52, 9.91, -8.93, -8.84, 9.43, -8.69, 2.03, -8.28, -8.22, 9.66, 4.51, 1.96, 2.81, -7.8, 1.09, 7.49, 3.93, 0.06999999999999995, 2.91, -7.19, 8.63, 5.75, 2.65, -2.11, 4.3, -8.15, -9.23, -0.82, -2.3, 9.93, -3.63, -9.39, 6.8, 9.21, -2.6, -5.12, -7.56, 5.85, 3.87, -1.73, 0.03, -5.6, -2.66, 3.25, 2.7199999999999998, 3.99, 3.8, -6.73, 1.21, 8.27, -8.89, -2.38, 1.9, 5.12, -5.05, -7.95, 6.45, -0.010000000000000009, -3.14, 4.44, 1.8599999999999999, -2.23, -2.84, 7.15, -2.93, -8.09, 0.6, 3.79, 1.15, -9.58, 0.61, -4.91, -8.82, 7.86, 3.27, -2.2800000000000002, 4.96, -8.06, -9.53, -3.06, 9.36, -9.11, 1.98, -10.79, -3.85, 9.2, 1.31, 3.66, 9.83, -9.09, 4.39, -1.23, 1.9100000000000001, -2.76, 0.4, -6.5600000000000005, 7.69, -0.53, 8.96, -9.96, 0.64, 1.54, -7.43, -3.49, -2.2, -5.65, 5.8, 8.61, -1.99, 0.24, 2.09, 9.66, -5.04, 0.89, -3.64, 6.5, 8.07, -8.87, -8.22, -8.73, 3.61, 4.54, -5.9, -1.73, 8.05, 7.68, 0.26, -1.02, -4.48, -5.63, -4.47, -4.71, -5.2, 0.6799999999999999, -2.7, 7.77, 9.07, -7.75, -7.55, 7.51, 7.35, -4.65, -5.95, 1.6, 9.29, 7.08, -9.1, -3.27, 4.03, 1.22, -7.68, -10.6, -3.64, -2.96, 7.75, 1.53, -4.39, 1.21, 6.34, -0.76, 8.35, 1.29, -3.75, -10.84, 2.26, -0.44999999999999996, 0.39, -3.9699999999999998, 0.93, -5.2, -10.76, 7.37, 6.92, 7.29, -9.97, -9.57, 0.5, 0.6, 0.9, -4.83, 3.61, 2.4699999999999998, 5.35, -5.92, 7.63, 0.13, -7.88, -1.71, 7.94, -6.49, -7.27, -9.41, -4.76, 6.23, -4.65, 9.75, 2.76, 7.05, 6.59, -1.62, 0.13, -3.5300000000000002, 5.89, -6.55, 3.38, -1.3900000000000001, 4.83, 8.2, -1.79, 1.21, 0.92, -9.09, 8.64, 8.18, -1.74, -10.22, -2.05, -4.85, 2.8, 3.43, -9.91, -7.2, 8.27, -0.09999999999999998, 0.39, -7.7, 5.37, 4.3, -1.9, 7.24, -4.98, 4.28, -3.84, 2.37, -10.17, -6.21, 5.88, 7.28, -6.17, 6.55, 1.83, -8.24, 8.25, -9.18, -7.68, 5.63, -0.16000000000000003, -7.74, 4.36, -8.83, -4.6, -5.05, -6.05, 1.04, 0.28, -7.7, -9.18, -3.37, -1.7, 8.01, 4.08, -1.82, 1.66, -0.9, 3.56, -1.22, 1.37, 9.61, 7.77, 8.86, -3.91, 0.5, 3.1, -5.08, -7.2, 7.62, -7.71, 3.94, -7.51, -8.68, -2.06, 5.02, 7.85, 2.62, 7.48, 9.14, 5.19, -8.53, -8.49, -4.01, 8.29, 8.24, -5.84, 2.99, -8.61, 1.56, -10.98, -8.49, -6.59, 2.81, -4.28, 3.65, 1.69, 6.86, -2.64, 4.74, 1.71, 8.02, 3.64, 4.97, -7.7, -3.39, 1.78, 6.12, 1.46, 6.58, -0.56, -9.22, 3.21, -9.6, -9.17, 9.5, 5.87, -5.61, 8.56, -1.99, -10.25, 3.94, 6.52, -6.27, 0.22999999999999998, 2.68, 0.91, 2.58, -0.030000000000000027, -1.78, -9.34, 1.87, -7.14, -3.33, -10.75, 0.6799999999999999, 7.8, 7.19, -5.97, -8.33, 5.77, 7.71, -6.36, 8.72, 0.98, -8.27, 5.6899999999999995, -5.06, 1.3900000000000001, 1.47, 0.37, -7.33], [-1.77, 7.66, 5.08, -1.85, -7.3100000000000005, -3.13, -5.41, 7.34, -5.66, -4.37, -4.66, 2.27, 7.18, -6.15, -3.11, -8.48, 4.7, 6.64, -1.63, -8.79, 1.92, 0.010000000000000009, 5.24, -0.020000000000000018, 4.33, -2.81, -6.83, 3.2, 9.36, -0.41000000000000003, -10.98, 7.89, 6.6, 5.0, 3.3, -9.13, -2.51, 4.23, 0.020000000000000018, -4.74, -5.59, -6.51, -2.26, 2.54, -7.78, 1.28, -7.92, -5.8100000000000005, 3.56, 1.3199999999999998, 7.96, 0.88, 7.39, 4.49, 7.47, 1.97, -3.7, 0.71, 0.17000000000000004, 4.4, 2.21, 0.35, -2.11, -9.91, -3.4, 2.3, -1.17, -4.97, -3.78, 6.34, 1.16, -10.78, -8.36, 7.32, -5.17, -8.34, 7.2, -5.59, -3.54, -4.85, 6.32, 0.78, 9.93, -10.35, 2.36, -4.15, -2.16, -7.43, 5.26, -7.43, -6.2, 2.79, 0.14, -4.37, -3.48, -5.03, -1.37, -4.41, -7.76, -6.87, -7.41, -2.82, -7.1, 8.74, 8.05, 2.76, -2.73, 9.65, 5.49, 2.08, 7.27, -5.22, 0.37, 1.52, 5.4, 0.31999999999999995, 5.39, -9.43, -9.23, -6.83, -2.45, 3.84, 1.0899999999999999, -8.91, -8.91, -5.39, 4.54, -1.72, 4.77, -3.34, -6.23, 0.27, -6.42, 5.55, -10.86, 0.38, 1.26, 7.06, 4.6, 1.97, 4.62, -7.85, -8.27, 4.63, -8.7, -6.17, 7.9399999999999995, 3.44, -3.4, -6.01, 2.57, 2.88, -9.24, -7.82, 1.6099999999999999, 8.43, -3.38, 8.44, 9.41, -0.74, -8.24, 7.04, -6.84, -1.16, -10.92, 4.78, -3.6, -10.85, -1.6099999999999999, -6.12, 0.84, 4.54, -9.11, 4.17, 2.74, -6.22, 5.3, -5.74, -7.36, 6.39, -6.05, -3.63, -6.91, -7.27, 9.45, 3.57, 6.15, -9.73, 6.02, -9.68, -10.57, -5.68, -8.68, -5.35, 5.41, 0.18, 2.41, -6.34, 6.58, 8.44, -0.04, 6.02, 6.5, -0.89, -6.97, 0.05, 1.78, -3.05, -8.04, -9.67, -5.45, 6.16, -5.3100000000000005, -6.51, 1.49, -0.67, 8.69, -6.49, -9.88, -3.82, 6.03, -10.77, -2.77, -5.1, -0.58, 8.62, 1.85, -2.44, -4.1, -3.19, 7.93, 7.79, 3.27, 3.09, -4.74, -7.96, 5.14, 5.24, 9.76, 0.87, -5.58, 0.41000000000000003, 2.7800000000000002, 7.22, -7.52, -8.71, -6.65, -0.19999999999999996, 0.98, 8.7, 5.59, 5.55, -5.38, 2.63, 0.84, -7.59, 5.5, 0.32, -9.41, 2.0300000000000002, -9.13, 0.6799999999999999, 4.21, 1.1400000000000001, -4.67, 2.3, 2.73, -1.08, 7.91, 3.07, -4.91, -9.54, -9.09, -10.82, -8.06, -0.91, 2.31, -8.27, 7.72, 5.5, -3.79, 2.16, 3.52, -4.89, -3.57, -3.57, -1.92, -1.47, -7.1, 3.55, 6.1, 6.68, 3.77, 3.32, 0.02, 4.3100000000000005, 9.08, -8.21, -10.64, 4.34, 2.15, -8.15, 8.59, 1.8599999999999999, 3.61, -5.45, 4.59, -9.29, -5.68, 6.86, 1.24, -3.88, 6.35, -9.54, -2.7, -6.4399999999999995, -5.5, 0.01, -6.52, 4.64, -4.49, -0.76, 8.94, -4.92, 6.98, 1.0699999999999998, -0.06999999999999995, 6.08, 7.3100000000000005, 4.82, 1.72, 1.52, 2.5300000000000002, -0.8200000000000001, -9.28, 7.8, -9.58, -7.18, -3.3, -9.68, -5.44, -8.16, -9.32, -3.19, 0.9, 0.49, -4.08, 4.48, 3.37, -9.68, -6.86, 7.23, -3.05, 2.91, -8.4, 8.06, 6.46, 7.68, 4.6, 4.61, -4.25, 7.04, 6.65, -4.95, 8.01, -1.62, -2.79, 0.91, 6.25, 4.9399999999999995, -2.43, 7.34, -0.9, 0.27, 9.48, 2.95, 4.86, 4.72, 7.37, -8.84, 6.03, -8.33, -8.1, -5.22, -2.2800000000000002, 5.83, -3.6, -9.78, 2.92, 8.35, 1.07, -2.23, -4.35, -2.48, -8.68, -1.63, -2.66, 1.56, 2.13, 0.86, 1.42, -1.51, 9.22, -3.15, 6.89, 1.42, -4.71, -4.14, -1.1800000000000002, -3.23, 2.94, -9.4, 6.67, 0.52, 8.27, -2.39, 2.22, 3.05, -0.31999999999999995, 7.21, 0.6699999999999999, 8.45, -7.75, 9.91, 6.27, -10.88, 3.89, -3.97, -8.49, -6.77, 2.15, 8.31, 7.98, -3.6, -7.07, -1.37, -7.08, 5.32, 7.92, -4.1, 4.16, 6.08, -2.35, 4.6, -2.15, -4.92, -0.76, -8.33, 6.1899999999999995, -6.6, 1.35, -3.37, -8.1, 2.45, -1.52, -8.01, -0.86, -3.12, 5.01, -1.62, -1.04, -9.15, 5.16, -7.5, -10.9, -7.19, 0.46, 3.21, -6.58, -7.82, -7.83, 1.76, -2.13, -6.35, 1.13, 3.3, 4.04, -9.1, -4.43, 3.48, -0.38, -9.94, -1.47, 2.69, 4.08, 3.88, -3.32, 2.9, -7.46, 5.49, -6.09, 0.26, -6.84, -9.3, -1.7, -0.21, -6.0, 6.04, 4.99, -0.54, 1.7, 8.33, -5.87, -7.36, -8.42, 9.78, 6.95, -5.35, 1.48, -10.62, 0.78, 2.95, -2.35, -2.45, -5.38, -0.79, 2.35, 5.74, -5.07, 5.68, -6.24, -0.6, -5.3, 0.42, -7.31, 2.45, 8.68, 9.78, 1.35, 9.05, 7.32, -2.5, 4.2, -0.38, -5.79, 8.0, 7.82, 0.99, 0.45999999999999996, -0.08, -9.67, 1.17, 0.31000000000000005, 6.63, -10.4, 6.89, 6.02, -1.5, 5.05, -2.03, -6.25, -2.04, -9.79, 0.58, 1.79, 8.88, 0.15, -0.89, 5.16, 8.44, -9.64, 7.8, 3.64, -2.71, -2.33, -5.54, -3.43, 4.09, 0.06, -4.3, 0.49, -4.57, 7.55, 4.81, 5.76, 7.8, 2.05, -8.79, -10.35, -4.61, -4.3, 3.91, -8.3, -2.39, 4.73, -6.07, -4.26, 2.5, -3.64, 4.67, -8.65, 4.11, 0.75, 6.82, 5.8, 4.82, -4.27, -9.59, 4.58, -6.22, -3.38, -2.94, -10.32, -3.77, 5.85, -3.1, -3.95, -2.98, -3.48, 3.24, 5.01, -8.36, -7.7, -8.62, -3.19, 7.82, -3.84, 2.61, 2.16, -5.89, -1.99, 3.32, 7.18, 7.14, -2.79, -8.98, -10.04, -0.66, -4.61, -2.31, -1.59, 8.5, 4.14, 0.09999999999999998, -5.87, -10.47, 0.4, -4.25, 7.4, -4.47, 3.2, -8.19, -7.92, 7.84, -2.12, 6.43, -9.53, -7.05, 6.6899999999999995, -9.39, -0.82, -6.58, -2.85, -7.82, -7.86, -7.61, 4.32, 4.67, -7.09, -9.64, -5.14, -9.65, 5.26, 6.84, 1.52, 1.99, -8.71, 9.74, -10.93, -2.54, -4.05, 6.3, 6.33, -2.63, 7.64, 0.06, -0.16, -3.11, -2.9, 1.54, 4.5, 1.84, -3.91, 5.97, -3.5, 3.91, -10.7, -7.13, 1.73, -0.41000000000000003, 4.42, -2.0, 0.45999999999999996, 2.61, 0.61, -0.65, -2.92, 9.23, -9.78, -3.88, -5.96, 4.54, 2.2199999999999998, -6.39, -8.72, -8.05, -3.9, 9.87, 8.79, -4.66, 1.9100000000000001, 5.41, 7.09, 5.14, -2.07, -7.58, 2.06, 5.29, 6.7, 5.67, 6.38, 3.6, -7.34, 3.32, 5.49, 6.11, -7.94, -9.53, 8.44, 2.09, -0.6599999999999999, -5.59, 4.13, 3.27, 3.7800000000000002, 7.04, -6.34, -8.56, 4.52, 2.34, -5.87, 2.97, -10.84, -4.73, 4.33, 0.72, 0.51, -5.61, -2.42, -4.73, -1.05, 0.07, 8.23, -8.54, 1.84, -3.82, -3.25, -0.19999999999999996, -6.4399999999999995, -4.98, -7.62, 7.6899999999999995, 1.83, -5.41, -6.76, 8.68, -6.1899999999999995, -4.39, 9.09, -9.02, 8.34, 8.18, -1.0899999999999999, 8.55, 6.75, -4.26, 0.39, -2.29, 9.89, 6.98, -10.74, 2.2, -9.61, -8.54], [3.92, -8.54, -9.8, 9.76, -0.06, -4.8, 5.08, 7.8100000000000005, -9.29, 2.76, -7.16, 5.45, 1.26, 0.24, -7.04, -4.35, 8.34, 2.13, -0.1, 6.47, 6.29, -9.94, -8.72, 6.36, 2.0, -7.35, -5.8, -8.87, 1.73, -4.77, -4.05, 6.6, 8.66, 5.85, -6.81, 6.33, 8.23, -2.83, 3.93, 0.77, -2.04, -3.71, 8.22, 3.27, -3.45, -6.14, -6.85, 0.53, 4.61, -1.4100000000000001, 0.8200000000000001, 7.83, -10.77, -2.75, -9.28, -7.2, 4.71, 2.67, 9.12, 0.3, 8.0, 4.94, 8.13, -1.0699999999999998, -0.35, -2.42, 1.04, -5.63, -7.84, 5.79, -3.95, 3.69, 5.59, 4.49, -7.57, -6.54, 5.04, 5.89, -1.19, 5.51, -5.9399999999999995, -7.33, 8.89, 8.54, -3.37, -7.01, -7.0600000000000005, -3.01, 4.74, -2.83, -9.15, 5.88, 0.26, 6.39, -0.02, -9.45, 0.39, -7.59, 1.73, -1.55, 7.1899999999999995, 8.24, 3.67, 8.58, -1.33, 5.73, -3.15, 8.23, 6.51, -5.98, 3.55, 5.65, -5.16, -2.35, 5.37, -6.64, 3.9699999999999998, -8.15, 2.83, 1.98, -4.3, -7.29, -7.32, 8.74, 9.94, -5.21, -2.89, 7.92, 9.54, 7.59, -0.18000000000000005, -5.6899999999999995, 4.5, 0.72, -8.47, -1.47, 6.83, -5.13, 7.35, 1.73, -6.23, -0.56, 1.82, 7.96, -7.59, -0.44, 5.64, 3.51, 7.63, 2.85, 2.77, 0.66, -0.59, 7.0, 8.99, 5.43, -0.67, -8.41, -1.49, 8.9, 8.3, 1.1, 0.94, 2.96, -0.61, 3.9, -1.06, -2.63, -8.49, 6.21, -2.45, 5.53, -7.99, 6.78, 4.04, -7.8, -10.2, -7.57, -3.9699999999999998, -2.26, -6.26, 1.26, 1.51, 0.8, 9.8, -7.29, 5.68, 0.75, 7.36, 7.75, -6.85, -7.78, 1.62, 6.38, -8.22, 2.59, 6.26, 8.5, -6.44, -7.73, -4.23, -2.02, 5.65, -8.88, 8.77, 5.46, 6.58, 3.08, 7.74, 3.93, 3.61, -6.97, 2.89, -9.95, 4.65, 3.32, 5.73, 3.43, -3.64, -3.73, -3.29, 0.72, -8.41, 8.52, -4.8, 3.21, -7.38, 8.21, -1.92, 9.05, -6.74, 1.42, 1.19, -1.37, -2.49, 7.35, 1.2, 5.29, -2.06, -1.54, -4.08, -8.7, -3.12, -2.64, 7.33, -1.8399999999999999, 6.07, -0.20999999999999996, 9.91, -8.9, -4.01, 8.81, -6.61, -4.51, -2.42, -9.84, -5.25, -2.34, -10.48, -1.8, 2.31, -2.17, 7.07, -6.54, 7.61, -10.6, 2.95, 0.29, -2.73, 0.99, -6.76, -0.17000000000000004, 4.86, -3.83, 1.63, 7.45, -4.86, -7.53, -4.9, -6.44, -2.79, -5.26, -4.31, 6.15, 2.65, 8.56, 3.4699999999999998, 6.65, -0.97, -1.5, -7.38, -3.67, -0.96, 7.73, -2.77, -5.77, -8.8, -4.85, 3.92, -0.89, -0.85, 7.51, -9.36, 3.86, 6.67, -7.53, 0.09999999999999998, 5.49, 0.6799999999999999, 2.75, 4.07, 8.76, -0.51, 7.39, 9.15, 6.35, -0.45999999999999996, 8.53, -8.78, 3.89, -8.23, 6.46, -0.16000000000000003, -7.45, 1.3399999999999999, 1.68, -7.11, -10.97, 5.91, -5.4, -6.71, -10.71, -8.23, 0.6, 2.6, 0.49, 6.18, 3.74, 9.77, 1.73, -2.64, -6.43, -6.98, 8.08, 1.16, 2.81, 4.4, -6.02, -7.35, 1.17, 9.16, -0.56, 7.45, 4.09, -0.17, -4.7, 4.94, 3.76, 5.71, -1.53, -5.85, 6.98, 3.09, -7.65, 4.24, -9.26, -7.06, 0.37, 9.71, -2.19, 4.55, 4.05, 6.53, 0.5, 8.87, 7.64, 3.56, -6.93, 7.03, -5.03, -6.91, -6.18, -0.96, 5.87, 5.01, 0.51, 5.95, -8.0, -2.39, -5.43, -8.75, 6.75, 5.93, -3.67, 1.96, -10.81, 5.49, -4.47, 5.73, -5.28, -4.5, 7.92, -5.72, -3.74, -0.23, 7.54, -7.82, -10.34, 0.84, -6.37, -8.13, 5.63, -4.66, 3.3, 4.48, 3.13, -9.09, -9.53, 7.92, 7.86, 1.45, -10.04, 3.98, 1.57, 2.89, -7.76, -5.28, -0.9299999999999999, -7.76, 4.88, -0.37, 5.55, -5.42, 6.04, -0.44999999999999996, -8.66, 2.01, -0.78, -0.98, 8.09, -0.36, -0.77, -7.13, -3.66, -1.98, -7.87, -3.02, -7.67, -7.12, -0.15, -2.26, 3.01, 4.76, -0.72, 7.93, -5.75, -4.1899999999999995, -5.41, 2.11, 8.01, 2.35, -4.01, -0.31999999999999995, -0.76, -1.9, -7.26, 9.62, 4.61, 0.18999999999999995, 8.03, -0.87, -6.18, -8.02, -5.57, -3.17, 3.66, -4.25, -7.41, 0.71, -9.56, 3.94, 4.3100000000000005, -4.3, 7.47, -4.1899999999999995, -7.8, 5.72, -7.6, 8.88, -5.33, -0.45999999999999996, -9.09, -7.25, -7.2, -5.83, -0.49, -6.41, 9.61, 7.78, -5.21, -0.31999999999999995, 2.61, -10.62, -5.77, 0.83, -0.56, 0.17000000000000004, 5.51, 6.14, -0.14, -7.77, -2.34, 6.34, -1.75, 4.72, -9.91, -6.37, -3.0, -5.21, -6.87, -9.51, 9.73, -5.75, -5.27, -5.52, 3.24, 3.71, -3.98, -1.53, 7.8, -2.88, 6.78, 0.01, 6.35, 4.8, 3.51, -4.32, -4.48, 3.59, -9.76, -3.52, 2.99, -9.21, 6.39, 6.1899999999999995, -5.11, 1.83, -8.66, -9.37, 1.9100000000000001, 3.61, -7.17, 8.35, 8.21, -0.5900000000000001, 7.39, -9.41, -8.46, -2.83, -3.93, -3.33, -10.45, -7.13, -7.34, 4.76, 1.62, 9.42, -8.02, 0.6799999999999999, 1.5, 3.43, -1.8, -2.85, 3.01, -4.84, 2.99, 7.17, -7.1, -2.86, -8.5, 6.68, 2.62, 2.37, 3.2199999999999998, -4.0, 1.91, -0.6799999999999999, 8.41, -6.53, -8.76, 5.8100000000000005, 6.9399999999999995, 0.72, -4.8, 8.86, -4.82, 5.4, -3.98, -9.05, -9.65, 8.88, 0.66, -4.62, -0.45, -6.4, 1.02, -1.58, -8.86, -3.81, 6.98, 2.12, 4.4, -5.03, 7.96, -0.23, 7.3100000000000005, -8.03, 6.17, -9.61, -9.97, -0.030000000000000027, 6.38, -7.21, -8.74, -10.72, -1.17, 3.42, 0.93, -1.92, -3.02, 6.34, 1.94, -7.76, -8.55, -4.7, 3.19, -1.02, -4.32, -7.86, -3.23, -0.47, 9.68, 4.72, -2.57, -7.9399999999999995, 1.82, -0.66, -8.44, -9.49, 1.03, -6.66, -3.15, 8.55, 1.52, -7.26, 3.33, 5.63, -4.02, -9.3, -2.95, -9.54, -7.88, -9.42, 4.79, -6.76, 4.93, 6.12, -2.81, -8.98, -10.71, -4.92, -2.64, -10.19, 0.54, -8.99, -3.35, -6.01, 2.63, -8.98, 3.54, -0.15, -1.48, 2.33, -10.0, 9.37, -6.23, -5.35, 7.01, 8.65, -4.9, -0.39, 1.8199999999999998, -6.02, -6.97, -2.69, -7.91, -7.36, -8.94, 5.17, 4.18, 3.7800000000000002, 2.01, 0.48, -6.26, 3.15, 6.66, -10.27, -8.75, -3.21, -0.5900000000000001, -8.71, -3.59, 6.53, 8.2, 4.13, 5.46, -4.8, -2.81, -10.83, -7.88, -9.3, 4.34, 3.65, 6.77, -6.69, -3.5300000000000002, -3.27, -8.0, 2.39, 3.55, 8.16, 1.29, 3.04, 4.4, 6.32, 6.56, -7.86, 4.85, 5.62, -9.04, -8.67, -9.9, -2.26, -7.6, -7.77, -0.64, 7.52, 2.54, 1.87, 0.08, -5.19, -1.46, -9.09, 1.17, -5.9399999999999995, 5.58, 0.43, 7.35, 8.22, -1.3199999999999998, -0.16000000000000003, -1.5699999999999998, 9.46, 0.39, 7.32, 6.38, 1.29, -7.22, 0.95, 8.01, -1.24, -6.39, 4.23, 6.12, -5.05, -7.53, -1.21, -4.38, -6.43, 9.21, 4.69, -6.09, 9.02, 2.84], [-2.33, 7.57, -2.12, -1.79, -9.88, 6.28, -9.23, -2.31, -8.85, 5.93, -10.7, 8.61, -5.91, -5.11, 6.78, 9.92, 1.53, -6.48, -0.81, 5.47, -9.08, 6.75, -4.9, 0.31999999999999995, -5.88, 2.69, 8.72, -3.31, -4.78, 2.74, -3.46, 8.32, -8.12, -5.9399999999999995, -2.7199999999999998, 1.13, -0.47, -6.33, 2.35, -7.37, -8.72, -7.76, 7.08, -5.35, -5.31, 2.49, -10.96, -2.05, 4.71, -4.3, 6.47, -1.19, 2.59, -0.81, 1.7, 7.11, -9.87, -4.24, -3.88, 6.18, 6.92, -1.43, -9.52, -7.22, -4.17, -4.77, 0.17, 2.4699999999999998, 6.39, 1.81, 6.79, 8.27, 2.82, -2.49, 9.0, -2.49, 6.51, -0.01, -3.69, 1.69, 3.21, 6.39, -8.21, 6.6, 7.5, -6.03, 5.5, 3.48, -5.37, -7.8100000000000005, -2.68, 1.02, -9.86, -5.87, 0.87, -4.9, -3.87, 3.1, -0.040000000000000036, 3.4, -5.9399999999999995, -8.45, -5.56, 9.88, 6.77, -10.42, 6.45, -3.07, 0.89, 0.18999999999999995, 5.07, 5.0, 7.43, -5.22, 7.75, -6.17, -4.46, -7.58, 9.35, -10.13, 9.78, 0.37, 6.52, 8.94, -3.84, -1.6600000000000001, 4.1, -0.12, -7.13, 6.97, -6.02, -6.6, -10.98, 3.64, 3.89, 6.12, -2.5, -4.09, 1.02, 3.55, 4.13, 0.37, 8.73, 2.27, -4.27, -2.3, -3.51, -1.12, -2.51, 4.73, 4.04, 4.4399999999999995, 2.06, -2.55, 4.61, -1.26, -4.23, -4.39, 1.58, 5.99, -3.96, -5.34, 4.69, -9.08, -9.88, 6.05, 2.59, 6.8, 4.5, -4.73, 8.81, 1.01, -3.69, -7.48, 3.0300000000000002, 8.44, 2.63, -9.59, 6.51, -8.84, 5.92, -6.82, 1.1400000000000001, 2.82, -0.87, -5.26, -7.16, -8.38, -2.64, 0.97, -9.52, -7.15, 2.14, 8.22, -9.86, 3.07, 6.29, 3.46, 6.55, 7.85, -0.07, 2.99, -3.16, -1.38, -7.3100000000000005, -7.33, -5.39, -7.3, 4.94, -5.95, -9.74, 7.45, 3.56, 1.99, -9.77, -3.91, -0.91, 0.21, 8.6, -8.84, -2.8, -4.61, -5.73, -8.19, 6.97, -7.81, -6.75, -4.79, 3.11, 7.99, 8.06, 3.83, -3.25, -2.36, 8.81, 5.57, 2.7, -8.45, 1.37, -1.29, 4.41, 2.45, -3.41, -8.2, 1.48, 0.66, -1.98, -2.08, -10.66, 5.66, 4.68, 1.3599999999999999, 6.23, 2.87, 2.62, -3.12, -9.87, 8.06, -8.07, 6.05, -4.17, 0.07, -1.71, 6.66, -4.85, -0.74, 9.82, -3.48, -3.8, -10.19, 2.35, -3.12, -6.56, 1.75, -2.67, 6.23, 1.02, -6.74, 3.44, 4.62, -9.5, 2.49, 2.23, 4.67, 7.83, -4.23, -5.58, -1.44, -6.89, -3.71, -8.42, 0.42, 4.06, -6.13, 2.48, 5.59, -10.06, 0.64, 0.31999999999999995, 1.8900000000000001, -6.96, -8.63, 4.07, 7.61, -0.5700000000000001, -7.09, -2.01, -2.87, -6.41, -6.26, -5.98, 1.0, 0.12, -2.94, -2.01, 0.39, 0.87, -9.22, -3.59, -2.75, -9.98, -1.8199999999999998, 6.98, -4.59, 4.3, 4.58, -9.84, -7.25, 6.05, -4.95, -6.53, 2.79, 4.96, 6.18, -9.46, -4.28, -3.13, 3.74, 4.9, -7.29, -1.6, 4.57, 2.33, -5.0, -2.61, 9.82, -6.75, -4.63, 1.0899999999999999, 1.46, -3.99, 0.47, -9.16, 7.42, -5.79, 1.12, 8.79, -6.11, -8.75, 7.26, 6.19, 9.79, 6.0600000000000005, 2.31, 6.74, 3.41, 3.05, 6.98, -4.0, 2.34, 1.25, 0.78, -1.9, 6.8100000000000005, 8.97, -1.58, 1.51, -5.8100000000000005, -2.25, 8.76, 3.84, -0.07999999999999996, -10.14, -9.14, 0.94, 7.2, 7.51, -6.05, 7.59, 4.69, 6.84, 1.65, -5.11, 0.26, -4.29, 5.66, -8.43, 1.98, -5.13, 5.37, -6.98, 0.33, -4.07, 1.9, -5.28, -4.51, 7.9, 1.8, -1.96, -2.2, -6.66, 2.41, -0.36, 0.2, 2.29, 4.41, -8.43, -1.6099999999999999, -3.15, -5.39, 5.09, -2.05, -6.41, 5.23, 1.16, -1.1800000000000002, 9.0, -9.09, -0.26, -2.16, -0.11, -8.02, -1.55, -7.47, -9.42, -3.08, -6.8, -3.2199999999999998, -6.87, -2.86, -10.63, -0.85, -8.58, -2.91, -5.54, -3.37, 3.15, 0.34, 1.8900000000000001, 4.39, -0.42, -3.2199999999999998, -2.33, -0.58, -8.91, -2.33, -5.08, -10.91, -8.22, -1.95, 4.3, 3.64, -10.14, -1.1400000000000001, -7.5600000000000005, 2.16, -8.65, 4.62, -2.95, 4.82, 6.63, -5.39, 0.56, -4.88, -9.42, -5.77, -3.09, -1.92, -7.12, -7.37, 9.23, 2.11, 5.99, 1.56, -7.85, 7.92, -6.32, 2.61, 9.62, 8.14, -7.94, -8.7, 3.25, -3.21, -6.77, -3.59, 8.36, -1.73, 4.5, 1.01, 3.27, 0.59, -4.45, 0.94, -7.71, -7.33, -5.7, 2.38, -4.8100000000000005, -3.23, 9.85, -9.15, -5.15, -7.81, -9.21, 8.87, 0.78, 9.21, -0.74, 7.52, 8.52, 2.7199999999999998, -2.19, -1.15, 8.82, 3.51, -3.1, -2.64, -5.97, -0.37, -1.4300000000000002, -2.7, -7.58, 4.86, -6.78, 3.43, -4.79, -6.06, 7.89, -6.13, 3.54, 7.45, 7.68, 8.93, -6.98, 2.63, -10.29, -9.55, -6.26, -8.24, -9.05, -3.0300000000000002, -6.28, 3.91, 0.39, 8.28, 3.8, 5.6, 5.21, -2.69, -5.28, -0.88, -5.38, -3.24, 1.23, -3.44, 4.53, -1.84, -9.6, -5.64, -5.2, 3.99, 6.77, 1.73, -5.1899999999999995, -6.38, 3.26, 2.9, -2.81, 3.76, -10.07, 4.75, 4.37, -0.71, -2.14, -7.87, -8.07, 2.42, -6.92, 6.6, -1.46, 3.59, 0.83, -9.24, -2.8, 9.1, -5.54, -5.95, 9.94, 1.04, -7.01, 5.49, 3.96, -4.5, 3.61, -0.4, -3.19, -4.74, 7.13, 9.35, -1.6400000000000001, 5.39, 1.22, 2.49, -1.5, 8.82, -0.95, -4.85, -9.1, -5.96, -9.74, -0.9299999999999999, 3.23, -8.11, 2.88, -3.09, -3.25, -2.87, 0.04, 8.71, -5.23, 5.04, -2.75, 8.11, -8.47, 9.56, -0.06, 5.32, -6.25, 5.99, 7.39, -1.34, -8.79, -0.78, -6.94, 5.02, 5.13, 6.17, -9.74, 3.88, 6.07, 7.9399999999999995, 2.71, -7.16, -5.26, -3.36, -2.02, -4.4399999999999995, 4.45, 5.97, 5.0, -8.59, 9.69, -6.75, -6.4, 0.16, -4.97, 0.28, -7.96, -5.53, -4.22, -7.14, 2.33, -6.39, -6.26, -1.1, 3.2, -1.49, 7.98, 5.53, -1.8599999999999999, -3.5, 6.77, 8.01, 1.53, -7.84, 8.77, -6.61, -2.44, 2.99, 3.5300000000000002, 3.88, -7.29, 8.74, 7.35, -4.75, -1.12, -7.32, -7.09, -3.18, -3.88, 4.12, 2.14, -0.68, 4.0600000000000005, -1.71, 0.31, -8.02, 8.59, 4.09, -9.0, 6.27, -2.18, -2.49, -9.79, -2.23, -5.46, 1.83, 6.92, 3.84, 8.19, -7.66, 4.11, -0.43, 9.54, 5.04, -3.34, -1.84, -6.14, -9.37, -9.16, 3.61, 8.95, -6.14, -10.25, 7.23, 4.17, -9.82, -0.23, 8.17, 5.7, 6.77, -2.84, -0.69, 8.03, 8.5, 8.1, -3.52, 3.01, -10.06, 1.73, 2.7199999999999998, 0.49, -6.47, -8.72, -5.13, -2.95, 1.9, 6.88, -1.24, 4.21, -10.73, -5.18, -7.29, -3.94, -5.92, 2.55, 7.05, -8.9, -5.49, -7.4, 0.9, -2.12, 7.41, -3.81, -2.2800000000000002, 7.03, 0.65, -10.18, 8.09, -7.53, -7.68, -9.08, 6.94], [2.7, -1.83, -0.76, -7.13, 9.61, 6.04, 2.74, -7.41, -8.11, 2.63, -5.15, -6.17, -8.52, 0.38, 7.64, 3.89, -8.41, 4.19, -9.8, 6.11, 3.17, 6.89, -5.33, -0.24, 4.02, -5.71, 4.98, -5.47, 0.82, -9.85, -3.04, 7.19, -10.25, -9.1, -0.62, 5.24, 6.24, -7.76, 5.63, -6.53, 9.8, -2.2800000000000002, 1.02, -2.2, -4.83, 8.25, 1.59, 6.26, -7.4, 8.71, -1.48, 4.96, -6.23, 1.55, -6.7, -3.44, 4.02, 9.24, 4.27, 5.94, 0.64, -6.44, -5.92, 7.65, 4.53, 5.36, 5.04, -8.15, -6.09, -5.2, -7.85, -9.93, -2.43, -0.29, -7.88, 5.68, -2.23, -7.26, 9.72, 8.71, -0.75, -1.23, 1.19, 1.27, -3.68, 6.02, -2.93, 0.59, -4.98, 6.64, -0.85, -9.11, -7.22, 3.6, -9.64, 4.27, -9.27, 8.29, 5.54, -4.2, -5.27, -4.35, 1.33, 0.63, -5.57, -0.77, 0.88, -0.14, 5.54, 5.03, 4.75, -5.66, 6.91, 5.96, 9.74, -1.21, 9.44, -1.12, 2.48, -9.15, 0.21, -9.54, -10.4, -7.22, 0.13, -3.7, 3.03, 0.4, 1.4100000000000001, 8.08, -9.65, 2.65, 6.01, 8.75, -4.95, -9.96, -1.3199999999999998, -7.61, -10.84, 8.98, -2.82, -1.6400000000000001, -3.36, 0.47, 1.51, -3.41, -1.47, -0.35, 8.16, -9.45, 9.63, 4.72, -2.83, -9.45, 7.7, -2.67, -1.5, 4.55, -0.31999999999999995, -0.84, 4.76, -4.05, -4.14, -10.14, 8.84, -4.19, -6.58, 6.35, -6.62, -8.75, 3.25, 5.66, -8.19, 5.7, 9.63, -3.2, 1.84, -10.81, -0.21, 0.47, 8.57, 8.66, -5.38, 0.15000000000000002, 0.87, 1.16, -9.54, -9.98, -1.73, -0.92, 4.54, 2.29, 4.09, -0.72, 7.99, -6.71, 4.23, -4.54, -8.95, -4.08, 8.24, 8.17, 5.79, 2.04, 5.67, 7.74, -4.83, -2.84, 5.44, 3.12, -8.62, -9.59, 6.32, -9.42, -7.66, 0.13, 0.54, -0.97, 4.97, -6.39, 1.3599999999999999, -4.07, -5.72, 0.94, -2.93, 6.1, 0.30000000000000004, 0.83, -5.16, 5.64, -5.17, 8.6, 1.97, -5.68, -9.81, 6.58, -9.73, -0.99, 7.67, 3.55, -3.95, -9.77, -5.72, 1.83, -3.98, -1.04, 7.54, -2.21, 3.33, 0.89, 2.92, -3.51, 2.86, 9.62, -0.08999999999999997, -7.7, 8.35, -9.48, -9.14, -3.21, 7.34, -7.07, 3.51, -2.5300000000000002, -6.93, 5.47, -8.68, -8.76, -5.76, -6.31, -6.36, -8.51, -3.5, -7.36, -6.68, 9.07, 3.59, 5.65, 3.74, 1.67, -6.46, -8.18, 8.14, 3.9, -6.2, 4.2, -9.82, -6.27, -1.35, 6.37, 4.82, -3.5, -8.1, 8.39, -4.01, -6.83, 3.84, 7.14, -3.48, 1.52, 0.28, 9.2, -2.9699999999999998, -8.17, 2.29, -1.74, 3.77, -8.57, 8.55, -9.14, -7.98, -4.1899999999999995, -1.29, 1.91, -0.37, 1.8199999999999998, -2.42, -5.65, -3.5300000000000002, 1.8199999999999998, -3.43, -8.43, -0.14, -5.59, -3.87, -0.03, 3.71, -0.4, 8.57, 7.51, 7.77, -2.45, -3.12, 1.62, -8.04, -9.94, 6.92, -4.65, -5.13, 4.68, -7.38, 8.51, 8.98, 7.33, -1.62, 0.88, -1.6800000000000002, -3.82, -7.02, 6.1899999999999995, -0.44999999999999996, 0.68, -4.54, -9.53, 4.27, -5.2, -2.75, -5.37, -3.52, -2.7, 1.38, -3.16, -6.19, 6.07, -7.1, -6.79, 3.09, 1.41, 2.76, 0.36, 6.49, -0.89, -8.45, 2.25, -2.87, -7.73, -6.84, 1.68, -5.2, -2.75, -7.9399999999999995, -1.02, 7.73, -4.64, -6.77, 3.9, -9.76, -1.6099999999999999, -1.87, -8.74, 5.31, 4.02, -6.31, -2.5300000000000002, 1.17, -3.74, 4.97, -7.05, -6.91, -0.32, -9.84, -1.3900000000000001, 3.68, 3.86, 2.27, -5.17, 4.29, 2.3, 7.77, 8.0, 6.88, 3.32, 3.64, 7.78, 1.85, 6.09, 6.89, 0.47, -3.84, 9.16, -6.66, 2.4, -9.7, -1.22, 2.85, 9.28, -8.51, 6.97, 6.96, 3.05, -5.79, -1.6099999999999999, 7.92, 2.35, 2.56, 7.52, -2.84, 2.98, -0.45999999999999996, -9.39, -9.27, 0.2, 4.65, -1.52, 1.87, 9.23, 3.35, -10.14, 2.27, -9.44, -0.73, 2.56, 8.51, 2.89, 3.37, -0.21, 1.63, 1.2, -7.54, -5.55, -4.72, -2.88, 1.69, 1.6099999999999999, -9.25, -7.04, 5.42, -9.12, 4.28, 8.97, -4.32, -8.41, 8.34, -0.07, 2.32, -3.77, -3.94, -7.18, -8.52, -1.33, 4.27, 4.08, 7.98, -3.52, -7.85, 6.56, -10.34, -5.92, 3.99, -8.54, -2.41, 2.83, -9.22, -1.19, -7.04, 2.19, -8.31, -1.09, -7.32, 7.28, 1.8599999999999999, -6.28, 4.13, -3.52, -4.86, -9.4, 7.76, -5.68, -8.79, -5.82, 7.18, 1.82, -6.02, -10.1, -5.63, 8.44, -9.0, -9.77, -7.91, 6.23, -2.93, -8.13, 0.22999999999999998, -8.54, -3.84, -3.04, -7.93, -8.66, 2.37, -9.6, 0.46, -0.63, -8.18, -1.58, -0.04, -3.61, 7.63, -3.86, 3.57, -5.72, 1.87, 9.56, -9.05, -6.12, -0.29, 7.53, -2.93, -6.6899999999999995, -8.6, -2.65, -2.4, 2.81, -3.19, -5.4, 7.6, 4.5, 5.41, -9.43, 6.66, 8.5, -2.5, -2.3, -0.43, 8.6, 1.6400000000000001, 8.62, -7.02, 2.56, -1.82, 0.0, 0.87, -8.97, -0.5, 1.63, -1.47, 0.96, 7.43, -6.16, 5.87, -5.76, -2.83, 8.63, 0.15000000000000002, 3.4, -4.04, 1.85, 3.67, 5.79, 5.57, -8.23, -6.27, 1.99, 9.19, 0.91, -10.46, -1.97, -0.72, -1.73, -7.82, -1.09, -9.57, -0.27, 1.0899999999999999, 5.45, -0.09999999999999998, 3.71, -5.63, 0.42000000000000004, 2.75, 1.63, -4.88, -4.59, 8.8, 7.22, -4.3, 6.57, -2.19, -7.5, -6.7, -6.56, 8.37, -1.8599999999999999, 7.92, -5.98, -1.0, -2.03, -7.11, -5.33, 0.73, 7.22, 3.81, -3.13, 8.07, -10.28, 8.9, 5.35, -3.14, -8.63, 9.38, 8.91, -2.7199999999999998, -3.83, 2.13, -1.69, 3.76, -9.96, 2.7, -10.88, -8.57, 2.21, -5.63, 9.83, -0.41000000000000003, 7.69, -9.37, -2.7199999999999998, -8.02, 4.67, -1.52, -6.04, -7.7, -2.86, 2.6, 1.52, -0.30000000000000004, -7.76, -1.62, -10.04, -0.5, 8.43, -10.52, 6.91, -6.63, -5.4, -6.88, 0.64, -6.5, -0.58, -4.65, -5.31, 5.58, -1.05, 9.93, 6.29, 1.5, -0.010000000000000009, -8.83, -1.25, 2.04, 3.83, 0.36, -4.62, -7.71, 2.34, 6.0, -9.88, -5.56, -1.48, -3.17, 4.12, 1.9100000000000001, -9.11, 0.72, 6.57, 0.25, 8.2, -4.39, -0.19999999999999996, -9.08, 7.55, -8.75, -10.89, 8.16, -6.82, -1.01, -0.15000000000000002, 4.62, -9.53, -9.5, -2.73, -3.68, 3.54, -4.88, 9.69, -7.41, 6.03, 7.75, -3.57, 8.07, -8.7, 3.78, 8.04, -2.45, -2.31, 4.17, 4.04, 3.85, -1.73, 3.12, 1.68, -2.69, -9.43, -2.98, 3.2, -6.62, -3.57, 4.1899999999999995, 7.68, 3.29, 3.38, -4.55, -6.98, -3.46, 4.32, 3.68, 9.07, 3.87, -4.9, 8.19, 7.99, 5.22, 3.29, 1.91, 1.44, -0.95, -1.6, -0.12, 1.24, -8.61, 3.11, -3.15, -2.54, -8.93, 2.2199999999999998, 4.28, 8.38, -2.94, -0.77, 3.52, -9.84, -4.04, -8.12, -6.23, 5.35], [-3.5, 5.78, -9.53, 2.38, -6.01, -9.07, 3.44, 1.38, -3.68, 8.88, -7.9, 1.72, -8.04, -2.4699999999999998, 6.0, -2.29, 0.75, -8.28, 1.54, -6.37, -1.71, 4.21, -8.82, -9.48, 4.66, -9.87, -5.03, -2.4699999999999998, -4.27, -7.2, -0.61, -7.27, 1.87, -3.99, 3.7, -1.17, 2.06, -3.29, -10.1, -8.42, 3.21, -6.32, -4.43, 0.4, -9.51, -10.98, 8.46, 6.4399999999999995, -0.14, -0.7, 0.25, 3.85, -0.22, 0.61, 8.62, -0.96, -4.46, 2.83, -7.77, 4.01, 6.62, -4.05, 5.9399999999999995, -8.35, -7.89, 3.77, -9.66, -2.62, 6.26, -2.31, 2.76, -1.67, -0.86, 8.42, -8.65, -7.33, -3.88, 7.52, -5.16, 7.5, 9.65, -7.29, -8.25, -8.51, -6.15, -1.12, 2.81, 6.53, -3.19, 3.8, -8.35, 4.66, -3.58, 5.6, 8.85, 0.56, 9.68, -2.2199999999999998, 2.43, -4.2, 5.19, -5.48, -4.12, 0.46, 9.56, -2.42, 4.4, 2.54, -2.65, 4.03, 0.61, -4.65, -3.48, -8.11, -6.53, -10.0, -5.55, -9.95, 0.65, -0.38, 9.99, -2.45, 6.49, 8.85, 6.84, -8.3, -6.34, -7.04, 5.63, -1.96, 5.1, 8.2, 6.72, 6.47, -9.74, -10.18, 8.69, -2.86, 3.1, 0.0, -0.73, 6.85, -6.91, -1.23, -7.26, -6.75, -7.96, 6.45, -1.6, -4.33, -8.03, 8.08, -6.2, -2.77, 1.08, -8.97, -3.48, 3.09, -3.58, -2.16, -2.74, 4.02, 0.28, 3.68, 9.49, -3.33, 8.97, 3.03, -0.76, -1.9300000000000002, -3.2, -1.8399999999999999, -2.5, 7.49, 7.55, -2.17, 8.42, -0.78, 4.0, 6.65, 4.56, -0.5, -9.16, 2.21, 8.19, -5.35, 2.41, -2.45, -7.08, -4.89, -1.17, 5.07, 3.46, -8.47, 6.09, 0.39, 7.51, 0.6599999999999999, 4.68, -0.58, -1.11, 5.69, 2.07, -2.94, 5.65, 9.43, -4.04, -9.82, 6.85, -9.93, 8.83, 0.17, -7.1899999999999995, -4.04, -2.2, 7.7, -9.67, -3.12, -8.38, 6.02, -1.04, -0.64, -4.74, 6.61, 3.31, 8.88, 4.45, -1.85, 7.55, -10.77, 6.62, 1.03, -0.8, -9.05, -8.3, 4.16, -1.74, 6.23, 0.09999999999999998, 9.07, 5.2, -8.15, -4.3, 2.16, 6.01, 6.43, 7.3100000000000005, 6.98, -2.84, -3.66, 8.88, -4.89, 2.17, -8.61, -3.79, 2.52, -9.6, -10.22, -8.59, -7.52, -2.13, -0.83, 6.19, 2.9, -3.5, 4.02, -1.73, 3.84, 4.66, 4.13, -1.56, -9.84, -0.62, 9.51, -5.14, 2.5300000000000002, 4.33, -8.12, -1.04, -9.24, 7.37, -6.5600000000000005, 8.73, 7.18, 1.78, 1.48, -2.02, 6.71, 6.04, -0.67, -2.24, 2.26, -5.09, 8.15, 3.19, -0.14, -8.86, 2.89, 0.6799999999999999, -8.58, -3.7800000000000002, 1.53, -3.57, -2.49, -9.14, 0.25, 5.54, -2.06, -3.32, -8.69, 4.4, 2.46, -0.77, 3.46, -5.22, -7.68, -0.13, -8.04, -3.17, -9.31, 4.13, 4.01, -2.23, -9.26, -4.28, 6.28, -5.95, -0.48, -4.43, 2.69, -7.78, -7.58, -9.61, -4.86, -5.99, -5.5600000000000005, -2.05, 4.35, -1.4100000000000001, 9.43, -4.43, 6.7, -1.01, -7.11, 5.57, -7.71, 4.87, 5.51, -4.15, -4.28, -6.54, -3.26, 3.93, 2.05, 0.49, 7.33, -4.03, -2.65, 5.22, -3.2199999999999998, 4.8100000000000005, -4.16, 4.89, 1.52, -7.53, -1.22, 8.16, 2.91, -8.9, -9.68, -8.6, -4.6, 8.65, -9.36, -3.49, -10.05, -6.92, 7.42, 7.42, 7.57, -6.12, -6.82, -2.84, 0.56, 6.73, 5.28, -2.3, 3.37, -4.67, 2.95, 6.5, -0.76, -1.93, -6.05, -2.62, -7.58, -0.07, 7.3, 6.21, -6.57, 1.74, 1.81, -3.6, -4.43, -8.69, 7.97, 7.29, -1.24, 7.63, 1.0, -3.6, 0.66, -4.38, -0.25, 8.52, -1.02, 7.53, 4.8, -4.23, -1.77, 3.46, 3.36, 9.88, 0.43999999999999995, -0.89, -6.07, -4.88, -10.45, 4.67, -5.59, -3.01, 7.05, -5.13, -7.76, 5.4, 6.9, 1.12, 0.050000000000000044, -9.72, 5.41, -8.69, 4.59, -0.4, 1.53, 8.57, 2.4699999999999998, 8.9, 4.86, 3.1, 1.3199999999999998, 7.13, -6.72, 0.97, 8.16, -1.02, -1.87, -2.11, 7.03, 0.39, -2.5, -1.77, 6.19, 8.46, -4.74, 3.37, 9.72, 2.54, -8.38, -9.31, -4.79, -9.63, 4.24, -1.47, 4.5, 3.7800000000000002, -3.35, -4.96, -5.01, 9.67, 5.07, 7.63, 9.56, -9.72, -8.77, 2.91, -4.24, 1.79, 3.2, -6.85, -4.1899999999999995, 3.44, -6.9, -3.5300000000000002, 4.92, -2.81, 4.19, 9.15, -5.96, -2.8, 3.26, -9.83, -1.92, 1.51, -0.39, -7.93, 1.6800000000000002, 8.03, -2.56, -5.74, -0.44999999999999996, 2.95, -1.04, -1.87, 8.4, -4.68, 7.8, -6.78, -7.3100000000000005, 4.07, 3.39, 2.74, -6.77, 8.99, -2.89, -9.66, 9.14, 5.89, 1.08, -10.11, -3.9, 1.42, -7.01, -2.01, -8.95, -8.67, 0.79, -0.02, -8.29, -4.59, -1.28, -10.33, 0.14, 6.03, -3.15, 4.97, -2.8, -6.7, 7.79, -7.86, 5.4, 4.05, -0.38, -1.74, 0.27, -10.38, -0.08999999999999997, -4.11, 4.65, 0.19999999999999996, 3.76, -5.17, -1.9300000000000002, -0.95, 0.010000000000000009, 5.11, 7.1899999999999995, -6.14, 1.95, -0.84, -1.42, 4.02, -6.2, 0.51, 8.76, -3.74, -0.47, 3.09, -3.04, 5.81, -3.75, -7.36, -0.62, 6.02, -3.91, 6.76, -8.07, -6.72, 9.87, -2.62, 6.96, -1.97, -3.4699999999999998, -10.75, -0.83, -1.8, -0.45, -4.66, 9.29, 8.97, 5.24, -9.01, -3.23, 8.22, -2.94, -2.34, -7.16, -3.91, -1.54, -1.74, -8.83, 8.63, -9.29, 3.39, -4.83, -3.2800000000000002, 7.43, -4.87, -8.74, 2.14, -10.99, -4.45, -0.44999999999999996, 4.39, -8.35, -9.48, -5.9, 7.4, -10.31, -10.55, 5.47, -6.68, 3.43, -5.42, 6.57, 1.15, -8.38, -8.89, -0.24, -9.82, 5.49, 2.76, 6.59, 6.61, -5.37, 1.24, 6.96, -1.53, 9.82, -0.76, -7.47, 4.93, 9.02, -6.31, -4.09, -2.5300000000000002, -2.29, 1.6400000000000001, -8.42, 0.32, 4.0600000000000005, -3.4699999999999998, -7.3, 6.98, -2.16, -6.8, 8.17, 5.24, 9.67, -1.67, 4.29, -5.9, 9.45, 0.0, -6.25, 5.62, 3.44, -0.09999999999999998, 7.22, -0.2, -3.96, -5.08, 8.84, 9.86, 2.48, 2.79, -0.14, 5.04, 1.1400000000000001, -0.04, -1.3900000000000001, -0.10999999999999999, 2.34, -0.37, 8.16, -5.51, 1.3900000000000001, 6.48, 7.7, 8.0, -2.87, -10.55, -8.7, -10.83, -5.05, -7.74, -8.51, -7.35, 6.02, 6.46, -3.27, -6.62, -2.7800000000000002, -6.91, -5.71, -7.64, 7.38, 2.79, -0.1, 4.15, 9.72, -2.37, -5.63, 2.31, -6.2, 6.26, 6.96, -9.54, -8.9, 0.21999999999999997, 4.14, 7.4399999999999995, -7.96, 5.06, -5.61, -5.88, 8.52, 1.81, 7.67, 1.0, -6.18, 7.86, 7.25, -8.93, 2.2800000000000002, 8.75, 6.83, 5.98, -9.17, -4.13, -2.7199999999999998, 1.6600000000000001, 4.6, -0.62, 3.0, 2.65, -2.18, -2.6, -6.09, 0.55, 7.88, -5.52, -4.75, -6.84, 5.86, 3.32, 2.06, 6.88, -8.73, 5.05, -3.85, 2.19, -1.66, 0.39, -5.23, 4.77, -10.64, -5.11, -9.47, -8.19, -0.97, 0.7, -3.7, -4.49, -5.62], [4.32, -1.8199999999999998, -4.41, -5.89, -10.53, -2.84, 7.17, -3.96, 3.23, -2.07, 2.92, -1.13, -7.71, -4.55, 8.49, 1.3599999999999999, 4.66, 3.8, -9.73, 3.4699999999999998, 2.26, -4.78, -2.7800000000000002, 5.03, 1.56, 9.34, 3.0, -9.81, -2.38, -9.9, -3.81, -3.41, -7.85, 8.48, -3.48, -10.2, 4.78, -7.52, 1.95, 0.86, -0.26, 8.67, -4.99, 0.69, 5.74, 9.57, 4.76, 2.79, 8.62, 5.26, -3.21, -6.71, -7.63, 4.73, -4.37, 4.97, -10.98, 7.01, -4.17, -1.96, 6.01, -4.83, 4.68, 0.06, 5.34, 8.28, -10.46, -5.71, -7.87, -9.59, 5.42, 1.01, -5.61, 2.99, -1.84, -7.98, -9.11, -10.99, 2.55, 8.3, -1.1400000000000001, 7.12, 7.22, 3.06, 7.22, 4.56, 3.21, -6.35, 2.32, -2.77, 2.13, 6.75, -5.27, -4.26, 4.9, 1.7, -8.55, -10.04, 6.72, -4.2, -4.76, -9.2, -1.99, 1.29, -1.69, 0.33999999999999997, -2.99, 6.88, 6.8100000000000005, -5.83, -5.59, -9.08, 2.43, -7.33, 8.19, 2.98, -10.42, -6.03, 2.97, 1.42, -4.35, -9.17, 8.95, -4.7, -0.84, 8.8, 3.9699999999999998, -10.48, -10.26, 7.8, 8.13, -4.46, 3.36, -8.49, -4.1, 4.46, 6.19, 0.78, 2.05, -6.56, -3.59, 3.63, 2.24, -0.31999999999999995, 3.54, -6.32, 5.98, 3.2, -7.1899999999999995, 4.57, -9.37, -3.4699999999999998, -0.43000000000000005, -8.2, 7.38, -8.91, 5.16, 2.41, -7.05, -4.6, -5.9399999999999995, -2.8, 1.42, 8.93, -7.58, -8.88, -0.34, 0.31, -9.25, 8.16, 1.73, 6.6, -3.8, -2.27, -1.83, -3.7199999999999998, -0.61, -1.04, 7.48, -4.35, -6.19, -0.85, 0.5, 3.0300000000000002, -5.79, 0.41, 9.31, -6.23, 0.25, 2.69, -6.09, -6.66, 6.15, -7.55, -6.28, 2.74, 5.28, 8.41, -7.79, 0.54, 6.12, 5.73, 1.76, -4.12, 3.11, -9.27, -9.04, 0.87, -2.5300000000000002, -4.18, -1.28, 6.29, -1.72, -6.55, -2.56, 0.77, -0.17, -8.25, -0.32, 4.03, 3.17, -6.98, 7.16, 6.99, 6.6899999999999995, -0.42000000000000004, -5.65, 3.0, 4.57, -6.57, -1.37, 1.24, 9.47, -2.0300000000000002, 5.76, 4.92, -7.84, -4.53, -8.61, -3.31, -10.12, 7.15, -1.48, -2.12, 8.95, -3.92, 6.14, -0.67, 5.63, 4.63, -0.44, 6.29, 3.38, -10.23, 7.91, 6.46, -4.39, -7.76, -3.59, -3.17, 8.89, -0.97, -8.61, -7.11, -5.5, 4.42, -1.19, -3.88, -5.3, -4.71, -4.99, 6.94, -0.020000000000000018, -7.84, 6.83, 8.07, -8.29, 1.28, -2.4, 1.31, -6.6, -8.36, 0.54, -3.4, 1.85, -4.62, -8.42, 3.07, 6.43, -0.21999999999999997, 6.67, -6.86, 7.1, 4.25, 2.83, 4.4, 3.45, 9.32, 5.67, -2.36, 6.67, 0.18999999999999995, -4.4, 6.49, 3.85, -5.27, -4.14, 4.54, -6.98, 5.37, -5.42, -8.28, -2.22, 2.16, 5.96, 2.89, -9.56, 2.88, -0.21, -7.77, 2.77, 2.34, 4.83, -5.53, -10.47, 4.82, 7.71, -8.18, -8.97, 5.96, -9.25, -5.84, -1.73, 0.7, 7.07, -6.62, 9.61, -2.5300000000000002, -3.14, 8.2, -9.08, -6.1, 9.0, 5.74, -2.37, 8.82, -8.81, -4.17, 3.62, 0.040000000000000036, 8.96, 0.6, 4.74, -8.74, -2.27, 6.16, 5.72, -2.68, -3.87, -0.06000000000000005, 7.12, -2.25, 1.85, 8.33, -5.01, -2.73, 3.61, -9.25, 2.84, 4.76, 4.68, 0.02, -5.24, -2.13, 8.27, 7.88, 5.64, 0.94, 6.98, 3.76, -2.93, 4.39, -9.86, -5.75, -9.32, -0.15000000000000002, -2.5300000000000002, -7.68, 3.06, -5.47, -0.07999999999999996, 8.92, 6.86, -8.82, 8.42, -9.3, -0.87, 4.68, -5.61, -6.02, -8.14, 1.94, 2.33, 8.79, -0.06999999999999995, 3.31, -3.35, 8.13, 2.04, -0.32999999999999996, -8.69, -8.91, -5.4399999999999995, 4.6899999999999995, 3.84, 3.0300000000000002, -2.92, 8.4, 1.19, -3.92, -8.93, -8.2, 2.71, 2.2800000000000002, 6.62, -3.12, 6.98, 4.75, 8.16, -5.87, -1.77, 7.09, -9.76, 1.17, -1.05, 8.17, -3.22, -4.36, -9.38, 7.46, 5.16, 8.89, -7.99, -1.6, 2.9, -5.12, 7.7, -1.77, 4.47, 5.46, -1.16, 0.21, 3.89, -8.58, -8.66, 5.96, 1.44, -2.03, -2.7199999999999998, -0.29, 2.84, 5.28, 0.28, 6.24, -7.74, 4.53, -7.5600000000000005, -9.22, -6.0600000000000005, 5.82, 5.42, 9.38, -1.3599999999999999, 3.99, -5.9399999999999995, -6.16, 2.8, -2.68, 9.57, 3.97, 5.19, 3.71, 2.14, -0.89, 6.02, -2.18, -8.68, -6.38, 9.25, 6.17, -7.37, -8.52, -1.52, -3.81, -0.040000000000000036, 2.29, -2.5300000000000002, -4.27, 8.98, 5.67, 9.59, -10.89, -2.78, -10.25, 7.03, -6.05, 2.03, 2.59, 1.72, -4.35, 9.43, 8.64, 6.29, 6.45, -9.05, -9.62, 1.47, -10.24, 6.05, -4.19, -9.98, 7.58, -0.96, 4.46, 1.8199999999999998, -10.18, -7.12, 5.04, -2.13, 6.98, -3.58, -4.68, -1.26, -2.78, 7.14, 7.98, -3.46, -9.14, 5.21, -3.54, -0.82, 5.43, -8.25, -9.01, -0.55, -8.07, 1.31, 6.64, -0.35, -6.74, -2.34, 8.88, 8.53, -4.18, 6.87, 0.33999999999999997, 4.01, 3.81, 2.12, -1.05, -3.32, -3.57, 3.08, 2.65, 2.32, 0.3, 1.34, -3.92, -6.03, 0.97, -3.33, 3.33, -7.99, -0.53, 3.66, -0.31999999999999995, 1.95, 3.04, -2.02, -3.32, -9.95, 7.14, 1.1, 0.010000000000000009, -0.31999999999999995, 6.96, -1.6, -5.94, -7.6, -3.81, -8.0, -9.42, 8.55, -5.98, 6.6, 8.96, -1.9100000000000001, 3.12, -10.9, 8.44, -7.89, -5.87, 4.66, -4.09, -0.97, 7.45, 2.06, 8.03, 5.28, -5.19, -3.63, 0.76, 6.76, 0.52, 0.37, -8.98, 8.51, 7.1, 5.36, -5.91, 1.62, -5.2, 5.32, -5.69, 0.83, 0.92, -2.03, -6.67, -6.29, 0.05, 7.52, 6.42, -5.74, -8.45, -9.92, -1.81, -3.34, -7.12, 3.79, -10.71, -1.0, 2.92, -0.48, -0.58, -6.22, 2.51, 4.66, -8.92, -0.63, -8.26, -8.41, -3.92, 7.9399999999999995, -6.55, 4.93, -8.76, -4.93, 3.69, -0.34, -9.42, -2.38, 5.21, 6.08, -10.84, -3.07, -3.19, -5.54, 6.37, -3.31, -8.13, -9.35, -8.09, 7.25, -9.43, -4.55, -5.99, -1.08, 0.51, -6.79, -1.69, -0.10999999999999999, 3.13, -8.03, 2.82, 9.35, 1.65, -0.79, 0.25, -9.61, -2.35, 3.81, 2.87, 4.67, 7.09, 0.65, 2.4, -3.23, -8.54, 3.02, -3.55, -4.29, 2.77, -3.95, 8.84, -6.46, -6.21, -6.44, -4.53, -5.08, 4.79, -2.83, 1.49, 7.13, -6.37, -2.68, -2.78, -3.27, -1.23, -2.21, -1.74, 6.37, 7.59, -2.54, -9.95, -6.57, -0.08, -7.23, 5.82, 6.66, -4.1, 8.3, -6.25, 5.56, -4.17, 3.6, -10.42, -0.94, -5.51, -8.14, 7.96, -3.92, 7.35, -9.14, -5.18, -3.67, -9.36, -7.56, -2.31, 0.01, 1.0699999999999998, -6.33, -6.84, 4.6, -0.29000000000000004, 7.93, 1.49, -1.55, -3.35, 2.94, 3.16, -3.82, 2.46, 6.66, -3.24, 1.9, -9.29, -6.71, 0.24, -3.12, -9.18, 4.02, -6.83, -1.9100000000000001, -9.64, 0.82, 5.37, 2.12, -6.24, 1.07, -7.33, -0.72, -0.49, -8.79, -3.18], [-1.25, -9.36, -1.2, -9.65, 1.47, 2.66, 4.63, 7.07, 7.95, -8.6, 5.99, 9.25, 0.97, 1.4300000000000002, -2.5, 2.44, 4.62, -6.43, 4.51, 0.6799999999999999, -8.25, -1.52, 1.68, 4.4, 5.9, 0.13, -10.2, -9.58, 1.75, -2.18, -3.18, 6.68, -0.43000000000000005, -0.37, -0.8200000000000001, 5.51, 6.47, -8.93, 4.33, 1.54, -8.89, -5.15, 0.75, -1.28, 6.07, 3.2199999999999998, -1.72, 8.09, 4.13, 8.85, 1.35, -8.41, -10.92, -5.79, 0.65, -8.94, 0.13, -1.48, -4.3100000000000005, 4.41, 4.04, -5.9, -4.51, -3.58, -0.78, 6.17, -8.7, 7.76, -0.33, -3.52, -2.38, 4.93, 3.71, 1.68, -8.3, -0.02, -8.95, -7.67, -2.36, -7.84, -7.96, -1.1, 0.69, 4.17, -8.24, -9.71, -0.05, -7.93, -1.85, -8.97, 4.2, 1.03, -7.4, -5.41, 7.4, 8.45, -3.04, 5.79, 9.28, -1.78, -8.72, 2.08, 7.12, -4.85, -1.4, -8.49, -4.43, -5.82, -5.76, -2.95, -9.74, 5.18, -1.69, 2.97, 3.14, -3.48, 8.04, 0.94, 0.07999999999999996, -7.23, 7.21, 5.92, -1.31, -8.09, -5.02, 4.21, -6.26, -3.98, 0.4, 7.34, -3.91, 8.8, -3.04, 5.15, -2.7199999999999998, 1.22, 3.34, 3.0300000000000002, -10.25, -8.02, 4.66, 9.88, -6.05, -1.0, 7.53, -0.06999999999999995, 2.84, -4.01, 3.7, 9.6, 4.67, -8.8, -8.35, 1.89, 2.94, 5.5, -1.72, -0.9, -8.35, 0.22, -6.66, 9.6, 8.53, -2.98, 3.4, -5.19, -9.44, 9.95, -5.29, 2.85, 5.77, -3.81, 3.35, -8.96, 7.73, 1.26, -9.73, -4.23, 2.04, -9.95, 5.1, -0.26, 6.34, -2.37, -8.12, 5.2, -2.15, -8.55, 7.83, 2.9, 4.38, 4.12, -2.34, 0.08999999999999997, 6.58, -4.62, -3.0300000000000002, -6.21, -5.97, -3.96, 4.42, -9.73, 7.84, -6.13, 0.78, 6.11, -1.44, 1.94, 1.95, -3.2, 8.55, 1.99, -8.12, 7.9399999999999995, -0.92, -6.43, -1.1400000000000001, -2.79, -6.6, -10.64, -2.61, 4.86, -8.96, 5.95, -1.35, -9.9, -2.45, 3.78, -5.31, -9.16, -4.12, 0.19, -1.3199999999999998, -9.24, -8.33, 5.38, 2.44, -1.79, -7.46, 4.68, -5.65, 4.67, -1.67, -4.21, 0.39, -10.57, -0.27, -3.02, -4.12, 7.51, -2.65, -5.53, -7.53, -10.83, 2.9699999999999998, -2.68, -6.18, 9.49, 1.01, -3.11, 8.54, -7.16, 9.91, 9.23, -9.98, -6.22, 5.78, -5.93, 2.03, -5.87, -9.97, -0.35, 1.25, -1.02, -2.38, 7.97, 2.11, -8.16, -2.06, 3.49, -8.83, -0.26, -1.6, -8.46, 5.5600000000000005, 2.73, -7.34, -3.19, -3.99, -2.23, 4.12, -7.04, 6.82, -1.55, 5.23, 3.99, -1.4, 0.8, -7.58, -5.4399999999999995, -1.23, -7.66, 6.5, -5.08, -9.1, -9.88, 5.29, 7.9, 9.48, -10.64, 4.27, -6.39, -2.5300000000000002, -0.88, 1.75, 4.89, 3.86, 2.33, -2.48, -7.21, 4.72, 6.76, -1.69, 8.26, -9.74, -6.42, 3.36, 3.11, -8.6, 6.09, -9.33, 3.24, 0.47, -1.99, 0.02, -3.65, -6.95, 7.97, -1.77, 8.81, 4.83, 8.59, 1.3399999999999999, 1.75, -1.37, 1.98, -1.94, 6.65, 3.14, -0.65, 0.9, 9.15, 6.12, 2.24, 7.48, 5.45, -2.34, -9.39, 5.31, -0.31, -0.86, -4.25, -1.01, 7.09, 7.5, 1.2, 7.62, 6.91, 9.63, 6.08, -6.49, -1.67, 1.04, 0.33, 5.13, -3.74, -7.83, 8.39, 0.87, -9.54, -8.36, 5.13, -4.76, 3.92, -5.71, -8.02, 5.94, 2.05, 2.16, 7.2, 1.51, 7.54, 0.77, -8.39, 0.94, 7.38, -3.82, 4.07, -10.27, -9.59, 1.1, -4.09, -6.65, 0.57, 9.71, 3.02, 9.41, -0.51, 8.19, -7.61, -8.19, 6.27, 0.31000000000000005, -4.5, -3.37, -4.38, -3.6, 6.38, 7.65, 0.9, 5.7, 2.33, 0.39, -4.38, 0.43999999999999995, 8.73, 7.68, -0.63, -4.44, 0.72, -2.4699999999999998, -5.26, -4.83, 4.53, -0.39, 0.71, -0.71, -3.13, 3.05, -1.04, -5.14, 0.76, -8.39, -9.61, 6.9399999999999995, 2.82, -2.85, -9.5, 3.6, -7.66, 2.24, 7.76, 4.87, 0.020000000000000018, 8.42, -2.35, -1.76, 9.34, -3.3, 9.59, -9.69, -3.2800000000000002, -6.42, 3.16, 9.3, -6.5, 5.9, -0.19, -4.87, -5.1899999999999995, 7.77, -9.15, -2.34, 2.39, 3.86, 2.56, -5.13, 5.08, 2.46, -8.57, 2.64, -6.52, -3.91, -3.99, -7.98, 7.3, 7.8, 7.79, -1.52, 8.04, -1.47, -7.08, 5.79, -2.29, 9.86, -4.56, 0.55, 9.05, 2.12, -10.63, 8.21, -8.13, 1.6099999999999999, -8.25, -2.22, -7.43, -2.69, 5.22, -9.11, 8.26, 8.2, -4.09, 8.84, 3.3, 5.95, 8.01, 0.71, -5.76, -4.91, -9.09, -1.6, -8.28, 1.26, -2.79, -5.29, -6.7, 4.24, -8.56, -8.49, 2.05, 7.06, -7.07, 9.36, -4.07, -5.76, -10.42, -2.66, 3.77, -10.13, 0.89, -3.68, 4.09, 5.68, 9.94, 9.82, -8.64, -10.15, -8.42, 4.98, -5.77, 4.48, -3.13, -6.63, -0.030000000000000027, -5.79, 3.25, -7.74, -7.07, 1.65, -0.31999999999999995, -10.06, -9.97, 2.02, -5.16, -0.5800000000000001, -4.03, 5.51, -9.73, -1.21, 3.3, -6.54, -1.4, -2.89, -4.89, -5.03, -5.92, 7.64, -5.43, 6.03, 6.29, -5.79, -4.03, 3.31, -7.66, -8.47, 5.98, -3.33, -5.89, -9.32, -4.9, -3.85, -10.46, -7.38, 8.27, -7.82, -7.23, 2.32, -5.76, 1.2, -2.1, 1.24, -0.18999999999999995, 5.88, 6.62, -2.25, 4.7, -0.52, -6.3, 8.82, -4.8100000000000005, 2.83, 4.14, -9.33, -2.92, -6.17, 5.65, 7.97, -3.75, -4.33, 1.62, 4.9399999999999995, -3.1, 1.3599999999999999, -3.94, 7.09, -0.5, 4.73, -8.54, -10.74, -1.25, -5.94, 3.7199999999999998, -9.78, 5.39, -7.78, 2.78, -3.91, 8.61, -3.76, 1.68, -7.0600000000000005, -5.81, -3.62, 1.71, -3.01, -1.34, 7.04, 9.93, -1.71, -3.5300000000000002, 7.08, 6.61, -6.35, -10.88, 7.45, 3.12, 8.87, -10.57, -0.78, 4.7, -6.9399999999999995, 0.8, 6.53, -6.9, -0.6599999999999999, 0.2, -4.6899999999999995, -1.89, -9.68, 5.74, 2.5300000000000002, 5.24, 2.9, 0.27, -3.46, -1.6400000000000001, -1.76, 4.11, 2.61, -4.84, 0.58, -6.0600000000000005, 5.49, -1.49, 5.48, 3.16, -0.99, -5.75, 8.07, 0.55, -5.25, -2.46, 9.58, 3.7199999999999998, 4.3100000000000005, -7.12, -6.68, 8.04, -2.5300000000000002, 9.19, 5.58, -5.79, -3.3, -3.77, 8.17, 2.18, -3.98, -2.57, -5.64, -8.77, -6.58, 9.36, 7.04, 4.61, -9.13, -3.51, -2.24, -0.54, -9.95, 8.13, 4.35, 4.62, -5.38, 1.3900000000000001, 1.56, 6.91, -3.64, -0.87, -2.22, -4.49, 8.51, -8.76, -6.33, 3.02, 8.31, -0.36, -1.95, -5.71, -2.45, -6.87, 7.63, -1.71, -5.54, 7.11, -5.1899999999999995, -0.63, -2.45, -1.78, -8.61, -4.27, 4.26, 8.3, 3.17, 7.9, -3.63, -9.43, -0.27, 3.57, -9.77, -7.88, 1.85, 1.8599999999999999, -4.77, 1.6800000000000002, 8.56, 4.77, 4.8, -1.59, -10.64, -0.48, 7.27, -3.64, 5.03, -5.43, -5.6899999999999995, 9.03, -4.68, 1.25, 0.18999999999999995, -2.01, -1.55, -7.0600000000000005, -9.84, 6.43], [6.7, 3.31, 8.29, 5.56, -8.53, -10.13, -1.01, -10.7, -4.78, 9.58, -8.92, -1.87, 6.86, -5.77, -1.31, 4.78, -1.1600000000000001, 6.29, -0.98, -3.01, -5.94, 9.11, -5.0, 8.12, 7.16, 7.57, -2.16, 6.42, 1.05, 5.42, 6.39, -4.18, 2.45, 3.74, -5.77, 4.88, -6.87, -2.95, -6.17, 0.71, -0.99, -5.77, 1.27, -5.23, -4.53, -5.69, -5.52, -8.89, -9.16, 4.0, 6.65, 7.27, 6.11, 5.62, -3.79, 4.1899999999999995, -8.1, 3.16, 6.06, 4.58, 7.6, -1.98, 4.95, 8.68, -10.26, -0.21, 1.28, 5.59, -1.83, -7.99, 0.27, -2.12, -8.06, -8.51, -3.24, -3.33, -3.69, -3.5, 7.35, -9.19, -10.14, 7.27, -6.03, -1.58, 0.39, -7.41, 4.19, 2.49, -0.91, 6.59, -1.22, 5.55, 5.52, 4.36, 7.62, -8.4, 4.57, 4.42, 5.86, 2.94, -9.43, 4.98, 5.55, 0.97, -3.81, -0.92, -5.68, 7.36, 6.13, -4.9, 9.67, 2.73, 0.87, -3.75, 5.33, 7.61, -7.89, 8.3, 3.1, -8.6, -10.84, 9.26, -2.73, -10.09, -2.22, -10.56, -8.08, 4.34, 8.71, -7.01, -0.38, -2.19, -8.68, 7.74, -9.75, 2.86, 3.75, 8.61, 8.18, 7.2, -3.99, -8.57, -7.35, -7.45, -8.01, -6.44, -4.48, 7.36, 7.8, -0.51, 9.72, 1.8, 8.82, -5.03, 2.4699999999999998, -6.97, -5.01, -4.37, -6.0, -0.21, 4.48, -0.17, 5.48, -10.4, 1.1800000000000002, 7.88, 5.58, 3.17, 1.17, -10.61, -9.99, -8.13, -5.4399999999999995, 3.81, -1.18, -10.51, -5.92, -8.67, 4.09, -10.38, 2.93, 5.9, -9.43, 7.97, 7.73, 4.4399999999999995, 5.09, 7.97, 0.85, -0.51, 5.79, 1.8199999999999998, -3.66, 0.14, -2.12, 0.76, -0.4, 6.98, 1.95, 6.47, 1.4, -4.74, -0.010000000000000009, -0.83, -5.56, 2.19, -4.65, 5.2, 8.48, 7.64, 0.23, -1.6, 1.6099999999999999, 0.61, 8.65, -5.37, -4.2, -1.5699999999999998, 0.86, -9.01, -2.04, 0.44999999999999996, 2.35, -8.77, -7.35, -2.63, 1.26, 4.68, 2.56, -4.78, -5.92, 6.39, -6.2, -5.59, 0.6599999999999999, 7.17, -3.4699999999999998, -10.79, 3.4, -10.98, -5.62, -5.75, -7.29, -3.68, -6.74, -3.01, -3.34, 6.27, 2.59, 3.42, -4.43, -2.5300000000000002, -10.92, -5.09, -2.86, 8.41, 7.86, 2.19, 6.89, -9.86, -9.27, 1.85, -4.04, 7.61, 0.88, 4.95, -6.58, 3.73, 2.4699999999999998, 7.21, 3.6, 4.73, -0.79, 4.05, -8.34, 0.86, 4.65, 7.95, 3.46, 8.02, -7.26, -0.09, -1.97, -0.07999999999999996, -5.44, -9.56, -9.13, -7.17, 2.52, 5.25, -7.45, -3.13, -7.35, -1.6099999999999999, -5.32, 7.32, -4.7, 9.96, 7.47, -0.87, 8.87, 8.54, 8.38, 7.96, -5.9, -4.55, 5.95, 0.93, 7.1, -4.76, -10.57, 1.93, 0.24, 4.99, 1.49, 6.41, 9.9, -7.91, 3.61, 4.38, -6.88, -2.15, -2.7199999999999998, -0.88, 3.1, -2.0300000000000002, -4.6, 7.42, -7.55, -3.64, 6.26, 4.01, 5.68, 7.36, -6.21, 3.2199999999999998, -1.37, -0.98, 2.97, 4.65, 2.48, 8.8, -2.2800000000000002, 1.52, -9.72, 1.44, -8.51, 0.15, -7.43, 0.05, -5.27, 2.62, 4.79, 2.11, -8.25, 2.93, -5.24, 0.16, 6.3100000000000005, -8.87, -8.67, -8.62, -7.81, -7.39, -9.98, -4.58, -8.4, -5.95, 7.25, 3.08, 0.25, 7.92, -8.84, -0.91, 1.11, 5.83, 7.42, 5.62, -4.95, 5.93, -3.7199999999999998, -6.33, -4.72, 4.75, 2.0, 9.1, -3.35, 7.95, -1.8399999999999999, -5.32, 2.33, -1.44, -4.63, 8.56, -5.5, -9.65, -4.49, -1.48, -4.42, -0.1, -6.82, 6.87, 8.95, 0.47, 1.48, -9.25, -10.31, 1.74, 3.32, 2.39, 2.3, 6.07, 5.39, -8.55, -7.98, -7.97, -5.09, -7.92, -5.48, 9.43, -3.34, -1.79, 7.0, 0.97, -3.17, 5.95, -4.2, -4.19, 0.4, -2.64, 1.78, 5.78, 4.5, -0.88, -3.18, 4.93, -6.48, 0.6, 2.75, -1.6099999999999999, 2.81, 7.31, -1.69, -9.74, -6.88, -9.98, -7.29, -8.75, -4.07, 1.62, 2.9699999999999998, -1.04, -8.53, -5.06, -3.81, -2.34, 3.39, -5.79, 7.08, -2.38, -0.42, 9.91, 5.78, 0.37, -2.92, 5.88, 7.09, -5.15, -6.71, 5.66, -1.45, -9.91, 5.39, -2.86, -9.53, 7.32, -4.91, -5.3100000000000005, 7.77, -5.62, -6.62, -4.22, 0.020000000000000018, -3.7, 0.92, -8.88, -4.97, -0.17, -8.65, 8.67, 2.48, -6.98, -1.97, 7.54, -1.58, 0.35, 0.86, -1.94, -3.98, 2.3, -8.61, -8.2, 6.17, -1.28, 7.68, -1.08, 5.77, -4.33, -4.72, -3.62, 4.75, -2.38, 2.15, -1.8, 5.98, -3.62, 4.32, 3.74, -9.14, -8.21, -2.5, 3.54, 7.29, 0.15000000000000002, 2.46, 1.63, -9.68, -3.46, 7.45, -5.48, -8.6, 5.11, -7.11, -9.7, -9.14, -4.45, -8.17, -6.98, 0.28, -9.24, -8.1, 0.5800000000000001, 6.05, -1.8599999999999999, -6.93, -6.97, 3.11, 4.59, 6.52, 3.56, -9.74, 2.27, 3.82, -0.64, 4.54, -1.1, -5.86, -2.95, -3.86, 7.32, 3.66, 4.71, 7.52, 0.76, -8.54, -8.14, -1.69, -8.91, -1.49, -4.21, -6.41, 9.21, -8.25, -10.17, 7.53, 4.15, 7.97, -2.83, -2.69, -0.48, 5.99, -1.35, 0.81, -4.24, 1.08, -0.9, -9.89, 6.27, -2.45, -1.54, -2.32, 2.33, -5.18, 0.54, -10.05, 4.15, -4.8100000000000005, -7.1, -0.16000000000000003, -1.72, 6.95, -10.04, 1.21, 2.84, 0.17000000000000004, 9.32, -3.29, -8.75, 3.14, 8.25, -7.29, -8.63, -2.69, 8.59, 7.47, -5.3, -7.21, -1.79, 5.45, 0.71, -5.88, -4.55, -6.32, 2.25, -8.4, -7.78, 6.52, 1.7, -8.15, 2.62, -7.07, 3.48, -7.02, -7.93, -4.17, 6.79, 1.44, 5.75, -3.67, 1.23, 7.23, 1.27, 1.88, 1.1, 1.95, -1.3599999999999999, 2.4699999999999998, -5.39, -3.56, 1.62, -6.43, -4.9399999999999995, -8.97, -10.05, -6.3, -5.5, -2.62, 6.67, -5.04, -0.97, 6.92, -1.8399999999999999, -1.2, -5.46, 0.82, 6.14, 1.71, 6.78, -0.73, -6.81, -0.09999999999999998, -8.91, -9.89, -0.73, 8.6, 8.96, 2.12, -5.5, -5.66, 3.23, -1.47, 1.3, -2.07, -3.73, -0.73, -7.21, -0.64, -3.17, -1.73, -3.77, 8.72, 7.03, -1.44, 3.82, 0.63, -5.24, 8.53, 5.78, 7.86, 8.7, 4.14, 0.27, 6.0, -9.03, 8.49, -0.92, -0.45, 5.88, 6.27, 8.49, 6.83, -6.96, -10.43, -9.3, 4.6, 7.9, 8.76, -4.29, 8.68, 1.31, -0.9, 6.02, 6.23, -6.0600000000000005, -9.34, 6.05, -10.99, -7.04, 5.2, 3.12, -2.64, 0.84, 0.43000000000000005, 3.42, 6.68, -4.59, -10.4, -7.63, -10.0, -9.98, -6.07, -6.79, 0.25, -4.33, -6.25, -2.84, -1.17, 7.33, 2.08, 8.38, 8.94, -7.43, -9.76, 0.84, 6.21, 3.42, 6.5600000000000005, 4.56, -7.28, 5.83, 4.58, -9.36, 8.38, -8.58, 8.86, -2.34, 6.0, -1.3599999999999999, -9.06, -7.86, -9.37, -4.7, 5.4399999999999995, -9.6, -2.37, -6.29, -7.45, -10.49, -4.57, 8.56, 7.7, -9.95, -0.83, 1.05], [-5.15, -9.21, 4.68, -4.48, 2.45, -3.05, 9.35, -5.93, 4.92, 1.85, -6.09, 1.6400000000000001, 4.51, -0.06, -8.95, 1.09, 0.01, 4.81, -0.33999999999999997, 4.89, -1.54, -0.6, -3.7800000000000002, -1.44, -0.42, -9.14, 6.94, -9.53, 0.07999999999999996, -1.97, -9.03, -4.88, -1.6, 6.26, -1.45, 7.43, -7.38, 2.61, 1.17, -1.9, 7.82, -10.08, -5.01, 1.55, 6.56, 6.46, 7.65, 1.19, 5.4, -1.34, 4.37, 8.23, 8.75, 2.69, -5.64, 3.34, -3.65, 4.24, 5.75, 5.42, -7.35, -5.32, -4.84, -6.44, 7.72, 9.36, -2.13, 4.01, 0.64, -8.21, -7.78, -3.3, -1.48, -6.67, -10.84, -2.79, -9.69, -8.28, 2.79, 8.42, 8.59, 1.1, 1.73, -2.65, 6.7, -10.26, -8.25, -7.85, -6.87, -0.88, -8.73, 6.23, -1.58, 6.4, -8.56, -5.95, -0.56, 8.11, -5.13, 7.63, -3.11, 1.73, 6.29, -3.4699999999999998, -8.14, 1.13, 7.87, 1.12, -3.91, -9.18, -7.59, -1.08, 6.2, 7.45, 2.23, 4.1, -5.38, -2.46, -0.62, -4.33, -0.73, 0.59, 3.66, 3.4699999999999998, -3.43, -6.17, -4.59, 1.17, -8.18, 6.08, -7.14, -4.01, -3.42, 6.38, 8.83, 0.35, 8.05, -6.11, -1.1600000000000001, 4.4, 4.88, -4.12, -5.9399999999999995, 4.85, -5.25, -8.76, -7.35, -7.9, 0.30000000000000004, -2.84, 7.29, 6.16, 8.09, -10.09, -7.73, 0.71, -0.19, 7.14, -1.8, -3.27, 9.17, -8.92, -6.87, 4.2, -7.75, 6.17, -7.65, 7.28, 2.9, 8.5, -10.64, 2.62, -0.42000000000000004, -4.01, 3.13, 1.31, -0.11, 7.69, -9.32, 1.99, -1.52, -1.1099999999999999, -1.9, -3.73, 7.36, 3.63, 6.58, 1.1099999999999999, -9.57, -7.14, -7.09, -7.9, 7.3, -7.91, -1.3599999999999999, -5.24, -0.65, 2.83, -10.84, 6.84, 6.21, -0.08, 4.88, 7.27, 8.84, 6.26, -5.83, -7.14, -3.9, 1.8599999999999999, 3.69, 8.42, -3.64, 7.34, -2.23, -5.11, -4.57, -6.73, 8.31, -5.54, 2.84, 7.16, -4.63, -0.38, -4.03, 4.63, 8.06, -6.63, -8.78, 1.7, -7.64, 0.76, 5.18, -6.52, 7.02, 7.83, 3.43, 9.24, -0.99, 4.0, -6.96, 0.62, 1.15, 8.11, 1.29, 6.45, 3.91, 3.79, -4.08, 8.99, -2.59, 9.56, -0.25, 1.73, -3.66, 2.15, 7.11, 4.03, -8.46, 2.85, 3.09, -4.39, 2.4, 6.91, 5.77, 4.12, -8.84, -1.49, 1.18, 2.11, 6.3, -1.47, -1.99, -9.95, 8.86, 8.9, -9.86, 5.35, -0.11, 1.28, 2.62, 7.7, -6.53, -7.1899999999999995, -0.74, -6.65, 1.03, 2.68, 1.83, -8.29, 8.46, 4.07, -2.89, -2.69, -7.51, -6.76, 0.39, 7.78, -10.52, -3.11, -4.17, -10.02, 4.54, -0.93, 4.74, 4.83, -2.7800000000000002, -8.6, -10.19, 2.24, -4.12, -4.99, 4.58, -3.2199999999999998, -1.69, 2.68, 8.81, -5.55, 5.85, 4.86, 6.83, -8.5, -9.88, -6.93, -2.71, -1.46, 3.84, -2.24, 2.21, 0.030000000000000027, 3.07, 2.74, -3.05, -4.53, 1.55, -1.3, 5.41, 2.24, 8.33, -5.3, -6.74, 5.13, 0.42, -6.91, -7.88, -1.12, -0.43000000000000005, -10.67, 4.68, 8.85, 6.22, 2.73, -9.7, 9.79, 3.42, -9.84, 1.8399999999999999, -2.95, 7.79, -0.22999999999999998, 3.5, -6.89, -3.74, 1.0899999999999999, -2.71, -9.69, -0.18000000000000005, -8.14, -8.61, -6.82, 1.95, 4.8, 2.37, -8.26, -2.37, 6.54, -6.84, -1.33, -1.77, 1.3900000000000001, 3.39, 2.65, -1.83, 3.05, -6.97, 4.74, 2.27, 8.55, 4.78, 6.27, 7.24, -10.61, -6.68, -2.66, -6.63, -10.86, -9.92, -7.5, -0.49, -10.45, 4.3, -9.03, -4.55, -5.59, -7.6, 8.92, 7.9, -3.9, -9.48, -2.93, 8.48, 8.51, -0.21, 8.34, -0.15000000000000002, -1.0899999999999999, -8.5, -7.2, -9.06, 9.29, -1.8, 6.48, -4.4, 7.9399999999999995, -4.25, -10.48, 7.96, -8.09, -4.54, 2.61, -9.8, -3.12, 8.04, 2.32, -6.38, -2.18, -2.45, -7.21, -4.9, -1.92, 3.91, 3.81, -3.2, -2.2800000000000002, -5.27, -4.67, 0.56, -3.21, -7.48, 0.6699999999999999, 1.9100000000000001, -9.82, 0.33999999999999997, -0.34, 5.02, -5.62, 1.34, 7.8, 7.67, -4.59, 8.5, 2.29, -4.88, -3.73, -10.35, -2.8, 8.93, 5.37, -4.64, -0.83, 8.26, 7.01, -0.62, -9.95, 7.39, -3.48, 4.72, -6.61, 1.17, 4.9, -7.22, -7.74, -5.38, -0.4, -6.86, -10.22, -7.67, 6.11, -3.27, 5.75, 7.28, 2.38, -1.73, -3.67, -0.13, -4.68, 6.0, -3.65, -8.74, -5.86, 3.9, -1.63, -0.92, 0.0, 4.79, 3.06, -7.13, 9.68, -2.91, -2.16, -5.01, -5.46, 6.03, -9.84, -3.79, -7.73, -7.68, 3.56, -7.89, -2.3, -4.4, 6.68, -0.23, -3.3, 1.42, 4.36, 5.89, -6.8, -6.45, -8.99, 1.6099999999999999, 4.95, 3.36, -7.2, -0.25, -8.68, 6.19, -7.98, -8.61, 0.3, -7.39, 8.68, 9.98, -7.98, -5.87, 8.17, 2.45, 0.29000000000000004, -8.98, -9.06, -9.59, -3.16, -7.81, 6.06, -8.65, -0.020000000000000018, 1.01, -9.7, 8.65, -5.96, 8.51, 7.2, -6.2, -7.5, 7.02, 6.26, 6.88, 1.8599999999999999, -7.18, -10.9, -7.67, -4.91, -2.97, -5.26, 1.71, 4.31, 6.25, -4.8, -7.12, 1.8, 0.20999999999999996, 3.45, 9.86, 0.38, -1.72, 5.95, 4.11, 4.61, -9.89, 5.97, -0.6, 1.63, 5.89, 2.03, 3.05, 7.34, 1.56, -1.19, -6.0, 0.42, -1.34, -5.74, -0.020000000000000018, 7.28, -0.79, -8.68, -9.69, -4.5, 4.89, -9.51, 6.79, -6.82, 7.0, 2.29, -4.5, -6.1, -8.51, -1.62, 8.75, 2.2, -0.01, -1.67, -0.67, -7.82, -3.93, 1.8199999999999998, 4.42, -3.92, -2.34, 5.94, -3.93, -7.47, 3.33, -0.42, -4.24, -5.78, 5.48, -9.65, -9.64, 1.32, -3.06, 4.99, -5.07, 1.48, -4.78, -4.29, -1.92, -3.94, -3.63, 6.13, -9.71, -3.55, -9.34, -5.49, 2.66, -5.51, -9.85, -8.85, -3.36, -10.74, 1.89, 6.25, 2.68, -1.2, -5.0600000000000005, -6.16, -3.4, 6.95, -6.88, 0.25, 5.52, 0.5700000000000001, 8.94, -3.41, 5.04, 9.46, 8.81, 1.27, 9.5, 9.08, -7.0, -9.04, 6.39, 5.4, -9.91, 1.48, 3.1, 7.92, -7.98, -5.71, -8.14, 2.75, -5.02, -5.55, 2.11, -5.78, 0.91, 4.76, -5.41, 1.23, 6.01, -8.19, 1.11, -7.73, 4.24, 5.3, -6.92, -0.47, 8.59, -7.12, -1.4, -0.97, -7.3100000000000005, 4.07, 9.59, -1.04, 8.32, 7.76, 4.81, -5.16, 2.12, -6.3100000000000005, 4.57, 6.49, -0.92, 6.8, -1.33, 0.61, -7.03, -2.68, 7.25, 9.13, -10.48, -8.17, -1.44, -8.4, -0.97, -0.84, -2.88, -6.63, 3.12, -6.37, 1.1400000000000001, 0.040000000000000036, -9.8, 6.94, 3.02, -5.6899999999999995, -6.9, 5.9399999999999995, -3.6, 2.11, -3.6, -9.0, -10.03, 5.62, -8.58, -5.54, 5.48, -7.07, 6.05, -5.2, 1.59, -1.76, 9.13, -0.37, -6.68, -1.07, -7.55, 2.32, 7.62, -7.91, -9.08, 3.21, -8.62, -8.53, 4.58, -3.7, -5.73, 4.6, 3.41, -5.65, -1.51, -0.54], [-1.53, 6.01, 6.18, 5.47, 8.68, 6.72, 1.72, -6.34, 6.83, 9.92, -9.21, 1.12, 4.43, 8.17, -0.7, 5.0, -0.53, 3.61, 6.29, 9.21, -10.3, 5.59, -1.58, 7.0600000000000005, -0.21, -6.08, -2.54, -3.62, 1.34, -0.16, 8.87, 0.6, -4.5, 4.78, 1.72, -5.97, 1.54, -4.11, 3.6, -8.25, 6.68, -9.63, 8.96, -9.29, -3.41, -8.64, -9.63, -6.65, -5.53, 7.96, -6.37, -3.98, 6.79, 1.45, -9.42, 5.8, -5.79, -9.03, 5.12, -8.03, 5.62, -10.5, 3.79, 5.27, -2.01, -8.87, -3.59, 5.57, 7.4399999999999995, -2.44, 9.23, 5.99, -0.25, -2.84, 8.27, 6.92, -2.9, -7.24, 9.02, 6.64, -5.05, -4.32, -0.55, 4.77, -4.04, 4.93, -6.0, 2.79, 3.9, 0.31999999999999995, -4.34, -4.05, -0.05, 8.11, 4.63, -4.48, -3.32, -2.09, -6.99, -0.81, -7.39, -8.68, 8.57, 0.87, 8.11, 2.66, -1.08, 8.48, 5.67, -9.97, 3.68, 7.52, -1.53, -8.41, -7.3, -10.79, 0.6, -6.01, 7.4, 1.63, 3.5, 8.56, -0.030000000000000027, 0.30000000000000004, -3.0300000000000002, -3.54, -5.19, 3.41, -10.25, 4.41, 2.2199999999999998, 7.02, 2.46, -7.95, 8.46, -6.11, -0.61, -8.54, -10.12, -6.47, -5.35, -7.32, -6.53, 1.42, -9.53, 1.53, -1.65, -6.78, -7.26, 1.68, -10.3, 3.76, 6.01, -0.64, 2.35, -10.34, 6.68, 6.24, -6.0, 9.35, 4.23, -8.37, 2.83, -0.03, -7.84, 3.77, -3.51, -3.55, 1.74, -10.23, 0.19, 0.65, 7.32, 2.14, -8.19, -3.26, -3.04, -5.76, 5.73, -8.78, -0.37, 9.71, 5.35, -1.6099999999999999, 9.8, 4.12, -2.18, 0.52, -7.98, -4.99, 6.04, 4.36, 3.68, -10.56, -3.96, -4.29, 6.26, -0.29000000000000004, -4.54, -9.2, 9.93, -3.68, -0.32999999999999996, -2.16, 6.51, 2.54, 1.74, -1.26, 4.3, 2.7, -0.86, 5.9, 5.12, -1.5, -3.87, 3.48, -5.41, 5.5, 8.78, -7.23, 9.34, 1.52, -10.31, 6.68, -10.43, -9.78, -9.03, 9.5, 8.44, -5.19, 8.36, -9.4, -6.27, -5.01, -10.16, -7.48, -9.09, 4.01, 5.45, -5.69, 1.67, 5.24, 1.6800000000000002, -5.1, -5.51, 0.98, 3.11, -9.73, -7.24, -6.9399999999999995, -8.06, 6.43, -0.36, -0.29, 5.42, 2.74, -6.94, -4.84, 5.38, 0.03, -0.16, -3.5, 6.88, 2.64, -5.51, 5.54, 4.42, -4.36, -6.42, 4.66, -4.88, 4.16, -7.09, -3.67, 0.95, 2.82, 7.12, -3.98, 2.32, -3.42, -2.85, -5.23, 0.8, 3.8, -8.88, 8.24, 8.13, -3.0, 5.72, -3.29, -3.04, -6.62, 3.85, 3.6, 2.14, 4.47, 0.21, -0.37, 1.04, 