{"Weights": [[0.050251344960043236, 0.20361767203819073, 0.14170102815453842, -0.041984536749403764, 0.0925747806563995, -0.379568310883246, -0.041553477899330976, 0.1831980333803206, -0.017735102853080952, 0.07341797959287995, -0.38050593182507253, 0.09453971328267989, -0.049786905410876846, 0.03974963925047207, -0.29124049949205244, 0.1767456469707619, -0.40318253906617585, 0.088858223964652, 0.1037451232523329, -0.014047204338371979, -0.28123674218555456, -0.18876020088109363, 0.0008353621425859847, -0.22523770254565517, 0.0947486296782359, 0.1396708447210868, -0.21546033764467595, 0.12025765780733347, -0.1393434679708042, -0.15807605669927544, -0.084371810294558, 0.051999294870108605, 0.17502857885217285, -0.23838383353138964, -0.31976384768656213, -0.16025113247690825, -0.12459249059615132, 0.20084207787823374, -0.055050654555944385, -0.21930871651593808, -0.09096881683305753, 0.13921821025498818, 0.020510100596825998, 0.1332150404564243, -0.10986260559590165, -0.17778271231272977, -0.02372245203148976, 0.12132146401663627, 0.011655808323928011, 0.23989976686737657, 0.08036101763117424, -0.15817616826001704, -0.3077343103402468, 0.17827770955656003, -0.21887918257314296, -0.2959425123962668, 0.11678699356767956, -0.21770333283573737, 0.09964494206974826, -0.11631979023128208, 0.1909329609091851, -0.09070738919117248, 0.07694821001802901, 0.08482563538511954], [-0.27986859008040016, 0.1416464264492448, 0.21281809613441904, -0.1675650992895493, 0.24647250811777538, -0.24673078129119497, -0.07381552450255634, 0.18154293179545425, -0.021657493959355255, 0.18213984972504355, -0.25103898545379927, 0.09376302239740987, -0.09747135145684918, -0.20406346170610426, -0.21033345717835925, 0.16366170414007086, -0.36728315292584246, -0.19726941068855294, 0.055478726295342305, 0.010236178089445925, -0.04852989643300481, -0.23996923477062496, 0.1677435454225737, -0.32690599166278655, -0.23176606813752357, 0.12034273461532403, 0.11361107651414275, -0.046951404946273645, 0.06443468908242218, 0.1811961401790523, -0.0645394875298166, 0.1461657099861413, 0.1626732947842917, 0.16498240121451752, -0.12004072727519327, 0.22390690745275016, 0.1818765646901447, -0.0336676863803494, 0.139609316839972, 0.04643703888700658, 0.1681992525922661, -0.21646892731793083, -0.22574598413070845, 0.26592563489575066, 0.2559127156394259, 0.029257637134929702, 0.16432032443082656, -0.1031810620775237, -0.22589184116768596, 0.2703998461535326, -0.044670470241802526, -0.15331852241678617, -0.09982761020271752, 0.07752370041766102, 0.011381188624897978, -0.023318353199979606, -0.16120306045130042, 0.10217150905429878, -0.3640016711588681, 0.138376819686802, -0.15814186839775785, 0.19518443305579536, 0.1464930202155519, -0.21535967949394935], [-0.1397586757537217, -0.08999237673792244, -0.08582140654768604, 0.01999145118268322, 0.2271092270782816, 0.027599085753824096, 0.09985112679351166, -0.16771561777627833, -0.11875828171839767, 0.10654417557428388, -0.2752134880288615, -0.1597590512860255, -0.1350552064180075, -0.07895376589291905, -0.2336630527050525, -0.023742282824533802, -0.11790576055521627, 0.10024136014808442, -0.03195665799559186, 0.0860283466487291, -0.14235264295313535, -0.2205699402109364, -0.003434509382281748, -0.20792310473767275, 0.07666082395332875, -0.21949330646213183, -0.2134183710605357, 0.12470347764608405, 0.11396312182755454, -0.11401869336827808, -0.017684726750239046, -0.17484155099985632, -0.016645452831202424, -0.09676854681214679, 0.15929066987516283, -0.22768443751181622, -0.1294764087627009, -0.026956021711179636, -0.003867416756724818, 0.026564887470420264, 0.1671498610510826, -0.17022721712315791, -0.3858491786747274, 0.017448371496855245, 0.04290515650136627, -0.3181569998021614, -0.2083202202456514, -0.24537651807445254, 0.07175682593265398, -0.24293699190598744, 0.044575010988753945, -0.07912116358586288, -0.15274697454024977, 0.15648852245171702, -0.13889108164874825, 0.02212850590344709, -0.2507604014996238, -0.23246019026921214, 0.040071805732199914, -0.2037802564141578, -0.12005980075594834, -0.0738196585673046, -0.1190563841959477, 0.0007561730055947318], [-0.1040255363564996, 0.18616671936149948, -0.05782103031590983, -0.17316292172109535, -0.12318446747044709, -0.024056690465459933, 0.14811755289517145, 0.12527701436014213, 0.010312009206594431, 0.1434544351799877, 0.023265179461984954, 0.17023360490463355, -0.010320400913885036, -0.2824224070081794, 0.1244786341334345, -0.06486338540957944, 0.125077462728418, -0.28007367128639715, -0.20471128495266053, -0.21122903277267052, -0.07123977979638592, -0.11793688828469524, -0.26490340206425805, -0.3006269906915741, -0.1338263086873952, -0.16467167276563968, 0.22621799054567665, 0.16049098191848005, 0.011157776645088591, -0.06994153910711864, 0.15062501108914794, 0.00408660806749834, -0.28262063331190895, -0.02548951349733865, -0.2904636389083137, -0.186031080926702, 0.0411227935480965, 0.03629836408601577, -0.2741331837247635, 0.2474990454677211, -0.2439131100465018, -0.17215159955512574, 0.1788713854474876, -0.2978181145072809, -0.09113640766280338, -0.168944769765322, 0.1183258530322021, -0.020145807530603233, -0.1344386146038652, -0.23923507325421522, 0.047589406733941256, 0.2227739919041021, 0.20579834124417615, -0.20090125080964136, 0.19213130216326496, 0.17019123056581614, -0.220120090870735, -0.09827948895029265, -0.12934024130854554, -0.20561779272661507, -0.1409197098816388, 0.013143632769649489, -0.3174644117017978, 0.08104850007841839], [0.22589021261801093, 0.01930039655930773, -0.19815880515906767, 0.21854538984025146, -0.19356378415171224, 0.027785371426667895, -0.11119419128548069, 0.1856372589061715, -0.11926768241344456, 0.1319379431658042, -0.15338995855526236, -0.02717194157685967, -0.26219587280154233, -0.28352702848074546, 0.018796066724868554, -0.259720236349702, -0.28077732970096714, -0.2370734921047533, 0.14330687385471758, -0.2826365552119158, 0.12743757269875344, -0.20942843592437765, -0.1235472106284326, -0.21934419685057796, 0.12653977292244153, -0.06455206648744824, -0.03604612238381518, 0.2486426505726887, 0.07824518739815679, 0.16653652868707344, 0.1739448603223316, 0.015968166323604472, -0.21222903643110747, 0.09959040794005787, -0.12596837969712446, 0.16620215495833682, -0.11853233918018714, 0.14768273986842456, -0.01117440628889161, 0.19944717921097924, -0.2816615699498764, -0.17167808456329625, 0.02240991666721889, 0.18011699445961088, -0.1783158209010884, -0.03443552307584965, -0.22381541563891075, 0.15855471826401651, 0.16430892818934917, -0.13218420021690216, -0.12011616264476375, -0.14792423247137676, -0.3251309113107602, 0.16913775478869555, -0.003341716073522148, -0.20909604517274688, 0.05452953369943979, -0.013934412113898715, 0.17045525572688308, 0.18680283966755828, 0.2203901312280422, -0.03436031143217936, -0.3717443624769796, 0.08594807676173857], [-0.11378411007507558, -0.04832885087103819, -0.06722453146227682, 0.16679312468022028, -0.06382482214089068, 0.0663359641911989, -0.26684600537871916, 0.04479665053001729, -0.023559484789862473, 0.06648717837477615, -0.09915445453528823, 0.13180139525740733, -0.0061202692877368615, 0.18296905901880955, 0.1351678469195884, -0.2975878463957291, -0.16905110090829042, 0.019379860624940584, -0.23920085260367238, -0.24190145973772342, -0.2873330370725833, -0.15151706078321514, 0.12707095098754015, -0.07902605117548443, 0.23017468785829834, 0.031801491865177396, -0.192371464016119, -0.13826224515139193, -0.049155554976118496, -0.2586517843667058, -0.17958336832557614, -0.18536760718586143, 0.012571781962250448, -0.1198710621830487, -0.09645511443068944, -0.23605029464186297, -0.1609070907184828, -0.2769927553255009, -0.3738426375118198, -0.08870121930459736, 0.21505525550965457, 0.06854074554492817, -0.18324229971181688, 0.2610331765827773, 0.17303415193682903, -0.0624536679567615, -0.16800025135348265, -0.15300484533190686, 0.21390356518325665, -0.2189414033791434, -0.2176160057006266, 0.2459129720083501, -0.286707957062887, 0.06083238901896857, -0.26346582505857835, 0.1590684929854079, -0.29207234803827964, -0.015030541077537497, 0.0013576085584915388, 0.1457560920554036, -0.11452722040724256, -0.1888200921068122, -0.09581602839970699, -0.3022716105458857], [-0.19789596803328752, -0.023823686681425746, 0.15400000263778355, -0.1505685262854337, 0.2205359871718422, -0.2722679425016339, 0.1150065781139367, -0.27299740443149806, 0.17382177850019506, -0.18684136167100193, -0.23192750207318175, 0.24422134666294537, 0.05003603796161849, -0.03636613630539992, 0.10913556608993756, -0.23859674612288995, -0.06214897167268639, -0.11683690318002558, -0.3099861607126189, -0.10474847904713118, 0.05725177199746186, -0.22940699453637453, 0.060799513065818704, -0.04116788774064196, 0.21771065805839904, 0.034061972218999884, -0.15425259399871216, 0.17719004211023642, 0.06658607849177567, -0.06406679993598517, -0.17710009862373524, -0.09127765648099877, 0.00917640767828179, -0.18095312596877974, -0.21516516283516812, -0.2866586087854248, 0.0946020216581978, 0.0789456585194793, -0.2115517906879835, 0.030724386111865343, 0.09147046791757636, -0.26814303636830505, -0.23473716577985546, 0.26790884200631315, -0.12264732527046351, 0.07870128696250682, 0.13336369828589523, 0.08524578618368014, 0.05170994050617886, -0.024105280704175204, 0.1136787006641986, 0.008105544344867467, -0.06347721273326809, 0.03510612665789717, -0.2386347963602861, -0.15036178231544867, 0.2060679919910067, -0.2403819856698181, 0.0378079593239318, 0.1462824781092903, 0.051210030221202185, -0.24146751638481811, 0.06456021256136606, 0.14873549803082417], [-0.13747380937021622, 0.18687188009520056, -0.2667929801878283, -0.24599119855314197, -0.07706766662573812, -0.19637527926058995, 0.050937179799483576, -0.06830044483650882, -0.1408411509067334, -0.21794610019335087, -0.22435096932677542, -0.17867518582532763, -0.17049809466676488, 0.16905443969211362, -0.12771849867234805, -0.03411997845204615, -0.15491889453187016, -0.38182737129595273, -0.20793280919632354, -0.07683385394756047, -0.2041554124719047, -0.09403866523397152, -0.00758588262904917, 0.004804402576777207, -0.1485749425100615, -0.07017886128799371, -0.288826794535777, 0.1805334804378586, -0.138056738448886, -0.008119303422744006, -0.26861908912910093, 0.028513625921213388, 0.10689090368429763, 0.09400952081146564, -0.0056900918883421, -0.12938060846853633, 0.27825359431232344, -0.030656709206656467, -0.20536302614378035, -0.12485520375611092, -0.24381590389936544, 0.06944529732146636, 0.06668629051570717, -0.07919328386013537, -0.05257332836675191, -0.27543779154998743, -0.05718938780452476, -0.2703750721507135, 0.2145250300135824, -0.20082624358855403, -0.2746578072340392, 0.28994785006738405, -0.14531374431641172, 0.20544302535928247, -0.308274685729441, -0.16593225093451003, 0.06576948074010544, -0.15213868452730545, 0.16220431618132594, -0.3166688066125946, -0.06420663180611831, 0.22249478886418278, -0.14568948911341795, -0.0021059143825394736], [-0.110753307865619, -0.006516585681307673, 0.10885156038905275, -0.23256154982533853, 0.11942197463469911, 0.1681498289543012, -0.23219100926686206, 0.11796897668950576, 0.17283471907562178, 0.21952535309460824, -0.32069232433223327, -0.07446958284528053, 0.250279131924351, -0.16924835572915106, -0.1574742514310404, -0.22052698068781976, 0.0625027949156443, 0.04865611771037385, -0.3302348726866808, -0.2603922493516689, -0.06459594294316987, 0.030475317919495412, -0.1274925990782308, 0.10417437302015657, 0.19710256334952264, 0.15293469399834472, -0.2864258850879493, -0.08362703297618368, 0.025460542538996385, 0.10654153547968707, -0.19348155048303242, 0.0389216818765442, 0.14778553201933028, 0.14515492939116972, 0.051332906432589864, 0.12574900933717792, 0.05285408350837684, -0.22262401594591621, -0.2684400607925799, -0.28443534245458857, -0.031110907932389863, 0.09268678036245458, -0.07157492214958125, -0.10322924746622336, -0.11186716815518062, 0.06580824548329407, -0.2591895102550701, -0.18786832196128342, -0.2288174560280204, -0.19490914691414682, -0.18415571239709497, -0.27379790894683026, -0.24655620781263352, -0.203684701380901, -0.09522965611685712, -0.20555496732792072, 0.004011317329114861, -0.2195539118678808, -0.2612550883010239, 0.028458010819744767, -0.27585379528975196, -0.20406780559152493, -0.04912699608861241, 0.05697678648948613], [0.22074976935662152, 0.10886355969767532, -0.11131337951216688, 0.00038934902373888574, -0.1389626390702047, -0.186694348834013, 0.20296202848492312, -0.04909368676034515, -0.06211788462409389, 0.2738283133127469, 0.1670297196947536, 0.15711926439595789, -0.1399145064981709, -0.219732302565681, -0.21663359804868434, -0.02232271713469372, -0.31231165585026494, 0.09655416924050038, -0.0004945970766235491, -0.05258259072436112, -0.12455994139797567, 0.10954696408099311, 0.053276216146645, -0.11006409529413969, 0.09178700660635263, -0.14888106763959558, -0.1895376235195387, 0.14224210224978195, -0.09461071527219768, -0.15303796241895168, 0.28307072954976636, -0.13458837406633684, 0.009119665626739338, -0.16171732130411223, 0.16647525253531748, -0.05262507301595187, 0.286104153645447, 0.08616252316155934, 0.10176749456942152, 0.2130001808183446, -0.3429404471692346, -0.08225305808130394, -0.39311183361138397, -0.02241588543725538, -0.08814214052690943, 0.18534689540097984, -0.03351917709471895, 0.1073607398451635, -0.010397247614525495, -0.2980643346725359, 0.14160288893131445, -0.11399685270341899, -0.22407509761455222, -0.29187065666006173, 0.04973517113655, -0.058764258458192276, -0.3651883908831136, 0.2625710261898612, 0.016770484427606504, 0.09041508800450578, -0.29747368550964703, 0.23143310313166127, -0.21529140466873695, -0.16775595781143218]], "Bias": -1.1442608110185166}