{"Weights": [[0.3796823355281624, -0.24564620812998958, 0.12026938570237224, 0.9057135736992776, -0.6978874427839782, -0.4221659022619243, 0.7205465855150925, -0.4908712274078948, -0.8688331004630574, 0.06112817134047357, 0.1082410033512229, -0.05515768678282669, -0.47694968275400546, 0.6485095560792027, 0.44175754027100983, 0.9921125755703227, -0.20275044455676244, -0.375604029063945, 0.7231914050831028, 0.14624079327009995, 0.5876275589456366, 0.3923407451677035, -0.7362908266771117, 0.49809735979389025, -0.9950961733383255, 0.9040559874797782, -0.26961924590872044, -0.6606394344594247, 0.731598022361377, -0.7677812052701571, 0.23343126796143288, 0.003023896325879868, -0.6450885235135883, -0.5710342416499693, 0.8511307727327894, 0.8137303768965553, -0.6125266851636629, 0.2087844034986427, 0.2304143905825968, 0.5122606305267353, 0.024729801150653805, -0.07886378855990726, -0.6907982394958198, -0.9122007721453741, 0.06856239828660339], [0.10188114392741975, -0.22797091380084217, -0.4967505755705538, -0.5416588407381299, -0.30445837953725974, 0.7763677757930614, -0.8033604628317754, 0.37419275710900096, 0.7562778175911609, -0.7883405332328676, -0.6270776170221461, 0.9734865032904694, -0.8191291554009031, 0.049986187798663255, 0.6815521075527985, -0.9609703744478801, 0.653448938641415, 0.47538358740812126, -0.5489294997860744, -0.6824103534119628, -0.5126089869429542, -0.7733208070637617, -0.221763578986603, -0.38138993043487435, -0.7729026915170607, 0.1778406078240769, -0.2803277657527677, -0.4726089661291514, 0.17650029198415615, -0.34280870713840966, -0.5389771387734391, 0.22521162028325728, 0.29459566945086274, -0.676695500641361, 0.593509988238024, 0.5923101403529554, 0.23414870894642736, -0.7080509567413411, 0.49171980409066346, 0.20757078958348107, 0.022779741431545243, -0.40241731060765307, -0.40309288042105584, -0.7795413992548406, 0.24633541932988187], [0.7261206534334641, 0.5791429139317873, 0.6194976726277012, 0.8204249654004033, -0.49537303734170796, -0.00839936722625413, -0.7180326229307848, 0.38313559368036887, 0.5042346223464078, 0.39845435000629487, 0.5199110892572147, 0.19557402550442385, 0.8475132088595243, -0.015154131569697903, 0.26286682650504695, -0.8547469285312437, -0.6508166229693337, 0.45502792305169965, -0.669318339991366, -0.8153657272247368, -0.3019943352032871, -1.791161578809002e-05, -0.5620574852797208, 0.2105107994292612, -0.6913425103109931, 0.3853215337624145, 0.8509799796643271, 0.26079653377121204, 0.5536258993895153, 0.018936347641270328, -0.28367172572487087, -0.8149948982625413, 0.9640558424454219, 0.7347467992177361, 0.7612029156090155, 0.407401861089685, 0.401818579077717, 0.8243042076933197, -0.054477266455755395, 0.37856268765973966, 0.9638303723196104, 0.9267342053688247, 0.2969409798033563, -0.5099591664696945, -0.12170393946345494], [0.9158147325795231, -0.8963113351936676, 0.7802133096429367, 0.2186691977021096, 0.5429431932080003, -0.2064519469458991, -0.5728725590461533, -0.21871599719858212, 0.38163177537510773, 0.896720235184215, 0.5753659313853147, 0.9921815666130336, 0.2496375725084148, 0.6215219137867521, 0.7365261325202781, 0.9578407351331554, 0.6660816903491351, -0.08841155448499716, 0.8796994169409748, -0.5082213788383563, -0.21521969936928662, 0.4725497347952174, 0.046341192680281126, 0.09302535110444833, -1.002973889192985, 0.9038398991665451, 0.762228157609535, -0.5490794843732354, 0.3895674645955713, -0.4335897890315619, -0.38595054146947827, 0.23107625938400894, -0.23629453590342828, 0.7184817747782944, -0.7269888433428268, 0.6460088921656465, 0.17211796852259473, 0.9504772835782592, 0.9287492555963949, -0.4524248437088431, 0.20497782348399235, -0.6593430988318372, 0.8950597291102173, -0.2394255308107159, 0.718933224350804], [0.1798092911972947, -0.5905055851376537, -0.09683250478397358, -0.0507989811251415, -0.39014122699930537, 0.19952886182439752, -0.20469221793689898, -0.9245453916666233, -0.42312266395800024, -0.059422927164684544, -0.3156203746618543, 0.8607038012582554, -0.9793342019738919, -0.3183795410040097, -0.5360767740003308, 0.23420906714177003, 0.5475358889413348, -0.093371679201664, 0.5487213520878458, -0.33367148142310327, 0.507441510831255, 0.8348329625730049, 0.009562461553350974, 0.8224608684059878, 0.40551514767326363, -0.12626469132787022, 0.9195788106330076, -0.4523959430169878, 0.2739635805257555, 0.008860192118216785, -0.7870548419873437, -0.13003587298131028, 0.03971543723984231, -0.009846713405371126, -0.6358905114389084, 0.4595703277680558, -0.4137810644056229, 0.5390620470080908, 0.028166055284900897, 0.9324348125341794, -0.7503009764984813, -0.17774698160869942, 0.9382778226325477, 0.31068236005474914, 0.3442588378201523], [0.690906586043121, 0.6858039403111691, -0.5219148110570185, -0.9674178583399509, 0.4707491666425888, -0.06147388345635076, 0.9361477018154201, 0.1719967748914427, -0.5328884130647551, -0.7286637911012346, -0.30878032139905004, 0.12924479811391723, 0.20169867411257184, -0.3041872904451493, -0.420042545573114, -0.2746403781880991, -0.9555768525058538, -0.18407032004254845, 0.45500737976508876, 0.8538946411518572, -0.25954325689161617, 0.30980636574568887, 0.8499530552140635, -0.9750483096702078, -0.5101078729390911, 0.39557213535943575, 0.7376616569575957, -0.02348672068453243, -0.5796921709150323, 0.5629238164317985, -0.4589788493079334, -0.5847747111801223, -0.7696637768243592, 0.3570121862617688, -0.31463535543867455, 0.4420267445525851, -0.41030994293829726, 0.2862037062490191, 0.006792255977405674, -0.26195018933162345, 0.4985426106024254, 0.22854977166159302, -0.8856002800122103, -0.6538977231968723, 0.8219938317111963], [0.7764394089869942, 0.8041583055210382, -0.9843884259090118, -0.5039474373320225, 0.14155433219304614, 0.9629157881407049, -0.6357130426597127, 0.8075576350705874, 0.2296192282321228, -0.6539892804672265, 0.8615648658037938, 0.46858105229663594, -0.7264489682198731, 0.045920462267215495, 0.9525963836088372, -0.10824872633120726, -0.07646790804397378, -0.0433673675417173, -0.6638911153806516, -0.7395461927375806, 0.11178346940877278, -0.4964578366985405, 0.9876613212656157, -0.7191975088604803, -0.47744997087086516, -0.9835352124109076, -0.9588351524085859, 0.7682963033674249, -0.15833320252344255, -0.3340870262545816, -0.5270030970928966, 0.2848742261280278, -0.5405903682715533, -0.7841208524671215, 0.47918581980462405, 0.2665794432072046, -0.1143622838283329, 0.5985286262447221, 0.19418163075566, 0.5270497201994436, 0.4208390251656338, -0.7821998424499522, -0.10742467514722864, -0.15796047910599506, -0.7886288693300177], [-0.134606996964427, 0.9122844076867741, 0.1494182912342951, 0.908591072228006, 0.4989103857801609, -0.2320336613763192, -0.5302248964111131, 0.1282293774172401, 0.932480461537252, 0.8744583904457227, -0.7279445336195437, 0.5899150519109438, 0.9239259415175358, 0.5126215586623537, 0.949963095829864, -0.1316181814609178, 0.9200347267339728, 0.6647530647112038, -0.44427593089157297, 0.7874207703016318, 0.6878850802588878, 0.8738924058743452, 0.2990936789144717, 0.335604939134622, -0.4084547975274835, -0.7936526653783558, 0.886038260292412, -0.2804605605898343, 0.15289521347860685, -0.18879313512060672, 0.4509069582072651, -0.4388759474375693, 0.6140152385120166, 0.7386257282322068, 0.765375243893806, 0.2387869022577679, -0.18142907077799636, 0.34375381587646414, 0.17337281428167306, 0.6438797287749137, 0.18704502814112178, -0.8457811963971619, 0.7241864341684013, -0.24914327092646704, -0.6688455560984649], [-0.43225922156372243, 0.16306642397185137, -0.8949739994854965, -0.511007026254621, 0.3356795675957788, -0.521795667779139, 0.7229160647470387, -0.24385824476121298, -0.2918807050428802, -0.37509909924416746, 0.8684580638842422, -0.4585349237709708, -0.1062970178364617, -0.01918130427404256, -0.6420916771301387, -0.341373775783068, 0.7087566894210373, 1.0023477627207047, -0.707441297024737, -0.6541591565430509, 0.5302554223810483, -0.8080245006228486, 0.1931030999358925, 0.8009977591837738, -0.7222311434387403, -0.03875748578272687, 0.48063378930887857, -0.2682952368829341, 0.5869805646779104, 0.27983515364332046, 0.34447584316261054, 0.8208323210098368, 0.8596124709164346, -0.9908745800353078, 0.892992530683654, 0.23060573476934546, -0.15014108591137593, 0.33453336610476736, -0.9806612978774608, 0.8677045206693618, 0.5575971991700397, -0.8685789798848494, -0.8117756338689165, 0.5140336482864413, -0.08562409424214631], [0.08468005121919363, -0.26478028770120643, -0.00978556982456483, -0.4633514160766412, 0.7361881645227826, 0.03458394192618119, 0.06607710003203064, 0.35334733331794416, -0.5257298175402563, -0.7682553389892036, 0.30633158763585777, -0.5430010955587545, -0.5904913290862497, 0.5643796445832517, -0.671058161884701, 0.7640834817789379, -0.1557741380562327, 0.42976715643119456, -0.6006540578864619, 0.16741315919403013, 0.7253041905322934, 0.38184723482830996, 0.7877231564720779, 0.06173993364304773, -0.8304568126003848, -0.15068110971634752, 0.7480355605807976, 0.03963378240941605, 0.061633702300900185, -0.05604423932775259, -0.5404167551519238, 0.2508643213739606, 0.056710909746409195, -0.8620045926947858, 0.3199393522112588, -0.68741330717629, -0.8080262926060136, -0.965647708102695, 0.7163450851637116, -0.18444929940592145, -0.410480525373303, -0.34416640837523876, 0.5164706342940567, -0.29391316947941903, -0.6289230952177364]], "Bias": -0.19027932631788136}