{"Weights": [[-0.1307558780264698, 0.16598656619545696, 0.07337807352969283, 0.12336693505596143, -0.020431302782605933, -0.08817634565242104, 0.37114937355981364, -0.39747338231576523, 0.14921332554181593, -0.025703246634172658, -0.34239383408215224, -0.13170812068602117, -0.2706741418292864, 0.33596065419184923, 0.2904808057764267, -0.06850640211266554, 0.24439065005982544, -0.16171254450896738, -0.3632124646763016, 0.1728890862539583, 0.23164013164012934, -0.23358781071999243, 0.29522877292810884, 0.16393981498743546, 0.24952062224899485, 0.36991090063193893, 0.1780784557718901, -0.27539747873966985, 0.0855758325769281, -0.41137127986461036, 0.3134175517257915, 0.4162297088647781, 0.27207174779527704, 0.15752844951987882, -0.22909014848014891, 0.07435064635692853, 0.2520960849724279, 0.2110015497108862, 0.3654522941044662, -0.4311490287734509], [0.3392758339658289, 0.13896524193374565, 0.31622118384920195, -0.06244104298643113, 0.32044119209700883, -0.008969032468885143, -0.0521096445006901, 0.042983789881270516, -0.06499889823792795, -0.20701837454133523, 0.15687459015313557, 0.2225984859274458, -0.14628166672128154, 0.016495460708111115, -0.22795587046009044, 0.4406049596002406, 0.2656776332883305, -0.02478904694919191, 0.41553551118553195, -0.17975127953512318, 0.04301109298988485, 0.2413290444342703, 0.37606731527684645, 0.2511044267588785, 0.24060864468945456, 0.0881106062431266, -0.3469229817654899, -0.13352699949954783, 0.054337626541242426, 0.06889042104076505, 0.23844253913468746, 0.39168016647942505, -0.09986983197332314, 0.13382820103748141, -0.29374577831345544, -0.29304068780807685, 0.23164985779387967, -0.23439525775045184, -0.41537985698654495, -0.17272327454941988], [0.39619921950503195, -0.325592959572955, -0.00632322182788226, -0.17587958205259344, 0.3877122928792091, -0.0105112819346473, 0.11376908762511972, 0.429981350645976, -0.24754901249553665, -0.2561759356756924, 0.024602208173802084, -0.32940717032269884, -0.2680546569244943, 0.2498264239702621, -0.05925515301215881, -0.24455324336815912, 0.4227076088960708, 0.3416327120329605, -0.24353146536089862, -0.22691883232347382, 0.3172038896317223, -0.306482300144706, -0.045746086421407754, 0.3494489069513453, 0.05640164938248875, 0.24270513647559985, -0.06625574554203914, -0.02358373726590495, -0.39530484166216145, -0.4103291287214997, 0.185927658395898, 0.3796469355661711, 0.07430626360815651, -0.23923503625434112, -0.19166344921084083, 0.3148530446178571, -0.39616950401604817, 0.162552905771955, -0.37690106880205765, 0.4328704060585132], [-0.3818142401511668, -0.15426032850599283, 0.2465781401564917, 0.17848004468050738, 0.27665434740221123, -0.16396170163767265, 0.1442757350336351, -0.005571282337748222, -0.19170051896021714, -0.014200461278384658, 0.20983473953211237, -0.1160690253541249, 0.0395003662541472, -0.15666528815424655, -0.18933034093816686, -0.3911839026551201, -0.32117066893917673, 0.025849111985378682, -0.38669078108636346, 0.04759169188938251, 0.07787846262708267, -0.05959328768823627, 0.21254403392297475, -0.1763026498767565, 0.12710626542686004, 0.1380690676416416, 0.1441358109938841, -0.295812957486956, 0.3001605665518337, -0.24400579177839046, 0.0351766635111307, 0.3083702412863, 0.3835036554881007, 0.13922715255611956, 0.08405747561486206, -0.3663832124070016, 0.24339977020828826, 0.15695131207887822, 0.38407335092979616, -0.105612396231279], [0.12940298878840922, -0.03645986138882353, 0.18212267868210982, 0.1875058107346307, -0.4033570258793631, -0.0490288747476602, 0.3554398507070609, 0.31945886988465305, 0.05603069459022096, 0.2758863231201359, 0.1481312331881496, -0.1491646260536563, -0.39536081866287764, 0.16430167289255368, -0.11457401789725465, -0.14921464730382306, -0.43326847819243636, -0.03601911228355118, -0.40870532797693493, -0.16985735385124534, -0.3508030954118688, 0.2827638949652589, 0.12118518048626045, 0.07104688391727464, 0.18554569402868326, -0.08349138757630972, -0.13378539050324645, 0.05264323226380075, -0.30211077329051417, 0.2518396115465611, -0.24734688308652686, 0.39412027602218014, 0.06918294417949615, -0.43613506963493703, 0.29405424816726056, 0.42689307524433634, -0.32208210020819145, -0.06810700345683213, -0.42856570208461275, 0.19746708343010588], [-0.1459195292650304, 0.06922369013873686, 0.19700296689900512, 0.016358770426262798, 0.42646361532552685, 0.011613240754317269, -0.03142425681480967, 0.24276645038594463, -0.23466353727352884, -0.1113196214180129, -0.15722379002260528, -0.4044854227715737, 0.4154205672249984, 0.025495200809581908, 0.016654967352185034, -0.0751757203965253, -0.3014805408426749, 0.22889945539009462, -0.12541942728710734, 0.06440523472362658, -0.27336047756896303, 0.19630039617441908, 0.1378318032824863, -0.04674858522498788, -0.06486519894004229, 0.13976392368642773, 0.18880600452617266, -0.17734341300588652, -0.2489593445541886, -0.17739061694067668, 0.16042140862508322, 0.12980603632647159, 0.1301664279318697, -0.05945796560863238, -0.3667957322838076, -0.056049761975387705, -0.40741100710626416, 0.01422796752437698, -0.348217291145415, -0.26097838307777516], [0.3744852691282385, -0.09629932500661295, 0.31352834055905576, -0.08413415077572486, -0.11656699724213652, -0.1722403458880102, 0.0995685466838865, 0.11348936331811299, -0.0480983990469674, 0.05482773950155973, -0.11507076839403867, 0.20673200582180817, 0.2123024071826937, -0.272515888521529, 0.36582813875758075, -0.010228795446766852, -0.08893551584586554, 0.3732468648111423, -0.0715145797191303, -0.16162565960595043, -0.048075848151498186, 0.36858191935098455, 0.09843279162979877, -0.08464164863566237, 0.021210261951071646, 0.3452415968411497, -0.3142379522400022, 0.08472927987433793, -0.21253485780575776, -0.2946537706240522, 0.007274118156749851, 0.07737137828645127, 0.24503557380340044, 0.3168675779522107, 0.0983164297685115, 0.03800843248349194, -0.4035186610327766, -0.2870118035108553, -0.15172742613752796, -0.009699029310437224], [0.10556667123084919, 0.1985588590111772, 0.0710347477400488, -0.13086850405058958, 0.2507667296205476, 0.22350236065000378, -0.4027656785416172, -0.022302266881523328, 0.1606493636990812, 0.05309242736687374, 0.43307611028962567, 0.1403749419774267, -0.3119287833630739, -0.2141909585532626, 0.4278692640969618, -0.39195395095673463, -0.22682593895529046, -0.36154277319811345, 0.029517484886185656, 0.28089927325978786, -0.24752995527333785, 0.11604723434423078, -0.10535983069993399, -0.0887578097807116, 0.03402519207842879, 0.10855303274916837, -0.08702836899597516, 0.33759015246197116, 0.026391172396570687, -0.1865257875555407, 0.3374383249430704, -0.34191060019167324, -0.28888970226252725, 0.29254718010347336, 0.10358131245371589, -0.34249101224947476, -0.37833706539821715, 0.07129725666491266, 0.16551727045759704, 0.08543925485867258], [0.41785404559234884, -0.12873933824458697, 0.34831725515144607, -0.017403368165367056, -0.3859945639945726, 0.10796566039837896, -0.28820580614488917, -0.12822184841713868, -0.12593765744141977, -0.35500134642187897, -0.334157247521024, 0.22917298471525432, -0.08869200517230344, 0.2441548348303529, -0.27836625663325976, 0.02466267819993901, -0.2703859417094431, -0.21294528292707407, -0.2929937760351006, -0.11811231043614946, 0.09852910413467288, -0.030497988282784265, 0.30436542530183974, 0.022298670406954966, -0.30310870688095554, -0.22314754132972392, -0.35762395652466533, -0.21014545503094406, -0.35139883692735346, 0.3526664093211003, -0.03492844260421102, 0.14849259377268392, -0.41968004508811313, -0.17105988177811823, -0.10242413339171648, 0.3323884051666775, -0.24651428003911596, 0.12230412780977212, 0.1701464346511657, -0.1271035210153842], [0.3884172180246269, -0.21038078674793587, -0.042472501925184494, 0.3739217150916047, -0.13691710739939164, 0.14746866010768434, -0.16999697935698158, 0.31550989244472777, -0.40679369591800185, 0.08952549246107096, 0.08289035781358521, -0.22319750445623845, -0.4117673852224332, 0.2545791496110211, -0.23923462373076304, -0.012210695047867537, -0.31492962800222823, -0.3797801072757946, 0.21410810952272563, -0.26964114289380614, 0.19317150488108836, -0.39939896115052154, -0.3718096616083125, 0.42198479232836866, -0.22233803818842252, 0.20160627843695558, 0.18500048770710859, 0.00677058393132891, -0.005196918378698351, 0.3468482317222767, 0.19422219497539248, 0.07324256302609511, -0.07745890678103363, -0.16162546340238163, -0.050086226865347847, -0.19507181075876048, -0.2883910319254407, -0.10856062187007826, -0.14373492539660931, -0.35031660849352503]], "Bias": 0.009844034117009976}