8.859998111047462 -6.466525735823672 6.747909524501455 7.280021230494749 -2.069616571361039 -2.402424643058776 3.6234744385024884 -7.148410601565876 -6.889651901974828 9.850359246863018 -6.219566525315441 -9.122194796126447 -1.3978132135396812 -6.500403032026626 -5.218755580745987 3.454459122582748 -7.43952879870145 2.5253276126141064 -0.09966232421925589 2.0188758877087176 0.804779750127789 -9.82165891554439 3.209354407092923 7.795755396935568 7.148336352440267 
3.42330068375422 4.841126623031888 -0.34010826464428945 6.649447584788633 -1.1705167359262072 -9.424657218253369 8.731679238558844 -8.350104511472537 2.359611733038192 1.0494107203356164 1.7494660801741315 -10.292871454590678 -4.81700248503467 -6.835761241955247 -5.3431091262429415 1.183108183078249 -6.320520956752766 3.548448798117296 -6.350479666339031 0.6896542481973336 -8.247474113680394 2.1323550904345105 8.089468594707398 -8.157780806757803 0.9198614556680648 
7.425861211138271 -1.811604862487856 0.31348473797513954 -7.6469231446557835 7.940039809407212 -5.208598019325445 -6.708751575432538 7.2557551867462715 -10.929924031808994 -8.549847444797004 5.090110648955472 -4.7552328497704694 5.1139159393233475 -5.351016672675354 8.46733892755134 7.096888150446443 -8.289799608785037 -6.714881939027202 9.259798274310915 9.228431549816232 -10.925671603453633 -10.326541519162458 4.9802040247187565 2.6164388228315993 -7.4302304340592915 
-9.683342930670905 -3.970990062048875 7.841732082886259 2.656311140297084 3.4101020820331933 -7.017977565335158 -5.356695384751383 2.5524119201642455 4.049934143136507 -9.3999274399983 5.080021191645604 -0.049957666204164475 8.575438112914782 -0.7609554309545948 3.124391777508414 -7.125953285808844 -4.009992690608295 -2.5001538482850707 3.179954663001753 3.729181774743185 8.125576936199563 -7.858007720242674 9.96941376234138 -1.2639369684381547 7.428789618975428 
-1.042159988637909 0.17096920729521617 5.4888486826910015 -9.405711810983615 7.570195932567427 3.4935502426285376 -3.419422101660534 3.4121043849712183 -0.5396324903439632 -0.5395164765597092 1.3504620472150115 -8.77147018474397 -0.4454653803249314 -10.788681513327653 -10.54618398485525 -7.838905783648011 -1.6895456965728732 -10.017110005209233 1.2604566959546182 -1.2507014414441402 -6.751261450356447 9.00875908508677 3.5595073922707257 -1.3723829531416518 3.050210764835794 
-9.0353905551051 1.776299182964702 5.204135697023499 3.182728416858309 9.230183854017966 -8.138833709967923 -3.864146540354943 -0.5110870390590085 2.430125682645541 7.530397832013212 -1.9195488833828729 9.631830026072432 -2.1115153531755957 -6.818232388090163 0.1895906600996022 5.474875608759586 4.000403775959305 6.258804329896724 -0.8396633168302442 -1.680227080566021 2.3055424647156664 -2.9737674110664574 6.150709468719991 -8.402468762662208 -1.8790453712963977 
0.4147346936506277 6.8126498823318755 -0.6500071036215457 -3.094365775949807 2.419480602327141 4.68707577714362 -8.477395928021327 -10.013790132107466 -5.350470131742615 -6.900524681940593 7.6294720370791245 0.08054507440401029 -1.547295132124033 -2.7489952447376242 -8.845428645572548 1.0717303738362502 -1.8703414225970478 -2.237982984709244 -1.1205264198888831 4.049527387462329 -1.0777618543168976 -8.135165316289298 -1.0212375152445294 4.12412532460703 0.4190798396187247 
-8.1708082021457 -0.10664784870197336 7.778521903321776 5.041542415166467 -4.809300834455845 5.130168218486241 -3.2043221578279413 -9.768987472738043 -0.6295921753868672 -8.529194454324161 0.7507036751637478 -1.7550217205721759 -5.57005618306968 7.213787976502653 7.438920443231534 3.7141986543654673 -0.10935606944529515 8.209834987658857 -5.409198831349059 4.796719525966963 -9.877973994017296 6.880649542451846 6.110937324514674 -2.24166845755694 3.260376176675673 
-5.507637989334285 7.211674369874368 -9.825043481653262 -0.4036756809335415 0.04052388080939023 -8.106308764598902 4.576828928331745 4.864768047687261 -0.29009639883790883 5.930369987648098 4.080495125977516 5.22861643602857 4.684132669691425 8.862333610457107 -5.73399308219326 -6.439433458349375 6.890374636579128 -1.6270762808971146 2.07008844616292 5.329169157524761 4.184879174379596 -9.28869568637719 -8.469260845519903 3.347110488456329 -9.500119426782756 
0.2447304333446705 9.104258056825989 -6.665123269222623 1.9923841423649482 2.1899913767261507 1.8162454362699787 4.785328257423172 -0.47884180587444114 -9.149839761212846 4.899985859647381 6.900053644322789 -8.5277543965559 -4.012068832145919 7.767865754724206 3.3750715151665527 0.6850893143996836 2.470071421267409 -2.649230839470332 8.459795116360889 -1.8109356922961857 -3.1897080297783225 -5.780890407934748 5.988803056845336 -0.880076567489511 6.7284765174929895 