{"Weights": [[0.4008749339673098, 0.8082973946582414, -0.6731720228174828, -0.44669031545791016, -0.5207984466725676, -0.34328211284688986, 0.42850776547752467, -0.19005106066154542, -0.47378823216872196, -0.4988766555443898, 0.29494860954762464, 0.4517581372892173, -0.616110120821579, -0.421467947013351, -0.09050287886813088, 0.5144941114064834, -0.16519614258978682, -0.013862916927941518, 0.9415533408983966, 0.509996366660156, 0.11414609516785446, 0.04900746298551417, -0.766664879525115, 0.5731742805284527, 0.30770779257152886, 0.6123218596423615, 0.15122384618836107, 0.7572184669257307, 0.3876319329684252, -0.5201192465312588], [-0.6100411174058346, -0.6942602726513789, -0.7325600859138952, -0.35671229623369444, -0.8439601419941976, 0.536245616633251, -0.5165846341024471, 0.9403642667023072, 0.751463533272176, 0.6044758827888185, 0.5169445062540233, -0.0724454350932793, 0.31111106692665225, 0.17438689246446157, 0.5654776921736264, 0.9706199766613814, -0.9190144610865403, -0.8775269083046546, 0.2918336358261394, 0.9203776665845933, 0.3268146168736636, 0.5759755619221727, 0.5344264938113905, 0.6634174920861422, -0.8643508749849768, -0.8592321751761856, -0.165245677061919, -0.6743825124586749, 0.3099929073800269, 0.24845770314932134], [0.8323756828444746, -0.6271051056679791, -0.012795918097196629, -0.3597846012160226, -0.5186394494948154, -0.9006895230808217, 0.353049978309612, 0.7857498065032519, 0.6753621172111821, -0.09353598220271919, -0.2558116960975726, -0.9846664913140102, 0.2895768067878097, 0.20712865200476446, 0.6866520477325129, 0.015093233496608778, 0.9579474045651305, -0.7754203636267144, -0.46448755598147784, -0.3506732451286871, 0.8738046707652491, -0.14492143854129136, -0.11945466022374701, 0.4162833378867354, 0.7426965339480668, 0.8265802954319077, -0.7046149269132364, -0.4276647199704105, 0.9633960534302888, -0.6821833995147851], [0.1562760018228876, -0.8558643776699766, 0.18905581152629217, -0.9026738243036855, 0.6753705076144536, -0.48123678523078706, -0.03250258049366396, -0.5763042746771933, 0.41658400487273967, -0.5610551710757937, -0.6596542950562935, -0.17011927789332665, -0.7518107863805086, -0.7655847545798198, -0.9269960261051788, -0.9168301854703279, -0.7226484791977074, 0.45758221365552704, -0.14773978277183714, -0.38122071779992417, 0.565184728219205, -0.5353586553480764, 0.8094083206864264, 0.4740582635348224, -0.24793226542209792, -0.7555362498824439, 0.06571197126901705, 0.6258659399827642, -0.0022095403125308617, 0.33877141375962533], [-0.3312517495884008, -0.5593411417737874, -0.598079930505019, -0.20947563686769577, -0.48710141217110753, -0.05954332581752112, -0.39852160442718354, -0.29731910966858804, 0.12773182235762512, 0.5544540352475369, 0.15172302167488844, -0.19447583564464327, -0.2496439101394292, 0.5341868373090711, 0.5113673099381205, 0.9791948518281195, 0.2715585095749218, 0.1003733693010765, 0.7763745364639637, 0.1807853159707566, 0.09760015954956282, -0.47410762805570905, 0.3193088718219147, -0.3408088120826718, 0.23663272954547745, 0.751315225874588, 0.8812515214468489, -0.7900804635565133, -0.7323033291204877, 0.14470292897192863], [-0.9159131894044542, -0.4368467989994901, 0.6108238060131803, -0.6495335819092434, -0.7116315779438023, 0.20240334557277453, 0.32395047258096976, -0.2689117998914305, 0.8638867276733598, -0.03980619152204798, -0.8045839253005617, 0.9209845560754348, -0.6845396038196626, -0.5378776713912049, 0.7940634594913604, -0.592609377457557, 0.4101099034541195, -0.8081536044674859, 0.5250625977483258, 0.5208109368669722, -0.5296320631449314, -0.17089335547458304, -0.7385881073301945, 0.3154406948154177, 0.7795953880535875, 0.3559165322356875, -0.5599948723492962, 0.2498891894646648, 0.5791940241262933, -0.3933049888884538], [0.5593307412070836, -0.8357967878443312, 0.04119285313788977, -0.1946060627166558, 0.4901123798379468, 0.1209422128189223, 0.2272510420694676, 0.9919336455059194, -0.6763993117057401, 0.17858417921684583, 0.5257828631637292, -0.7449777898007816, -0.34984503924362753, -0.45507620348373495, 0.37181389771444495, -0.5538812653630075, -0.6470569280200589, -0.051723248381985235, -0.4353759232072295, -0.4107760164773454, 0.7599014835119181, 0.36354161569709004, -0.16155464396050703, 0.6053105605699195, -0.8237741226746839, 0.6710690768672574, -0.4801246003657099, 0.03752249365521474, 0.8409283967993573, -0.9871562605812977], [0.2921613440596173, -0.48606817826647414, 0.3719253840616818, 0.7317086784988228, -0.0297847877659183, 0.6942216815380392, 0.19896763585379884, -0.13884197181299493, 0.4318925983800399, 0.7387888337935486, -0.5878526682789832, -0.476821583976001, 0.6994531393344328, -0.5063922332591182, 0.9923484762576239, -0.4746572082159519, -0.819559031167021, -1.032678996452351, -0.6971957550970477, 0.3259120532835208, 0.6876317506451873, 0.8359608236992517, -0.00011104874740396065, 0.7495048982179379, -0.47822707845211365, -0.8764450699617624, 0.7473504782075499, -0.6200723614746667, 0.9270265558385707, -0.2417715226560603], [-0.0075520770735839965, 0.8768719602072258, 0.6502553794411318, 0.8631963938294204, -0.9115011707721828, -0.5642406823892698, -0.09597921316399433, -0.752542443231571, -0.9648576385538874, -0.6511002094708782, 0.32828682366549333, -0.9283962480659117, 0.6691086413929427, -0.6054934815948297, -0.5659422022221805, 0.01180622452756065, -0.8013592764335018, -0.3604316894370665, 0.8554698615724334, -0.941765442597507, 0.8859569164919661, -0.4214680520184202, -0.5465684013174976, -0.4532965380141318, 0.8050525964387415, 0.3271406928434508, -0.10527169899092297, -0.5879896241420833, -0.015661360155111444, 0.8819999618282934], [-0.36109317064093926, -0.5020049524078932, -0.8448559960752067, 0.3777718176656171, 0.5842456090559851, -0.18963177461611697, -0.715403454087816, -0.8633634031253894, 0.9837221535537022, -0.24775069186346535, -0.47166119947103796, -0.6174421497795192, 0.5742172084502682, -0.3291190994755155, 0.5042048002038523, 0.7125613501196163, 0.8585405803529945, 0.12076182149023583, -0.2658341267912663, 0.1180401663183572, 0.6910583659936156, 0.8992376709473974, 0.6007448142981487, -0.8890958754997994, 0.8980574756723987, -0.7419428306502024, -0.6595486009804552, -0.5154312075751363, -0.3281610697389125, -0.5612808116927785]], "Bias": -0.2450280070101634}