{"Weights": [[0.03714940694480101, -0.003865113046883366, 0.031718322562900976, -0.010570635895448191, -0.14830769392118298, -0.046450582996472055, 0.16766536637870125, 0.2150428934853874, 0.08194625743162617, 0.07957972252304131, -0.17688668769303065, 0.016885265771889726, -0.19385007216299863, 0.20613473981403854, -0.15261868026997022, 0.12756179973129583, 0.008129992560563713, 0.1385525526785324, 0.07061649303486142, -0.18508354900171203, -0.02869548221894567, 0.19262856436818965, -0.04358346137330316, 0.1940629227922621, -0.2122216467570792, -0.08670724587316404, 0.23879244577280537, 0.1462281289448109, 0.044333008798124386, 0.16307156053586358, -0.15756549155575775, -0.1644147327080739, -0.04407371130896932, 0.0027858021746075884, -0.04102343302879283, 0.05015951075289646, 0.14521565989328578, -0.03579841600433993, -0.01703435414127796, 0.09108424353398986, 0.11925880939634408, 0.20847917755193807, -0.10494125114587322, -0.08320999612640195, 0.1450765489905324, 0.22949018998706194, -0.02570646701027571, -0.13580589363869305, -0.19850204444764857, 0.10149792427998594, 0.06775897815707116, 0.18430242424466411, 0.0749677556975253, -0.08762453546875777, -0.012684271244571376, -0.19067463412417784, 0.006271100873480869, 0.21218253748376265, -0.18649054850416727, -0.17386741085823568, -0.22958025533939747, -0.17572515677068096, 0.15259530504855537, 0.041630572923022566, -0.1366615208715172, 0.0034219942951503614, -0.006899941886887139, 0.016696010798939155, 0.2176811438921053, -0.05701569685649508, 0.20235185875008796, 0.16667505322351334, 0.16357664580961212, 0.2232022775477018, -0.1342916030208456, 0.08608292786644373, -0.08529039766047626, 0.06600081649987186, -0.014134465202591673, -0.13570049771183174, -0.16809308811703452], [0.20449904431908847, 0.0063056146857438135, -0.02369469620169892, 0.046815739918844974, 0.12118726587711766, -0.16989485333676113, -0.10231216669111462, -0.14279188502509443, 0.12346482843759723, 0.07165918180962545, 0.15388197578337853, 0.11777355210130304, -0.1809446134679944, 0.136093468140278, -0.10392691573243382, -0.19820810902316763, 0.1322456920845015, -0.18204212963751307, -0.20886335053625135, -0.11518319849471322, -0.17456481363377077, 0.15388990701567273, -0.11386636220122075, 0.193726923053128, -0.013662160319276837, -0.23708115446030242, -0.07347306901668738, 0.09042277573821657, 0.10217021983508168, -0.17242611019617324, -0.08266329108965366, -0.19502052563323277, -0.02454448177429908, -0.043649497484197164, 0.18105719304003093, 0.10212572864357908, 0.019766095394424164, 0.08442297984621715, 0.11764465764931711, 0.08548513696641934, 0.045985115909786496, -0.06800822669216977, 0.1311002361716286, 0.17605965946057722, -0.16387421441259903, 0.21411583127318515, 0.19806350978988724, 0.13286369674859508, 0.2358093305490128, -0.22048021123502146, 0.13225501043900517, -0.07965684624165453, 0.05015796669380058, -0.004284529700565435, 0.0778142372370619, -0.13325335216078094, -0.13771770319905233, -0.09058759236161414, -0.07795861006235448, -0.03807872644684845, -0.2273458526827006, -0.18977359486801862, 0.15353979894839426, 0.010879526996605932, 0.059523292169073705, -0.1450077212043543, -0.09139729854193053, 0.1594293269314718, -0.21242117137727104, 0.17293010688578264, -0.10912185919672522, -0.11298138147920658, 0.05623330004111126, 0.20961324743186202, -0.034053933886088725, 0.19651085388224956, 0.08564798565596132, -0.09561235023515695, -0.039988411618900876, -0.0794840189773626, -0.13360026803723643], [0.058033082699747815, 0.210988840308203, -0.12607421768938132, 0.06310254181341987, -0.1415596486040079, 0.04111286648556208, 0.18580546361497915, -0.22341338073307715, 0.22450294740287824, -0.025442186840115462, 0.12502527591152626, 0.17030596677845009, -0.18409099936511156, 0.030859418308313933, 0.12729468272729053, -0.07067965217152636, -0.23130552398352155, 0.23615176609888047, -0.13158391343811104, 0.18735975312701256, -0.11027838357269514, 0.20013311369108702, 0.032950574748135196, -0.1050929658969956, 0.1547829507799259, 0.0033470216593933224, -0.1280775884215065, 0.1291962039038929, 0.028643526413841554, -0.13655502288643412, -0.1367496840272809, 0.08187899536755813, -0.030159388637932483, -0.19978662399735223, 0.229473491896223, -0.10114769529516845, 0.11471206984514415, -0.23542866079322267, -0.003837335088460466, -0.07175543225953909, -0.10618540082152567, 0.16171812180340767, -0.09853685415589007, -0.055269249452402976, 0.1373711217877254, 0.14186473915206246, -0.18554988551786203, 0.055226715277443085, 0.16982217524269516, 0.02295602836724105, 0.11767829845155539, 0.0385241692339017, -0.07663573760303431, 0.20927412194362227, -0.1054320120589088, 0.020027125784097318, 0.007028172337780279, -0.13692404403228595, 0.1297516913083826, -0.01833218504034216, 0.18780810517093616, -0.10214157283946636, 0.04846045252122891, 0.04525081089638003, -0.20387494708686968, 0.13219889046577232, -0.15928380780101814, -0.06761504344778443, -0.10638785169626873, -0.007640391922888682, 0.20487232069718145, -0.2355752891090541, 0.06749847085143675, 0.09747555737122315, 0.16679153432421123, -0.028665966016091476, -0.06014237803304907, -0.16634943054610604, 0.20368968265396864, 0.06340418424586407, -0.21234295549691018], [-0.17934119893099248, -0.10020651529691693, 0.20996615685860376, 0.06761689904763954, 0.04488667815201267, -0.18557098662247232, -0.04903027075165203, 0.02115646981432238, -0.06115513751713148, -0.08115337123550133, 0.06280017491974607, 0.1939001823084252, 0.02704347327093943, 0.038159059521419916, -0.18012364400112243, 0.027196775683972624, 0.011910111881978562, 0.09561729422326677, 0.14025311563029388, 0.13817439524103578, -0.1747980169871635, -0.02959545312536187, -0.10608238374336987, 0.18001066387950182, -0.014343591037245295, -0.08433734528290271, -0.0567677106516139, 0.15043714720148796, 0.038484552161902, 0.22879948121655178, 0.19527908335829558, -0.1263725614435371, -0.05077154728289351, -0.190848602316823, -0.12694034921912611, 0.18308939779221275, 0.2003178370329245, -0.1255520841648201, 0.13138497209054123, -0.14209731964723277, 0.116641585418232, -0.1567925795551434, -0.19232862023728248, 0.16963856484046946, 0.0016419856845206918, 0.012448649432467443, 0.01893210890069022, -0.17022848999847737, -0.2060499417930936, 0.11859722211140554, 0.09516080295870585, -0.10707003174927579, -0.2151812635988669, 0.13666784457469158, -0.01675204964051556, 0.12119762774992814, 0.17914493224325512, -0.1337402490255063, -0.026420775471483977, 0.015543945147012414, -0.16591883415715522, 0.04722961467127749, -0.10885591372636103, -0.03079078658050425, 0.1362655331877755, 0.04969931257523644, -0.15396242778099767, -0.11482118678695105, 0.2110429602735825, 0.10942666587715451, 0.05076270946677812, 0.10872718675765633, 0.1939776157225025, 0.007813509200693855, 0.06732233351132569, -0.07135250434314146, -0.18662916350860043, -0.02400434497838164, 0.10300644950093377, 0.08352013104941045, 0.1187985886118547], [-0.23639528413508148, 0.21261073972535607, -0.1341337997402516, -0.13345235528650673, -0.08079402115642173, 0.03076063603907049, -0.08552626515426548, -0.12400351587817561, 0.1369653341331741, 0.18850508857973913, 0.12790899952303614, 0.11803549179933566, 0.22866544456031065, -0.0919055640379853, 0.20200247527437673, 0.0021118494987800527, 0.22151367782977704, 0.14753951442851124, -0.07114902391052402, -0.004885288390129343, 0.08389625533293968, -0.20659016381618575, 0.1407486883166164, 0.17951177871020393, -0.07339730432388702, -0.1816143199364292, -0.224087459484719, -0.12818256916179735, 0.21351847823132966, -0.1237890335633892, -0.060224806461750935, 0.04566219394841887, -0.07842733180609517, 0.06639960467175725, -0.1809777705769687, -0.19067515687721434, 0.15406113040443428, -0.0021686816898490893, 0.051199955895339475, 0.13150671821984114, 0.15352320482109783, -0.012834399263696554, -0.22373779706773694, 0.15696396399595067, 0.08708785740444991, -0.1920417211908306, 0.021903174264953904, 0.11680846044708522, -0.23387661233672752, 0.008446544550531178, 0.05018868136806289, -0.016010177960579623, 0.028679330106217184, 0.23575355165521966, -0.20789151242572293, 0.21909625426104246, 0.17927594121708376, 0.05830967368778959, -0.19561532395459996, -0.20441192682520298, -0.1765654182796021, 0.21567216800108005, 0.08570971425896277, -0.11354460149249233, 0.03671678699630941, 0.04307137480765889, -0.15280484141261522, -0.19636203896635027, -0.049190825182185365, 0.13199141958898128, 0.14148810161137323, 0.051645270621396254, -0.15222862756716596, -0.10205388820288525, -0.16604351624628405, -0.22859103135690043, 0.006604306312277334, 0.15849528641215244, 0.04331946454929757, -0.13652317136792408, 0.194317393885303], [-0.1109536243122752, 0.04996559691158287, -0.1801495475908556, -0.08174406495042366, 0.2006310709790023, 0.08515087222717223, -0.0699251538909304, -0.06689609427412443, -0.2062864455796246, -0.09201231277809337, 0.15962455584680352, -0.09903807768108966, 0.13721039803439547, -0.06510100049692646, 0.059122780656268976, -0.11172352901925069, 0.03557629303414103, -0.1969891993350197, 0.2364156571661273, 0.17405893925260776, -0.03371380057987005, 0.18533829581263375, -0.1773438802674369, -0.2057795744527221, -0.04014918307235548, -0.09905836603010683, 0.13205305279081295, 0.15592825961692597, -0.0731733347241371, -0.13878635221102653, -0.01381040402585163, 0.07022452295778582, -0.17265575684509152, 0.1397990742629286, -0.019839457041612808, 0.23610020891958192, -0.18558441584685234, 0.02860452499213917, 0.2282927166060225, -0.1913664590119133, 0.21194302759921305, 0.14833250453264318, -0.13009781073422458, -0.16907391543223144, 0.16244774244765803, 0.0637018230453853, 0.07847047609395554, 0.05528132996038145, 0.09374891523606838, -0.07285849043912544, -0.23224845489165263, -0.016995349311120754, -0.08617036680389295, -0.09927549249689079, -0.1697095858762814, -0.03282935684449556, -0.07856664958063578, -0.16456899478490258, 0.036244188623002924, -0.1514052565901512, 0.02207272714080571, -0.08958946490024226, 0.03142313816137594, 0.21588730558742938, 0.23003686703634474, 0.14028950406386798, 0.03701906091462918, -0.1104729670088153, 0.23373221548169043, 0.1881624555315061, 0.02157185439946278, -0.1363262478810285, 0.16748680295888324, 0.22552728972065506, -0.15582288611106457, -0.15541913703048493, 0.2337226466049609, 0.1464094879072305, -0.13403132902427872, -0.17916190216769004, -0.23264849751958955], [0.10168331086248245, 0.23062247270653116, -0.14483140378982753, 0.18248429458960838, 0.13979808446885453, -0.2127261547489043, -0.17476237369308617, -0.029202897083358915, -0.10725067405181116, -0.09762636755715359, -0.10509808114772567, 0.0001631096845406239, 0.2224745669365801, 0.21122294680100698, -0.14890118762338994, 0.21697263955765983, 0.15179065610818382, -0.18469850519832162, 0.09404320859521025, 0.16018548995933585, -0.1376079673761836, -0.17953803762903164, -0.195131361729833, 0.12624337598561877, 0.02766775301273022, 0.07340202802709138, 0.10298262130993373, -0.11790642714870714, -0.061567754760791356, 0.15029905287370643, -0.0548362508286604, 0.05738839966157669, 0.020754145572483642, 0.23053226398069304, 0.20543030575169435, -0.06745812057892679, -0.11548306080669735, 0.015156620603323746, 0.02936314167123023, -0.16621086827657996, 0.1292059592923011, 0.2193817696836181, 0.01732527682227918, 0.18311412200452806, -0.12292391881933395, -0.061013310739898, -0.06856358579778066, 0.21854850305019657, 0.1995981801098958, 0.06902825876852636, 0.2040206249255018, -0.013154038658396868, 0.13821428221372373, 0.20837081266828866, 0.08895912347733137, 0.02922157138447908, 0.012680504787719921, 0.18452096721907396, 0.011464116571558956, -0.0057400115314117685, 0.1628503547608817, -0.23491853426956308, -0.22198640013773213, -0.16709855235523974, -0.12712059559221117, 0.038145773533973165, 0.16563344494531806, -0.15107087828227145, -0.21663776523727007, -0.19537342098140217, 0.041835473870294994, -0.2177022635107407, 0.20800687490759381, -0.12166762895042148, 0.2360486058994835, 0.01987683377437577, -0.16291138542054856, 0.22019045266647755, -0.16647519807358385, -0.20621207900748895, 0.06715943291956526], [-0.18717817034654094, 0.15196015631361345, 0.002297532584565086, -0.21056122823053397, -0.010006042246479887, 0.04050511545416739, 0.016834913318360754, -0.2005219399103333, -0.17174433597148508, -0.12646675428766715, -0.011708905224478408, 0.08386505893062421, -0.19751910890779042, -0.12395953212089042, 0.11116070785057842, -0.228957718330781, 0.11536800727244059, -0.014332507285002762, -0.23625625440109854, -0.0492578437023064, -0.22041674570645775, 0.20360819426721882, 0.19727406799791097, 0.20789112082314706, 0.19175087450601785, 0.06646634371024258, -0.08850598232065554, -0.2373457190908013, -0.23194748696662473, -0.016198003703645103, 0.05048277644006718, 0.2241377226367285, -0.06656860824623578, 0.17850713530261483, 0.003025571085223883, -0.15783659275698395, -0.061044973365758814, 0.03227473175187767, 0.19274151627133665, 0.02758238676821392, 0.1424528020753284, -0.10230847016189387, -0.1661902034780265, 0.03220602737445841, 0.14890636288027684, 0.0009999862753889027, 0.07215770270286856, 0.041506983760650595, 0.1770495378264331, 0.2294717366218283, -0.1740255128064433, 0.06789389590955111, 0.22564337672162726, 0.23531924301978246, -0.1576550196954128, 0.05298321685180041, -0.1870335367337188, 0.003004482012369009, -0.10453751573981487, -0.06167584115353167, 0.12109673495565558, -0.059752540234320015, 0.21769034656958483, -0.22828130610740657, -0.08559767056940085, 0.15265976655861163, 0.09938315617476104, -0.18552426054915655, 0.07528980497509677, 0.013958705520240259, 0.15321882492033173, 0.018219366862786322, 0.08248476468311135, 0.13008269099129005, 0.011731839622122563, 0.06105643469971407, -0.2139270276689037, -0.11678657509687164, 0.13673664896634363, -0.049132603101684505, 0.16272440557995177], [-0.15262090747383314, 0.08047175094260432, 0.1465813481205603, 0.0275316398925206, -0.11292296370436598, -0.22036059028406096, -0.22790440855288108, -0.10841484619003253, -0.2108730475947651, -0.16787920312116453, -0.18599089546962036, 0.23048608413534155, -0.1651007232850846, 0.12076896424970616, 0.03618494539535817, 0.009567935872103576, -0.19933331320619574, -0.23050944469301612, 0.011353573394023016, 0.0199491885653, -0.22913285993287022, 0.21764062689829902, -0.07801295499322784, -0.02806443478485393, -0.041352109280515276, -0.20009862134113335, 0.01210610944541167, 0.21410669179457867, -0.00465839867444396, 0.22906461977636206, -0.1799945850890054, 0.17079684064682074, 0.2334371929673129, -0.04932181118841654, 0.0994307930995734, 0.05930093826542546, -0.17819707924775272, 0.035583611319327954, -0.18799693914543714, -0.20077285274490334, -0.10154399322871671, 0.20030369607696882, -0.051222248624090784, 0.07052985464404495, -0.11245269078707798, -0.12368948125320779, 0.2087115138823286, -0.020761161866933518, 0.03805158620306969, -0.015441236962175463, 0.18626482892634294, 0.17042006089942846, 0.11585369423614247, -0.22716205811925194, 0.14245677281997315, 0.19577239991640855, -0.1958286594336533, -0.22977091166753477, -0.01334715457939316, 0.05515664890410163, 0.10026890179105867, 0.22889190564178763, 0.18749178932766075, -0.17627283501501398, -0.011063479442795739, 0.03378937804323334, 0.04762090985816681, 0.001451564236894598, -0.22090089637299165, -0.04055263296161579, 0.10029280184854468, -0.08570887708504427, 0.14879790327872125, -0.0063487134097882925, -0.15599400903020613, 0.0915121632239325, 0.16472658805384463, 0.1663260677795712, 0.08143961457642308, 0.13982517783211126, -0.22593163008391992], [-0.0003939289998333935, -0.06662795170499, -0.17731872772677224, 0.1800418059411168, 0.21239902878823652, -0.12509259102225478, 0.06615228959931387, 0.20815768991827907, -0.10894507281573954, -0.15331326920233002, 0.13502420906128873, -0.15087699292357523, 0.23220733670475843, 0.23051801056963708, 0.22135100692262163, 0.08730639313831073, -0.09043490388514258, -0.04485685198301368, -0.1501180976849319, 0.17571924591155696, 0.03322089330598141, 0.026870172442671578, -0.10374174028459913, -0.21486860728106472, -0.1945326736938644, -0.18383345412223623, 0.04857215463468446, -0.14994319590954464, 0.15468950599086856, 0.20214571690675132, 0.21157087410865852, -0.09837647733152668, -0.059443016343657944, -0.08391531172072712, -0.1086267451804684, 0.2094763749834824, 0.2351756139068098, 0.22128258755842348, 0.173785584001054, -0.11729443464873507, -0.176886971227237, 0.11417559982343295, 0.1617913705710715, 0.2022559099459707, -0.18342081952402184, 0.1741194757113719, -0.0300520169517417, 0.0763318549710683, 0.0879675953690286, 0.13655269724183938, -0.1293395045525993, 0.22612194962439594, 0.21383478151573856, 0.05438587808067771, -0.09260198834290402, 0.11385469952096389, -0.07017987989746437, -0.08003156376699404, 0.08936434181751776, -0.051506272409927625, 0.2002509643251774, -0.205100306797671, 0.00914491038322126, 0.11449008574233696, 0.19390629499052436, -0.04615124923261932, -0.06270403091344658, -0.19758240254795623, 0.13551688828549596, -0.09243777205479484, -0.17620919336473162, 0.23635087656890919, -0.017658786891873977, 0.10605375169892184, 0.1061338756315729, 0.14809216537723568, -0.09651817556683553, 0.1768087250402479, -0.0784343603253593, -0.05608932723017449, -0.014264787744558406]], "Bias": -0.005440997081062523}