{"Weights": [[0.32954158851944626, 0.04879501600391605, -0.07580869848480022, 0.22765018801985215, -0.31697451723647346, -0.0634430713446005, -0.02963519116262526, -0.021571250545747437, -0.1565583489740661, -0.3549592354323682, -0.05737231762633668, 0.2967787099920543, -0.1979904412606799, 0.11983124050887092, 0.22962779929921256, 0.25413819092077705, 0.013453110873142849, 0.23574988335766037, 0.23871087880032113, -0.033990695841980764, 0.15432682240444198, 0.11761259912279763, 0.35069251017690595, -0.23679639540361558, 0.16308460001714575, 0.21520396483619075, 0.043793642996018164, 0.3281488619385688, -0.28187079949588334, 0.12276329025229125, 0.35468107436518287, -0.32191320288923886, -0.17343672018808096, 0.27762340560478843, -0.22567393484173282, -0.05176150038039341, -0.3565352621018279, 0.3356214566383935, -0.21373460107471687, -0.1800751113383198, -0.1697951285685763, -0.3635497923209718, 0.052799369385730925, -0.34054481594069247, 0.05717147619364116, 0.1802146580393511, -0.11646635969677115, 0.039161350855245455, 0.24015206673102701], [0.0842647082453593, -0.21832780074062436, -0.2577911307876909, -0.019205839388277086, 0.19743733570879818, 0.3526731643353523, -0.0649016393645392, -0.2869475177850642, -0.08228669493040035, 0.1422532341716827, 0.05762020117809185, 0.158040423155593, -0.016845820122863592, 0.09898297925374919, -0.21715437087256645, -0.0342345819383708, -0.284939586498195, 0.18763293410579054, -0.09144549956441332, 0.248173027083021, 0.08619780217013329, -0.2256800781872615, -0.1231586916085178, -0.14809095026279961, 0.09785003027462646, 0.36025155657043634, -0.07840458233133094, -0.22701812709941846, 0.0313306757911409, 0.030029386584503753, 0.32767452971760036, -0.010767516202170433, 0.1976502829832405, 0.3320706875337067, 0.0382214377415596, -0.21623747440380275, -0.28010675016078385, 0.081616348620572, -0.22553721965247955, 0.16227391604945451, -0.2167004785374532, 0.2621664385680429, -0.23562949307478975, -0.04723476337472607, 0.10516284943229541, 0.17512226107627565, -0.20137628761326312, 0.04514717467851919, 0.15066917739076519], [0.28008007471543683, -0.28510581204666474, -0.016689886582919793, -0.34233224313516597, -0.3118836754946109, 0.07894472390173417, 0.1388889511079716, 0.290381310544974, -0.06902141916631249, -0.03253111504459937, 0.17396482524179602, -0.061867845167978434, -0.037777357733734286, 0.08085177051518605, -0.03854447044966916, -0.2983174192687434, 0.1060829410817203, 0.11417017856489818, 0.2564251367974914, 0.009848822254185555, -0.009293071518591631, 0.3033359887536087, 0.14280452477725536, 0.045849111267010946, -0.059188069065522264, -0.048001221717149614, -0.10858593294421887, 0.03570805546877204, -0.14479811832744455, -0.3489394584539379, -0.10855265832866151, -0.3174872553546885, 0.1597886494549683, -0.05597744176137725, 0.18920661401724648, 0.15283499227291528, -0.035983321296419825, -0.2613818195718267, 0.22410364059906446, 0.14275741156766283, -0.016689604078537458, -0.07903364685468993, 0.12467040603555932, 0.1395410689975907, -0.0253957307252316, -0.17643783229229934, 0.1307746966441962, -0.016763491220984215, -0.24084180768316146], [0.029948547855759587, 0.3058091932218925, 0.2078104033016927, -0.033082055045620166, 0.1580328201783322, -0.25407058076585715, -0.3021732948474773, 0.06541010514163548, 0.1478704133330237, -0.1556151898837372, 0.22916060993367451, -0.2280542968013402, -0.02516456241216293, -0.031879131812769315, 0.24422259402934876, -0.06530054198913728, 0.047979900873169355, -0.10879863451286165, -0.11949808983301853, -0.04864102482959104, -0.33027394071154415, 0.26019940260597363, 0.20446809389298215, 0.21295663594070915, 0.2689576809496969, 0.05995800738603097, 0.0383353075425908, -0.3349661586319388, -0.12735962641281004, 0.2995312223434924, 0.027302100218306702, -0.03471780053821188, -0.04332097833683988, 0.016162829241803293, -0.3283830431105107, 0.2544553377578882, -0.07639733984441746, 0.19472568768388304, 0.2992553335843369, -0.1735021701060581, 0.00954967841838579, -0.3258653376324915, 0.30269826476482886, 0.3155106494272521, -0.32299057381538904, 0.3139889661222117, 0.0326089177921345, 0.3410243513846329, -0.25131698140139935], [-0.2622438992988074, 0.002074797286384938, -0.2891377822849324, -0.1377570615421338, -0.2532148563416269, -0.16120051200371405, -0.131679258354012, 0.01660097770894433, -0.23641445434541733, -0.07636075878538652, 0.16782479610904846, 0.07587168554740252, -0.0802256252684919, 0.1839081805493472, -0.25483365459570556, -0.1467014228113987, 0.3510170212507999, 0.055827950484127524, -0.15787268185972617, 0.32728531183460025, 0.27936786490853105, 0.11244664933322095, -0.026127822086071208, -0.2266960022506288, 0.3276864529056155, -0.2426649945890185, -0.1391129179751003, -0.34176084871844703, -0.35436369312368826, 0.11524389274436671, 0.24307038040689577, -0.22595429131001404, -0.09949947294406568, 0.28895909077756443, 0.20325491325895484, 0.2583262071109946, 0.2748004930329038, 0.11523963825905982, -0.10495019045349747, -0.17564724087013134, -0.11568069339392989, -0.3359829582295653, 0.18040969740089685, 0.038062489264954924, -0.17417521587580317, 0.29341379521293015, 0.3285516402130946, -0.057980088496838784, 0.3424631069773568], [0.24950143827790733, 0.07671281056084704, -0.020100187456038945, 0.2036938603791487, 0.1041913478083558, 0.23647888801633715, 0.20719070591716018, -0.2598766857421444, -0.18498139744592115, -0.14538570860000044, 0.12215161481308796, 0.21163441431936458, -0.011338324146827552, 0.28586921400991216, -0.2885230394735776, 0.1304192183499728, 0.36504747530491616, 0.15245036196706988, 0.18526260116330007, 0.0765179854833429, 0.2204019713910815, -0.16263688337978457, -0.23778516565431715, 0.22855962615898234, -0.27955621431132693, -0.3365854437529621, 0.0043612386048652195, 0.2604052246805362, 0.3555037996611567, 0.0995804150581398, 0.0638441687924697, 0.05413545247847394, 0.3195787492149029, -0.049976672109146275, 0.10431631557988506, -0.1353500616295577, 0.21485241202963754, 0.24089855649307634, 0.07190072890005335, 0.35045877836775546, 0.24856759495932226, -0.16682615801190775, -0.21037425525893014, 0.3039029860166515, -0.3158797489234971, -0.2111862808868215, -0.19497921007636027, 0.15775437542747636, -0.09919928149505897], [-0.11828183107431028, 0.35730939660524447, 0.2495391142814872, 0.2756576019785282, 0.3457048334060975, -0.14431204454612517, -0.20147725667683422, 0.1006933689325428, 0.27680977730850526, -0.1717975636409093, -0.029898030194219084, -0.2811810438643566, -0.3145120445289656, -0.18009002839206947, -0.15889418094623778, -0.16921079456511812, -0.17284321083331286, -0.3087201241207669, 0.1940392364275301, -0.34607660410173, 0.20995399121766123, 0.27867860520323084, 0.3321490339938912, 0.3229917267922057, -0.2974216500367472, 0.21294984470595701, 0.2243703744207385, -0.36017678162284966, 0.23293384472262402, 0.34724787441580685, -0.2554667561032286, -0.058705984430012736, -0.28083535462341025, 0.29132546502553863, 0.27070205212708837, -0.024094203015327432, -0.24098708431296387, 0.34021684404722247, 0.28564928552209756, 0.24608658475032, 0.11669563570682857, 0.19370319738066416, -0.36554112924261434, 0.31074851137337045, 0.34982317369232074, 0.08892119789844631, 0.07255830831058395, 0.30642024781328775, 0.3243620654450487], [-0.2543213735856302, 0.2926782299722717, -0.02352819798834585, 0.01040481971482591, 0.21460320271943958, -0.33199825633614655, 0.13467908371547593, -0.21713451236855819, 0.125107740495923, 0.2878249986597777, -0.11274291079895866, -0.10387285157112831, 0.23143689957036143, -0.31428882629058885, 0.14865972114738454, 0.36104886507321093, 0.1258534525062969, -0.01162331624260498, 0.09575108070464916, -0.3547348367299926, -0.03762037336126813, -0.3478241851123771, 0.2653163226814676, 0.20967309950712892, 0.12044092945808522, -0.03521763813416686, -0.24383533220932888, -0.17946596537906512, 0.20726439863325588, 0.1775975866894465, 0.21241809509014833, -0.09116668500655194, -0.2941746868575938, 0.2267395002348892, 0.12312435879620101, -0.029280050839280668, -0.24363321518735617, 0.12045441261417836, -0.09738018251252058, -0.36221621719206204, -0.045477787240931385, -0.009076913056597592, 0.15138783032219352, -0.030175554337007044, -0.18497445955999955, 0.03185616981770101, -0.14003872134873432, -0.08797728754014598, -0.08370194513464307], [-0.3430838562883322, -0.318355488829216, -0.32198490679014663, -0.03925369948486947, 0.25326729065455894, 0.02261501783352878, -0.013079377035728252, 0.2971207598025297, 0.07872324607339035, 0.03027312967899257, -0.22614644953024965, 0.2174664322551325, 0.19621180375403816, 0.07169491067433299, -0.21993148687084185, 0.20138896571377968, 0.26383801489832703, -0.3235040520414847, 0.1124195039925299, 0.03175029944976805, -0.33009042418049594, 0.1385857639546071, 0.27786985234406025, -0.2484153430248257, -0.27495170750521697, -0.0037235418600895377, -0.2552925924511553, 0.022938193911134528, 0.27330112714648996, 0.14370588271105428, 0.17320098543909013, 0.08253879325375824, -0.16266128188413437, -0.3654877754418629, 0.08905097612822399, 0.18073202802360194, 0.29965191227611676, 0.025101690438873454, -0.3027912914879675, -0.07665984154000535, -0.04664810399156186, 0.31593147065401483, -0.15739909850363304, -0.1951318073852219, 0.004611852850535652, -0.11411009237547683, -0.30913983795634503, 0.2149056137551425, -0.35305482607603217], [0.02646694250209576, 0.07069187558706239, -0.20993437732622147, 0.31321068331663005, -0.02899238465617734, 0.051019024254154714, -0.28880568453847744, 0.10614596634918481, 0.3093452182834364, 0.13998000989312137, 0.23634771016744288, 0.03365473155707667, 0.294735491290957, -0.279011463755516, -0.3481559802652764, 0.18747994738482132, 0.3397615050156155, -0.3294388621587121, -0.31297484252102536, -0.34844272783105235, -0.34160020572678185, 0.08001130388467746, 0.2499857375156465, 0.17447912704546914, 0.11550678691282656, 0.2155436158812126, -0.01444798027932471, -0.2986916614802952, 0.14189248894637532, 0.1661201360443466, -0.10000495363930247, 0.22379333221026879, 0.07195067905977398, 0.20913506804153664, 0.025618005424668387, 0.3656034855792704, -0.1556631963229817, 0.25157411223970644, -0.3287634170660534, 0.10749011226618226, 0.0963431002328459, 0.31432780258435616, -0.2115829262895288, -0.13948433131239518, -0.27839908490746207, -0.15784090375705945, -0.23265114395041747, -0.34342692322333956, -0.20176119906923984]], "Bias": 0.0722272992278024}