{"Weights": [[0.8702129188592019, 0.9170553606336217, 0.03656922395257848, -0.19639332509398214, 0.16463221017450874, -0.06382614805158583, -0.7810634121939338, -0.16653477685981813, -0.3126743400234938, -0.2070663904744249, -0.9347834078986178, 0.7527486491546996, -0.5618373770091812, -0.725867386186331, 0.7107058249048656, 0.1354146217238656, 0.6269176863716664, 0.1711660111256946, 0.14653568863052832, -0.7733681656694701, -0.5013686924740316, -0.1531440524478104, 0.13708977759229934, 0.45182289694891403, 0.46259129246685615, -0.5270840549165529, -0.009729534581898756, 0.33258275887567545, -0.7572206366360826, 0.2361277443242434, -0.5858046956540478, -0.8930903254944053, 0.9129688546734144, 0.5383246086088357, -0.18088983917910442, -0.6821070713540692, 0.8788178414940394, -0.8172447739686316, -0.8514518604468131, 0.276709539181906, -0.36668197662406465, 0.5482993485345747, 0.052216756775713774, -0.9959622939465331, 0.49161250384555616, 0.02889037199788389, 0.02591750782825663, -0.6310126841681688, 0.7341602082760968, 0.8493530744005863, -0.8093403929506043, 0.37397628417681933, 0.9909468613068019, -0.4829293269570395, -0.3364183287328407, -0.4020411676530988, -0.9542648231727419, 0.03635805945250406, 0.6068351143402011, -0.7299849706012489, -0.9680330020993413, -0.7272561954840434, 0.44168619075159427, 0.34205144414455957], [-0.7352099823974765, -0.9813302362424754, 0.03908078644692708, 0.9303272040662081, 0.3233686447907979, 0.353858714299138, 0.7261649883900078, -0.028474590146793065, -0.31677713517144496, -0.03091453030992227, 0.6843140949271462, 0.14772371280876928, -0.6968079235967231, 0.3358938572966793, 0.21743260285888003, 0.4219534759177234, 0.724711443546917, 0.5540621908963117, -0.9132504000580386, 0.3780353983879508, 0.5266292333509479, -0.3995424228459556, -0.562837431750476, 0.9838798762624166, -0.7787041678489744, -0.21574451754556254, -0.734205179793836, -0.8026472566656817, -0.1937549735986148, 0.7619017357047715, -0.8864079224851558, -0.7048481127136407, 0.18343415458573167, -0.5408297516450999, -0.10423158530693528, 0.08741105943992464, 0.20059684044636905, -0.46207356299999097, -0.4989268798886567, -0.49878846748626343, 0.4058708558596385, -0.22918335770867812, 0.6212210582488782, -0.6164284507365198, -0.16921142175892326, 0.9931361065391352, -0.1797816537465944, -0.6584534466478444, 0.07402387593733155, -0.9688738016797571, 0.13466823844407905, -0.5526995822081527, -0.9387552186509835, 0.9435005441344757, 0.31231316184901675, 0.7229846524849224, -0.4771453581083504, 0.8583140607931634, 0.1458154529307682, 0.45643977059582946, 0.8544509060567322, 0.09483541317469361, -0.7074052163590853, 0.045072572660329796], [0.4065829474842287, -0.4234797009888818, -0.5088427602294694, 0.5505211152289932, 0.01855407289452446, -0.33501920471459073, -0.46105519389725425, -0.9437809725111524, -0.5722133623631447, -0.46355823755425735, 0.03686894989474604, 0.7195603155422475, 0.5326269596523001, -0.5648208786087823, -0.6615652559557939, 0.4233279931404836, 0.12268175229308939, 0.2873277851003641, 0.25887342109392913, 0.08848970534472306, -0.31408561554391407, 0.5159691310344255, -0.2030878062993982, 0.8111688661275006, 0.8028146264372553, -0.3235830400543514, -0.7807559206417439, -0.3592571893011765, 0.08129881678021639, 0.7898350522623029, 0.6163645201655239, 0.40683757199580173, 0.24803438650727933, -0.8350728284609036, 0.640365703691831, 0.4072629850802055, 0.8971283920214855, -0.9424321452662706, -0.018274734788931844, -0.10476139975333282, -0.51985116977167, 0.7735659657088173, 0.12219998859984373, -0.7593270709902482, 0.49251610728405737, -0.3829412385968136, -0.6357677267088027, -0.42722714247423654, 0.15080161341363824, -0.024735058735234686, -0.6039942698157379, -0.5117353616646808, 0.4874892547946709, 0.7236343437765956, 0.5205970875107673, -0.5413046986241544, -0.2879400142971105, -0.23959331624094907, 0.19785397618195827, 0.2799129362726384, 0.42629154159544197, -0.04898347560052317, -0.0805008088148804, -0.03390503993056548], [0.27098960043651427, 0.4720595874169813, -0.7201569895396888, -0.6860729092404403, 0.568879173608865, 0.23486634271956594, -0.4670122486585603, 0.2016445070398507, -0.02568261870180196, 0.6116359833794609, -0.3332484516813008, -0.30832405582549627, 0.3734937385536907, 0.06050147926561412, -0.8654351688023305, 0.1570458281252052, -0.34799752321869243, 0.05045245047867474, 0.9748541201243268, -0.6553735914691092, -0.3056980867107326, -0.5132819597003595, 0.5738499942929725, -0.25502299817155727, 0.9754203904702134, 0.4933090483782636, 0.15242393837188262, 0.07937291348451603, -0.9120770675938075, 0.8014586548675404, -0.702102106006786, 0.6495083609394515, 0.2489125364151925, -0.6318593146064313, -0.49197682217611627, 0.6518894058710799, -0.2658349139071922, 0.4695188944255344, -0.048538818107372476, -0.8942875452989261, -0.5570151715565441, 0.8710156444497665, -0.1106195926644428, -0.9234339724676858, 0.7485067138492943, -0.6933660948113294, 0.8831645935830919, 0.3134469645225541, 0.6757657470287912, 0.1217193656984572, 0.27349409277294007, -0.4413979907152879, 0.8331296909356163, -0.7625869090378448, 0.3792904961069986, -0.5740404642212503, 0.6773374807470673, -0.5588819460629747, -0.4052799167095942, -0.9990055081402553, 0.7147529121562476, -0.5847529345274477, -0.05555608553547564, 0.726550505667279], [0.6819311711938233, 0.8722792565651264, 0.22982392493160958, 0.5199467941541792, -0.05952011030644623, 0.4263644144881912, 0.41244006244736375, 0.19431815903649247, -0.06896822943626267, 0.952967916825055, -0.5394805203929812, -0.913296830053412, 0.3506796039990414, 0.9128302953519547, 0.6951090695629267, -0.11477435910343531, 0.22611478557612144, -0.8536699886955955, -0.1260846291207755, 0.34857241946052137, 0.0029971763785786067, 0.512584603199289, -0.24255242860743828, -0.08701085540900988, -0.31837285961971207, -0.15342763550568644, 0.16634612649466446, 0.5716596887183855, -0.7268898243575544, 0.5105521338829172, -0.6162228275955556, -0.18309752121000133, 0.4960690772085741, -0.2973910168074531, 0.7368074556039671, 0.07657673696437144, 0.9062209145355776, 0.966783217385739, 0.9551626618693468, -0.668653434474967, -0.06486034270461166, -0.9859111594954545, -0.1181344584568979, 0.8673004937424617, -0.05088065473754741, -0.8457948085470115, 0.1729646385388502, 0.8306941768257599, -0.8444275517403589, -0.5011370280242474, -0.33794254401654333, 0.8106882381878336, 0.13676967182024363, 0.6728657806854476, 0.6341186773556056, -0.10804964006903292, -0.25441683883149974, -0.4745377699147467, 0.8109593362514655, -0.7386268161966376, 0.12279444992739225, 0.9051843448381947, -0.6061036083648661, -0.20741221158587603], [0.18038771521761338, -0.0838301973054742, 0.7284831800730105, 0.6695811652732839, -0.37922315069934065, 0.8209861023214541, 0.7464544498529333, -0.23189342357791104, 0.3319392536051828, 0.75042491392797, -0.8112345421386444, 0.2708489638282521, -0.39079022286049186, 0.1441649229051981, -0.48191885595284734, 0.35033778342566163, 0.17558850706047208, 0.19161694271634616, -0.3307621128777744, -0.627589244765872, -0.43162755279016446, -0.12805315704365822, -0.8536759978360101, 0.30518484553457903, 0.16690019959285068, -0.45812640335221605, 0.1583086856226213, 0.07077662287157188, -0.9260130715974557, 0.036259966301179836, 0.23591921885902548, 0.9673419267705132, -0.21953803475798755, 0.40340763539651775, -0.8672717334165545, -0.7795096232515761, 0.42483712170772514, 0.47107524105222437, 0.047162356645743295, 0.6973246105163535, 0.5923011976018293, -0.159818041400751, -0.4014436198112482, 0.16932454823452442, -0.16717954986916392, -0.0015778988794409657, -0.8634755999111181, 0.8588976217539477, 0.17522857806820663, -0.004802525102359515, -1.0076465580201028, 0.6479474163957125, 0.23105275887281845, -0.7271933012797631, 0.3257433735190285, 0.07490017876727303, 0.5710722964367947, 0.39083047409597016, -0.5554398915176784, -0.9552849748540105, -0.3984139262900786, -0.8720692495507484, -0.1291574380239989, 0.7939498073763603], [-0.36626431487201966, 0.6739498206166031, 0.7281066314565509, 0.3978486437976531, 0.20696840004417086, -0.5686815536788073, -0.505622455503098, -0.8638328323281638, -0.2938965833598776, 0.9529449748160045, 0.20352821452459174, 0.42357513502116334, 0.4533186818854357, -0.1356340244628208, 0.8422925991017768, -0.6223942955722812, -0.0605214539546567, 0.2949388708219893, -0.7389455514486761, -0.5194610574119541, -0.5533757152252236, 0.9011681713255931, -0.7227087505219271, -0.7043221950910629, 0.3835179488236804, -0.6975139776163574, 0.23701257567641004, 0.016505974164362655, -0.9274917128591723, -0.49288627015146097, -0.3751873983763485, -0.25989779614818176, 0.6584660225229143, -0.4270906595611275, 0.4727335267524024, -0.0636158764128589, -0.23081395640833213, 0.6318079333814012, 0.42935410165287435, 0.8963072126895003, -0.1966610774357061, -0.557760171777708, 0.8458229846703091, -0.675266378431452, 0.6721874287161074, -0.58943460074329, 0.6777965247368382, 0.5444905872733977, -0.977483707315356, 0.6260310563633124, 0.8647769650490744, 0.7974959357450685, 0.38288648594215474, -0.686357051943805, -0.4984035631449929, 0.025260749890684393, 0.1404808965617696, -0.7539271036089382, -0.22637262333318478, -0.8678585308961575, 0.8002527896448212, 0.3884764955757106, 0.13406377572139705, 0.8805555875913681], [-0.8019561450595563, 0.7544403768751495, -0.05261460937004867, -0.07892372240729513, -0.9156404709352721, 0.9478255792124854, 0.09215947031603539, 0.08816300656656888, 0.5681721632997094, 0.313829277638684, -0.38114582864231944, -0.5286535852301939, 0.05986438966923467, 0.5302153392499565, -0.7109986245012095, -0.9553439791237388, 0.7183568104495309, 0.6037243361868825, 0.2766716802769061, -0.963430483938678, -0.11138153094078103, 0.5013922137175975, -0.9424262879305112, -0.5564492149132096, 0.035037230900830586, 0.6355073984347464, 0.754684372910801, 0.29545121540722225, -0.693639760211028, -0.4130667757227697, -0.6385066399319658, 0.32174707145792564, 0.13356905459929072, 0.4316884390288685, 0.07681233758667232, 0.5301997881669888, -0.6677221186819814, 0.6569515457403194, -0.32022450502809047, -0.5722078723986526, -0.3343455959925929, 0.4290143244015355, 0.24527125329532604, 0.16948732664546157, -0.9128370595632708, -0.6585881337703267, -0.9331097765821822, 0.25007351621791046, 0.6616951764083405, -0.7843203693573484, 0.45881559008168304, 0.165743420962305, -0.8394536155090573, -0.2941001344161928, 0.8755911234829549, -0.2678329125894255, -0.2697093373553214, -0.2256733900113817, -0.7455033191761902, 0.2536644776155514, -0.5763342312630615, -0.23127015274159718, 0.0022742042459992146, -0.2677023640697432], [-0.840274120321296, 0.868745761659509, -0.9597652571603037, -0.38114994146649633, -0.4847843952713476, -0.8430808110591567, 0.8412583867308246, 0.24372426144530474, -0.16296413520470002, 0.5656011114543699, -0.38317870803505866, 0.15280833897177634, -0.0783489930676187, -0.36010936786495334, 0.731802454660517, 0.7479180749804077, 0.649930814852554, -0.6804200220025499, 0.040778738762119626, 0.21657737263987514, 0.10590521970644201, -0.5096326772817165, 0.77422548980965, -0.8013438079538008, 0.4091997057336111, -0.33515300828417566, -0.5932674496969733, 0.3118989353048948, 0.04345251769983721, -0.22209705081401793, -0.8353639698729538, -0.18728399939623214, 0.1020952525215521, 0.09841227484124676, 0.4898891549638708, -0.4109359534677979, -0.560167862749045, -0.93438753706304, 0.4811637199691212, -0.8931145265173145, -0.2110346045982166, -0.6905166722032255, -0.5626292821577326, -0.46773111213205926, -0.7626434740840955, 0.7928144766557825, 0.927638631676698, -0.1279820367861749, -0.8226892324615517, 0.7486939907898854, 0.5027076561598972, 0.2035294078091567, 0.3108510437539364, -0.9033337047042439, -0.06471496532672065, 0.2462824209532086, 0.959492998031248, -0.7883014844279681, 0.22141349885936357, -0.1855309858333829, 0.3225808798001631, 0.5409695423085119, 0.9779600846420131, -0.09661429395699353], [-0.794413948505389, -0.40704827565137114, 0.27665351418756784, 0.9387014377712828, -0.11745667849299431, 0.8628478935234143, -0.5351820409046606, -0.3727730162195264, 0.2598020671449991, -0.6411086442617693, -0.49536583378082266, 0.36032682235641683, 0.7080455900996487, 0.6154368306821618, -0.12132835725954108, 0.7236515408955956, -0.5295035791513885, -0.15175874653896648, -0.13355050676851654, 0.7598531562541824, -0.2505467319155017, 0.5283615511697854, 0.039106718491214804, -0.6910371457586212, -0.16172123622078174, 0.19337183972298577, -0.919637828359275, -0.7605555497261409, 0.11712098797937466, -0.43739126165417086, -0.12022570641745912, -0.11269746370401951, -0.1517597056688036, -0.1308876238445611, 0.9694424262591004, 0.5047908278721085, 0.2500745624583369, -0.45561359908854593, 0.6896457647469965, -0.815347977511885, 0.33082950912616504, 0.6132244388121888, 0.35974498566597096, 0.8350500462766703, 0.3586689015567262, 0.8110362647518925, -0.41875897501852416, 0.6041220193241045, -0.6410457643003857, 0.8936397758447976, 0.13766077636682758, -0.9342359861583656, -0.017063930492124943, -0.6949281921440988, -0.32384663196861946, -0.7666181649828738, 0.7725157715524722, -0.414562121481545, -1.0135840813269725, 0.17552061176501366, -0.47299479691602214, 0.697934467869318, 0.6569131879464959, 0.46317688502145277]], "Bias": -0.10718168858020037}