{"Weights": [[-0.7790587638665596, -0.3768521385572601, 0.5436344794225727, -0.1186614157910808, 0.07488168657517381, 0.8638573458120624, 0.08897271703917002, 0.8351046504902983, -0.20925952975712062, 0.5642824810503346, -0.3948596296046811, -0.07799124894721692, -0.2649316190407068, 0.8261112772885586, -0.5165720816471315, 0.9435235688864605, -0.8776321900290011, 0.9315941077058413, 0.5616255387882617, 0.8761363002518643, 0.07022194220437973, -0.9215899398552322, -0.9131692600773046, -0.9317186796245679, -0.12960189388701251, 0.6047986844345007, -0.864123441934771, -0.9129096426969239, 0.8360699539348699, -0.38316327576008663], [0.4836273798353108, -0.21092140684321756, -0.11444013027921683, 0.7542924935967913, -0.06387217289873072, 0.9462782731422232, -0.9828487541141379, -0.7428351073492968, 0.9280068338239864, 0.11542072293700797, -0.11067994980987655, 0.8589353735029839, -0.6484850781202948, 0.6100645256815797, -0.4992150878254829, 0.9574878386142538, -0.41004867724218075, 0.11089709065781517, 0.16637279064770033, -0.7341216690310166, -0.49588219394070776, 0.5037602689868205, 0.6634629203308925, 0.6865664837021759, 0.4676704443236882, 0.1547629456915609, -0.0418120563889488, -0.28697640553816844, -0.13481258630374632, -0.4839811204803726], [0.8197153143132314, -0.6637271092858509, -0.20695004440304657, -0.0074433740446142906, 0.7878237803310124, 0.17760219723888568, 0.9635768571441607, 0.7906660875011643, -0.7225379330019901, 0.5831768371910754, -0.7407297489177651, -0.8466921142723546, 0.5318403944233576, 0.1387081326139887, -0.8996532734602243, -0.5323414028071428, -0.14551190926225108, -0.6078199615821583, -0.5285391956083133, 0.31845675767777687, 0.21946684913736297, 0.9134211667814222, 0.8216162062548826, -0.421620455147435, -0.12067879257596241, 0.010589027435924108, 0.03269845494124784, 0.4933683181179556, -0.25166520800992154, 0.24681890551383734], [0.5128439083022057, 0.8663934277074622, -0.6078902991216115, 0.20146940179815306, -0.005771660272719044, 0.9640757292236541, -0.23860118340610786, 0.08559621391576311, -0.10147670982060375, 0.27574367641540914, 0.8541917315898555, 0.04884218988056288, -0.9438720961607331, -0.26074967167577484, -0.2589794899083659, -0.3288665734223551, 0.3856802406328778, 0.7435517747851133, -0.17006897160026568, 0.9233159547835618, -0.7003570705576662, -0.9886323279415646, -0.26237164551120595, 0.3255417237680296, 0.5653357780191407, 0.32836540248045654, -0.44450410358445497, -0.18147769547289408, 0.056749416071799084, -0.5593509529442153], [-0.37211749585155557, 0.48301855414880696, -0.10702803325430693, -0.1522652507308223, 0.8084622876848393, -0.7572617280510131, -0.3957338197455056, 0.012414934147984074, -0.45297150201298614, 0.7067485981256971, -0.48645975027063454, 0.619520445366945, -0.6401573879015144, -0.15052441132882363, 0.3426069134443358, -0.09648202725557455, 0.4362440159559059, 0.06463949407888311, -0.7430890395603621, -0.9041709875808936, -0.7625469790893679, 0.1353825401154206, -0.1528228587344987, -0.28289383603092977, -0.003869264586886281, -0.9223081423850721, -0.12954295323069986, -0.6499255524814987, -0.6712832713773029, -0.9503012096353675], [0.20724450202419636, -0.19380226569138195, -0.1395430546190716, 0.9537839724662311, 0.8231158940059854, 0.7367210744859938, 0.5460235347357881, -0.41319317485615903, -0.07349512948118428, -0.026921737627473123, -0.6522189318104309, -0.380953959197461, -0.29980758740447727, 0.7930147859476492, -0.7979250006138914, 0.26197519011801096, 0.9199667387201643, 0.8892577848527844, 0.7522938364288891, 0.02866358733957899, 0.18192330595557812, -0.07371808558595017, 0.23217320225331106, 0.24381626324593167, -0.8728617143784653, 0.30828020464814915, 0.7733534236807371, 0.7685152617364435, -0.13643046463290634, 0.213294197988972], [-0.32083311680608834, -0.717893772714546, 0.4498089994330242, -0.2564767554916101, 0.12281865865557827, -0.1058528772831821, -0.6540498870630487, -0.3580273577067352, 0.620222324348778, 0.8524098721746978, 0.926395923759735, -0.7083841159599622, 0.3330474060894318, -0.4483141609466913, 0.26415116727155097, 0.8850690527516171, 0.34233851561528306, 0.4106294560945051, 0.8029808006300471, 0.9892175027003755, 0.02149276960545317, -0.3748208431287162, -0.13754769448271856, -0.9564738494738327, 0.6116862813308671, 0.7972533004250404, -0.11167488773766007, 0.03535876371300556, 0.7047632565660874, -0.5140123835591766], [0.2621308196595538, 0.4489744373009369, -0.6057512437559629, -0.4908351256653753, -0.4414394902154697, 0.6040673045303893, -0.1556897229423884, 0.2657020944108571, 0.48126673418984667, 0.6920167408611562, -0.8796188892055876, 0.8142829139980967, 0.6822874534754121, 0.9644223572663548, -0.963205164248751, 0.6826996442395297, 0.1024355385021776, 0.6480399104635927, 0.5319939076960214, -0.9806819415614509, -0.5122680435425916, -0.1979514409109028, -0.528385959218846, -0.8126876789373437, -0.7526600644057806, 0.2690510501869085, -0.6993443764922549, -0.7835890418063969, 0.3993045146999414, -0.5096178567863475], [0.03134098851613571, -0.6112085632507638, -0.2202850729196459, -0.52034365154939, -0.16167920535448393, -0.44126170224388295, -0.5401366141247614, -0.630218561178608, 0.7254478745584362, 0.42485754003153375, -0.0010390607624593694, 0.3465159420102164, -0.2802732718303671, -0.986972293511199, 0.9108020308585347, 0.7708830698958953, 0.05634777599432675, -0.7083464553907983, -0.5524182309963992, 0.24408210460958701, 0.8224837166353985, -0.7195750247183199, -0.8253209135581616, 0.22632520007092002, -0.13428999227671237, 0.6159886543476406, -0.3110195473510028, -0.8021249779489822, 0.6439573836905204, -0.2858453920262822], [-0.3891183771379463, 0.0698488372492793, 0.5820161303832461, -0.6538297769023964, -0.44890519020958264, 0.2748498647048732, -0.15190594451618564, 0.1851049632063145, -0.7226487744845463, -0.6960905477168049, -0.6642428549323435, -0.23319889219299536, -0.6526298843184372, 0.21166067656204515, 0.9018422475747085, -0.7416789751664703, 0.635892622872391, -0.44208381414285214, -0.6802878757874167, -0.789826849616947, -0.8197017865921489, -0.31207474996607165, -0.030646712339884242, -0.8893803085259169, 0.6840332651948419, 0.6582359580278953, -0.20119297903469482, 0.1412811538989782, -0.687996896568517, 0.4704789471375283], [0.975091246128555, 0.36653013367035453, 0.8383258613873418, 0.7598090500717697, -0.29259249003424004, -0.6873830161198728, 0.8991589337402796, 0.6846132999862017, -0.652207127981138, -0.07734499547077665, 0.16371040992258085, 0.7020076993784852, -0.17670630288443054, 0.25544925836525356, 0.5206478034846955, -0.35309180908042864, 0.6070589153334339, 0.5000090230991535, -0.8866498661626697, 0.01120220577026049, 0.23803326907579156, -0.37872831700056625, 0.7171804561973225, 0.14208939457041495, 0.09581298435618647, -0.9108954360482856, -0.32147699868702634, -0.7926613119020341, -0.7363395187618013, -0.6317578556985389], [-0.11924552760745126, 0.2056837267413736, -0.22068333389686762, -0.9463635564868574, 0.9590390361343383, -0.6375272210292002, 0.6142782646627224, 0.07853205178894956, 0.07590565572808279, 0.7708696388191573, 0.6224900823616214, -0.5432092951937888, -0.6165141937115978, -0.697765412284967, 0.6728650570606397, 0.20866080063646053, 0.43595213807450783, 0.6026340891394281, 0.40823760404185444, -0.9340921656669604, 0.3089149217670581, -0.7625362644201057, -0.5976311779616806, -0.318108753234194, -0.17328328724180692, -0.680575482400151, -0.9303564902973043, -0.08017314404937291, 0.763952699444116, -0.6105194082049643], [0.3535564807102172, 0.13961170226715558, -0.06576192087892224, 0.0159526019458272, 0.36897215524256366, 0.14784656203695404, 0.7965953492164, -0.4883301131587551, -0.25618600255944923, 0.2032519755622063, -0.675606401302266, -0.6857915125976125, 0.2541582580380603, -0.518564683615854, -0.3914654028694599, -0.8358822512713197, -0.8903865464733876, 0.22003933474144222, 0.9759422536056375, -0.6914942427644984, -0.9447114094126525, 0.2690282638582419, 0.9327628107398049, 0.21712719379383674, 0.9229385365018162, 0.8579503585206958, 0.8158358020707447, -0.4771920140991077, 0.3858507631733465, -0.19438382207974295], [-0.4397965427393443, 0.6423164979234575, 0.09785008584687677, -0.5968694990306255, 0.028258749646771747, -0.11945390028584732, 0.08585485632635366, 0.10972423051371928, 0.30445969733621725, 0.21960852567415903, 0.6980369007342916, 0.15153063961827037, 0.8452082475146306, -0.9958001399108249, -0.47990265715965036, -0.880244455494403, -0.27661367237801177, 0.7699110631699656, -0.1614519335939312, 0.17496671296808877, -0.19901048552428355, 0.230187083479848, -0.17740096575770545, 0.33404569764253217, 0.37313677219531266, 0.37895979307732486, -0.5723181234604932, -0.9896065286139195, 0.3099075941458813, -0.17870718191721632], [-0.73400058066521, 0.7939730614492366, 0.7614835221963526, 0.21460395495374596, -0.19179222409040808, -0.8235619080847842, -0.8176315268023502, 0.13208143706648834, 0.5026201123617002, -0.21480042801044685, -0.08233965845592903, 0.15429199420995182, -0.5479976907111359, 0.17274286768633731, 0.6073692305757638, -0.5095166478162384, -0.9155456501908839, 0.2264045012358906, -0.4231790824511891, 0.5822004950186667, -0.48320357341240866, 0.48024351182392827, 0.480719385014892, 0.47481445118770704, -0.4797378898504958, 0.2321460055861811, 0.5442367969483544, -0.21439889268699788, 0.19977868778104502, -0.3544948441103443], [0.5929278945333624, 0.5726220884485865, -0.7406265631082596, -0.09295248781372013, 0.07948295626633622, -0.5486141586991575, -0.6494678512500306, -0.7888247194442156, -0.7790314773947186, -0.45845282693245726, -0.02747139877582983, -0.1505001365776525, -0.18017747927574668, -0.8227454252121609, 0.7009747878050762, 0.9160657751957738, 0.727937179042949, 0.4669155921393918, 0.4959903033720228, -0.28263105905456826, -0.7442584356355021, -0.9147376359426492, -0.32066186851200074, -0.2954879736689891, -0.6687679190754657, 0.8600325870081854, -0.4412185294166797, 0.5976553239395985, 0.10035546142096982, -0.41234198911063286], [0.3256449957132164, -0.488044519205407, 0.9636809329035224, -0.6354202050156955, 0.5694157435030656, -0.5798277407704774, -0.0846112535426808, -0.8369572991644335, -0.08428224798495282, -0.2904268281959102, -0.023574588662525698, 0.5926254984336266, -0.025438033456173306, -0.5617751851878511, 0.8008206864149281, 0.9480209056493683, 0.43906552259449644, -0.09033727706828173, 0.6991687465531983, -0.5073334821211979, -0.29902327852690275, 0.11701590601617923, -0.6280201959155277, -0.17833744586406394, -0.3356607562086668, -0.09884312711906858, 0.2466638525295114, 0.421034268626503, 0.2477544252739333, -0.9346456488583526], [0.43287815396053736, -0.1003794683443643, 0.8578683593762432, 0.0924358208072074, 0.6306407496422227, 0.9003839611162403, 0.6180085225778281, 0.25506535915989004, -0.44412912294051643, -0.2883551922398114, -0.22124129801026737, 0.15043475369518608, -0.7918158748053, 0.18638529316887445, 0.1620706735523069, -0.9617097427198142, -0.7861622219157914, -0.015562486724846256, -0.6763140826424703, 0.07089081727002014, -0.23940513710501446, 0.06972075222435765, -0.31370383434674426, -0.3359581429286442, 0.6626776679373173, 0.9754872333937783, 0.390548676256965, -0.15255676081911712, 0.20737118332954133, -0.10537324547958256], [0.0628815078820168, -0.7053193266379155, 0.4466593136163607, -0.43008430789712915, -0.5676790290163276, 0.2775964625736778, -0.44285623088600595, 0.32203083542484545, -0.5212908477532757, -0.07201273721652707, 0.0024361479749061467, -0.401114543229639, -0.8565913151474903, 0.6879027494538008, 0.8485484878584336, 0.822125542152496, 0.13245782438914214, -0.7047550384668776, 0.38341180947074577, 0.15855824685027203, 0.08039124249930271, 1.005636640148032, -0.9656356308759634, 0.6308203023426939, -0.5863971338180106, 0.11101251820487713, 0.2573921862254788, 0.7646032862627458, -0.2768745570708735, 0.6223859763912365], [-0.23004330881794113, 0.6181703599460976, -0.15501200937284895, -0.9448864263481728, 0.8543051211302155, -0.3707035575289572, -0.24433493578763343, 0.4249286972771092, 0.31490263263188817, -0.21294771003769206, -0.40675083073085555, -0.19116853241245454, -0.9686514750113518, 0.4194919160129502, 0.6684006379339408, -0.44378990430005993, 0.5982410738024085, 0.8337466384756785, -0.8049888731642486, -0.33674393757193405, 0.03233243900950361, 0.905227780962728, 0.03434731853462109, -0.36935218097443934, -0.25298376494507924, -0.08759709171664029, -0.6695308959155089, 0.24278645917135383, 0.3472670918055338, -0.8087165231409693], [-0.08648925930616838, 0.7819320660006589, 0.24649189887042114, -0.092947010623656, -0.04757267231777206, 0.8155852123243178, -0.06623567215466857, 0.8233712862700051, -0.870167242404587, -0.8021428970438846, -0.14016812441164733, -0.9111456820795741, -0.1759896038286346, -0.7037511547322914, -0.6142815643313488, -0.7320026880464429, -0.6522187086010292, -0.5813400322874004, -0.31869953863408995, 0.5697133146449823, -0.8460480896710032, 0.6613079625590584, 0.703658541799887, -0.4770647757439286, -0.6705957826900463, 0.9684710454748094, 0.3742588037735823, -0.10595892659895399, -0.7215034127736946, -0.13711068910807456], [0.8398505562766583, 0.30120476673023666, -0.6070253920774922, 0.6040856354366441, -0.7992362872930725, -0.7003148070358651, -0.1092199396396356, -0.09154999942667823, -0.9397314889894139, -0.032588406815430855, -0.14859287936145849, -0.827220868600626, 0.3886843991758926, 0.6249805763743512, -0.15251326677014485, -0.5670134051729916, -0.8135878420368708, -0.8866021056804541, 0.6518569828986123, -0.9425952553458344, 0.28901690482688774, 0.3427625181279536, -0.8158847035009518, -0.7173819913029501, -0.5657883628383966, -0.014829704836260272, -0.1113024862984159, -0.9177320443637602, -0.10534144208685585, -0.21452157551241935], [-0.3699782334957542, 0.3172138888690678, -0.5939765707901139, 0.8124254970482374, 0.13582557871549672, -0.8939707994298992, 0.7075272308568749, 0.6810599394832035, 0.6753620534340069, 0.24011277559910188, 0.873524760519415, 0.8143002811331165, 0.995938628372657, -0.24944330548753751, 0.020500195328257396, 0.08903174100278273, -0.005853566414218385, -0.007215323315202764, 0.7748400977612218, -0.030869814843701965, 0.0805205412113368, -0.3500651911859709, -0.5992888439955866, 0.9194755744012492, 0.6197560739897254, 0.7533958894783571, 0.04128127382167584, 0.9650734420365039, 0.35482403333336765, -0.06290192557799715], [0.418503125419795, -0.8521726518493262, 0.9074334801955775, 0.13072666918633624, -0.24982843665057244, 0.7887667670063472, 0.823596720928637, 0.23778438798312987, 0.5211656002471389, -0.9323083111056469, -0.5740251169912112, 0.19601755930263368, 0.925738268886818, -0.6382693917314523, 0.2673045131187126, 0.9721486752453216, 0.05103954332263359, 0.5392216080044941, 0.652576438472651, -0.43382412694037287, 0.7065608994961428, 0.054022587035588716, -0.44668319337834633, -0.30931220029205647, 0.8350457791494232, 0.18684648481896898, -0.4070260245858053, -0.5078053049708073, -0.8952142742331258, 0.7079766490333119], [0.8869531706482298, 0.7874641507915074, -0.7761797917690881, -0.9495865875920416, -0.1471324967976963, 0.2138895032682302, -0.5312812198910314, 0.42043029672678867, 0.5250468725880348, 0.6392181956310334, 0.5556782903904866, 0.8928074061398485, 0.13157362673606118, 0.07905390641583253, 0.6338998558644935, -0.29778268787094325, 0.38294430945389446, -0.9339319595031609, 0.8208253761016739, -0.6734853663242839, 0.5769305792462203, 0.6058090003473431, 0.08984200424841086, -0.039878867678412776, 0.13513785403973813, -0.6068629374693513, 0.9874832808745877, -0.7790100938880652, 0.4394099996853302, 0.7363351923437395], [0.8052718355807565, 0.9185858951044925, 0.06578225933213629, 0.4044328452694309, 0.2275405894307321, 0.6388667174515837, -0.3261076734472009, -0.3939861235416495, 0.10733488019922063, 0.36176533808296574, 0.3328636991994873, -0.1522007771819309, -0.6412268399396982, 0.3545065321109645, 0.31264690072529266, -0.2278367571230632, -1.0339978654858109, 0.6194442853032648, 0.6420004356346349, 0.2947807003237646, -0.3905744451264076, -0.01610628758851318, 0.2596744426848022, -0.712613535453454, 0.8179610015052503, -0.39151709410996, 0.9712883305770352, 0.391840158026167, -0.5199558392851855, 0.6884972824032861], [-0.446541177585975, 0.4096448099292897, -0.8886100148251832, -0.923731316863025, -0.24110494601287913, -0.49144478510993633, 0.860008097795934, -1.0010302167616636, 0.9592338288454345, -0.6202037461506955, 0.6416304133634058, -0.4310488863468439, 0.7970364901720476, 0.6371395441502888, 0.8347123344358823, -0.4576428595637438, 0.6473563528924268, 0.35502765013817567, 0.49050797255959844, -0.0053264258528599884, -1.0066796783188807, -0.9373014948310138, -0.06937580467097332, 0.18124544454612798, 0.02934174536414247, 0.8765554146565021, 0.18118362159697413, 0.9219921385312986, 0.3908839408998622, 0.7834234850382499], [0.19155772688310355, 0.29798004241276627, -0.42502960591621713, 0.07087583220148429, -0.5298224003836534, -0.6116824331291522, 0.4883143986356095, 0.06131684074312908, -0.5739008778931575, -0.23400394454286974, -0.0617606086530737, 0.3130864048364623, 0.19372302221883667, -0.048894109496707944, -0.09417835211426322, 0.8829653303740623, 0.06412569397192402, 0.40066773638167613, -0.15161755915771147, 0.9332559213068142, 0.04763800427861155, 0.5579421451158997, -0.6777798121463715, 0.1231834947088561, -0.094493164443492, 0.6186185245743683, 0.6970119295001023, -0.3553123022182503, 0.32215205298272204, 0.5408855629770567], [-0.7955052026693369, -0.8887050225969939, -0.9279132879626155, 0.18590363271766117, 0.14517422907271038, -0.8716381403965247, -1.021229336482279, -0.3660512228927318, 0.19901989169654521, 0.42246425723464337, -0.4066778854051752, 0.7077583297881226, 0.6205939675705587, -0.43444281673031226, -0.4498126455668579, 0.7275332452208019, -0.17294388119513826, 0.011406871948853438, -0.9885985969953329, -0.4645135972481847, -0.014070128641448947, -0.6918863740795891, -0.3644181178184687, 0.8294369646019437, 0.2941184148746797, -0.43835134526317837, -0.10840724650629802, -0.8211251495611519, 0.5727583437677032, -0.24672713386651257], [-0.9073175856518244, 0.009082718835945133, -0.43139976531453367, 0.9154071630154539, 0.5850530392715382, 0.05172305522184054, 0.3905169527434426, -0.5153944005800571, 0.34170351870033183, -0.8856944337516651, -0.19839637086318754, 0.151169863986098, 0.9739520664145953, 0.5001382849165225, -0.9216084637432238, -0.012300325398895999, 0.43408895879135795, 0.2662707029124464, 0.5016107570114609, 0.9885632859879112, -0.10874041226870261, -0.20433043574574186, -0.42947590399273156, -0.33435544674008427, 0.23075402947580562, 0.8797826128133056, 0.40439085210624703, -0.26076061343290025, 0.44787026484733744, -0.14301983557854853]], "Bias": -0.19653868738889926}