{"Weights": [[0.45273155569252127, -0.10768900741598451, 0.7517017975367203, -0.7636865467218267, 0.7715098638450142, 0.7267345510354769, -0.8807647716891981, -0.37070101434634994, 0.7999586627044378, -0.7249112015944684, 0.2420249068554471, -0.611041706112286, -0.7694776867024985, -0.11392359769140908, -0.2963108347196237, 0.9740968216526128, -0.40649295143670455, 0.016835605894513526, 0.21233244136905502, -0.16688428093683627, 0.040520104360401966, 0.874868159381187, -0.3512803672587559, -0.42641019378935074, -0.02709135590393841, 0.29753580670756163, -0.8533631222783241, -0.2451755328384169, -0.5340128220899166, 0.14102239168536349, 0.29080691073094384, -0.04380755312978453, 0.40880272076810265, 0.9353369513914591, -0.5734382717862407, 0.13851193732659556, -0.7083828911669549, 0.25988034369734736, 0.23265103781633045, 0.2263744281637001, 0.8910978972311673, -0.11864928963818766, 0.4631925904309447, 0.9319941422528304, -0.5991004184751508, 0.64775144250947, 0.4621537428946861, -0.054692637859263704, -0.8644953945474151, -0.6395393834538454, -0.3849287359048865, 0.9398164237640543, -0.2800041656080121, -0.038174660529208856, 0.5801407656752977, 0.1874698753848889, -0.14679556249264555, -0.13965339729614537, 0.2066989459568544, -0.1305522351213015, -0.10019053085129835, -0.14703539159642978, 0.1222927726002403, 0.7108789977961494, -0.06179965846272624, 0.3865754731720487, 0.6169678679130018, 0.041565049101721575, 0.0538141611389798, 0.5720804031481436, -0.826889620826881, 0.7547323226685201, -0.40793336970327, 0.42190235879391597, 0.258500745131909, 0.9914389683381558, -0.9406165194061686, 0.6958020281290266, 0.7025011305473386, -0.44807503053161335], [0.537170983694322, -0.12298995793286577, -0.9118599035127288, 0.39501324986128944, -0.8718087554705313, -0.6721598275581473, -0.7175574241568582, 0.83378551316671, -0.3305241942296475, 0.830648403877969, -0.6470144077843869, -0.6286179961726364, 0.7071351408511376, 0.3360927284954609, -0.8450045037593407, 0.8102922996077586, 0.020505469309092365, -0.23210026122092614, -0.670810725063312, -0.6185068331914563, -0.687377153907061, 0.9375090738100766, 0.706124030794741, 0.6819462052728485, -0.3893855084940986, 0.07079944817110963, 0.47535489572253886, -0.8709471538538093, 0.6713478869839242, 0.7778196070504172, 0.8555380177098721, 0.7992103411329192, 0.22568172445161164, -0.2082162986936, 0.9340642350530585, -0.04153832059767223, -0.7986057229318226, 0.3954451077054207, -0.5190183433251392, 0.9731660722929668, -0.4743158888981281, 0.15999511453664825, 0.6948952644133717, 0.1528001044275575, -0.018529611264650598, 0.8649613771623135, 0.8349558175040743, -0.5440545506282145, -0.8857762876224278, -0.38362917135514407, 0.4280229771907337, -0.14310336801612988, -0.20616332959728423, -0.8911426844089476, -0.6914255695146345, 0.47190673946032713, 0.4177798473075175, 0.7957742197696215, 0.2990333731570614, -0.81566713570919, 0.3399008716456964, -0.9699116263516164, -0.05905131393920548, 0.7686658856087302, -0.26308116966462164, 0.4250457176797368, 0.967045821695624, -0.9088662023857783, 0.7361327331511412, -0.7922269596981155, -0.02294545058759624, 0.14170053011066236, -0.36054400472079307, -0.841143044648691, 0.07521935223038334, 0.6271256520835266, -0.5998774510470747, 0.24355705878440026, 0.5303843213527389, 0.402392203627377], [-0.18367155687226366, 0.4217122294839973, -0.10452983096726913, -0.9642524902307121, -0.7406014246632225, -0.15865035433477911, -0.7751233319379266, -0.6374614631119984, 0.9744592713430541, -0.9510643276604797, 0.5380447046631548, 0.15150016814842251, -0.4454460506169889, -0.6449166804370479, -0.4391489738246302, 0.5408634189414638, 0.9173124714570583, 0.09781839966876035, 0.26631694995105737, 0.35031329642389025, -0.21292787419875883, -0.4158540767683689, 0.33958754035024863, 0.764969617444756, -0.49662800838352444, 0.42835171608956596, -0.9682161006058122, 0.3704346189654933, -0.5828033610611234, -0.1672437696955326, 0.3187026611861204, -0.5430280698057595, 0.5732805168503535, 0.01319520392893769, 0.11001509800505005, -0.5256539463140404, -0.9310667985028774, 0.015234054571301888, -0.5542510656699675, -0.34563355488487035, -0.0019381304636398686, -0.03707044126044192, -0.022550853927171884, -0.31436935372854447, -0.15221640803870884, -0.2944394878648104, -0.3814263797025465, 0.691061719032366, 0.8969280495990064, 0.46697165191794937, 0.9818830648051414, -0.06374324449652886, -0.5733260501942142, 0.8524930101691006, 0.001011284293230162, -0.9494378832745075, 0.1075832296564678, -0.37646609763832345, -0.6682599693599017, 0.33620864891637164, -0.8479580808547583, -0.4599133822212861, -0.783019633944715, -0.3911912692617831, 0.04378407518494171, 0.2919553745856902, 0.7341909116694257, 0.8718753316337956, 0.5885407843754513, 0.7650841229097308, 0.5989485256319351, -0.19672237308277504, 0.27241545801243194, -0.7444423557381694, -0.48746356453545203, 0.14769188169383746, 0.6929908668412876, -0.5776489087895222, -0.6965138763861362, -0.6632032728015584], [-0.5678313745675253, 0.10939509345940363, -0.9439869049002143, 0.29365353842979436, 0.5980505725687969, -0.0688692332240971, 0.08271893717019864, 0.593821152703801, 0.9041479095558286, -0.6508141759657051, -0.5896150743921138, 0.9199864790097997, 0.911299728651992, 0.32587598267612833, -0.5862085708298121, -0.1456702378108433, -0.9649624979644519, -0.7484298950077019, -0.22663492423141557, -0.11270354873131253, 0.6200623036900774, 0.5200728864878662, -0.9590383550130058, -0.3450319619947892, -0.43893631593123206, 0.09978392543074358, 0.9827080974930059, 0.8021608353655367, -0.2501482076831425, 0.3146085731872638, 0.1188548595245812, 0.1386449908212256, -0.9392196807188236, -0.8227135216124493, -0.7950930049342908, -0.8709144326913203, 0.9360451411026866, 0.9021478382085301, 0.18338052189749382, -0.26761629361984657, 0.43089760564720775, 0.436026758511118, -0.6866229644081175, -0.10384523146091734, 0.44171077034159884, -0.4751357727862842, 0.001772425322422646, -0.18355736899524458, -0.37245641513320077, -0.961400583762833, -0.9353417517204416, 0.8339230124652054, 0.4101472021963111, -0.9466181370288328, 0.9266703845901961, -0.36615090104940273, -0.609389801118686, 0.8641811974575028, 0.5237597755441468, -0.9392488315168893, -0.33339795479987816, -0.9739974192162172, 0.5159014366051152, 0.7491617548977975, -0.39796113551722617, -0.33166285835493065, -0.4687320337042563, -0.013356344569179071, 0.9182525760460606, -0.7422113379817789, -0.07338004879998103, 0.3825696973290528, 0.8822042039542639, -0.9618685778804907, 0.36784836581010727, 0.44195289362309054, -0.8859101355153802, -0.2747815462192845, -0.28282428349725736, -0.04277781134768916], [-0.7748399429480665, 0.09811028515753782, 0.1433896018919151, 0.04834806050887846, 0.7420986668892405, 0.9742147636700004, 0.03165810637310917, -0.7641331703903208, -0.8516318928104095, -0.8626775289436486, 0.672119077418962, -0.4562082526395256, -0.9579545838762508, -0.09328617306936819, -0.6134153398471656, 0.5319312902550183, 0.2242790612637495, -0.0025558457926585882, 0.5844153650384685, 0.06803660184733241, -0.22764664572580803, 0.6600139317353814, -0.9952536529705112, 0.4728102829917654, 0.34883348041321127, 0.23982973033090357, -0.3975530889951872, -0.6457677823773942, 0.9100000715120397, 0.7365427991457951, 0.2725084138731045, 0.35215193902469144, -0.6943425533223179, -0.2904721873521054, -0.8112245221970203, -0.4383655041000357, 0.7077529400460236, 0.32650051397973057, -0.5195375121389113, -0.31652822726432317, 0.029226610978405038, -0.23885086934870012, 0.6684457465289604, 0.4167421315451701, -0.9299712643964315, -0.41929319107470053, 0.4074806930458382, -0.707873156233738, 0.31544598514138134, 0.5060634504620611, 0.1233138870914795, -0.25962038837270757, -0.7686397013543913, 0.05980250835348054, -0.7592203199823144, -0.6944526496098161, 0.17609162804467657, -0.5815483449232306, -0.2338291834484232, 0.7341158951770039, 0.3200770419190332, -0.6096766425835132, 0.2658832543181895, 0.4217314315562144, -0.42960876464515824, 0.07034008982321065, 0.6721032647118684, 0.9977356795669933, -0.15981554366781123, 0.8024479352530778, 0.9295624626252859, -0.06231434395446068, 0.06740797480377027, 0.7822832834991212, -0.40020592510397, -0.8186907897663548, -0.5037834842115739, -0.11225022307532186, -0.7726459595949003, -0.8895602576027515], [-0.44106310579980784, 0.19446086635906323, 0.4180729115716188, -0.12414715321052072, 0.926097392284056, 0.10113557779284914, 0.34640994103669187, 0.4943816879788186, 0.16319011566795297, 0.3438239023696186, 0.5280728171791225, 0.709027300554851, 0.06875490019080228, 0.8951159969598984, -0.15372525618266858, 0.5587439712824797, 0.4964199322062364, 0.037454104051504754, -0.6260189275787352, 0.5117023471510298, -0.45943039928745455, 0.7090052250134278, 0.6630601394936005, 0.37381470398216665, 0.5224316479123894, 0.6413943238376963, 0.148543983035816, 0.06653932565381511, 0.5123807930454392, 0.17498731922148494, 0.8446640063771775, -0.3933864331829196, 0.3336616350039349, -0.38788738842196807, 0.45247213716415385, 0.8760424464878671, -0.35997301364995543, 0.9460988296715833, -0.018824375630188676, -0.41789124974400116, 0.6280014120727466, 0.6981531968589104, 0.6296278663947266, 0.8551690513156465, 0.03797774261409658, -0.9852729114073459, 0.6527680263655299, -0.0016814211218878351, 0.5444935916910948, -0.6051400886702544, 0.1893381416552843, -0.451451877541934, 0.5738899411410084, -0.5600222689907967, -0.6599540169012651, 0.07229457830229956, -0.812645347448691, -0.2212923395355424, -0.6957625914794635, 0.16968792744849007, 0.7190166174844853, -0.7719307870779208, -0.5397469878346842, -0.21103019780921894, 0.763138877588183, -0.4431488386095394, 0.23672108877179832, 0.6338982825522846, 0.809031214823017, 0.3219342790428307, -0.6872413055530924, -0.8445092230727028, 0.08603586743931747, 0.6112647845959079, 0.8752511125380672, 0.7539465670598371, -0.9631166101939328, -0.7116937332755133, 0.4250176374941952, 0.3231602118009751], [-0.21000852187379015, -0.11911956350165648, -0.31251731467585014, 0.1549462156128636, 0.28257369114797054, 0.22104811659262535, -0.5664258496747778, -0.42383979417864825, 0.27874592867258685, 0.9237146419898848, -0.5379218254484198, -0.4453381567820421, 0.5381556351576376, -0.8541039857247769, 0.6064915837630538, -0.30652911114776904, -0.22270727701160006, 0.9242390351342002, 0.013247959420534217, -0.7589474559019003, -0.4285048794641233, 0.964953949887987, 0.6780793469944892, -0.31658379587020163, -0.08729718689543257, 0.05383059881605577, -0.05788207816090047, -0.09717481281096835, 0.7190806663509031, -0.08551057166848366, 0.6611562003697621, 0.659934200104584, 0.07428053631719377, 0.029896192388003687, -0.6866309404626864, -0.7838110981738333, 0.8175660509924383, -0.03548369787067799, -0.9846273105116602, 0.6395197486825704, 0.696473949570773, 0.5621786534266006, 0.7267564717666201, 0.09397181868935237, 0.35727835246242684, 0.7732062136246044, -0.05369156174070078, 0.09675685176266192, 0.4872098762971733, 0.9353265419483376, -0.3736430264634637, 0.2660177859573761, 0.7550600313461925, 0.2008758892431271, 0.0475863164996744, 0.19733442286660485, -0.046135914145020426, -0.8643104477319055, -0.4643550484178169, 0.9528075428454019, -0.16537139624204422, 0.6604191936412064, -0.5142839840991792, -0.40547449190224594, -0.17226557789967786, -0.31128752021176814, -0.35013958720666244, -0.763417902404767, -0.2616303871043043, -0.4873475011689806, -0.4209186051349934, 0.8132911114427456, -0.2186842801467422, -0.731857144672139, 0.8098079032819189, -0.17471630877985211, 0.3538131264322618, -0.2967907119473735, -0.8812554457634005, 0.558874169289105], [0.950351845832116, 0.39275167090705565, -0.2421379544678631, -0.3341412916267548, 0.7820436682269402, -0.40083319380139343, -0.36955227557837017, 0.4236978358862283, -0.5893571450494871, 0.5536198288797846, 0.7918669365914063, -0.6352138663175227, -0.7631839741936985, -0.38700463157821063, 0.6961135157575897, -0.7773937335092918, -0.3426219817722784, -0.769011379298408, 0.5521736158582007, 0.6786624163395347, -0.7451929826584359, -0.018668734711986972, -0.2656747328480892, -0.33974206564544923, 0.9917259987275586, 0.21357877019642155, 0.5564696519552614, 0.23666766594548283, -0.3145488819584669, 0.29220175907506224, 0.5657839250963288, -0.37824975499244007, 0.1530131370936126, -0.5793723136184085, 0.7606607397171267, -0.1374025114046364, 0.23374815022192957, 0.4900238635138367, 0.9913531606066563, -0.5007274782260461, 0.8954289860877314, 0.7087759205126505, -0.9107161993135947, 0.5333662528097769, -0.6168200729040352, 0.6854914893088752, -0.22542658740080387, -0.7222693975141368, 0.013605987877355317, -0.7341964586076702, -0.17677182275604797, -0.3324163486198795, -0.5936656169620066, -0.7563558837218433, 0.6220444872415143, -0.744400148757005, 0.1274799553990384, 0.30623581072002365, 0.6511931723975851, 0.5732359051317368, -0.6168692886074253, 0.15023059336953448, -0.44595922039607794, -0.12288198608336702, 0.383900736516153, 0.94601579607702, -0.026069078335481444, -0.22762869838623995, -0.9875349245801935, 0.7855007175336707, -0.6557938109020547, -0.8101985394868402, -0.5940973996844415, 0.3185100206693168, 0.3958976854840861, 0.12949403985230737, -0.5874217226747955, -0.7073193021276643, 0.27469301584918215, 0.5748113584752836], [-0.39676003083442213, 0.8336890230730485, 0.650460947423424, 0.28615447854244414, 0.05324498868669701, 0.7886151123119055, -0.7273668466362018, -0.17581976032360652, 0.631830614808971, 0.9164456366663611, -0.13607560569268914, -0.9766923823730052, -0.6768087157757319, -0.4427476069509245, 0.6702984518863895, 0.40833499569991333, -0.9601025232817478, 0.48685024536654953, -0.13126269137638036, -0.16236066286403483, 0.2705895518202603, -0.3299609615514275, 0.8404396346858203, 0.8692624796596596, -0.184166752477545, -0.7889072668488349, -0.525815397933721, -0.8122110768891168, 0.003231330287592545, 0.5962934357247849, 0.6728292699841619, 0.4810460714270031, -0.9916758459549156, -0.6649465735575023, 0.8948841373355807, 0.04731565695066463, 0.95546781307943, -0.5105749369824589, -0.4820070033269427, -0.7015373821551072, -0.41282562874189044, -0.14758921792582094, 0.5412151279711664, -0.18183141484907625, -0.6150615268291671, -0.6085556031235639, 0.8316680274992442, 0.8044390729606756, -0.7564198849530492, 0.6854113790096849, -0.17419881844564947, 0.6428272748627859, -0.8711294650221567, -0.5504809128317085, -0.5353979486857603, 0.12724925349538505, 0.2805407380216752, 0.5521440738123514, -0.3770039290549708, 0.2910898124383598, 0.8946850070182533, 0.45880424357935107, -0.9170422280386951, -0.7591379068328431, 0.6321404022063776, 0.38365681292360104, -0.396148713597914, -0.177826510266033, 0.8870575606852993, -0.6266864234891449, -0.6339209242429638, 0.038680540327333625, -0.8064149434042609, -0.6169120209894262, -0.3098338505123952, 0.8101098229081503, 0.07384134953720464, 0.35245172413935155, -0.8510435417565875, 0.334642801241674], [-0.39897962562803996, -0.9329182016759849, -0.7146328821899588, 0.5171194574145568, 0.9434304001913968, -0.24545834886771548, 0.5393408856061099, -0.47979281189561857, 0.9399652150310144, -0.6206123468652767, 0.23594888553166962, -0.32111093673786256, 0.7256267479631393, -0.9435690864974763, 0.5433448420606278, 0.10931072974961607, -0.7102211010805166, -0.4079958253307023, -0.5644813070848701, -0.5343226985741372, 0.48643336351997774, 0.12593289318679868, 0.45559255224966966, -0.3659160643453393, -0.37889195547496995, -0.7844908484576869, -0.5059574495177301, -0.7017152937768267, -0.5901186281251842, -0.923211430097698, -0.33681003144603544, 0.5444343022372037, 0.019781116036355458, -0.8039014725474167, 0.39176393207946975, 0.17415131321836913, -0.24941070622943207, -0.4631641169895988, 0.9543594435919742, -0.7244921681439516, -0.28313350877222393, -0.6949561499631878, 0.28112524942927825, 0.11145253287966415, -0.10702362505562675, -0.01067446109706861, 0.4083652064567629, -0.26742371226702166, -0.7212276785227747, 0.1979711538484158, 0.6361416491407981, -0.12937168633219537, 0.6428645598353461, 0.8245380201521904, -0.7038642384412873, 0.22050172448354358, 0.24630190577780905, -0.5246362994280614, -0.6945527753874686, 0.49749826642852457, 0.597161029379635, 0.5421086982103992, -0.7451414818559066, -0.4503077930159207, 0.6645806841412627, 0.8349421981177594, 0.791203909304388, -0.615775932844608, 0.6966690949775761, 0.14607534199970568, 0.6001724903602368, -0.9441711868126265, -0.886735554715673, 0.04062889664457289, -0.8922085984014412, 0.15839160004419817, 0.3984771653306609, -0.587362580705023, 0.45262610330719116, 0.5647385220289114]], "Bias": -0.05043675047405867}