[[-8.16, -5.08, -4.93, 5.28, -2.05, -9.92, 0.10999999999999999, -7.73, 1.0699999999999998, 6.48, -5.66, 5.86, 8.58, -6.86, 1.96, 8.44, 0.43999999999999995, -1.6400000000000001, 3.85, -0.61, -0.06000000000000005, -6.73, -5.27, -5.54, 8.62, -7.87, -1.37, 4.75, 5.06, -2.81, 5.37, -6.37, -7.47, -1.04, -5.57, 7.1, -0.5800000000000001, -5.28, -7.68, 3.96, 6.55, -4.15, -1.3, 0.28, -10.47, -0.71, -2.34, -2.2, 6.77, -6.64, -4.89, -4.12, -9.53, 4.55, -1.31, 1.75, -7.1, 0.6, -0.13, -0.15, -4.78, -5.76, -5.87, -6.51, 0.43999999999999995, -5.83, 9.62, -3.59, 5.03, 6.68, -8.4, 5.33, -6.0600000000000005, -5.0, -5.94, 2.68, -3.25, -7.64], [-5.94, 2.15, -4.36, -8.09, -7.51, 9.59, 5.21, 0.94, 2.89, -1.7, -7.46, 5.8100000000000005, 5.85, 1.21, 6.64, -2.31, -0.5700000000000001, 9.12, 1.19, -6.49, -7.55, 5.27, -9.62, 5.26, -4.72, 4.59, 5.73, -0.7, -0.64, -2.26, -6.49, -6.95, 8.74, 9.54, -2.66, -3.86, 0.37, -2.26, 7.71, -9.96, 7.47, -9.55, -0.21999999999999997, 0.22999999999999998, 0.67, 7.21, 3.0300000000000002, -6.38, 1.82, 5.97, -3.68, 9.19, -5.91, -5.9399999999999995, -8.29, 3.06, -10.0, -5.98, -1.9, -0.37, 6.8100000000000005, -5.5, 6.4, -8.19, 0.34, 0.66, 8.75, 5.95, -6.58, -4.5, 7.91, -1.95, -10.95, -3.66, -2.99, -0.84, 6.8, 3.3], [9.55, -5.21, 6.66, 7.57, 1.4100000000000001, 8.84, -9.15, -8.96, -0.21999999999999997, -2.6, 7.36, -4.46, 8.57, -2.42, -4.23, -5.6, -7.2, -8.15, 3.36, -2.02, -2.21, 0.9, -9.43, -5.83, 9.03, -8.45, 3.21, 0.020000000000000018, 3.77, -6.58, -5.3100000000000005, 2.49, 9.23, 1.62, -2.24, 2.21, -8.15, 8.26, -0.35, 3.57, -8.69, -6.57, -4.01, 7.0, -10.99, -5.61, -1.9300000000000002, 1.97, -6.21, -1.92, 0.24, 4.56, -7.65, 1.44, -3.67, -1.08, -9.73, -3.63, 5.8, 9.58, -3.08, 8.22, -9.24, -10.59, 5.47, 2.76, 7.57, -3.83, 1.27, -7.2, 5.87, 2.24, -5.97, 8.07, -6.43, -4.9, 5.64, -5.21], [8.76, -6.61, 1.5, 0.62, -1.8900000000000001, 6.92, -5.16, -6.59, 8.36, -4.29, 0.04, 2.99, -6.09, 4.26, -8.75, 4.86, 0.15000000000000002, -1.8, 2.23, -2.38, -10.53, 3.7199999999999998, -10.67, 2.02, -4.23, -6.23, -2.57, -4.93, 6.2, -1.3, 2.29, 7.3100000000000005, 5.0, 8.31, 0.30000000000000004, -8.77, 3.93, -6.64, -1.7, -8.59, -8.63, 9.64, -10.41, -9.85, 6.32, -2.64, -4.36, 1.15, -10.48, -9.26, -5.95, -6.42, 7.58, -5.0, -1.0, 5.42, -7.01, 6.26, -2.49, 0.87, -8.3, 4.01, -8.93, -7.27, 3.93, -4.98, 5.88, -8.55, -6.31, -10.49, -5.41, 0.33, -8.8, 5.14, -3.06, 4.93, 3.84, 8.55], [5.23, -3.15, -2.18, -6.88, 6.82, 7.79, -5.55, -4.43, 0.75, 8.89, -1.99, 4.09, -2.2199999999999998, 1.35, 2.4, 4.66, -7.93, -4.99, -5.8100000000000005, 0.0, -6.96, 0.77, -6.76, 5.1899999999999995, -9.78, -9.91, -10.54, -6.63, 0.77, 4.67, -2.87, 0.94, 5.43, 7.66, -8.83, 1.24, -6.54, -6.71, -9.56, -4.14, -5.32, 8.5, 4.79, -0.51, -6.86, -7.72, 2.37, -7.96, 6.87, 0.14, -1.35, 6.67, -5.91, -0.04, -3.24, 4.49, -3.49, 1.3, -1.67, -6.68, -7.72, -4.44, 8.38, -5.48, -2.15, 0.43, -10.86, 8.62, -8.87, 2.92, 4.39, 6.48, 8.22, -6.33, 0.43, -3.87, 5.4, -3.17], [7.78, 1.49, 2.84, -7.28, 8.61, 1.62, 1.8900000000000001, -3.26, 2.55, -6.22, 6.85, 9.18, -9.94, 5.24, 3.23, -5.75, 6.65, 9.63, 5.95, -3.46, -5.5600000000000005, -8.07, 8.39, 8.16, 8.63, -6.1, -1.41, 0.25, -10.49, -4.18, 2.74, 8.55, -1.6600000000000001, -6.67, 4.92, 7.22, -7.7, -7.4, -5.21, -8.16, 8.36, -2.61, -3.01, 3.4, -8.93, 6.85, 8.46, -5.37, 5.86, 5.86, 2.85, -6.32, -9.44, -5.95, -0.41000000000000003, -5.83, -8.81, -4.62, -0.41000000000000003, -1.97, -3.32, -4.71, 5.96, -5.55, 0.89, -8.89, -9.28, 6.78, 4.77, -3.79, -1.9, -6.58, -1.97, 5.9399999999999995, 4.03, 1.51, 0.17000000000000004, 4.02], [3.2, -5.39, 3.27, 2.63, 7.11, -5.45, 4.61, 7.43, -6.97, 8.68, -8.21, -3.43, -2.2, -0.06000000000000005, 8.06, 3.06, 8.51, -7.34, -4.47, -3.63, -1.3599999999999999, -7.83, -8.13, -8.01, 5.38, -4.09, 5.24, -3.74, -2.5300000000000002, -3.46, -7.16, 1.28, -6.0600000000000005, -2.52, -3.04, -4.34, -0.09999999999999998, -3.59, -1.67, -6.67, -0.73, 8.18, -6.54, -2.17, -8.8, -1.5, -4.96, 1.6800000000000002, -9.91, -6.03, 4.9, 4.8100000000000005, -8.32, 2.63, -5.97, -10.29, -1.87, -9.91, 6.04, 2.59, -7.78, 7.55, 8.18, -5.55, -2.67, -7.09, -6.23, -10.16, -9.68, 9.17, 1.75, 3.55, -7.16, 9.14, 1.25, 0.5800000000000001, 4.13, 8.93], [-3.26, -2.7, -6.82, -10.99, 4.91, 6.51, 2.0, -0.23, -3.2, -6.95, -7.32, -7.56, -6.78, 0.16000000000000003, 4.09, 7.99, -2.57, 3.77, -10.99, 3.33, -6.51, -3.74, 0.49, 3.26, -4.72, -0.22, -8.01, -1.65, -7.07, -7.76, 5.93, -10.02, 0.44999999999999996, -2.65, 9.16, -5.76, 6.03, -2.75, 2.41, 7.24, 1.5, 2.23, 4.05, -1.33, -5.1899999999999995, -1.5, -7.72, 0.68, -6.22, 7.47, -7.68, 4.52, 1.15, 3.68, 3.96, 2.03, -9.42, -5.06, 4.8100000000000005, 6.95, -5.97, -2.2, 8.84, -8.24, 1.9300000000000002, -4.18, 7.86, -3.8, 5.67, 0.72, -4.84, 2.37, 2.15, -9.45, -6.9, 6.5, -1.0, 0.56], [-2.06, 7.74, -5.04, -8.06, -10.24, 1.51, -4.68, -10.62, -5.54, 8.46, 5.41, -10.2, 0.6799999999999999, -4.6, 1.24, 8.45, 0.03, -8.12, 6.47, -9.92, 1.2, 6.03, -3.49, -2.77, -1.43, -9.69, -9.85, 5.75, -7.69, -9.81, 9.29, -10.22, 4.72, 7.95, 7.42, 4.52, -4.73, -9.82, -6.51, -9.7, -4.06, 6.64, -0.12, 2.3, -6.41, 5.33, 7.78, -1.21, 5.55, -9.38, 9.28, -9.43, -3.85, 4.64, 6.15, 3.83, 4.13, 2.75, 2.15, -9.56, -0.79, 9.86, 1.09, -3.4699999999999998, -9.47, 6.36, 0.6699999999999999, 5.98, 4.62, -4.82, 1.6, 7.08, 1.55, 8.71, 5.55, -6.11, 7.33, -1.1099999999999999], [-1.06, 4.87, -7.08, 4.4399999999999995, -3.54, 1.45, -4.36, 8.71, 4.35, -4.35, -4.14, 1.12, 0.23, -6.93, -8.24, 7.9, -10.35, 0.25, 3.01, 2.49, 2.84, -5.92, -7.78, 8.15, 9.77, 2.03, -2.52, 4.58, 6.99, -3.77, 3.16, -5.44, 6.4399999999999995, -8.46, 2.2800000000000002, 5.76, 2.45, -9.53, -1.41, 0.31000000000000005, -7.02, 5.8100000000000005, 3.9, -3.2, 1.72, -5.28, -2.34, -5.85, 2.34, 5.35, -7.98, 8.21, -6.43, -9.27, -0.26, 9.87, 3.25, 7.8, -1.22, 2.06, 8.67, 4.66, 8.91, 2.96, -8.47, -0.08, -2.26, -4.38, -1.42, 7.82, 0.37, 3.18, 8.12, -6.34, 6.54, 0.48, -4.8100000000000005, 8.15]]