[[6.432116281891288, 5.753430830036709, 3.8587875202240816, -2.3265649637506813, -6.794395877643067, 7.57010311945594, 5.245621877679627, -3.9759884032968316, -10.143658955267659, 6.672908313345015, -9.863779749496578, -3.9429941487689204, -6.535333530803595, -5.578767011996026, -6.2809067830597956, -6.422845793727027, -1.3796283134344687, -4.543757119050509, 5.536062136786861, -8.540875954206482, -7.438086968489059, -4.58359271198126, -9.586366136405, 1.7955484769655212, 1.7147914526910373, -4.8549442136409615, -2.455180146777067, -7.8054965628258834, 6.257514465822564, -0.02558181440321265, -5.88937479211088, 0.24077403342608672, 7.8511613959071616, -6.033366208485821, -9.621026443181481, -9.41555989066212, 7.229494172029054, -4.012019453623983, -2.298956731407692, 5.388221508829984, 7.008903063460152, -8.120976328034317, 4.052585125977857, -6.212806023718844, 3.105997106962332, 1.320041453807541, -4.580084577067361, 9.192818134623083, -9.151698755483002, -5.546006806710583, 5.071483718771156, -5.264351333674185, 8.798526104283187, 2.479409788467216, 6.74763788257666, 3.8395910812689604, -10.34191785267843, -0.6471472994483315, -5.566030690691139, -1.4089097551154084, -0.4943672680148414, 5.546808476094974, -5.152761989123852, -8.171871461686656, -5.464568234812462, -6.4794082946557925, 5.995313790123678, 2.4625919951467514, -8.363398892017855, -9.473202246535578, -8.474274444430238, -8.07990419813506, -7.878673435780379, 6.833253687111627, -2.3064316756231573, 4.315035894629672, -6.733861737931727, -3.843874726089271], [7.155990649903227, 4.556312759257348, 0.4488596100052176, -6.926969003929615, 8.381700195872014, 4.226071686515356, -7.640198358325645, 7.299364096594788, 2.738934172785713, 2.0665024111672845, 0.04137279618532803, -3.2076574165776215, -2.038569840683103, -7.96822153745476, -2.6809466703413163, 2.0242550812852054, 7.690913635869961, 0.2187043410800202, 1.1830957804196371, 1.642330573494553, -10.148776542512312, -8.511098295127697, -8.805042139938879, -9.395878900877783, -9.50475903362553, 1.2143923056549357, 9.595220475648409, 2.052152938162534, 8.840301796583292, 4.266340946079667, -0.3268088189789399, 4.638580341785701, 3.216142862838716, -7.666976389275982, 7.5240404205485385, 3.2298035008602, 6.685250768275113, -8.892921900184742, 5.211910238142729, 0.9863758159340714, 5.641383344691298, -1.4041828966136833, -1.6258601065436593, 6.751515247452423, 6.518274624171602, 2.7023109453338594, 2.646949757422739, 1.663768516076238, -3.7691891570882388, 3.76514658732107, 5.916217516498667, 8.714220538179822, -8.527905178304522, -0.5662265023282587, -5.186593322971345, 4.643328403865108, -2.7951323601424964, -8.487513566190557, 1.4258196053606744, 1.7361895807322956, 8.400105266729325, -9.298501424909182, 6.75611721456859, -1.8722509420984377, -0.6116765636669942, -2.172614318076907, -6.48694890701248, -5.071837114934517, 8.399489917019249, 4.307438106737123, -5.703679705763725, 1.3414201342770773, -2.7487725647325405, -8.08216193179691, -6.974070381176055, 7.385616688603051, 1.855525173987284, 9.06365367529036], [8.519456397535567, 2.338219531014939, -9.672519123418343, 4.720671515992666, 9.017243991321369, -3.3918580058004144, -8.771504017980305, -6.285947755538815, 0.010990346181164169, -7.039358261379115, -2.5564441616047504, -6.955301192670889, -10.556312150179803, 3.658164964738922, 4.533547369736053, -2.37554572741804, 7.933316648445442, -2.872569206577607, 3.7613329979151127, -5.049637194887143, 3.265666454607086, -0.5496142560553783, 1.7499787428834186, -1.2969311323518407, -7.465121214732103, 7.396016095040921, 7.8562912744546365, -6.591187960663014, -1.9334453299938172, -4.894680389931541, -5.351637246369318, 9.244138399956535, -1.1443911026912748, -9.232637149448026, 8.949901757510608, 4.17680809408017, -4.333649465306744, -1.758477711332273, -0.9104570664612354, 7.4331958953377475, -0.7228388232254559, -7.692074640087041, -2.0094287894974348, -9.00033838824081, -7.669646450881252, 1.9197423747218036, -2.2286015192674045, -4.855246076521529, -3.85344412546481, -3.8123992082633844, 3.856757324488812, 5.346131347277097, -4.8263364713020165, 7.851786002915574, -1.4637650489632223, 3.7316863709679606, -3.392587635083625, -5.348756215836666, 1.416635292321976, -2.1852083217836964, -4.382124219186502, 2.7016336168202018, -3.521850003695751, -4.606235376997426, 9.835953814032592, -3.25668632211597, 7.940558027401398, 8.253214077035521, -3.6749249987635006, -1.0542834846114157, 3.901289726676188, -0.24004852675829158, 4.463893742327994, -7.017750350708346, -5.318522597569707, 4.146035834037956, 8.669410243165505, 4.8954883582645445], [0.8194202002839401, 1.3138578833192405, -6.467237379083085, 6.022438602732312, -8.9127451501542, -4.895243183524861, -2.5129721988829825, 4.733514982503258, -3.0501799444510125, -5.878109095820492, -8.40256930895571, -8.23574873040147, -3.3629988624549916, -0.9581125666795441, 3.44470274407913, -0.692781282934311, -10.463161139438855, 6.020261213914775, -7.746292882709462, -9.863292646479087, -6.097876755725064, 0.7236576360632657, -2.812794697136753, 7.125321868770286, 2.344021997151178, -2.285325212633865, 1.7845316990923925, 1.171797719471386, -0.4870672045623143, 6.593570506609886, -3.746921732777716, -7.9807600092675495, -1.9660711448778738, 2.9970561883093163, -7.948659463353586, 0.7498267532420895, 8.04071589362539, -4.118134062343838, -7.688336932581231, 9.073455887451155, 4.926846487207032, 8.743332607486723, -9.857191042567173, -3.3485880471229783, -3.5505209059777765, -2.3896467680114153, 8.08044938671239, -2.1286906803106436, 8.10381073825189, 7.097149273369065, 5.982939031736486, -6.955695926346015, 5.941904906949943, -3.6947313179814847, 9.94699522409608, -8.026337966614083, -6.943081339555087, -2.9360662823909958, 6.818013330138763, 4.250328707535761, 6.268524160846974, -10.674713906988611, 8.48376507893746, 0.14353561948600313, -10.012858197318435, -0.41130043231018204, -4.718060194724303, -6.766660637799145, 9.305275189023963, -5.557000938978187, -9.604230022040117, -1.0174938388735981, -8.517859634348804, 7.241231707271962, -1.0969651195210748, -1.9954881392217232, -10.496138483172622, 8.77814801336022], [-3.337272622023254, 8.012585693609292, -1.6656175928837007, -1.544548491587831, -2.065669526849709, 1.9926770150332005, 2.7213681226657362, 3.8610533802705183, -7.33071574505069, -6.587328372955862, 2.6933616965540352, -1.671259707925848, 0.7482944387143778, -2.5844308719894515, -8.059769474024286, 5.246194353499729, 3.0132588711526407, -5.902990677252776, 6.692867266680051, -0.8771714962400329, 4.85248120080421, 5.593146896999987, -4.719444167746664, 7.340954357252247, -10.535004446145939, 5.882865704070625, 8.5821827966771, -5.802447744545479, -4.026436080756436, 4.390546769492093, 7.8011630860061505, -0.1432284740637424, 3.292607722758146, -1.1059907666781559, 7.91116897127265, 8.915156923567512, -0.8014809890220331, -2.1656426173215575, 3.878968923247093, 3.19257192676032, 6.210775370251835, -1.4140282711526784, -7.612513581504751, 3.164877381433868, -6.594606628025884, -2.8447980911706403, 8.334572612419912, -3.461323916140447, -3.152400737461252, 2.084624908031944, 5.840860824353623, 5.652322556395052, 4.778861738401079, 0.37384022782490295, -4.8062473318084535, 9.5162148840704, -7.957390960165349, -5.846154729449724, 0.41223371364154526, -1.0543431295214396, -7.070785140653428, 7.270444748390349, 0.8923132425407652, 4.026072566757729, 2.3932381491837944, -8.93208783558291, -9.734747893106771, 2.622260103783136, -7.7996265088774095, 2.064644425827162, -5.161442058133355, 3.289071937175997, 4.386193474874663, 2.25693809075075, -5.8618324880443256, -8.405979232107743, -7.474423093713837, 3.1411028684411955], [-3.0424864801477796, 5.424178099247249, -6.6431491845269575, -3.9977158353477216, -7.978583576962223, -2.8849189228926413, 1.9117339362913728, 6.26639655798982, 5.864337199292969, -9.937213991559574, -1.906389592149626, 5.413449876860931, 6.17941865474147, 8.091190526560556, -4.651621878323484, -0.9793037867304918, -3.0462307013630032, -2.288042909026607, 5.703834725441678, 7.542317200313128, 4.472959604516451, -3.5850925551814163, 1.9131071888974611, -8.653999851660064, -3.9355821542045026, 3.8976467382268303, -8.391765760955487, -3.7092471306768555, -4.696199732066934, 8.438022415658978, -6.7334577915074165, -9.764011950969557, 7.786207789460598, 4.78839670675578, -2.7453243770328832, -6.738992525059789, 1.031044220137884, 3.312852427077286, -5.164550294570956, -1.6100307834556382, -10.52091680945069, -9.08299543596633, 2.2526982628822214, -1.0486569787018087, -2.9105954264603144, -4.316770004429747, 7.125364693374403, 7.070708562732371, 3.7063815466600745, -2.3744494667055465, -0.5506911546556829, -6.322581079854582, 2.205160260787341, 8.384300515875337, -1.681814307639971, -3.577285159523672, -9.370545987407203, -6.286410400280074, -5.871942025250027, -5.086314230298951, -6.289336422850449, -9.054281747948746, 4.07362106779755, -4.965325340304549, 9.685943028437599, -2.2483407412987875, 4.411632583047327, 0.5432335492590831, -4.547086538324843, -10.613082475117022, 1.7151052590736289, -1.5652129374708046, -3.13362243547997, -3.220685530640332, 7.992708049384541, 3.8070848392565986, -8.745489393895244, -7.037323807199855], [-4.281169621615033, 1.4940089979631308, -8.060607147934313, 3.359980341536314, -0.9782393230109243, -5.293381032431383, 4.998126735140257, 2.45498294113419, -2.257304788961227, -3.00810716600853, -7.109818885287215, 7.775024413752291, 8.729949852324863, 1.038283408468087, -0.5993798465142252, -4.981870481503448, -1.2824199570185355, 1.6000170942327767, 5.040868931970832, 4.802674759595312, -4.961510538383444, -4.745421726055774, -9.079829004091163, -8.729337897901786, -9.531941133152229, 4.335423629146997, 1.2854105966223575, -6.621163165511738, 7.30561785638417, -7.714906754773853, 0.25492097395579344, -0.47264860527581065, 3.616206485376315, -10.151821958814942, 4.372476328689798, 2.4028406584057196, 9.78829723750645, -5.393296840447585, -10.527970374946335, -3.1013436038415008, -8.631898177115772, 0.8702571469036287, 8.409825605075504, -6.579453189172327, -7.097982682403693, -2.9604868701649445, 8.598720620816984, -9.346311624501089, -1.5668896236304122, -6.237655478451488, -4.376987992668367, 9.315575122878005, 3.900663983236491, -9.326366898483055, -10.408760173345183, 3.876011638464582, -1.1037256005765252, -0.45935863054976794, -10.437155752907792, 1.9317604385978935, -9.100384322863817, 4.8067677898696175, -3.364616538110793, 4.172055916743291, 0.02066713374379234, 1.3626328787846365, -0.1999758024070115, -1.601622953483319, 0.7416301363830456, -7.7546522684081385, -3.167132468446071, -8.768333155776263, -8.795663048496161, -0.19776503388571354, -7.629652967370007, 0.4054060803184304, -8.80907102262282, 0.2898987204782367], [4.508760201860353, -5.851601618973016, 6.255257402946627, -5.177854260428694, -9.43780992976461, -10.678916317251218, 7.481093475197528, 4.97861657684246, 3.2345648648823717, -2.6582005442275047, -1.1762188874324724, 6.296016339099856, -6.923429093397558, -6.594864895626316, -2.0755575856040975, 4.925978002348529, 7.0739499953497536, 6.123818545083213, 2.661533810189663, -1.9104370282464407, 5.150649665210138, -7.506205721583894, 3.7954431664958195, -7.58246501643456, -0.3437377498416018, 6.947787809967598, 9.337463044543501, 0.8606265111370284, 2.2703709902139027, 0.9779777799006515, -3.639449647955249, 3.8765095705847283, 5.515741713768255, 6.999432576967672, -3.721305147330204, 0.8281950688837777, -1.4478410227646137, -2.07391292626111, -8.050082668690942, 1.611336154092145, 9.489120436219656, -3.955656691919687, -4.914041564739885, 3.660910727159748, 0.7874868281651652, 8.928447774171401, 8.499124921055957, 2.974848043466899, -6.924367946033032, -1.310180048138171, -3.223207434085668, 7.1983112217493925, 7.980852077965689, 3.1760832827020082, -0.9830157555498181, -0.9359399317288095, 0.5412767120321188, 1.0530782553355926, 9.60594976625706, 6.749947356367073, -0.8546312549780076, 4.333508874316387, -9.441277649642263, -3.5842707177869446, -4.73190376642608, 6.118314823899149, -2.523096192719301, 8.006635949579811, -9.912208730185762, -2.837974813066607, -6.734540192254762, -1.9096205248737697, 4.042448865479965, -1.4156934878043834, -6.483313928357257, 9.569264403303759, 6.4677347893084, -8.154915549219206], [-7.9057985631865275, 7.456100755376373, -7.497668622299651, -2.6692359717669176, -7.56624329623224, -5.116218770961905, 3.1680955216797035, -3.494643475926554, 9.668365395840507, -3.118847096028127, -3.8502635103021228, 3.547923183151411, 1.4578963474289144, -0.0253547621513253, 9.216823400907588, -5.174701245120585, 9.091203452593843, 0.4047099840710426, -8.600913249086418, 0.5594369020011777, 6.979207535203293, -3.206772610957374, -4.262229114387476, -10.11019886162449, -3.8186098839375524, 8.719010092871025, 3.7279923033746516, -3.4753691930990787, 3.332543497398483, 8.923877282397326, 8.39064510661759, 6.765652830517082, -1.2124497820805107, 5.5330149854103645, -0.5868472364529256, 2.5748139207750294, -9.530868912195277, 3.170618219591391, 8.298102909727747, 1.608781143496283, 7.45448142684025, 3.4935327650639945, -7.816176309852114, 4.290152453351598, 3.6814997177971542, -2.489104872213915, -5.370405181005903, -2.9245057521681272, -5.494316255144245, 4.404355021987726, -5.22404489517636, 2.09696835633938, -0.7098205873220504, -1.1122204950665853, -9.059351452570052, -6.875919125142585, 3.701114854029903, -0.7668816836175605, 7.345031288180386, -3.5739875742975404, 1.3151424647601322, 7.123623525394037, -7.3474725525728735, -9.84776368016718, -3.592544541240446, 5.979931826284881, 2.1525341226315766, 2.729520370417987, -1.3003891124057325, -2.093053218418575, 2.5451627659044203, -0.20966449129675221, -6.870556935936065, 3.4093257054833193, -4.604879634666956, 8.817047800795256, 6.624499025593095, 1.87121301666002], [-1.9346149901859357, -2.46824577683634, -5.380810706558983, 1.1242610532744453, -2.1527582662747666, 1.0341574893236374, 9.028696521245735, 3.560093899146548, -4.7481354218617815, -3.494072812675653, -3.944707697343416, -6.994703381676356, 5.972173244776711, 0.1248180821448874, 7.057641157861908, -2.551908716121367, -2.939379263874628, 6.835625148239, -2.400522986575345, -0.35534508423136635, -9.262501600185141, -5.3316665127480425, 0.6499630247247121, -1.1710718049249442, 8.147927665777624, 0.6912491862738884, 8.632009088111516, 6.098737832712075, 5.1856756161914745, -8.798372971960934, 1.2865511163257322, -5.123772194927516, 7.040585201541818, 6.152825405319678, 1.9836256958790797, -0.18971493541510676, 2.791807588158242, 6.230631290144599, 8.324559523955994, 5.8914068714177, 3.641532760705819, -6.403821496169861, -6.770741464164209, 3.565169706042219, 0.8303820208430949, 0.46843459101402224, 1.4920021421605443, -2.4997139289872865, 3.97960011812864, -4.12898403277508, 2.661576149412001, 9.800333759813887, -1.6158951917089763, -9.186986236458491, 3.0238291439676805, 4.615137692038757, -9.239209030883313, -1.0041958678081588, -5.0737932172124305, 9.605385921471, -9.70166076747081, -2.9869978405182054, -9.566344626895727, 3.7013748920590537, -0.24052256957167323, 7.1378653118386755, -0.4539458994235176, -6.282271481069697, 8.56105813739351, -10.411204549766028, 3.3699322397342257, 2.932561463187258, -5.240433936367724, -5.238056644907221, -8.802595556073822, 1.431917747887216, 2.366056793525697, 2.6866212413600845]]