{"Weights": [[-0.47782662704659834, -0.2645697588184921, -0.32153858057042384, -0.9750855918173367, -0.37898714801022254, -0.9148482902243043, 0.4007221355266997, -0.006054155275662533, 0.24344993226350917, -0.45382867030224566, -0.5249546928320639, -0.9644696943837054, 0.19055804885968458, 0.17915746253576922, 0.43134519109660074, -0.7746843102733478, -0.7854307634273169, -0.7232026221108596, 0.23827335631684285, -0.06512215125572184, -0.19257271406834345, -0.39654961988620013, 0.0959362302698159, 0.19231391315019503, -0.7431572460728547, 0.9686814906617206, -0.9012083147282062, 0.5961125754351069, 0.35295949664130727, -0.5039615683523847, -0.8236235488276681, -0.7436008028779911, -0.7827521525856238, 0.8269397497529292, -0.3348659466176396, 0.27692939864176375, -0.16604241147974477, 0.022764134383852164, -0.28975272479820774, -0.6981411969192989, 0.7337345939459248, 0.5371960127973647, 0.36109196767312485, -0.636387528069685, -0.7180994455428339, -0.9690080038715615, -0.03817718263126704, 0.7945563233798887, -0.590420522371077], [0.6882684731327424, 0.41420479724349935, 0.7451341627754954, -0.19392937638203847, -0.10449331783442181, -0.7093886059287892, -0.23422498984777482, -0.6823125629049758, -0.8172044685835163, 0.27051687787710826, -0.6398403928254485, -0.6663293708202676, -0.008894268707552411, -0.45129893498064455, -0.008723972275353915, -0.29711014763337257, 0.22360796314877612, 0.13430157476353968, -0.6431241269297371, -0.32241932408329727, -0.39944888680071966, -0.776462721614621, -0.039201082025585664, 0.5527475735984094, -0.34009267038462393, -0.23486168068524182, -0.442296848188267, 0.8535910949291067, -0.5036924742865506, 0.11211287895978936, -0.11095757869224826, -0.8730327531103986, 0.2819066876265864, 0.913213416340875, -0.1758877485875582, -0.6160335800377796, 0.10256128979406295, 0.13799395689097094, 0.09109718336906449, 0.37000081253538536, 0.47561951007723013, -0.551683649739862, 0.25627163179156465, -0.7295446742968682, 0.14281874337319697, 0.4492579941909947, -0.1583823018858822, -0.37064721208413925, 0.46248344505694294], [-0.3231795948943853, -0.05107498176983112, -0.1829929449354839, -0.6528108185125371, -0.12413281745936325, 0.20188802246697357, -1.0256920724577423, -0.1974036159571128, 0.8552857476420769, -0.405422115985295, 0.7819557318068626, 0.8462012627349498, -0.3538257254735929, 0.5967889355223484, -0.6443144910086152, 0.8912215499661686, 0.46825488175371266, -0.8257541985060394, 0.33742015301896455, 0.6277534251029513, 0.2924768410101543, -0.6355971614834488, 0.40224290353048553, -0.7401041625418694, 0.38418384456080557, 0.5131275641225298, -0.3880465959473802, -0.398575102470202, 0.005712579986472371, -0.9062222617952889, -0.17483097377627327, -0.6216005967267132, 0.7383931327375838, -0.19514640115292264, 0.7743742884117896, 0.7210844651523296, 0.1347012276496395, -0.9480322103870915, -0.09311699568297985, -0.29033441315336384, 0.5769677758326258, -0.7542802203833898, -0.15812143018808494, 0.48555809037548087, 0.46787565651137164, 0.1468369150198491, 0.833371679209316, -0.01813363314885663, 0.6769715688369651], [-0.17489157601014715, 0.7266869633791366, 0.18233491845083616, 0.23823205938865885, 0.14130958911466276, 0.5678975317226773, 0.6407655655177077, 0.2632367543382218, -0.6483450414402157, 0.594814170069351, -0.5990834714537695, 0.042584470215163844, 0.08735507103064519, 0.6251233808883632, 0.7436047224501218, 0.6443783544111574, 0.5501040394566838, 0.7142554914460979, -0.7822800842290555, 0.4061548784958456, -0.1889864696876881, -1.0694158562676062, 0.8291578082511288, 0.13346216961474708, -0.1570343899587785, -0.16158369841247683, 0.3508653027791726, -0.30052765199646186, 0.44137177339315714, -0.20830884568466027, 0.17243017468740002, 0.9153750930885654, 0.7958036759086188, -0.9754100847125003, -0.48630200132342727, -0.21009923211941278, 0.5340593615479908, -0.1261792634713765, 0.726725966830444, -1.0245295905964718, -0.2335510031901051, -0.657195696063174, 0.47769646918345193, 0.921555854327803, -0.7183824504473414, -0.6153252748985238, -0.06496903895658068, -0.811928774364319, 0.533053511004457], [0.341244991659886, -0.2981157811591234, -0.4849180845603985, -0.7869427500703371, 0.7331515007913799, 0.6537589268469677, -0.20601649750355283, -0.9179281821535336, 0.7734783345156719, 0.05625830645328051, 0.8240046320935351, -0.1261730215581903, 0.9315749998813934, 0.6955550684903429, 0.3976221863767665, 0.3389853515128864, -1.0354283070346448, -0.7667175461056039, -0.4772779333167998, -0.631828694580193, 0.009103738492258276, 0.15681245983319414, -0.4950573790616171, 0.07421152004358533, -0.7351161172217138, -0.1643951200097732, 0.426060724132519, -0.17285063033672038, 0.8576076944249771, -0.2557868477289476, 0.279158484961112, -0.10700469312761857, -0.21404613477094078, 0.7724374630936688, -0.04852552431216916, 0.23472149752165458, -1.0225773597773522, -0.8365769751100952, 0.8714794458872805, 0.6633481570769384, 0.18436369683575476, -0.6858214457965769, -0.8396076749798607, 0.30076101588450804, -0.42421922521403577, 0.21161793166319148, -0.16820574837106456, 0.5364734368152242, 0.4109435678540153], [-0.9947289273804998, 0.3523178372563091, -0.684235588342062, -0.8706363503503135, -0.2094399491672192, 0.38497552974657456, -0.8653530058618517, -0.4198777497988486, -0.587678721156156, -0.6702126473755599, 0.1587102743553782, -0.09025400166482131, -0.9842587608247491, -0.4127336913718126, -0.9853291263250857, -0.15457267154802865, -0.9382245078767528, 0.011003123209452143, 0.07923596679765699, -0.1157324539600306, -0.46981918917754595, -0.8359619883032652, -0.8585423072333868, -0.5081958095787931, -0.5272866711268116, -0.6401858568086806, 0.6295924214488319, 0.777411288302677, 0.7986137396710207, 0.9323872744421554, -0.757349354158383, 0.5008354480077375, 0.03461901089337706, 0.38783940367681674, 0.3867212465774666, -0.3937629671623325, 0.5550913669292892, -0.046475939087072114, 0.10463202893452385, 0.24497343479502282, 0.9849037165293664, -0.8300031434618348, 0.9899635617133117, -0.21038724595283653, -0.17907398899171972, 0.21835515905179784, -0.26718118940112884, -0.8457645175747489, -0.5759584460391234], [-0.6739589610308068, 0.3523005535462923, 0.2948082738778908, 0.937715495581559, 0.622324048749208, -0.9684591284442322, 0.9062284701845756, 0.5364143161540049, -0.2204985561500783, -0.7225781130446919, 0.12632957938692693, -0.5360131032837465, -0.5847477211206452, 0.2866236619321162, -0.3673342979991719, -0.46912131989172284, 0.16536495380447236, -0.3943907385086115, -0.5250972392582538, 0.6695999479421334, -0.23366084977051746, 0.9157531926550893, 0.8807021359570044, 0.4799453382268493, 0.16806815736681557, 0.3743548736637648, 0.6834503359610075, -0.6283482769674401, 0.7257134949880153, -0.935737561060057, -0.017540134785514916, 0.39610924755191895, -0.958460350657599, -0.556944988402341, -0.1480366306854191, -0.17419766060244588, 0.03421993216981013, 0.7046502779277156, 0.20729588605420224, -0.6726584322765976, -0.807007166312597, 0.8848170485361738, 0.6631388806385304, 0.5774796127624138, 0.06427875573218199, 0.8638727347376194, 0.8004457453443815, 0.5557779683925576, -1.0196534332571756], [-0.5286744260015719, -0.34224258956813586, -0.3726405179962492, -1.0346160995518277, 0.06367563552355943, -0.563475391693917, -0.06543207619081404, 0.7101553217205056, 0.12514578932072207, -0.14553817077143955, 0.8949553723381686, -0.6701291922827586, 0.5675516972364298, 0.22998019714809725, -0.9144173134810859, -0.06037175706459786, 0.31334105789207245, 0.4316690743692013, 0.03427029113635128, -0.8513554757636754, 0.7965216884034125, -0.09057181969053499, -0.7679331274795947, 0.2038555938195582, -0.5744012005932844, -0.05839564272169575, -0.6552375790388175, -0.40033430179409984, 0.776963707298543, -0.5396211487760159, -0.36829193279706546, 0.745442314753564, -0.3644004269847661, 0.6434775194805931, -0.3599910848470297, -0.43791908556750325, 0.28923467374201006, -0.7834220594445109, -0.04742103242625805, 0.3443833393531639, 0.6834241368634301, 0.34954615021070623, 0.9248279564445444, 0.2506791677708018, -0.8442575335363182, -0.07918818466312579, -0.006409432586973365, 0.6400592941204972, -0.24815252340533814], [-0.6371375162952513, -0.3933429676445656, -0.9737923134184293, 0.4737815450437755, 0.25879491558896633, 0.913544086664621, -0.33825267196748127, -0.4410323154176918, -0.5537350354385303, 0.7439175793548292, -0.846097212405836, -0.1141108614625706, 0.7153830299677735, -0.4643981399094686, -0.960257921409343, 0.8906832059266235, -0.09587649820257955, -0.30673815716747693, -0.3070668167135753, 0.3558592461456955, -0.39100749872143536, -0.5005704406427294, -0.34868452644817777, 0.04611246647753082, -0.9578721267619286, 0.3729942458165158, -0.6761118605149141, -0.7892518818311531, -0.42235513470892255, 0.07191154697470081, -0.9501973555141546, -0.005039559833859338, -0.8505518461205026, 0.28143432867375384, -0.36765484544617033, -0.34792022865452715, -0.6189771927828762, -0.32407105748501724, 0.4013467402913672, 0.5240571081569787, -0.27549849387373404, -0.2448873753348062, -0.052202560911457925, -0.6015234159815109, 0.18354018166037586, 0.6525812421889438, 0.5222278237026683, -0.9246208174787602, 0.25498578026017793], [0.6519721540830403, -0.2903569396294659, 0.1280342766827705, 0.7957287125624046, -0.17146838737338282, -0.30322283875337774, 0.7487263778174601, -0.4101940041550996, -0.2668006861992033, -0.6874676796406429, 0.8023456314055, -0.895106416506892, 0.33260878346962547, -1.0185889854213974, -0.7449328732543669, 0.7074866188186347, -0.5418552659445346, -0.20943265597340488, -0.4103952877696378, 0.8701133641167795, 0.5678659510070873, -0.41291548047761767, -1.002039242074394, -0.9363722757394964, -0.8152593016919332, 0.6468112897751461, 0.8558564571070524, 0.765182322004317, 0.19289433440928255, 0.8975203289882286, -0.8683011069751311, 0.10713309251081071, 0.6244288460063387, 0.08654256471869767, 0.6700538881137393, -0.1936981232675381, -0.5098584255921575, -0.11596178538060795, 0.3456984274670126, -0.733671298665473, -0.5754016456422311, -0.7049150997623278, 0.7137469732348313, -0.6743202354562446, 0.923880687455246, -0.6310266737098915, 0.8374060447857663, 0.17280163976454466, -0.17888573329352478]], "Bias": -0.08007069552385068}