{"Weights": [[0.11021487580903105, 0.015971770920829246, -0.2647665702258712, 0.0813013965522823, -0.08391054211313217, 0.2029630804648635, -0.15646396291419631, -0.26330390254550545, -0.16280463620130162, 0.022289880305108315, -0.05333536900856669, 0.040768833103821074, -0.023189799586263122, -0.20312003697065648, -0.14419550432997422, -0.03251450827991005, -0.003131014053795667, -0.21545873369819576, -0.09607928828372969, 0.03477593963857092, -0.2215711513544389, -0.22486346636219445, -0.21632643817113048, 0.04146252813323028, 0.10820976344287653, 0.031426692477381495, 0.27008952224000715, -0.22743829612760916, 0.21322631524504085, -0.22226435209846176, 0.001769413586784234, 0.1920479151600577, 0.11449370790522512, 0.1413637645076013, -0.14519781307412155, -0.03077115940461869, 0.06327829421487842, 0.23227476648452164, -0.3402470825946812, -0.21898800794972975, -0.04843382651159465, -0.19996617530359817, 0.12939336443003852, -0.32607303216975464, 0.19419183046494626, -0.05707805499213799, 0.15976756651194676, 0.20339035250268309, -0.2562942633504568, -0.14295753566712657, 0.17973723236931685, 0.132494265226345, -0.011273509617062671, -0.02945835252283675, 0.12762729080716614, 0.21227494628291718, 0.010681360166982859, 0.2678001660655567, -0.12106283055057052, -0.23020548187615378, 0.024380075466542795, 0.017785778832600407, -0.23615662044910998, 0.12088232128427097, 0.048410549027148954, 0.23509920758380637, 0.20287003426109934, -0.06640593861986402, 0.09972123038039984, 0.17057086961835072, -0.31229454576264076, -0.0999489999451529, -0.046271440537083756, 0.0389819925220532, 0.06824564589763782, -0.31443563892523435, 0.19548235191522717, -0.060283402208241604, 0.1079309081959626, 0.11084850119309589, -0.18863968977463091], [-0.0955202088271736, 0.07900579614005065, 0.15640054201695544, -0.14810774697235557, 0.11365721319675742, 0.20213156723179218, 0.0133810659363428, -0.042459392550668974, -0.2609604967869934, -0.3385905863675844, -0.1557867471203367, -0.22840786017211662, -0.038718531872796294, -0.12225227465813726, -0.2507951539072814, -0.026071473913450306, 0.19963716361569916, -0.2055687226352723, -0.028919520447657596, 0.006876788293868987, 0.24833932908535317, 0.21975254594586954, 0.1500275293555648, -0.1615118796777248, 0.11964083331203164, -0.40203621029342135, -0.21444854045684814, 0.27693909619156026, -0.1462536221958737, 0.08155027929937791, -0.25073332646370616, -0.21560147437044241, 0.23061857340069253, 0.22801095478811167, 0.1571750776648578, -0.026866835046335386, 0.09412119948851573, -0.0005014149240505158, 0.03950499205165912, -0.2553418796855417, 0.0007328943705135391, 0.230884375809821, 0.09242701658025587, -0.044886348090954355, 0.13047104183300867, -0.32273785790883674, -0.1713766777994111, -0.1650231445138654, -0.1978458379172537, 0.06307324164998754, -0.20175499556506965, -0.2050323268787894, -0.1486918264770808, -0.04159004036710183, 0.05651498481847676, 0.030398201406858026, 0.10481481950587754, -0.16435031909665837, 0.097817500395989, 0.20370556692030575, -0.026097667145907312, 0.015902452953048842, -0.183127005076838, 0.14361689858851703, -0.02109994871286532, -0.1418573891436671, -0.17491876139408957, -0.10600644439391288, -0.044031077677506254, -0.18497234159145648, -0.23165626460568553, 0.0026207837574718693, 0.1623862940840792, 0.17832442625376868, 0.256141445056624, -0.07519509833301138, 0.18822381086037074, -0.08386580566926556, -0.35946446894029654, -0.0982658610152311, 0.224933087608242], [-0.23357030221378652, -0.19350954031026452, 0.11590939699347927, -0.2222149892044615, 0.2147497210691635, -0.03514857075949776, -0.1703625764533154, -0.01762476364019915, -0.26810404556863077, 0.2062185767273632, 0.13007747465497932, -0.17061814026151698, -0.15192242438179382, -0.06909781209934777, -0.21296133257508013, -0.14715801883373933, 0.06516675917749151, 0.10529468224675848, 0.0337484891463139, 0.20667162232797948, 0.1535173289109724, 0.128871730966409, -0.004754830528277861, 0.19381292443748516, -0.2556553231380373, 0.11303734768808127, -0.01664323113209009, 0.2870622160014129, 0.22271315785120285, -0.13428237941819102, 0.14534535919197364, -0.022284764764201517, 0.2062054059908313, -0.13816634241816755, -0.09939532806321189, -0.18694750654474243, -0.19046260757630518, 0.10874809933083715, 0.016838989282566576, -0.030619419177295017, 0.188699105440875, 0.13757403811392194, 0.13429705395896568, 0.16416417557142576, -0.08539060767057964, 0.12874467072051843, 0.023349607197152684, -0.08125924178609645, -0.03196452504490577, 0.1197827378034005, 0.12445631362419556, -0.2831109465210448, -0.28469109681717836, -0.19056858859263784, 0.19923654741065208, 0.22516780065401765, -0.04594064460696195, 0.1293672011369344, 0.05888342746701534, -0.1109631723053515, 0.08060088396089539, -0.16437457236841493, -0.2609741178283586, -0.09685646673427618, 0.11802332745826244, 0.04687467359155885, -0.11759860531865003, 0.1222096483521981, -0.0720132243945045, 0.0011047323926985549, 0.01249114171897081, -0.21109891553426974, 0.0010309529386345268, 0.06786934039405826, -0.17673248653960116, 0.11487477487088107, -0.12171115584399873, 0.050600135603439254, -0.1670450604780069, -0.33501338683471643, -0.11037250696049261], [-0.2827559128135293, -0.11181579591933424, -0.11633526025717249, -0.2846719288603967, -0.022235009868184948, -0.05580855377670006, 0.24178858451961907, 0.25017466839490493, -0.11060941346114421, -0.3458234704260169, -0.04642658593274635, 0.034865383720135285, 0.0750169669378485, -0.007972332128744628, -0.0047056550828184695, -0.3034339583665928, -0.09700863906977218, -0.15139287378861632, -0.28553020169046495, 0.18308055338769952, -0.08135668876960576, -0.1753963565498558, -0.3360368358707586, -0.03820944347656798, 0.06831914078638807, -0.1641650450422797, -0.06635176731813522, 0.14178097742139686, 0.007010224714514458, 0.1811665278689161, 0.1045448333147532, 0.012063214735892867, 0.15700054572552255, 0.0892215979524731, -0.2751168120806081, -0.27210315600113083, 0.22012204819189965, 0.10999038374922691, -0.07170812559120376, -0.15472102529012344, -0.17541362067747238, -0.33529988213686457, 0.09806142596486571, 0.0638514055309853, 0.17506083399616315, 0.1390393308834788, -0.07132068000958587, 0.07176088347803408, 0.09645332196476282, 0.0037913730031145358, 0.021086793025246842, -0.33042979902696845, 0.065768542023439, 0.12939209462421677, -0.07474098405082831, 0.21862973608899805, -0.047962345856031964, -0.004548222295562231, 0.024098275506758835, -0.26609530450342106, 0.22260694467558684, 0.015222311767092548, 0.14654410466586137, 0.06795414529851514, -0.3017763355092514, 0.07481453046450216, 0.06446200549617691, -0.034040533765588694, -0.011906297428254236, 0.046803962949698096, -0.07227202149766447, 0.14083408938158234, 0.1740906712208975, 0.21647423113625722, 0.1082662462883517, -0.06254429387095894, -0.19783577544906467, -0.10527516627668401, -0.06483053052202056, -0.10267827537628618, 0.18243850820500762], [-0.19820962912529516, 0.023982104993150694, 0.09200727514650768, -0.258176689255886, 0.07608936284249719, -0.0875204575102986, 0.13734283153598226, 0.049363615213811926, -0.1622849733271185, -0.224666232319675, -0.016326105343551167, -0.2517098970361452, 0.03681227086528019, 0.18431847789444766, 0.003060987127985096, 0.19591278958176628, -0.019564936787415138, -0.21749066617187462, -0.20793218238858166, 0.1824976789856929, -0.07604465369679138, -0.22139382918976874, 0.1975991364017086, 0.02769039175919665, 0.04873592663680432, -0.0959057704927566, -0.24414858285467045, -0.11076581181732889, 0.2527441908514059, 0.09893349991377391, -0.06896084936743047, 0.19292099355584827, -0.2783227443508226, -0.05672746335703909, -0.19420298416813303, -0.200975946474567, 0.05012976212365727, -0.16166785498173888, -0.10928260593012812, -0.026555771022327822, 0.03978566500630881, 0.1772377805857052, -0.22390923810710647, -0.06042333262352379, -0.21796701116160846, 0.15256914545076672, 0.26785326013113564, 0.14078068926051016, -0.12227416473402895, -0.2098251320152184, -0.24800626993060887, 0.04080026056972691, -0.042724935735554664, -0.20133258948297683, 0.1246986127726317, 0.01745735017043244, -0.1219273260270183, -0.13455076850620792, -0.08060552539334387, 0.08972314963561567, 0.018244183113071143, 0.048768432341335266, 0.00567899760494981, -0.011900355530913528, -0.2716134648809121, -0.17784850800528038, 0.17951808296827448, 0.0670196123482323, 0.21028701352585874, 0.1680920850774724, 0.06806509965464032, -0.19620634412128524, 0.20484620997477146, 0.13912146031488826, -0.2560597790022371, -0.22193163171166883, 0.10480891250325167, 0.12432714902134363, 0.020528923933101198, 0.07473864174141019, -0.08565601456332858], [-0.08837791048093213, -0.14896634821417665, 0.1493012857189769, -0.22360652563506525, 0.2284172574867384, -0.047866667846171704, -0.04557146463984032, 0.258799414402088, -0.11044918211937942, 0.13552836954944075, 0.16297900694758086, -0.024813869505321766, -0.09226200187161365, -0.04889222251068388, 0.04515032720343727, -0.2804856646025551, -0.04379240594674432, -0.10889654063414826, -0.23825667677812917, -0.08180430501080939, 0.19509399553999407, -0.2158684511579081, -0.19141976697234428, -0.03243736308631683, -0.2064731264404767, 0.20047749386821354, 0.1674570831506241, -0.15545523754217427, 0.0028119670608182253, 0.11580270303567083, 0.2002374025227953, 0.06381808564240848, 0.017065688429593193, -0.07673972741019139, -0.25791966587681475, -0.0029442198555168367, 0.1929075647400698, -0.16549136473281337, -0.11135570494912853, 0.04145383214585015, -0.04107965240125945, -0.14210531189925638, 0.026678578482357128, -0.22313990568320038, -0.21574656506359802, 0.07700812901811972, -0.033778121558527746, -0.1207334483059099, -0.025793993266013445, -0.13267299717331912, -0.23957931901467386, -0.2041589106348866, -0.24007001674523917, 0.012749337876149952, 0.18917449712134451, 0.10573389358170085, -0.08900826988275579, -0.12020978330700112, 0.05984769864900752, 0.17549578094292984, 0.130895997395056, 0.19485385818179002, -0.045274232868841066, 0.17949932875474256, -0.2215905504920281, 0.21260228803897835, 0.1013334546144289, 0.09664972751314924, 0.10417065687421793, -0.1296018068474692, -0.030972334731129827, -0.16804911950112814, -0.09478826570909557, -0.21731585447282134, -0.10940042065266016, -0.18358660844605684, 0.2180391123281527, -0.1449377797798729, -0.013321133396778347, 0.1874928953878586, -0.0666796636802014], [-0.2686717008366198, 0.09972616170843449, -0.14578125154430407, -0.2226753659544386, 0.009438587513986185, 0.22515812394038526, -0.1910486776547362, -0.2060017229084458, -0.1873162617490153, 0.1471061317432631, -0.013747538139637746, -0.05205305478508898, -0.16710123167751578, -0.08090889023674837, -0.11930333968639173, 0.26241367218569894, -0.2985980328296174, 0.1736896517012989, -0.20225637758329654, -0.0740434971548857, 0.018172672676030188, 0.16047040734567214, -0.18659134374569775, -0.1033894618376438, -0.20683909460575453, -0.07105623488110666, -0.05573796273562135, 0.23309447253934307, -0.12764460896613014, -0.17383596687636083, 0.2472012184598516, 0.18220971517036483, -0.30424984587069104, -0.3487356321149873, -0.020869379823863873, -0.1661974478045091, -0.11219498534801547, 0.20920581746091302, 0.03684107425661202, 0.03667984372966491, 0.0504089215320087, 0.21516928810455363, 0.08605166892852886, 0.08669672733312504, 0.069855793756234, -0.0555507487530668, 0.2647419388258088, -0.15253657601906553, -8.069533959864514e-05, -0.12016083438592706, 0.140437121722816, 0.1517885969319495, -0.16340306127175117, -0.23671496107153867, 0.039092368091815606, 0.15025327117013662, 0.16472223776573003, -0.2584793260934632, 0.2872543891353742, -0.1841574859164569, -0.09804807910148516, 0.2353596719870413, 0.1077026730059097, 0.14624781120613506, -0.2575306879656456, -0.04725177923521936, 0.03182538702210327, 0.16866436277941413, -0.04739922555747125, -0.208001442784903, -0.2810634964650673, 0.14420823626987153, 0.19889155610530507, 0.021708871014222354, 0.06447092206043867, 0.12113176970890192, -0.010649126815539874, -0.14066791591787076, -0.023536291898886973, 0.21784870030213654, -0.3454337165045892], [-0.11173084625437216, -0.03252289385184381, -0.3155140707607135, 0.11392076661815093, -0.1857106663256956, -0.15043624501284697, 0.1886935248552809, -0.2455388063794703, -0.00710627381261711, 0.21113026084392814, 0.10353007787174805, 0.1510766730566903, -0.1354157250801756, -0.13202297220251835, 0.033125495626950205, 0.2525129768255065, -0.3129607264103833, -0.1574787440625114, -0.07837746045401763, -0.12398853836988633, 0.18383323406976274, 0.2143984959001654, 0.1809553147501462, 0.17617117668071064, 0.319829345544701, 0.10184414262518332, -0.06948050349370999, -0.16122646991584402, -0.15485639101350684, -0.13062677703661893, -0.22232697652783667, 0.16496173441260562, -0.16163768042080337, -0.20749358612817506, -0.22736855088908978, 0.15584499294817256, 0.06369620771205857, -0.028090506448494448, -0.060635263166220935, -0.029910124644359676, 0.1671933295703474, -0.24289737228655844, -0.03134114114050499, 0.26796554682910273, 0.1832879122140945, -0.3073445972698994, -0.22112552484313797, 0.260268097075656, -0.24579753914685068, 0.09657983709119103, -0.01175090451383844, -0.04615332504876388, -0.1546321449437912, 0.0029014076861340775, 0.02615354226468678, -0.05666280822699724, 0.15188186199241804, 0.19013791252444218, -0.2774427400213711, -0.05947702174294643, 0.010131472933582061, 0.12252648349420726, -0.21465228943253267, 0.1957930411171147, -0.03946006026299259, 0.11387411906230248, 0.2241108643728455, 0.19205276421164458, -0.05458155452108065, 0.07321923889847398, 0.09771807031665919, 0.07974050306704576, -0.2167248726243318, 0.19957660861373394, -0.15494479332582514, -0.2929102246916616, -0.059058817351940504, -0.13163034269423846, -0.0854018855088327, -0.15529344076426302, -0.0301325097120726], [0.03571546972737991, 0.21166450785215868, 0.17171186559753387, -0.19269161938540133, 0.10824994281915164, 0.03774584713757037, 0.1507438027691823, 0.08117799100130002, -0.14949957790709906, -0.2673643946479224, 0.035042729840522334, -0.06668038074978708, 0.016826064681856934, -0.10908940988748729, 0.013511996949861596, -0.2785932895416901, -0.0012990417747650446, -0.14486131924059448, -0.07749778514237071, -0.04425851918455374, -0.0031856898793881524, 0.16919337332889722, -0.1397047580428068, 0.19062269583179356, -0.055996813087520546, -0.08278150880556585, 0.21309625237672078, -0.0784867548831098, -0.0749195953189153, -0.009115306184089978, 0.15731039430193391, -0.20093967373325616, -0.02053393756708327, -0.12184562086562371, -0.17624238318310967, 0.11932970405782724, 0.1291020299397888, -0.011046639386862745, 0.0705546015706184, -0.016278204998186455, 0.22493022820608397, -0.26953105113810316, -0.02134835098802517, 0.007741938913873337, 0.09240388773099925, -0.216503831268383, -0.2611620693888967, 0.08756947348088563, -0.29920044942430646, 0.19446344545377606, 0.10556014512323876, -0.03441475925243334, -0.28584355255062793, -0.26834689585123345, -0.22945363506308697, 0.0197947191820373, -0.10357326503809257, 0.05300174147763202, 0.09603645178078882, -0.259212905916745, -0.00587765613180321, -0.12606383251068187, -0.10641387764919406, 0.10000972176546687, -0.023012853069591083, -0.004399378468171821, -0.25490943229663887, -0.06255567188326762, 0.18746921342369055, 0.06685451337475624, 0.03676765468652297, -0.2692329420653415, -0.002386864181599658, -0.03558478528825902, -0.28001429395841587, -0.013199345569146344, 0.17512907007867856, -0.023103288015111977, 0.11466316650258865, -0.24530752828172814, 0.12590367183489046], [0.07737217661482576, -0.2962051317379057, 0.16045508037077855, 0.14577003866788557, 0.004602455258362567, -0.21508824383027905, 0.06960928164042147, 0.22037944479278687, -0.16310987081283296, -0.06444240575835013, 0.04501112032026115, -0.1622496415327748, -0.030275474599891012, -0.16367129140662454, 0.04071419333223106, -0.14131459907930113, 0.026369058367663623, -0.16862195133551483, 0.1908544356996291, -0.11467553180283678, -0.049141377760637, 0.1622223091680636, 0.04644975660278105, 0.1050139639880898, 0.26223558051347307, -0.07520110193659502, 0.19127435079286392, -0.28119173915259627, 0.08244653528294722, -0.18191897202816823, -0.1864233370527225, 0.11998697609643304, -0.2272883378561842, -0.054766349949173426, -0.17859931094987602, -0.23991104126052556, 0.08742972709706451, 0.085775088760199, 0.10911439996297534, 0.1696672768418704, 0.0542921508974072, -0.16902057599396356, 0.15145568433428883, -0.20573587132426482, 0.1634243097247654, 0.06776082568747578, -0.17922481175803964, 0.06174398018510835, -0.14083690319522846, -0.024383950757417318, 0.05433940883293822, 0.1745049657246408, -0.2705503428983252, -0.22791107170841382, -0.11635517158191326, -0.12190442349622559, 0.08466246503102164, -0.05773776183265776, -0.13263940930131324, -0.16050800160446838, -0.13753940679292337, 0.21760427617363717, -0.05547375547974964, -0.16767416588288797, -0.23072997668252607, -0.11416084118156376, -0.2268640181824567, 0.20783967779304904, 0.12487406897222406, 0.2340815599793683, -0.057282335356670384, -0.2228642084066294, 0.05798004703350758, 0.05466920490079923, -0.05460049865139572, 0.12318645020090521, -0.1489159609021478, -0.15528808574847056, -0.010560323515739371, 0.012070938651809596, -0.2151877831171921]], "Bias": 0.0}