{"Weights": [[-3.800122061447766, -9.17891965302094, -9.53998601078777, -2.640596541870303, -7.889936611467437, -2.5199860107877634, -4.789961009649393, -1.0500862144540482, -4.160094637184656, 9.45987370240762, 1.7199972128382652, 8.919625579561314, -10.049984053219648, 8.359863662119304, -6.788985419550768, -0.9799070763106694, 3.859647878085686, -4.429482371606842, -4.560238697140288, -4.46015022689315, -10.0396920114821, -4.929993718949023, -4.459985414612736, 1.1999864727617011, -8.570030022450892, 0.46978911226871706, 2.0698090219410914, -5.699787610521949, 1.629270268146213, 6.859949696667528, 0.9900197038490103, -7.609996053708685, 6.249774105711918, 4.44001398921224, -3.6901317579303337, -3.109985688754753, 1.9002115829505473, -6.158161319201284, 1.8198674326030666, -1.5895316857778272, 5.8096872069205485, 4.219990405740767, -8.129985378220365, -0.6797424193646536, 5.150574010053112, 8.74001398921223, 9.518248589483136, 8.120013989212229, -2.29998531950766, -9.709393062886354, 2.430001362269724, 4.170651610935094, -7.86812472868204, 5.999718804627833, -1.5300450136919777, 2.619946260932519, 5.949949532015331, -0.669889910610227, 7.819181933105657, -1.4299324313379147, 6.570012064428949, 8.050008920483048, 4.339044715928706, -2.530175754623977, -7.3195318887983545, -10.739281700485881, 8.479474288127784, 4.330478235138965, 0.45880222099400597, 6.299932184548246, 1.5803878027385188, -10.399883732820717, 3.1900141574937466, -5.249017200499799, -3.1286752719939392, 7.309212364789509, -8.699196587305254, -5.799391935194141], [-0.5194952666884657, -1.0886165417649236, 6.730026414655566, -8.448813891672478, 6.500123403759685, -7.699973585344434, -1.8593410650286673, 5.311099119564455, -2.89001475318013, 8.549946853399312, 0.11015088369767304, 4.780005647478278, 5.580002595034656, -1.0998953400923512, -8.429789824313367, -2.3590237672042154, -4.659536790434315, -8.148722770151133, 2.340561909381672, -3.538129953256111, 2.2015707697148628, -3.4897623930086272, -10.10997515911809, 4.271505964874999, -1.9783051700624013, -2.6991746420127924, 7.071773059804608, 8.921169005415775, 6.701336711391013, -7.929996022466951, 7.320211545330682, -3.9388086977068064, -9.159537278173982, -9.649973585344439, -7.099985703155269, 8.370086727770971, -8.950438128083135, -6.410062120233325, -4.739793063351861, -6.170113079466553, 8.629319293806248, -4.289943585344434, 0.31997986172641807, -9.167864887207003, -3.969663904948084, -8.349973585344438, -5.777995112604262, -6.139973585344434, 3.5800270358597674, -3.9485994129202426, -5.908329731947575, -6.259202603835639, -3.2885531400438643, -10.658410528479685, 7.550220024060202, 7.520188883229872, 8.919651104268286, 8.000597783891855, -8.149684940613854, 8.880494971858893, -5.819047913723956, -4.790051193919373, 9.069278296217112, 6.620036756922974, -7.170072808548089, -0.948473419975465, -0.15976732732816307, -10.907594863728177, 9.739764722551483, -4.050026916433868, -9.329940779441518, -4.150048451444553, 1.5600265829370759, -2.2188429589222745, 2.4297623989911417, -3.0291004983864904, 0.9614390191212133, 6.381212375594734], [-9.160114836279499, -2.489755478255934, -2.0199443507451638, -4.679226751867991, 1.6598238440274162, 2.0000556492548363, 8.219311487955478, -0.4001265953630784, 7.589652563977598, -7.1098669806845525, -8.549879785540295, -2.8499064144139057, -9.489942393177039, -4.259801526562224, -7.668329137001051, -3.899280942507994, 7.079095001450321, -7.728868891035521, 8.519720743278041, -0.8202344041773831, -6.10005807197999, -3.969943156340863, -8.16994404172871, -6.759403122024528, 6.399723903410948, 9.77966573285536, 4.859917508181093, -6.778833506595833, -9.788433496564451, 7.1300081563086355, -2.329962953898647, -3.4796865592183415, -2.5297217366192504, 6.330055649254837, 3.8598724178634827, 8.070055955422328, 4.38083238863217, -9.698232334433252, -0.9500374054373444, -9.490189420112257, 3.2896537848381184, -0.589944528959258, -0.38997094941662613, -2.5194192290858792, 6.040611281813202, 5.4400556492548375, 6.238951621165455, 1.4800556492548358, 7.370056340524489, -9.298475456171982, -2.0190809663462947, -2.5997903595928196, -8.648425756530514, -5.539670222474604, -6.089996290186147, 5.499881101548495, -5.059912301442157, -6.070088582847437, -0.8205126992254628, -0.8598867545493593, -9.759869624054506, 4.460003154286125, 7.818086897221103, -6.219911577060489, 4.059782795056451, -0.8298187179184202, -8.689961714458946, -1.529006879638069, 7.279544265571833, 0.31983874446445093, -0.8001806703891289, 8.41971920549001, 6.240055817536347, -10.84796476788187, 2.8301642698769744, 6.969066877244496, 0.7600435368296131, -5.837930737533289], [-2.0114654789427835, 3.4691311595694327, 5.189958635677379, 6.207876262138016, 5.638800936128393, -2.2500413643226196, 1.7506100447054609, 4.649424028917848, -0.2704031111078554, 5.489951220996395, 3.7895613382940017, 8.939153679677203, 8.039844145565793, -6.519972035671454, 2.89955333616218, 1.6793168328288743, -9.709720152636525, -6.340516716940121, -3.1701514251268783, 4.239298932618663, 9.498221922608396, 7.949864415989349, 7.299862005039436, -0.28003433030678954, -4.9989197603186915, -1.2895146623584017, -3.4503150261205673, -6.7700761344307905, 1.7885988625287916, 5.419887326306428, -6.370035649229807, -9.369079842999671, -3.020586766621791, 0.9299586356773802, 5.62983997525041, 5.409958957709945, -1.179209980856344, 6.197917072817461, 8.989791239007072, 3.9190709482097654, -3.4481579167460343, 7.569952429025846, 3.9799380160116757, 2.5088245794820025, -0.9603855180550306, 4.31995863567738, 4.3907497246960885, 3.3899586356773805, 4.319942079286227, 6.477371286292241, 0.31965038825917663, -8.3774330407791, 7.526346031875821, 2.6097959272495896, 4.949925916561956, 1.1301484937741464, -7.199481846296025, -0.7198866380066095, -4.360050317637413, 1.1795540613592426, 4.84923005138119, -0.9701454299907734, -3.700386016582199, 0.8799025423936481, -6.589961748833673, -10.840256757430913, -6.799875494649192, 9.568225925955543, -8.147798925066219, -3.4600733939615727, -7.9902806864004585, -7.300013919373104, -3.5300489884610053, -4.171807899922651, 7.528017915154903, -5.039064014121168, -7.560873960214222, -5.859562524517672], [1.8606819285705523, -9.22916712249298, -8.159959297164455, 1.539953556674926, 3.2908522825063353, -2.869959297164455, 1.129867851885068, -2.688554569396778, 5.099662356261496, -8.369943025134251, 5.809950423409139, 0.2604752665994865, -4.849957593462704, -5.869815244401259, -7.8184715333201265, -8.616693862299972, 2.3603390382766185, 9.198782683163165, -2.8699904377121555, -0.5901137835944258, 5.589200704678666, 1.870015167307806, 7.089970338798059, 6.739277532035361, -5.008430826639387, -5.106947330075371, -3.8598518362253267, -8.308306047384448, 4.500301343719674, 5.840075252602545, -3.2299535820734278, 2.9913775447383357, -0.7584295153103265, 0.7600407028355448, 5.719786046128538, -5.799958975131444, -5.667524614614272, -4.478241930537359, -5.749933693226776, 6.889476425831218, -9.14778070838266, 5.880032778744994, 3.650161306795866, 0.6007832657954952, 2.1614843707923583, -3.499959297164455, 0.1399419538524626, -9.619959297164455, 5.100017697437729, 8.837968501661223, -8.837767021365442, -6.339972130671772, 6.42860146497257, 0.6786352263288207, -8.479975084145373, -3.8799004586323376, 2.32030632262527, 4.7396715983373845, -9.179899684127438, -3.997739147706125, 3.4595874593230977, -3.7599252139837116, 8.882540753837933, -5.8291264873895905, -10.196583712877521, -3.7475226585110915, -1.6786557427582878, -1.8101059972403115, -8.89633421276039, 1.6303331146533582, -0.08983789404617881, -9.139879025323586, -3.449982818454818, 2.7006794249641963, 0.0010083985547508032, 3.540588215410744, 7.350076596553851, -0.6209076818770501], [-3.5892959854216953, 2.5105699721235615, 5.320003724981688, -0.00012627116647534662, 3.9083219092780537, 8.520003724981686, -6.2895058517356475, -2.358671501430469, -2.0202633653563886, -3.789727860857972, -3.0600106226239556, -9.219514115150217, 5.949962925966615, 3.1599481355473737, 2.300282803391763, -2.9698217653291406, 9.258669225196224, 6.168384760166164, 7.009158969925258, 6.159644892354347, 8.84978135701301, -2.060065755285518, -3.620054120225746, -5.48890939849137, -9.7699493018864, -3.6405875509525036, -4.740061506293919, -2.369674100943765, 8.208677394816142, 7.969932719252222, 0.5999917907447735, 7.588077738858652, 4.9192658093335515, -3.699996275018311, 3.079835195238648, 7.349980371985614, -5.0290341268149295, -6.498170863761024, -3.9301537788009324, 2.1591305906047427, 0.27937122759724303, 3.8599801315497, 6.669909922213187, -3.5504264348586956, -7.519852800254983, 0.7600037249816882, 7.369584305182279, -2.4599962750183106, -2.7899955837516752, -9.898405173443578, -10.069522560045176, 3.159718523396216, -3.828620138085438, 0.6605607577137823, 3.9298249817708695, -9.680028977847734, 4.008965208656419, 0.5298233372149317, 5.729150000478895, 1.33948431795824, -1.649997081754839, 3.6398377863451055, 0.8687126312785941, -0.650102078629198, 7.238038499875485, 5.428601057693575, -8.23891892173744, -7.8377438894218505, -2.11053357247394, 5.439547067827055, 2.009510134374666, 7.449488904086937, -1.889996106736803, -1.0900329706075038, -8.649436421259452, 4.328049645035411, -3.389554745781461, 2.640988189097495], [0.05901393709437837, -1.149243070725506, 8.410002772852915, -4.020946505074401, -0.7188019578629815, 2.240002772852915, -4.810118535000655, 3.3293199588495406, -9.349916551577158, 2.7802982816055932, -10.64992805738489, -4.930025367326186, 7.969962018948596, 5.550310696154947, -2.8099469675317277, 4.7304427932543565, -5.929700748913716, -3.959883206197245, 3.4791473704321447, 1.1693478892684155, 6.1989225666697365, 7.719980186320241, 7.219979647378759, -1.5305315800148325, -3.2404376761682157, 1.750504237694889, 0.35000762755638437, -5.719257632631073, 5.089314706250486, 8.829933054430363, -0.15999961982809544, -10.419882420606967, -9.737055013534903, -1.8099972271470843, 8.629879187486216, -0.9499969051140734, 4.220224532343049, 1.3015953804962834, -3.610090974799639, 0.6297687879473839, -10.69756444706877, -9.809997391734814, 3.53996061499083, 3.5501953670814785, -1.1178871271050579, 3.3200027728529147, -3.740207918861829, 7.080002772852916, 1.1000034473999587, 7.808248273401221, -9.169654670283142, 0.040330659391087695, -5.629781671057949, -6.310417196214348, 1.7099606239517193, 5.6195949943290895, -4.6298758646314235, -0.4496032049920465, 8.079394383968813, 4.929657622369744, -5.150051041504039, 5.760102643172804, -3.1199231434261856, -8.929981487303042, -2.868322889277551, 8.839624856364775, 0.8493573629458313, -8.06985380579259, -9.968211299992538, -6.879857576476553, -5.069940575708036, 6.90003629010848, 9.560002905541259, -0.6688487882866548, 6.7295787098613475, -6.13978521770013, 3.7795307485311294, 6.009980890556583], [7.628981950809739, -6.969815471346687, 5.500002072749323, 4.5287231286586325, -0.430745625636103, 1.3900020727493234, -6.879666746810646, 4.189293345197996, 1.4604052450046157, 3.8899709368935023, 5.579950817948646, 1.160249519306232, -7.209995969682556, -3.8399501565931757, -0.8601323183358204, 0.2488504819345191, 3.289561460512194, -1.529886226034908, -5.2299921713404, -0.7800303844044653, -9.810152533323365, 6.499954093923383, 1.369958870535082, 0.4991053190218636, -0.9688003762532957, -4.78882532371068, -4.969684084034187, 5.389840571081871, -3.919753559743963, 7.959864702059894, -1.5899922122704837, -6.910095759974187, 2.599022953951794, 3.3000020727493227, 7.890057781642545, 0.020002394782333722, 3.2797981357312636, -1.3204624145748067, 1.2900004348323875, -5.350387985353869, -9.9475098743462, 2.490002072741102, 5.329944695724216, 2.9691838228829646, -5.369849471620277, 7.7800020727493235, -8.66971131517326, 2.3200020727493227, -0.6500000462260668, 1.359560813448657, -4.2195098390020656, -1.3691132007413354, 8.037706782978915, -9.538866909031384, -3.639866622197791, 8.53018475622381, -6.819271843716877, -9.819810104060354, 6.759570797744422, -9.619368990055888, -2.070276843551369, -6.300017436399481, 5.9385680531096625, -4.549549852462721, -3.4096490478749635, -4.589670192844146, 8.429314515774971, -0.5505449508349696, -0.5686870322500038, 2.1700187969909743, 7.230110685812662, 6.810059615252154, -1.4999977589780475, -0.8397721787505715, -9.189542150742803, -4.619274736840992, 9.709191456994304, 2.5193440308187878], [2.8485081019177314, 0.45962866964177795, 7.0399628898991296, 9.297811370173884, -9.150346564720643, 3.2999628898991324, 4.878841852735468, -5.229762463632359, -5.150266586551846, 7.549764110524471, 9.379624487731139, -6.680001428487351, 6.469852013284534, -2.6901963161282763, -5.9398170002000965, -7.398903148959432, -4.259387224581868, -8.299602883001942, 1.719685191684042, 1.8088440049105543, -0.23130097911959804, 8.679844658809657, 8.79989257040509, -6.0279649681751, -5.629549941425802, -5.100178425203209, 8.948688239464925, -5.910074751463502, -2.071363471564091, -6.420059547320151, 3.7197743989616554, -2.1101796146941876, -8.687954579077864, -7.860037110100871, 2.7998071780764415, 4.669928054500839, 0.9785704969306801, -9.61011107703445, 0.9398414259749428, 8.398580129356287, -5.818791732769988, 8.639939296467146, -4.070062220940273, -5.98027911535171, -2.628461864801736, 6.379962889899129, -3.2095240237741547, -6.230037110100871, 5.99988157042162, 6.908586800461126, 8.749106754017648, 0.8892306299697984, 2.4480957979479636, 3.5598422433485326, -4.109859407092147, -8.410002440947224, -1.3500594405541007, 0.07983885311197968, 4.099537268800687, 5.558456507798646, 8.76945621108811, -6.490033027877244, 0.2596878555562087, -2.8598055487594847, 2.898557683180635, 8.628848169493008, 8.678923663164127, 5.969151853386219, 1.7302491178638917, -8.150058780559021, 7.32945936967467, -2.9701768311411008, 0.009963058180190162, -7.509561051874015, 3.428591403666121, -10.389760282742664, 0.41947888717782594, 3.4194585394670423], [3.5004145637193353, -5.429601011889774, 6.569973229547571, -4.2095817329627, 2.0095942601258, 7.9399732295475705, 4.89963480107339, -5.868659155987558, 9.18856629883203, -6.870034085947285, 0.7799579557874177, 2.7192213368684635, -3.420047103600689, -0.9099330386868063, 3.4390269503165354, 8.438919458419544, -8.379650189797081, 5.848660977829562, 4.549230770735332, -8.230066125354679, -10.730032477658142, -3.9700491694617166, 5.3098493739872055, -3.0899597639604366, 9.618543288458731, 0.4092818855498537, -0.7605545185973438, 4.2092700881668925, -8.480278230644954, -4.670118847950763, -0.17006802242532107, 4.709195664446959, -5.868959150401052, 8.06997322954757, -3.5401240460700065, -1.5700265689183674, -6.418942872200523, -1.4997692487949774, 6.619838547288183, 6.739168290820355, -4.79983827663965, 2.349973217975821, 4.879853809168237, -3.7902398721675667, -9.969042437714414, -1.6400267704524296, -5.380355113871161, -6.400026770452429, -7.740026079172326, 3.6804452627966637, 3.269185969769213, -1.1213724463261527, 2.0306405356098636, 3.8989361195227232, 4.749687457341432, 6.859404991643868, 2.579220622237129, -3.3799448217754198, 7.959136562496639, -2.849483315094338, -0.0401072403535201, 5.199903851871293, -1.2202930473324012, 1.3997565102341414, -1.2911936855042399, -1.159645506693962, 2.6209052444401966, -4.040249724095946, 4.69801872443682, 7.519430413263614, -7.759805297261395, -0.9004399028317949, 7.269971962513063, 4.078927697227449, 6.750502504150056, 5.57789992749903, -4.219294440294348, -9.548836174961433]], "Bias": -0.006061874001869827}