{"Weights": [[0.1982528889267886, -0.05319756082308489, 0.27731426753330185, -0.4822363375419858, 0.3225557140954748, -0.9370435595770585, 0.9120333084533088, 0.20494105649337305, 0.15304696503450516, -0.9979437881234201, 0.39558738424110945, -0.25705937034744425, 0.5240092178525562, -0.5722252817135899, -0.25669290448196924, 0.5069068559826776, 0.020464430197343137, 0.2063677933680618, -0.6367004439224981, 0.574604497602649, 0.7383776450330619, -0.6647190715833939, 0.8547305857546562, 0.0801613680919088, -0.29887636088841935, -0.540919683323023, -0.9202801745293231, 0.006627103705567371, -0.9167901713492502, 0.9535252655856389, 0.4236198920007933, -0.414145837275011, 0.11273158062317669, 0.03770769936135968, -0.2501620032527863, 0.017785817571421985, 0.09581791915777503, 0.4781079328142162, -0.37312698132914457, -0.7626439287731316, 0.23003863486284654, 0.18218935092966432, -0.5150766406579524, 0.00878591111067856, -0.6139755712871062, 0.16898887763164724, 0.20641074395175626, -0.4717522421256981, -0.5479070655440094, -0.23491920051680637, 0.5571993296448288, -0.8175318341892591, -0.7465832702752284, -0.22153810841973887, 0.5697932762450182, 0.87177547578792, -0.5931296005714424, 0.5680626761373266, 0.8004423311395517, 0.3738982530073173, -0.0359180444267752, 0.7029625312709841, -0.7873707967973659, 0.20615134544398855, 0.39737378598136786, -0.007150675424901352, -0.16241794833917178, 0.30375215580358295, 0.356414095813771, 0.371465008525184, 0.22969766590513174, 0.972109544361443, 0.19677589628841738, 0.26158377573194297, 0.6273015573149484, -0.07625873125457965, 0.465703006542583, -0.8198933563609268, -0.35236596964312533, 0.3636648965108496, 0.9006036004176271], [-0.7705023019998808, 0.811945859093086, -0.5387102396980542, -0.21520376912671849, 0.41235575933170954, -0.47699672528824383, 0.2356146163084749, 0.900032206166103, -0.5536303803665911, -0.1901661797670307, 0.7674323048965461, -0.052706808870652676, -0.07460706636586742, 0.2703135743584218, -0.507721745459932, 0.4707315625437757, 0.42307401149471957, -0.8725081822893709, 0.8523325923919793, 0.9685534936270167, 0.12477213884764726, 0.9459443350761108, 0.2753462525699944, -0.26689731124055294, -0.8846701336631178, -0.7090556357657376, -0.9907762678465422, 0.5682544508341785, -0.8885454822830823, 0.8222690973462385, -0.3843700533550397, -0.8431289121226406, 0.5687071123779075, 0.5826454584374774, -0.11190820251259276, 0.8500607347293803, -0.2967481972408504, -0.7317699301377363, -0.778575171657659, -0.8138577392340056, 0.5978668357307302, 0.3217026936070264, -0.11435546463619958, -0.83900337388458, -0.7975925084136206, -0.5787207372698131, -0.73343810153677, 0.6199931754406672, -0.4963422558141623, 0.18640115580802175, -0.7448956139407655, -0.04966192530519516, -0.6378837045792732, -0.6492247349159611, 0.9342538991669908, 0.23299394788494052, 0.9095346849222247, -0.6388418280358125, -0.0702279247143886, 0.794362586083207, -0.5440755466222544, -0.190342801576166, -0.9390471020116838, -0.1623075272288626, -0.5945058517562842, -0.008988550168981427, -0.10500421632059004, -0.9394424208231311, 0.6887436416308867, 0.9830410737457571, 0.2452016987933919, -0.3350843528187167, 0.36827151545333026, -0.931495258130507, -0.6976493699778635, 0.4542330081757337, -0.9412028799624126, -0.9921506008878954, 0.13317848629888923, -0.9651889038176872, -0.9081755713837939], [-0.10042331978318382, -0.33638654129666423, 0.2685407922718143, -0.9385029228291828, 0.1884988720542583, 0.7998029326207252, 0.33547525894377517, -0.15033169386279574, 0.5485288618113499, 0.545366569920704, 0.15111944438829264, -0.6087872017941354, -0.8840171553310826, -0.18521476894789912, -0.5218116743671514, 0.7637255953169338, 0.9182910118831973, -0.3061872538953409, 0.9209847559283173, -0.7102798722600876, -0.7545689175651431, 0.3269042003298087, -0.7957152742475314, 0.8340475309046378, 0.6792602786533797, 0.47048835736973293, -0.16347889214572792, 0.0815978741333164, 0.2499500425549883, -0.319170961034366, 0.10275698605814972, 0.02229662240324824, 0.30380884978775324, -0.030584862896703657, -0.7369643494695693, 0.2133171333831721, -0.5814142744466535, -0.1796107099528404, 0.16878516808473934, -0.2884739005313778, 0.15358889246511642, -0.9853846243302485, 0.706521967767419, 0.4040734010570199, -0.9492843009303457, 0.39472900287790963, -0.92924194917457, 0.08863616504201623, -0.7118233677116664, -0.9702852764314919, 0.09608682702802546, -0.6336184667277878, -0.5161883072101582, 0.4250165299136756, 0.8155306785921489, -0.7975820164752442, 0.5208004296235772, 0.744456087397787, -0.24528536924873245, -0.23267198143553602, -0.047528416126045525, 0.5282860920889625, -0.20349474854225444, 0.15569849042955317, -0.3360926154567265, 0.19757167987572935, 0.6788591514866614, -0.925528359653758, 0.22478216767499218, -0.6195964820046008, 0.8840026692229318, 0.05264576505900556, -0.25897361296105426, -0.6314214372653156, 0.243374735907723, 0.7577507770989769, -0.17450408371129725, 0.8371704486272864, 0.9046815637226476, 0.39373549113760486, 0.9460394303512591], [0.49069629543091997, -0.05185106455692157, -0.36657001030536596, 0.37532046303019306, -0.3066375440335511, 0.6954283775458363, 0.1020842938422579, -0.5797148810040178, 0.552514670693437, -0.36961396885184056, 0.2724326570823714, 0.7273031232188109, 0.32348693950422297, -0.6464364078963827, -0.8293567947394708, 0.6953654165716721, 0.544518549013268, -0.4633154969471138, -0.2177701014980334, 0.3897894514723336, -0.8355231916751674, -0.4387411883282409, -0.8154511025932477, -0.2516142188755311, -0.7615316273206071, -0.932072786426422, -0.8745481930602389, -0.702762816261481, 0.5339376074919151, 0.4495793312185961, 0.26713729137995657, -0.6369260901880611, 0.011779210236143851, 0.5550437681923264, -0.5851047968535789, 0.7580307818629317, -0.6581608792288006, -0.08824757150302238, -0.9060593954469007, -0.5227870296834591, -0.18763871560305667, -0.583883474762165, -0.4841914055552036, -0.46328138357877724, -0.48003856986161936, -0.8145381882657572, 0.33004249738886304, 0.8854273299176612, 0.7999461454664876, 0.7668957653344832, -0.19522745535014557, -0.5504249040976529, -0.5502127908791069, 0.7671499341631114, 0.22257202925648756, 0.32556944685675165, -0.261561752290685, -0.9889680507913792, 0.8447958354545123, 0.9917573040481665, 0.9915394260309223, 0.10187778022219607, 0.7033426408057905, 0.5910675456577209, -0.033680190514542345, 0.26355705188322537, 0.33343583910397895, -0.006005567938447154, -0.3590533415615142, 0.8738789711561529, -0.760328221295621, 0.891593357218586, -0.6874347608508682, 0.7447908386923352, -0.28728139141643816, 0.34104349224228264, -0.9630671800907082, -0.23309446078069593, -0.697718304974702, 0.9935427127824684, -0.3826660838681451], [0.7446317908873422, 0.020084511164763823, 0.6922985130262712, 0.3062741006833819, 0.35557229290546705, -0.3233186951213034, 0.27531882562099236, 0.37641909525920825, -0.49666203980365975, -0.7890000212199145, -0.08213683847244371, 0.4421851463945435, 0.4328724183966643, 0.16828135140672595, -0.7344736234549761, 0.8203454808061167, -0.7054632604481125, -0.5074734387112847, -0.7679169043794416, -0.09660875204139786, 0.016072672616866904, 0.9948148201359777, 0.6944603428848855, -0.9529020047587758, -0.47834034114603036, 0.8953446919504783, 0.31750246125216763, 0.1358281652675736, -0.15217269535224273, -0.041152305611839635, -0.8135485508915021, -0.6176202085398715, 0.765578112281915, -0.988733505690807, 0.6006884036277251, 0.46512966246583254, 0.7078117862328936, 0.3022660227727765, -0.8996375452384774, -0.6408767193338519, 0.8247195890201254, -0.6900969839540949, 0.4406167011185458, 0.5336522571363767, -0.9224468566509898, -0.27084435461982015, 0.9540439381856051, 0.8129697889723091, 0.7628519702379648, -0.9870762076612061, -0.19657353331198127, -0.8943504896812589, -0.9983458450140754, -0.4504274751115789, 0.7636881297221056, -0.19225893971281197, -0.6995410978824874, -0.22746849144502918, 0.5407389977452383, -0.1286113834817653, -0.7549010005848741, 0.1474254573305089, -0.039683471227773576, -0.5440636205079238, -0.9726391539553231, -0.3213832319051209, 0.5288240954373536, 0.5838612528204404, -0.9938822789063297, -0.9735514679648408, -0.6384317609118177, 0.33132743269650744, 0.8729529569466502, -0.5291924216946471, 0.4869326752979575, 0.7989791166949911, -0.7809979512081943, -0.42355381214779453, 0.5808867121971235, -0.2782547390858752, -0.19570686098272905], [-0.4126152191549241, -0.39178653260488505, 0.7525768294340252, -0.9387240314237476, 0.4755717937282116, -0.29117222641146195, -0.8181408750830564, -0.7806104302866455, 0.3639217998433869, 0.38000238934698166, 0.9204925964431012, -0.9755680545602747, 0.7554390277017472, -0.21813516654377005, -0.9587404514443972, -0.2781344079136343, -0.3247691258250155, 0.6190830511417069, 0.8900129775092419, -0.11739871744471707, -0.04868716569233832, -0.2621591751427585, 0.8162448727488752, 0.38118924181138414, 0.07488325261938648, -0.5854603956229093, 0.5629519390172488, -0.7687163909865761, 0.3958919794296836, -0.8621512162376908, 0.8872402868517508, -0.4044452145722494, 0.6424075022023792, 0.37295837955907907, 0.4905763337382244, -0.7436211658723622, -0.39117208785994423, 0.6303349882472354, 0.18149361114963977, -0.6976189662367709, 0.5786864445150478, -0.9836654251545114, -0.03913812020369776, -0.43121149042334156, -0.14504543868234726, 0.044468272985204234, -0.33984761391104656, -0.9243025759966342, -0.653663238160362, 0.16359885827390674, -0.41563387735833274, 0.9707114523273721, -0.5243598064645337, -0.3050903937655294, 0.7055541162078848, -0.24036845206627624, 0.25407469848471076, -0.16659053652747013, -0.5973916896911177, -0.929138172023137, 0.7605078623054002, -0.4253625672490973, 0.9267538114725186, 0.08951797404916655, -0.7471872645157209, -0.5905687064947395, -0.9137820055859796, 0.22277274944498282, -0.0009219140072483033, 0.6785758645916369, 0.24137695308867652, -0.23258398967192467, -0.851364823496069, -0.5084016101713976, -0.7451218621722459, 0.6692580154071324, -0.6324819759478127, 0.42194385552093133, -0.6080949702800197, 0.3330831134200918, -0.4587286963866853], [-0.14697442994377438, 0.8691267558932644, -0.805399678135108, -0.0042473580783874915, 0.7281237455016234, 0.668181242659428, -0.28028118264835, 0.9856471389413537, 0.6478739725617672, -0.20056997731319073, -0.9238744157877836, -0.1454414549404127, -0.7732961617044747, -0.5152512162989559, 0.62683725385269, 0.4350602924892212, -0.7495590650577277, -0.39207028334145383, -0.6334011838421876, 0.753032657016725, -0.4586697151703, -0.3216032553814245, -0.4523128868729838, 0.6464538782344259, 0.08628661666021514, -0.8516516560716799, 0.9159286801284701, -0.040874796841552104, -0.5795752844399699, -0.5869910707538089, -0.3078771381989674, -0.829282265958526, -0.614480829192544, 0.9537962073534194, 0.3853046511566127, -0.678736166948786, 0.4232637087719595, -0.2017498236241315, -0.9024071222036448, -0.8957850937691543, -0.9807625982814664, 0.930821344203131, -0.5147773655653264, -0.1933692171587917, 0.0279341036431332, -0.6598587213535447, -0.7254026971845898, -0.25233143920409884, 0.08968381899375433, -0.8573462811846756, -0.3711568485668601, 0.12323441447282477, 0.20023887175808752, -0.6139984319738868, -0.4029146703331469, -0.6546396905849234, -0.62452832823843, 0.851678597027943, 0.9327619566531213, -0.7738922943660272, -0.3610119878146944, -0.037807788077750606, -0.1391098300936676, 0.441828977388637, 0.8431481557498369, 0.14658221334389848, 0.8555314077856407, -0.6259130490975595, 0.4069235745390622, -0.17302676865188843, -0.3102265238471594, -0.33452813607659926, 0.7492091289928764, 0.058041167566062354, -0.043510321389172164, 0.7988042193121107, 0.9323614802391588, 0.7739085267800756, 0.7934084036642286, 0.4212489829691338, -0.20015101280292466], [-0.16676650630003292, -0.3613008382010065, 0.4180973102718513, -0.6917588779615248, -0.683671222388688, 0.22253096557113286, 0.43626081895292634, 0.1438307721364302, 0.024729785299973325, -0.06104865540087577, 0.35533460991887333, -0.8698333360537163, 0.8102486441343221, -0.3562818535440274, -0.9058812900578569, 0.787410756578818, 0.3250039960449402, -0.30517074995985927, 0.08505584795537881, 0.04294106971727802, -0.7982149878549485, -0.9518932909367455, 0.1892502217580503, 0.29416511453388944, -0.7315790349289427, -0.6559867249558763, 0.8380279304592876, 0.9621188053734084, 0.6176238927486553, 0.6962314741784353, -0.36396928368611753, 0.7746770382215123, -0.747241122797275, 0.8260272010705342, 0.0008587839404607528, -0.23584499012544027, -0.12176766536237811, -0.4914465637556038, 0.4577379111442835, 0.21223243901453676, -0.4131834147847243, 0.7244738557462863, 0.10162948244883901, 0.6805137222401861, 0.5878215333378723, 0.2398598375400542, 0.10026498577237007, -0.18785166462879152, 0.5072965950534915, -0.23891474736836868, -0.05635382089799856, -0.9148801651491081, 0.8407209072720075, 0.40165894415616377, -0.6656598794938647, -0.4932312462689748, -0.5295284467482506, -0.275727827558998, -0.15339266046724823, -0.6539199000500967, 0.21717754771268669, 0.10143970849724561, 0.7800088258509574, -0.40364446561101086, 0.045202697123042535, -0.3623799207204435, -0.4513268134258691, 0.925962240431325, -0.5113062096453966, 0.8665795108120022, 0.13641927511410576, -0.17407887791192292, -0.16391788449552122, -0.860818872757745, -0.17345350783936836, 0.1808932591566253, -0.8942813199994035, 0.5548578656582147, 0.08794926558852537, -0.3170729739814705, 0.33168791920783625], [0.5555884088604061, -0.3365232640548274, -0.11086032635915449, 0.6055170230836947, 0.6472337903029759, -0.02786142021286249, -0.7061881046595101, -0.40541510909885653, -0.8905384075071409, -0.723393350992767, -0.2883865688281995, 0.6796953607123415, -0.21143276454584026, 0.45036603343283504, -0.08924438914081569, -0.7282152918707934, 0.8561069130591701, 0.7224955530443647, -0.01745654352511653, -0.31207059167454404, 0.06980810123057707, -0.4566248095726568, 0.18056340890715802, -0.6056750008863313, -0.47232099356062573, -0.679989324028251, 0.1147849522594077, -0.9673232627793303, -0.8938075178302516, 0.3000434636081404, -0.361799626599479, -0.10911136116995994, -0.6910172866165144, 0.5772553977410371, -0.7075285773303279, -0.6866652733811703, -0.10758887959712499, -0.275418680384926, 0.5136654464579606, -0.4255628424856595, -0.00787687540053193, 0.2909067727921397, -0.9627964337807192, 0.38369982812621, -0.4947047067221848, 0.8808909288032274, -0.4248834029755806, -0.9256377635847733, -0.14938063615400315, 0.5347993061442072, -0.8245994871456087, 0.8010192462178906, 0.8804088244648577, 0.6410259524997439, 0.4460954246881802, -0.5953191796729734, -0.43156753501440315, -0.5747899838416217, 0.3458328002567622, 0.06053749715548134, -0.027090780052208475, -0.5758920025201023, -0.314295755212489, -0.28163791162529767, -0.5290840639324, -0.23228382135643463, -0.17779575368961498, 0.8761678509195793, 0.5367699530923443, 0.7558612939465751, 0.5973893661263766, 0.9875382059258728, -0.44615425274856474, -0.8931137308980514, -0.5502599399686624, 0.4873377564842668, -0.6666558997168702, -0.3600522412450169, 0.5764055628346534, -0.35953864130093316, -0.06486448437160541], [-0.7736508939082184, -0.4022586634304468, -0.6315355060001837, 0.18549420670845837, -0.9188512865004129, -0.17453591626361795, 0.2529946536513515, 0.9510595921844138, 0.5562206475389928, 0.26385570567702643, -0.5614961180161697, -0.831793336851508, -0.26872540312049553, -0.6350292349559566, 0.16603150359394075, 0.1224959801831776, -0.5936687876047655, 0.20459985098661923, -0.7830679902481466, 0.7130750094076382, 0.22130646063047285, 0.9780438012929966, -0.5386214745981024, -0.1554573018018908, -0.7424915339032362, -0.27948073914501514, 0.6968003374545226, 0.08782946320548594, 0.4028549127581096, 0.21299598357044414, -0.8222375628489641, -0.02939027655460268, 0.2818600312338686, 0.335922433110468, -0.2529490209753458, -0.01836600402206439, -0.9900508112847918, -0.08360606324551216, 0.37839742497626844, -0.10096371850297989, -0.8579862206915747, 0.2442685854578625, -0.5981582282620236, 0.08362161215108692, 0.27540628535944384, 0.0945541563023555, 0.11497857080532047, 0.8689067249019539, -0.49729339353720314, 0.03040545421518117, -0.8420812859992114, 0.691885899635077, -0.41926561571302357, 0.3055934167489374, 0.3271468794412617, 0.1610774696874295, -0.775059617138314, 0.5836745233481033, -0.9853109064226462, -0.4564749669920554, -0.37885089209857065, 0.8518484100961462, -0.6083174272989428, 0.3981563826005935, -0.48098648635616914, 0.4372407179715025, 0.5646548647848809, -0.18811322313427872, -0.21952089379228668, -0.8502203075492447, -0.9043985731809947, -0.3173756289721752, -0.8925025214512364, 0.7058257974987351, -0.9052140842564153, 0.02927115613995416, 0.6367594502567421, 0.887193664056245, -0.14372193940371067, -0.2801822653914083, -0.6667338478679532]], "Bias": -0.013279301522570579}