{"Weights": [[0.6893684301154119, 0.800492180275358, -0.5125727326825336, -0.05866238310626648, -0.6731380153361988, 0.005709290989190485, -0.075668330730021, 0.6316159356984572, 0.8411966354281504, 0.8743442835215982, -0.7285808276715084, 0.43804657107811895, -0.5700034534797984, 0.3639725479495777, 0.830724096199587, 0.9765105856225256, -0.10717990055556736, -0.8043758893064337, -0.7700410125403314, 0.5740292050509326, -0.5726408100737714, 0.4322610646283942, -0.9533780955985653, -0.23373248046457595, -0.27771453853770556, -0.7666637802966751, -0.39568039694924284, -0.6583601502020973, -0.3261767631996708, 0.9590944878328174, -0.8465663793575158, -0.5858436944959078, 0.8893286340139217, -0.5984171784353751, -0.34779990338415967, -0.004440227822889886, -0.23388292195141358, 0.20590243248656726, 0.27627176285454125, 0.074231569270645, -0.6015914306494872, 0.11809075799282875, -0.6342396003776891, 0.11992918416012999, 0.5074505499507196, -0.16203594435761492, 0.4199614097405624, 0.7175351160126349, 0.5601141481531007], [0.9462846414196868, 0.3086973244310032, 0.793052469587952, -0.32589730332542466, -0.4932326539062428, -0.5380735230445142, 0.26780455404393466, 0.5538417768838333, 0.6408257478272157, -0.3622360999943639, 0.6317660808498184, 0.30494861783864446, -0.45712757604305776, -0.9152366209444904, 0.7430260525491081, 0.2900015875347097, 0.7661173960053855, -0.32687188860812033, 0.4557687100836627, -0.569196273662252, -0.46844836328755934, -0.45519592366282113, 0.5225116681737456, 0.2947723096620356, -0.11554343325045147, -0.5298115283279008, 0.1740261256664244, -0.27837432355748737, -0.2816044664768229, 0.42074591780702053, 0.7427947057718434, 0.9221015161315638, -0.026763774271996166, 0.08825426094982758, 0.06774505645953077, -0.08969770387293519, 0.0397202565541237, 0.8880230358124059, -0.47349878866815676, 0.9847933214855065, 0.5645403299968836, -0.5551855379820345, 0.6104392465677266, 0.19193092235700693, 0.1507892616706923, 0.5084940854095406, 0.29475840545671717, 0.4564655458896023, 0.5619949671722304], [-0.07593434451064862, 0.6605958312825826, 0.6256951101189132, 0.7402948651792169, -0.3948197758293732, 0.37592581752452703, -0.515427238356972, 0.07043385826034188, -0.733082180810527, -0.835864305717148, -0.08108368579355485, -0.4415542723420831, 0.8732978635865922, 0.6026841239284324, -0.8434378300333458, 0.5448171486265823, 0.3629327818570436, 0.5942095226448865, 0.7276519169622981, -0.6541686235330493, 0.25117403766804647, -0.8439463067561277, 0.2697166847039756, 0.4406585989212115, 0.8791474720440635, 0.48192845789799876, -0.9416107827588385, 0.31341256301917664, -0.049618175652403895, -0.021415383243669428, -0.7351033331477721, 0.9336177842636011, 0.6463347546958949, -0.8815642814276659, 0.5973347243481759, -0.6147373510975129, 0.6496139856842964, 0.23186147521544775, 0.08751051533296894, -0.40124590038186003, -0.48545226145542797, 0.8766273985171118, -0.8441213496112823, -0.7457301595088985, 0.026783578570688693, 0.0691680132010688, -0.5956893044296154, 0.9394674042980848, -0.6316721289877236], [0.46624664703985275, 0.3108055825862275, 0.7522781304779587, -0.4283457281115146, 0.6542763382420322, 0.6026742414409678, 0.5764955935926865, 0.6350658905053852, 0.17690050152554382, 0.46958066634634843, 0.5044217846072758, -0.5048024733803633, -0.36999689607211206, -0.22579682336527718, 0.4376713484640724, -0.7689878206540512, -0.7790457450527699, 0.6908080020403258, 0.9574325251261486, -0.43386389321579344, 0.714606212750073, -0.1622733517276551, 0.8381188949316354, -0.8385726573981958, -0.7819205636982185, -0.8386399683578747, -0.6198923606797317, 0.23535171501761387, -0.31919573482881214, -0.8630895815188779, -0.01958876689573774, -0.5098334140520278, 0.09258973703346762, 0.44282705602951644, 0.9197047483096774, 0.30557965281364163, 0.27231383515243524, -0.18614064600634306, 0.7205070131998814, 0.7248076839740696, 0.23703239716638502, 0.17644833812680005, 0.4436014315340635, -0.6710461468815632, 0.4798152149142356, -0.26629706013584875, -0.3268003805751907, 0.17696932408371113, 0.5925697724011219], [0.2810555160451371, -0.6988298713135548, 0.6326437641755873, -0.9745929020032245, 0.6750049338207897, -0.07314823798791004, -0.8861106498601634, -0.7576052197211152, 0.7238281799933401, 0.7298316442411279, -0.6850966422176148, -0.32681018172346943, -0.5046733346511512, -0.7777370822104597, 0.19207185672665372, 0.3138334668322995, -0.6578479070684218, -0.40999448748719747, 0.2959770610557302, 0.8782062738871341, 0.9194158205583418, 0.754992245647085, -0.37235446625852964, -0.34213144964928066, 0.974674404138737, -0.5554401048925053, 0.6274107955751864, -0.19766897950224083, -0.3404153211899821, 0.16212414348713988, -0.1628883697651533, 0.1441006473586588, -0.48044226430404446, -0.9670453846697418, 0.7207247059080348, 0.8220540774754954, -0.32124885735380704, 0.9769640383327078, -0.02708182507932455, -0.9722046037182244, -0.9483636803083613, 0.044788779662067846, -0.9538942920039772, 0.9282945775277418, -0.4760963226725303, -0.546631021103033, -0.008090501363083646, 0.19693582696205136, 0.9324477144123478], [0.9545770427088136, -0.21310645461503186, -0.4644266240513377, 0.8599155840340369, 0.93073361111434, 0.3587655555590581, -0.9859043359181867, 0.13789148485763558, -0.26614752049285273, -0.5602319952039927, -0.35990265830273893, 0.06504719065510667, -0.07927427740518467, 0.5488102493567049, -0.6489947564590233, -0.8829552629366366, 0.2956223907914626, 0.5592140303569371, -0.29100950373501, -0.11082216178076032, 0.48246734443131256, 0.012517735990592804, 0.7922490652568941, 0.5391745090858013, 0.9523193057009349, 0.5940529346988741, -0.011209690845124909, -0.7375250136078568, 0.7333105625797958, -0.8844670881051393, -0.345552488348315, 0.7324770981741384, 0.06380489580940862, -0.18261489875230374, -0.13140748957441328, -0.7977553863223874, 0.7832059535710609, 0.21356036569266568, -0.5916670845649206, -0.3407795366749222, 0.33537679112532626, -0.7950318809933927, -0.3256443842040828, -0.539189478796477, -0.8333529507539039, 0.24625412386729728, -0.49841039718917757, 0.5828451705038289, -0.8397023480179462], [-0.5736444461739427, 0.01572006336445364, -0.7034832444691863, -0.8256254388640472, -0.9424701277263179, -0.08626018011063885, 0.7963009298570674, -0.10620371121222538, 0.671104530672904, 0.5557505512145573, -0.2732607242001208, -0.7270199785278468, 0.9210661520243333, -0.26286487968263317, 0.6544040756357747, -0.3896456143020586, -0.959792013374958, 0.8649270303477072, 0.49792093063072795, -0.9413510204033262, -0.15297734692854603, 0.28017226063839984, -0.09727318879939362, -0.07154080994940148, -0.9883826008023402, 0.7453308926542235, 0.8398135763615444, -0.9541524841971158, 0.5649279797728874, 0.40038663551341536, -0.9289433969125171, 0.1369051787005604, 0.17683780873401367, -0.6481130677923779, 0.4283493388969337, 0.8118861120826415, 0.9650518852288761, -0.3926799387706965, 0.41880022255747384, 0.9356742375753979, -0.6790430151230156, -0.9742404432945535, 0.6477054812977081, 0.7813696945272726, 0.9428219375055884, 0.10583641371653263, 0.30048614987266786, 0.5642527105128445, 0.4562858441497777], [0.006848530465747293, -0.4034912422925254, 0.44387976122566464, -0.43473076843082614, 0.3637007119866764, -0.5171281375258812, 0.29484985086898297, 0.376862314796909, 0.4969045602290134, -0.2735879849932481, 0.4520641815730744, 0.6049123842969168, -0.38690996133973954, -0.8697517104412067, 0.5680398683235075, 0.28458042830301644, 0.5402615722544553, 0.24889208321825906, -0.9573877572209477, -0.3374622366947404, -0.6419232163260182, -0.45481605888059984, 0.2514225759536066, 0.8857803600340066, -0.869946068958072, 0.7111357802643217, 0.7582068361577436, 0.7005725322167653, 0.9379243204428838, -0.7450495564359869, -0.7951532913501997, 0.9703204211957839, 0.7817332421457419, 0.5061174396876302, -0.9180151806433079, 0.2689370736295007, 0.9436803733966033, 0.23539349355923456, 0.1618633564771037, -0.4868028881202979, 0.9502441821426668, -0.6619908854338079, 0.3328425370964536, -0.8785532829257732, -0.15590939280771465, 0.1418545063909784, 0.36806215914911444, -0.3537133451104475, -0.5773036934345257], [-0.7386284965790819, 0.707130414425132, 0.7239350068620762, 0.9118254775172676, -0.2817807441407989, 0.39159191774351765, 0.3439411460121147, -0.6802114926727898, 0.8760145896477813, -0.3797553519561896, -0.9972413321301996, 0.7117314148782994, 0.04558240157355509, 0.37270791909508927, -0.18114593246504196, 0.6887196498850174, -0.49241372632384217, -0.4426038931721721, 0.26110352805786574, 0.13178662480658354, -0.9394224734123142, -0.7463424271796848, 0.24367478137179033, -0.09019534656674288, 0.2712007070834188, 0.2312987958582704, -0.40649833672587965, 0.8870199849510068, -0.08389350162986786, 0.5894383991602488, -0.11692366787500741, -0.04185017510733369, 0.6035257093338595, -0.9170528035822434, 0.7042071531459766, -0.728248551431466, -0.3118912884618341, 0.5309161414294723, 0.9060383602908302, -0.5219346885030733, -0.2757514133445178, -0.4200547382516644, 0.44782960739638966, -0.30959429923524384, 0.8007940191220582, 0.02330240356553359, 0.6523097241627989, 0.10871854587859264, -0.3672164829065401], [-0.10345487809617193, 0.6823778503037361, -0.4024948761582905, -0.3143505483826099, -0.6343469758244755, 0.3841839850486026, -0.6347143774855026, -0.1282385779222801, -0.6233504257108855, -0.12258392272655305, -0.5894921938758528, 0.0371960769833144, -0.33053708903263335, 0.999313222391524, -0.17671209996590131, -0.0638006551311947, 0.4986491086148228, -0.6828510034783937, -0.9783575590347819, -0.6907945202244432, -0.375274363613052, 0.15415472158802013, 0.4108402306464638, -0.38850415143301764, 0.38339157304083704, -0.6035163273372557, 0.1233427829819842, -0.5006395368607581, 0.7118215797664817, -0.8759639732851974, -0.3833806153742667, 0.7111354242817689, -0.9728449171771474, 0.18490670088662808, 0.23711814273398435, -0.42173848677199244, 0.37747151807851553, -0.1018857644875939, 0.43642708836320265, 0.5449196635758611, -0.30979378423463455, -0.42544922247593986, -0.7319894853784283, 0.09539502803407385, 0.941456347507261, 0.38409291636896414, -0.8613259020196793, -0.8297107008078912, -0.7397502971954644]], "Bias": 0}