{"Weights": [[-0.6316099015095801, -0.04972232028331158, -0.40427711253783605, 0.4676835434051111, -0.783125933012015, 0.3404606472042483, 0.6404249602067359, -0.3994486634962325, -0.0631120839611039, -0.4986101071910932, -0.37089135876340473, 0.19228584956757455, 0.816365791757241, 0.8150712115163116, -0.2550125333060886, 0.6398086445667107, -0.8563244021283964, 0.565397101652971, -0.9225508388157565, 0.28369990420849145, -0.9514419016067501, -0.6256137700885884, -0.7898970428828184, 0.926382911610003, 0.2271565035087852, 0.2796747866347228, 0.7255349169901896, -0.36964237386141535, -0.13733066597458218, -0.11168327160211938, 0.41304273648710893, -0.20572698448833004, -0.4412553137050107, 0.07444096586598033, 0.7654968614610272, -0.9886191135167052, 0.7571156918689423, -0.15536265299023236, -0.20838978604536917, -0.6708006217372551, 0.9552150958310011, 0.0029798853645726714, -0.1630180632145058, 0.6791668638388274, -0.3956588802552151, -0.3471373385334248, -0.025069598456336453, -0.7131569682591876, 0.2849872315075159, 0.20640412369874495, 0.4654912658064408, 0.38983410368829946, 0.03245975595200119, 0.46417436846555177, 0.3672778830140086, 0.2900842907830286, -0.8850343159357368, 0.478439489969181, -0.5846343152933992, -0.6426208068649057, -0.955944087915109, 0.9119738681555848, 0.1003539636591977, 0.9406774412658726, -0.3891340732103697, 0.5221107287492751, 0.4600052403203521, 0.9075530213388495, -0.7104013292254369, 0.7781343853959678, 0.7700086725195517, 0.24620899569113122, -0.6804314468843018, 0.8138450622728332, -0.14244707492659667, 0.04041798717294355, -0.23568496823096516, 0.5358930241909075, -0.7424750328608072, -0.31916886592993704], [-0.418208163687119, -0.9750387797265528, -0.3386360236763176, -0.4278408449610259, 0.42687440773912616, 0.6972341557872459, -0.22322886977073303, -0.01718440234373845, -0.42663501097489437, -0.5618320841750163, -0.7091096175968471, 0.635596211318403, 0.46907879523681256, 0.11894744648652339, 0.8515912195458106, 0.36601546521732176, 0.2154196553778582, -0.932014685861351, -0.225998830492729, -0.46795509633507476, 0.5807928565114685, 0.1731434260717886, -0.16778491165263684, 0.08894487832295285, 0.2103188272908113, 0.02501415356957819, 0.880807064651524, 0.4742723084734335, -0.1528300947041394, -0.05121484436542049, -0.7346104195315539, -0.8301946618044557, 0.5653590221948999, -0.6575309619528934, -0.549774611072953, 0.008841306361254875, 0.2989666265984486, -0.4044855729565506, 0.2557988533830476, -0.33577041105788946, -0.098745663565181, 0.35600720528502344, -0.44806969476004604, 0.9178466768165636, -0.8571581587235504, 0.5015070602895197, -0.43078340977230184, -0.8197253346593983, 0.4797368026394385, -0.5871354503005921, -0.8847969226061825, 0.14624162292518525, -0.8881532456175103, 0.8815043231225608, -0.3359746203166383, -0.49787817769860854, 0.866682692430845, -0.4746232758820697, 0.2467716492533117, -0.584856069714158, 0.15973417525175826, 0.11930374061390196, 0.9469257625976158, -0.202453191189966, -0.1495365451542595, 0.2899494755800162, -0.1647258065614574, 0.7769165689519576, 0.5156130871635063, 0.9479455358614758, 0.8752970677347733, -0.08779064247831875, 0.8933089269203932, 0.7968103375878882, 0.5266150810801459, -0.3829733401853236, 0.6508184736368633, 0.17846890354664274, -0.5300644333479181, -0.9467040849119333], [0.9183808098136317, -0.26767513222947026, -0.023741867725695243, -0.7661748293356537, -0.08890882104586918, 0.3889704054756386, 0.9118097708894763, -0.9835485467245422, -0.92408317085962, -0.9443522556068379, 0.9048588677966647, 0.1358204536397942, 0.8010402297259072, 0.18231062943305829, -0.05206928030174928, 0.8668867088633632, 0.5735462859692299, -0.11183711324793455, 0.7391650121317532, -0.19512093395498856, -0.020102759471170035, 0.7774532018275564, -0.503786509276559, -0.034801018159720865, 0.637298837966114, -0.3700868357673374, -0.0630160336871181, 0.0018043071844030135, -0.9092982237603208, 0.6098162928252422, 0.8776829552629066, -0.14884491283139423, -0.471829426795898, 0.722186218635636, 0.843842134529547, 0.9510858945046976, -0.8466666071081963, -0.8831541419151006, 0.1285366248919739, 0.8690959393570865, -0.6855156408114401, 0.2487543345298459, -1.018595879564787, -0.7619248462981248, 0.23188041599041986, -0.6010109076762974, -0.39445336921432583, 0.534823886532124, 0.2117189106642384, -0.6010402299536577, 0.48662084467434397, -0.35302768701578274, 0.7094681617476823, -0.29220642256174517, 0.16521113696461337, -0.6147955381894985, -0.3736933281024486, 0.6068409670585405, -0.05364267059457518, -0.37273729960325286, 0.7369998090236652, -0.6348579103923768, 0.6040439929337866, 0.6728302719037984, 0.8096311145596399, 0.9533375418906075, -0.3964945046725304, 0.651655758790453, 0.39604743022864775, -0.22470853801282356, -0.03979371718756607, -0.2037771947183116, 0.8384228603011109, -0.35278736819206297, -0.4647689115322948, 0.2985379778386834, -0.5123178153514887, 0.6758868910899173, 0.6583675791307962, -0.7845617255844203], [0.12052333851158514, -0.07574710983436506, -0.4646481988335756, -0.1161984070772996, -0.9627465821872568, -0.4957160905619855, 0.49290673506597443, 0.14560423477192647, -0.27098437759563815, -0.32840828184027915, -0.5832190274850599, 0.4166722544619738, 0.1350184163255439, 0.4461747541943663, -0.879074117919245, -0.1272202792255093, -0.2675628394597414, 0.8168402235028173, 0.77189619776052, 0.19011917934616188, -0.6396998131032375, -0.6675421415043038, -0.033648164430366494, -0.6917882969130574, 0.7404862413884846, 0.8615781670063359, 0.6816943602626971, -0.4457665202612104, 0.2567332662916055, -0.06919710201862868, -0.8795424940351608, -0.48497697528836725, -0.21924680138660038, 0.02977036377437667, 0.4589643062705568, 0.6252725994307559, 0.033613782536744, -0.6690720749619732, -0.42792571538843394, -0.8148845769399532, -0.07153046787753764, 0.35525929230615905, -0.3993200586693787, 0.7906316770288665, 0.2015892894201179, 0.04316545952579553, -0.04645163381305998, -0.30413150039626047, -0.21114100131293112, 0.5599097565757071, -0.6328873586555328, 0.6722190144794302, -0.634138118402885, 0.42520683982072355, 0.061534472192297386, 0.7531214202193348, 0.13137868371381153, -0.4413241370027662, 0.20503503195149192, 0.4133189557686839, 0.06530458572049305, -0.7379461392446931, 0.20759394022924596, -0.3271449941707674, -0.5723115044290679, 0.5695980153421899, -0.547301988469347, 0.8922740996064956, -0.38624594757119174, 0.04111433053058978, 0.6946638525498311, -0.6336091606613429, -0.13636612190886546, 0.766035077496004, 0.9324842346329656, -0.2885726268966754, 0.3285869180729726, -0.3577452847453151, 0.5845289414624939, 0.25718675360634574], [-0.1435339289832364, 0.4000541715623107, 0.4684133562621218, -0.9459109412599066, 0.045432932335026745, -0.22889051756609308, 0.0859115216257645, 0.8107633787070369, 0.3591721505111617, -0.24743065251128085, 0.2702512490155714, -0.30515638695550634, -0.5286904920212623, -0.3564869035572068, 0.807481514064623, -0.11947558321876076, -0.4793420892147565, -0.38733903327325736, -0.43749716057503973, 0.2898250437484826, 0.8026796952485319, -0.8168502288215899, -0.5415055490172694, 0.46088838494041584, -0.0028897980839870186, -0.48537178664869357, 0.5609621073268867, -0.32649001155656093, -0.33965153483794064, 0.3878898258640639, -0.7346034241286159, -0.24193892021498414, -0.14666117878212523, 0.2378771817378223, 0.0073512823499569955, 0.013092893595821286, 0.15931723837535325, -0.606990561845989, -0.95718643020825, 0.42912784006271454, -0.45716341323468007, -0.20799824225719413, 0.514574513529395, -0.3374266186535404, -0.8431316613613326, -0.12074681568428874, -0.42615946734709226, 0.7040004787259743, -0.5041782523154732, 0.21667835815094902, 0.35723988038774523, 0.9257711685178094, -0.30704316650026425, 0.772248693664273, -0.572929195887642, 0.13662884902280076, -0.21813885098108607, 0.24682608370507567, -0.23108321521571268, 0.13742490359919768, 0.7439069054163163, 0.63187889511531, -0.8195704933107089, -0.35475933309522534, -0.24679172740178687, 0.6202706835738447, -0.8673236788460715, -0.7317432892812883, -0.24476972971954583, -0.43085704076061887, 0.5740552556740143, -0.1432883845132833, -0.4431677675501564, 0.8310706900913737, -0.3093893856143634, 0.9063988350840951, -0.8526353939458824, -0.2600633421046048, -0.6452810586126191, 0.006774503133829372], [-0.14392673252328447, -0.28459316305583393, -0.6499831719256105, 0.14456092292674239, -0.8779531702313627, 0.9202906098166683, 0.07562101820708397, -0.11300848866804061, 0.615415678065415, 0.9568835084008861, 0.8213149062068279, 0.2791393969215056, 0.6428790665656529, -0.39124178679345206, 0.6345865440352828, -0.35461338330823866, -0.5901075816461522, 0.8992092404172701, -0.8337500076873828, 0.27717306864551533, -0.8248185670135006, 0.2620883319534571, 0.9593704531993038, -0.9031542362555719, 0.906610655016728, 0.4062501299504558, -0.981056308641879, -0.589401392759022, 0.6330734047064033, -0.14144103165710534, -0.4041120892525332, 0.9505871800082508, 0.8680475932082071, -0.13964825082975993, 0.875566323730864, 0.8264964325875513, -0.7510022983830053, -0.654369362439135, -0.30249437222045955, 0.6773268093407611, 0.595085094462785, 0.3575714064974696, -0.6928555122050356, 0.18996418257612477, 0.3156984326561475, -0.30527961744105353, 0.2876812375428309, -0.16894621023870332, -0.6670231218638215, 0.3338140038941663, -0.619186390757026, 0.12055072652396387, 0.05456711861092173, -0.8547003334319542, 0.397863936362014, 0.0024237064383585078, 0.7622403121743877, 0.6316892961635541, -0.9156972595043283, 0.04970617970398455, -0.7395330993541446, 0.9077642717588461, 0.7961374983206815, -0.4990290622905275, 0.5124628897285457, 0.7529789557664671, 0.23357217671468625, 0.12559126636159954, 0.48118345574155186, -0.23411316020510795, -0.06269426558982252, -0.29574086520906406, -0.4037449126827824, 0.9157385454856741, 0.14971558163374218, 0.12259231874529974, -0.05648573000540876, -0.7596537628481381, -0.07111192066872518, 0.6917674215947266], [0.21836896665910085, -0.6100330767638071, 0.8521654053075252, 0.23633956932081376, 0.8453499014362468, -0.6956921526415288, 0.827192929182935, 0.8542255489004071, 0.5781004130344534, 0.8500772081873446, -0.8694369252931156, -0.19977558519962543, 0.7031988789082821, 0.2025086714709264, -0.001924350134799557, 0.39984510506143867, -0.634847650787088, 0.34732154951342264, 0.514492743161609, -0.7928397917898033, -0.27686370190859144, 0.9544124857288442, -0.662668763383812, 0.6378522535001474, 0.7388151106724129, -0.8687676942521366, -0.7409255203041124, -0.3667995233678554, 0.15347176864716464, -0.940141039490689, -0.2375838153031829, -0.7885913238524964, -0.5608402797012249, -0.7243807273816739, -0.7289252952118633, -0.4040824763848706, 0.5302462252583968, 0.23735122360032848, -0.033438126060454806, 0.3040537107802073, 0.6968789468509599, -0.8971893721778287, -0.6705349254594718, 0.7138752684993154, -0.4930640219450438, -0.9670975998511754, 0.4022999947153545, -0.235651466621291, -0.5312435107502691, 0.5495728099386799, 0.33873705720590486, -0.6779872518483055, 0.567863740609038, -0.1026878024690741, -0.09051156611572833, 0.042464789537562345, 0.2696079495736408, 0.9788430972204853, -0.9128080241710723, -0.39894794612174383, 0.7247763043242488, -0.3083046065461093, -0.9518310083692213, 0.639725216634007, 0.490870690133385, -0.5675287500371331, -0.2640903404999773, 0.03685566242820022, 0.12421772298013815, -0.12962971103919696, 0.9702119377571536, 0.8971321604564935, -0.5054909514287286, 0.9556717979367297, -0.0616236979154826, -0.8894687050719672, 0.18014775391254878, 0.40953171468979593, 0.5175236636742114, 0.3582769027029138], [-0.94984131109938, -0.23617439155294534, -0.08046928226990989, 0.5769851071124796, 0.19687616080671966, 0.1893474053237129, -0.08710073574840309, 0.8321535508283341, -0.1871965134222642, -0.19862273584405235, -0.2882864192730607, -0.3773078213325809, 0.8839538532149118, -0.946074815517047, -0.3464725195957447, 0.5705323988264812, 0.653889169337937, -0.4674047291224774, 0.4268335499855591, -0.10537145528937891, -0.5378425306616215, -0.04724752039202222, -0.9084990059391508, -0.5867047329074695, -0.5859734297884154, 0.1588162003205769, 0.3805272771226286, 0.6417782816993064, -0.266260257278421, -0.6695151103467314, -0.7448970257658113, -0.6594576287713909, 0.023558119321935068, -0.329884321959095, 0.9087492375884835, -0.2725796605482678, 0.34565779665415824, 0.7373297261428127, 0.4311845673087823, 0.90174941901441, -0.9292263668112951, -0.7097656284195897, -0.8625435602408301, -0.012540981397955392, -0.6510299354282549, 0.5646657398804057, -0.41507329839038964, 0.562734881298508, 0.8646601889143012, -0.45313716622580885, 0.4288820524162758, -0.7929555474370897, 0.6865382512547586, -0.2557803167015901, 0.778776458573112, -0.8031324070418202, 0.5300005138820261, 0.1664904681640611, -0.5476504578139099, 0.5088566345114042, 0.7767875909484804, -0.07119752768842323, -0.32652074120769997, 0.2908773008000446, 0.667650720809479, 0.5965061321352667, -0.5377568569299418, 0.16461628755548266, 0.7623205226166828, -0.2537749602289685, 0.1184165954136167, -0.799793233466391, 0.030746085167161975, -0.24193867231995106, 0.13820964407301112, -0.06454680401667749, -0.3280640775408811, 0.4717349969529106, 0.9166051107708396, -0.30789047163711397], [0.8266671407751016, -0.15503219561862072, 0.3737808176010426, -0.9377658173890743, -0.27339175460006127, 0.09619706533461718, -0.10419411541232815, 0.8898328019298175, 0.09410754476509194, 0.8727794119203477, -0.17561841464148703, -0.650333744099584, 0.4791083507335544, -0.07822140720448872, 0.6227720782061443, -0.4298213592436873, -0.12910829733214788, -0.4115134558928583, 0.7709736025912285, -0.8599071740884716, 0.18419703430340598, 0.8834038492533735, -0.5333425455962464, -0.9320220408844165, -0.9122503721521227, 0.638534554311001, -0.45893454416452845, -0.42403921327959293, 0.6404483902445799, -0.5068194914367828, 0.7524617389997327, 0.8954413344414033, -0.4526518371092521, 0.7380139262957977, -0.8464403225248834, -0.8145191332343283, -0.18576973183366208, -0.5530302352967089, -0.297911389782673, 0.24069011080511554, 0.44570190641842283, -0.6543567397433339, 0.23439175622995498, -0.3465434547179073, -0.25868665305073363, -0.06233008759321397, -0.7189627872193466, 0.3383297390968742, -0.7257729985570303, -0.16972083659250445, -0.45128731033499486, -0.04063982025586651, -0.5385003195620108, 0.6549589512942335, -0.3433531720297904, 0.5979065530666273, 0.5961921963461395, 0.30073847491443034, 0.005470805099816884, -0.48554725340584354, -0.5764453917746875, 0.31394342234002687, 0.6795681406926132, -0.3350320806901383, 0.8536140908850709, 0.5015578727617911, 0.236375498828014, -0.47899595711935566, 0.37889587855245616, -0.9381488956569869, -0.6533742358267312, 0.8657535591725372, 0.8996603366976167, 0.8823426419120857, 0.41289671825151714, -0.6086763527094813, -0.37354703105490483, 0.28624100379260053, -0.28292069293997335, -0.3387772108649171], [-0.08556854748107583, -0.5808042853831668, 0.5088445299114774, 0.4362824809451773, -0.9034781620007647, 0.25981801179437225, -0.8076565639437597, 0.4672865705767058, -0.8297616376079875, -0.11402278712078177, 0.008795487735568312, -0.35236642971807663, -0.34776453910945904, -0.588733083046047, -0.5981282807726169, 0.34389792136701036, -0.6041593701899243, 0.7562567468178731, -0.7605991773821983, -0.3865739072161733, 0.49091613599430534, 0.02416247012125849, -0.7953116843567659, 0.7675877412741536, 0.4568105413958721, -0.883125256274421, 0.10668482375760145, -0.009735000814998854, -0.045388911722215576, 0.8844527730527134, 0.7057426280426915, 0.2580422183464757, 0.3664451612494023, -0.8231246733515473, -0.4596177576073057, -0.816720618300836, -0.953614595277046, -0.5583183537308599, -0.5334359078514084, -0.2490368773214229, -0.18743633645197252, 0.8662658105050699, 0.37842502673497624, 0.1788689388143952, -0.6213834852723913, -0.9194838540335334, -0.6560102104328872, 0.4203167652594127, 0.7372703922443744, 0.45094927509080845, -0.9037306800290945, 0.12020265475686524, 0.3154836668173676, 0.8485873969018874, 0.32243826726715424, -0.219885179271931, 0.055905737901630836, 0.8696854432506683, 0.4307248902050278, -0.1551603938544667, -0.23857821458011486, -0.20401278067814232, -0.14732787450845508, -0.5945524668562946, 0.18166531087791338, 0.8865922191491846, 0.807532267962161, -0.07787006200695464, -0.037576873915751034, -0.5582577924721382, -0.9346130196769312, -0.3971040882146247, -0.6366195032718256, -0.3854271660885069, 0.4483991969885076, -0.79155774704184, 0.9247197056002734, 0.8668945568260821, -0.7150640576930242, -0.8243264352913062]], "Bias": -0.09129770756935306}