[[3.9227379242862637, 7.998349564222936, 9.308114682151466, 1.4580142728546555, -6.991982869361534, -2.5123360439062994, -5.59974475755416, -3.7129326720543, 5.398092783650796, -10.030791596688001, -7.7535071110286236, 3.0672733095731393, 6.166884387990606, -0.6319535322787839, -0.9763329060812356, -2.4671984645282174, 0.7877752313216146, -9.771541075166818, -4.507682707854448, 6.09746749457926, -1.071140568013633, -5.613159488112672, 1.5040487944000445, -4.652017828869281, -2.0985927757268246, -1.0185143964039396, -6.683547899250925, -2.88741918353111, 8.285970112319252, 8.042310801265014, 4.272457121981863, 8.604353318094152, -5.6756321746689915, -0.32297376276384954, -5.632858147890373, 3.2310045507694727, -4.450231197124074, -5.274243549622487, -9.561349240565693, 8.953971886548903, -7.224620891719475, -8.102243029505539, 7.687736326354231, 0.5028073384707772, 1.7813600018671607, 9.956865328220765, -2.994724062589243, -8.005737535465034, -0.5263124291297094, -7.171908645695155, 6.815679180427488, 9.421855506600416, -1.1235143425927816, 5.547390800376654, 2.503573827719659, -2.5512450237219118, 5.984051449856992, -1.4060478140908939, 7.734549802177495, 3.809759371500333, 4.751982548, 6.3678391507700285, -8.98642810672993, -4.288896200116946, 2.9978714073456088, 7.007945294984999, 3.8088551957594436, 0.2544126104897556, -8.005432195843678, 4.5360620788651795, -5.122548928684281, -1.639273381446061, 3.214145951135928, -8.585704577026291, -0.9820724593283138, -9.9844377753893, 4.666888200023846, 5.42769160812], [8.740131168859065, 1.3986928172166158, 4.105830620355362, -1.1482663387451635, 8.816362581617259, 0.5413466693622642, -2.1012113730605195, 2.01904406063651, -0.28599012880534935, -0.9324542230653674, -6.603050480443724, 8.675117064142416, 2.826856465159591, 4.173325423617561, 1.3060041302269376, 7.5118822578478985, 2.253109728229146, 5.819494346655883, 1.8094482394859719, 2.4372321776505173, 9.418404309162154, -5.911100741425822, -8.991789020717475, 6.074038531838488, -0.5724047800540437, -8.377306094340884, -4.338940119527749, -9.715708519661433, -10.138017744229199, 6.070779671423183, 7.990318780441548, -4.142419383301228, 2.2080914508370917, 2.0865183174702917, -6.529711240854334, 3.3082692733038317, -8.16430197498634, 9.455634726099223, 5.508695167424461, 0.4696358683799961, -1.8083239281382237, 6.996992454127621, -8.124923319005603, 5.314387029044713, 5.714542788164872, -0.24327958344906314, -10.895604363521896, -5.139729137548802, 9.27768136532911, -9.827825193386126, -8.368884438771444, -1.2451486091945896, 8.873268100283394, 4.225987317902937, 0.23585993526688875, -5.962871374083056, 0.3676983709663088, 4.425575350496702, 8.797513137294485, -1.7420178635993075, -6.23298789851674, -3.7301483517617258, 0.9485050297384784, 0.06741062555097832, 3.8904605480302146, 2.989932516769614, 8.344224224916267, 8.382249412797348, -0.4097623222810997, -7.5465457180411235, 4.338414569993676, 0.3088342027517102, 2.478586227194884, 0.3316787230012621, 7.145029716108733, -9.682251887003911, -0.503977369792241, -0.42115257940017237], [1.9108704840643191, -3.3725488175982585, 8.023505843792538, -3.789701915298252, 8.176418864798134, 7.3719824340364575, 6.119802445668734, -9.457397114933794, -2.342190027990055, 6.349152678858892, -8.659485718659722, 0.41939001535798553, -9.8670003347839, 2.940562895951979, 7.444121138916193, -8.37114614732842, -8.375591546966712, 8.493827138208495, -2.6785905910960666, 6.603240522615762, -0.3486810736688923, 6.999174216558052, 8.859116674614059, 1.2897450101959964, -9.419711551457175, -0.3637448521817711, 7.519603858711026, 0.10905151675301718, 4.034503796113204, -0.17518258395215824, 0.5008044328080692, -8.09118268479755, -9.553196836968842, -6.396466847532287, 4.649788662107052, -7.012118521656534, -4.3593562439972375, -3.8596247829400143, 1.510484222405238, -7.158806004162461, 7.061885332043611, -7.981180992538701, -9.690928269181006, -8.322337310136682, -3.412790018111064, 1.5729686092705206, -10.242512825405177, -6.780815384304006, 7.245086989437529, 0.7891686298640402, -1.8308596931956203, -8.016461875536258, -0.8841331953550151, -3.1267123030988624, -10.936871693771133, -5.966939076579053, 9.341154677477965, 8.373751102082116, -6.545351612843171, -4.427577570310369, 4.642047690668034, -5.401346055146296, 5.357353763973251, -2.9977189055910745, 1.429490946916204, 0.1973324142919925, 8.392529850137095, -2.4891841837606745, -4.29998422799368, 4.163493252738715, -1.2958495450812342, -1.4073631354003735, -6.195361733418449, 1.9710589727268955, -1.406313706583335, 3.520255263989292, 7.507493568594855, -2.879712397507288], [-8.44509472885626, -9.133359433473098, 3.1347749784687324, -7.362061376910779, 8.395570288716801, 5.038219122022177, -8.147503039479371, -2.5187376649734294, 7.282137591363679, 9.913006100398633, 3.817280013972153, -9.718640083047504, -2.4096638508574078, -0.8546592254084544, 9.44986473217568, -8.647587609573236, 6.741370232458617, -6.97046243779097, -10.96952121402508, 1.350926076521388, 3.733647479410271, -4.2248840734910775, -1.064619483344661, 4.517916582260439, -4.991199809108069, 8.58911874894221, 4.437982193682757, 9.335065939921549, -0.5778710012958218, 8.584210428504726, -8.133418392683359, -10.471102580467646, 7.486387516993786, 1.943349776619037, 8.36640974258205, -8.34835417110287, 1.8494549233533764, 1.0596941116017344, 9.740212897135905, 6.852888608707639, -0.8521953118379296, -5.050665620715095, 4.667632626212421, -0.7061188241466843, 4.8137512820414186, -5.3728968846216585, -0.292125759333044, -5.709881029577737, -2.758253065442298, 5.032944174484513, 9.459778035910373, 6.289481848431836, -4.525057243534564, 7.0438318615884175, 8.565681213239529, 7.410498302876325, 1.6553752529745642, -7.79553537640472, -7.312008304986369, -5.489441519139119, 6.827320836300901, 0.3929363748163267, 6.6976696233549236, -2.230475931265146, -5.822096057265212, 0.9486845445038324, -2.4388286515645077, -2.9667752233172795, -3.907278230255725, 3.3442916810453354, 4.929936040205151, -1.6642978036692126, 6.787858821386271, 6.542119684148235, 5.242615368431732, -9.513338808287472, 4.07965549352976, 2.4766051972928507], [-10.424478707765477, -2.0580082346663198, 3.6653663647309753, -4.126416500423276, -5.924188169202485, -4.468067475551394, -7.437624662914459, 9.192862719944317, 4.887791986177144, 4.19616818584301, 6.636287650139098, -2.607606973882936, 7.229308811059763, -9.236910535298392, -5.430810429114934, -0.11895243978610656, 6.029919428280508, 2.4588536152962925, -6.959251906015596, 2.5047280309471143, -4.2551037010334785, -0.15250708350328235, -9.550204413076003, -7.043931562563074, 8.586529216796977, -1.8848744532806083, 2.87365157068247, -5.1790132702114065, 9.898399001933244, -7.774169946432647, -7.470057145052703, -2.1981303745684104, 6.224669884312529, -7.564083161975249, 6.719606627460089, 0.6834713432525762, -3.5274312982032905, 5.237321930636038, -8.443413452236944, -5.863255880120031, -9.104115312207488, 0.9711751985751103, -2.6289486481807445, 5.910841870923051, 8.954057863153636, 1.9970731558123187, -2.587811441204403, -2.72269427876324, -0.3116912103067009, -8.73273676811971, 3.612037943778385, -7.392351179356161, 0.3697260721740624, 7.845955687120679, 3.6064238993889175, -9.330668002210322, -1.2100181121932674, -2.9448148372807452, 4.7864400209937585, 4.863709831969016, -4.555804126304802, 3.7919540164201173, 5.062344361281795, 7.83706760730002, -4.501073786972691, -0.7648497205911065, 3.0455807982225047, -3.378864799014244, -7.651575513124383, 7.593826693065304, -0.16334554854965844, -6.258324134426165, -0.5419977236392528, 7.99057939624659, -10.683588841775284, -3.672961864258159, -9.414855702533362, -0.4172836120985481], [2.3071184821155097, -1.731543283872033, -5.1692139073349015, -7.2303432415854925, 2.2829112042556376, 5.189905242218889, -0.9526964037128843, -4.662254500840205, -2.2470435015525383, 8.402467009654448, 3.8020875713680384, -7.517800895786338, 3.411092451872443, -10.495821928933587, 5.627891293780705, 5.941303741929934, 8.173120511122844, -3.9848093360952, 7.6504356374879645, 1.872305760912974, 8.909090318506305, 4.35392384175787, -3.405879032179005, 3.9552012157475853, 0.1699657647061533, -8.249438402874192, 2.2685465545453067, -2.072103502856364, -7.385407064356667, 6.122996422330224, -2.9590591959117103, -1.9707115448709862, -2.1824366277673937, -9.539895356094554, -8.06439526412644, -8.37016981382284, 2.829965843657243, 3.812081003907966, 7.0607841701336085, 7.744329853349535, -1.474678555705604, 6.659064205462438, -3.283677866991962, 4.103541890281873, -0.7563346561880399, -7.802854257711175, -8.99200960502767, -4.491638560306667, 6.561236013944957, -6.064210961182132, -4.461087710174876, 9.322510744316066, 2.4509891342987835, -9.559183875247937, 4.905462599494248, -3.5018954005026544, 3.712915815913643, 5.966649989761123, -4.564798767448362, 4.784714359002409, 2.216869152820482, -2.236459961691927, -9.53129203742791, 1.9120436817787816, 2.8411611873383196, -0.8085846482678328, -7.410905942708029, -6.762150547874176, 2.201438055304964, -6.534331302678923, -3.027759719152796, -6.896858106368421, 5.939519868198456, -4.9758156455838, 9.597742691630051, 3.208806675513829, -4.347327902284279, 2.875070251753721], [-9.725553974587854, 3.332731721290457, -3.435711444950077, -7.397753546825323, -3.0384388370023845, -6.795156367565234, -2.246351312480127, -9.378644262669109, 7.241346355255212, -3.0667479013026697, 4.450473500989302, 0.13535614617270086, -9.739009733040403, 8.928110593421236, -0.3990347090327724, 7.625610469512315, -10.272694107309414, 2.7236271641076395, 8.312044032154606, -7.365403463585942, -1.827877721325933, 1.323812619500339, -8.17926488026121, 8.824005479229706, 3.629071913857921, 1.1577257037446658, 2.2628321432666523, -1.3328740097592024, -0.7004184691340951, -9.89457404440762, 8.326139861024345, 7.536070776534012, 3.411608064152696, 6.894363607987123, -4.038988587784332, -6.069232659237604, -1.003527424323878, -4.638500687305798, -9.005868899825115, 3.7717306879619024, -8.078003661332799, -4.388848180731325, 1.364505477086529, 4.688729138402509, -1.3743044216075937, -3.6712431122816818, -10.13111407642607, -6.211156255585425, -4.362761022279268, 9.447862607073345, -4.109851343974831, -9.275986998096709, -8.873493603446075, -7.16562319593314, -4.587261880884659, -2.0012436760611956, -4.053016488580609, 0.2279902867331803, 8.861274850952375, -0.24683828566427712, -8.23608315955053, -0.24590221567070067, -0.023359033594298088, -6.9150140495552925, -3.1373381061519914, 3.8631982392769535, -4.2462781910849845, -9.954351267738842, -6.357846127899586, 1.7975956043322772, -2.1843747386029424, -3.4118296720779466, 0.23437043269244723, -8.60607461839158, -0.435122940107282, -0.9789796537321348, 7.3730773685252595, 2.2726481928557005], [5.2186517142684465, -10.107230889472532, -2.1063929500441496, 0.6090073578827221, -9.815907479657554, -1.7559551175085635, -5.926050627044496, -4.215174909790847, 5.5656885969758205, -4.435163687170191, -8.189195554613685, 3.379426827548995, -6.175729835117527, -2.3515250279571758, -3.4043795092807256, -9.184952122092765, -8.621220960060482, -3.730121843838038, -4.0711907288938, 0.8333698292630692, 6.014801030248764, 2.358248485863365, 2.1870267981710025, -2.086920325500243, -2.7911692483939956, -8.921370836942586, 4.525302833468723, 8.02144060580661, 5.82345671199625, -6.015624758458044, 1.243710137891063, -5.830911583609681, 9.125239020315375, 5.412454869006955, -3.5584048333265015, -5.761053511967435, -8.092378110086603, 7.231844403249761, 2.552774064977432, -4.929948137779001, 0.893046022082635, 2.232047091267377, -8.68044201707212, -6.819620029630865, -5.48554649449243, 1.9781548302979939, 6.418411284772989, -6.41767195037022, 3.43614018614726, 3.4471374626447644, 2.9733511915897415, 6.022014017255733, -9.674411192644833, 5.9839077278265655, -7.188679772981977, 6.730935318005864, -4.1331593117056595, 8.933143422396823, 1.624446128789002, 8.84894762527509, 5.576486966934289, 1.9912431899230223, -9.743388950469287, 6.268236409250209, -0.340930336178505, -8.254687646642344, -7.61870813023015, 8.126772630048453, 8.755454436680814, 1.195753275531336, -3.9445077471438865, 3.35538270918253, 0.10455636223996895, -9.874769674322735, -6.446216252165153, -3.090944008269529, 6.030961403200801, -3.293213179293803], [-4.698619645108599, -2.316692353487062, 2.8060953325545865, -8.706847549659855, -1.3286680642899282, 1.1768948983101655, 2.1551841300042693, -3.067441450003137, -2.1203868126552097, 5.082803295061519, -7.997218375493461, 1.1243436436442351, 6.847812882788006, 4.5901845099903085, -6.031488767505976, -0.6544563046100373, 6.214752473027853, 6.678424124104195, 8.239921692401717, 6.460185178030719, 6.70890351476269, -7.656607385210735, -2.5236058687505745, 6.233174515686696, 5.734140123049994, -8.226366444129493, 7.935146578654102, 6.483288567892256, -3.236593807694744, -6.16320783203083, -9.587385102668033, 5.490709428535534, -6.16107520203724, 7.8626030657508, 2.364309259647038, 9.602552805669262, 2.03971419188779, -3.4539286386565555, -3.7907228228841063, -6.719853255833639, 5.320528655479406, 7.2650186622390525, -2.8813769833169545, 7.05107346741281, 1.6676549738184363, -9.302499855026563, -7.333669879599176, -4.9910968466477685, 3.9789591495998953, 7.988269748078787, 5.386239344414183, -3.1385257202837114, 6.7667812813015775, 4.145382340778147, -5.379486511588345, 8.178840504509463, 7.023011429878629, -3.2465275758608225, -9.146331440344776, 2.1223955648921358, 7.128866369255321, 8.891358550240955, -2.536860902021528, -4.977600661011114, -10.656604014412732, 3.715382784899661, -9.63878288951532, -7.549664198300234, -0.7513575481693955, -5.197259492789788, -0.8047313523055412, 7.816369170257757, -7.213920210332086, 8.30244232598763, -8.94440154785488, -1.5228659362052173, -1.819040665707385, 7.098631218442717], [-3.294742354050974, 2.9863509553737364, 5.183200030103056, 9.477558384104444, -4.478829875458988, -10.736976961492777, 1.8396323846460558, -1.2212449375637437, -5.690447818033131, -4.912009336033291, 5.91074325287868, -8.177546576793022, 2.7150877816622874, 7.401546265166583, 6.25786720228775, -1.7231442462063766, -9.33485299380891, -9.88970454968543, -5.363608375330286, -4.727328862634189, 4.834374364552603, 5.488411209687838, -0.05133113926917303, -1.9506584279069408, -6.966752770556743, 1.208887299503208, -9.661568247207118, -6.817037478693316, -10.780590686363494, 8.570613586376957, 6.762280762659995, -4.135583385755501, -8.795673522778383, -9.58707262030611, -3.7689327017288616, -5.196514959062895, 8.274533489083188, 5.841036781883824, 0.6109345369508707, 6.273778188337686, 7.266969470796125, 9.021852407078574, 4.3852219949749, 6.7334203883457935, -8.295159305336917, 1.5881855823297228, -8.37224579353895, -4.68479779949673, 5.036206596837977, -9.147521351232347, -7.51281355468768, -2.4083907491277334, 6.361345372612394, -6.70739846970415, 6.611400435751989, 5.821023870821147, 3.9403820221323165, 6.478516435820628, -2.623881023668575, -4.765542282263499, -7.216182942296455, -5.125810119500434, -0.8295338749755968, 8.647502422635059, 0.9379623882753916, -0.6813367323818516, -0.2464073149343268, -2.6401589775629986, -7.79102557436059, 2.898566263172982, 7.436235800109984, -0.47672161435290467, 9.892706554808889, -8.845287078289402, 4.680337616989483, -9.382520715366953, -2.1633903864534605, 6.635852450909051]]